   -0.154599979287979115E-01   -0.150722726396331836E+02    0.645271284232509013E+00    0.151190303860718034E+01    0.878539659289669962E-02    0.184816265001810187E+01   -0.162023762690647177E+01   -0.140043352594283771E+00   -0.535444183449475819E+01   -0.205837198144306649E+00   -0.354847326800458995E-01   -0.341372849154015667E+00    0.696710772730000372E-01   -0.108534402836439980E+01   -0.736707564753541874E+03
   -0.154599979287979115E-01   -0.150722726396331836E+02    0.645271284232509013E+00    0.151190303860718034E+01    0.878539659289669962E-02    0.184816265001810187E+01   -0.162023762690647177E+01   -0.140043352594283771E+00   -0.535444183449475819E+01   -0.205837198144306649E+00   -0.354847326800458995E-01   -0.341372849154015667E+00    0.696710772730000372E-01   -0.108534402836439980E+01   -0.736707564753541874E+03
   -0.133935364810032348E-01   -0.151389664472603993E+02    0.648958113988578278E+00    0.148701162822521504E+01    0.895727722717759405E-02    0.184864983705019803E+01   -0.159151581809669529E+01   -0.140372125774814227E+00   -0.545185719138162561E+01   -0.209464631731332895E+00   -0.736348669423432245E-01   -0.265965810511568757E+00    0.560221004944646828E-01   -0.108533320367567931E+01   -0.736631123071437628E+03
   -0.133935364810032348E-01   -0.151389664472603993E+02    0.648958113988578278E+00    0.148701162822521504E+01    0.895727722717759405E-02    0.184864983705019803E+01   -0.159151581809669529E+01   -0.140372125774814227E+00   -0.545185719138162561E+01   -0.209464631731332895E+00   -0.736348669423432245E-01   -0.265965810511568757E+00    0.560221004944646828E-01   -0.108533320367567931E+01   -0.736631123071437628E+03
   -0.146704081700231130E-01   -0.151303753921909276E+02    0.647537134339353893E+00    0.143680570795791995E+01    0.900966866688596678E-02    0.185126619800116821E+01   -0.161083894970835284E+01   -0.139724128924946650E+00   -0.534863002273269572E+01   -0.207594562340658234E+00   -0.508556782168003152E-01   -0.186916026435732213E+00    0.331423545249608792E-01   -0.108195660517998782E+01   -0.736608365280250496E+03
   -0.146704081700231130E-01   -0.151303753921909276E+02    0.647537134339353893E+00    0.143680570795791995E+01    0.900966866688596678E-02    0.185126619800116821E+01   -0.161083894970835284E+01   -0.139724128924946650E+00   -0.534863002273269572E+01   -0.207594562340658234E+00   -0.508556782168003152E-01   -0.186916026435732213E+00    0.331423545249608792E-01   -0.108195660517998782E+01   -0.736608365280250496E+03
   -0.148581633920288683E-01   -0.150891933543645287E+02    0.641685662941121615E+00    0.146583110768796643E+01    0.882217960354615867E-02    0.184837458906236352E+01   -0.160157798232044879E+01   -0.140246922284060049E+00   -0.534461374519694399E+01   -0.204225137978880228E+00   -0.481979633578454442E-01   -0.255413391152301938E+00    0.594073264418582825E-01   -0.108437203769374868E+01   -0.736607768520406921E+03
   -0.148581633920288683E-01   -0.150891933543645287E+02    0.641685662941121615E+00    0.146583110768796643E+01    0.882217960354615867E-02    0.184837458906236352E+01   -0.160157798232044879E+01   -0.140246922284060049E+00   -0.534461374519694399E+01   -0.204225137978880228E+00   -0.481979633578454442E-01   -0.255413391152301938E+00    0.594073264418582825E-01   -0.108437203769374868E+01   -0.736607768520406921E+03
   -0.140826841569467089E-01   -0.151013343553281185E+02    0.647987373494786967E+00    0.148870514576041568E+01    0.903295642527716935E-02    0.185174015091701882E+01   -0.171625098304450052E+01   -0.141137292739342279E+00   -0.550333924527064511E+01   -0.201891456447895357E+00   -0.756487041761064599E-01   -0.261730938974009897E+00    0.200532188075901660E-01   -0.108121778343810604E+01   -0.736604967401800309E+03
   -0.140826841569467089E-01   -0.151013343553281185E+02    0.647987373494786967E+00    0.148870514576041568E+01    0.903295642527716935E-02    0.185174015091701882E+01   -0.171625098304450052E+01   -0.141137292739342279E+00   -0.550333924527064511E+01   -0.201891456447895357E+00   -0.756487041761064599E-01   -0.261730938974009897E+00    0.200532188075901660E-01   -0.108121778343810604E+01   -0.736604967401800309E+03
   -0.152556582023457305E-01   -0.150939727438825066E+02    0.646805301224614881E+00    0.148475349464498207E+01    0.901708511138677761E-02    0.184935251667899969E+01   -0.164720219366302101E+01   -0.140646949286638845E+00   -0.545938374143909400E+01   -0.206914324485670403E+00   -0.673814158288890269E-01   -0.262818888466767764E+00    0.751438388287538339E-01   -0.108010352548807886E+01   -0.736604897833637551E+03
   -0.152556582023457305E-01   -0.150939727438825066E+02    0.646805301224614881E+00    0.148475349464498207E+01    0.901708511138677761E-02    0.184935251667899969E+01   -0.164720219366302101E+01   -0.140646949286638845E+00   -0.545938374143909400E+01   -0.206914324485670403E+00   -0.673814158288890269E-01   -0.262818888466767764E+00    0.751438388287538339E-01   -0.108010352548807886E+01   -0.736604897833637551E+03
   -0.154463421859195368E-01   -0.151073136091937226E+02    0.645811703780912238E+00    0.144424545997228138E+01    0.895442631359704040E-02    0.185077425464737333E+01   -0.160515673903408862E+01   -0.140980662897221665E+00   -0.531777903423514697E+01   -0.205030948323722345E+00   -0.471223917584094598E-01   -0.248427117392754082E+00    0.580964068478277765E-01   -0.108438552682761014E+01   -0.736602779055189217E+03
   -0.143048973998852347E-01   -0.151243356653127332E+02    0.644314872183345377E+00    0.145073453373895278E+01    0.890043970347820755E-02    0.184869898759427365E+01   -0.157382089198926045E+01   -0.141088943902215103E+00   -0.546948832506914950E+01   -0.204553660890214373E+00   -0.635351839663249457E-01   -0.132515791255333221E+00    0.748677521871472795E-01   -0.108166068563173035E+01   -0.736602290639740090E+03
   -0.143048973998852347E-01   -0.151243356653127332E+02    0.644314872183345377E+00    0.145073453373895278E+01    0.890043970347820755E-02    0.184869898759427365E+01   -0.157382089198926045E+01   -0.141088943902215103E+00   -0.546948832506914950E+01   -0.204553660890214373E+00   -0.635351839663249457E-01   -0.132515791255333221E+00    0.748677521871472795E-01   -0.108166068563173035E+01   -0.736602290639740090E+03
   -0.149831805194056613E-01   -0.150767838556520388E+02    0.644859000422964734E+00    0.148620076756248465E+01    0.903093132226526034E-02    0.185132407361894535E+01   -0.160785548330178396E+01   -0.140140764917212224E+00   -0.536204707189160423E+01   -0.209465942069300526E+00   -0.718377972490461397E-01   -0.221987422319017913E+00    0.796064342889950538E-01   -0.108338952473748429E+01   -0.736599323943062473E+03
   -0.149831805194056613E-01   -0.150767838556520388E+02    0.644859000422964734E+00    0.148620076756248465E+01    0.903093132226526034E-02    0.185132407361894535E+01   -0.160785548330178396E+01   -0.140140764917212224E+00   -0.536204707189160423E+01   -0.209465942069300526E+00   -0.718377972490461397E-01   -0.221987422319017913E+00    0.796064342889950538E-01   -0.108338952473748429E+01   -0.736599323943062473E+03
   -0.159838442431201495E-01   -0.150731307507532293E+02    0.646046805168357441E+00    0.142402533325391989E+01    0.895910931925755598E-02    0.184890767634413877E+01   -0.160125470424392491E+01   -0.140524017271212498E+00   -0.537682522703468546E+01   -0.205550904212098179E+00   -0.637092086031564725E-01   -0.244883618656478730E+00    0.444307730388072419E-01   -0.108307881350719115E+01   -0.736596735125901091E+03
   -0.167661281008284514E-01   -0.151258300004234272E+02    0.643708173325973965E+00    0.143489021169186071E+01    0.902677566194562755E-02    0.184922330156886883E+01   -0.156314548876506287E+01   -0.139918501341889101E+00   -0.539578870052431192E+01   -0.206707681958469142E+00   -0.844835105677064352E-01   -0.328067767550579426E+00    0.538772121173220903E-01   -0.108113416597064527E+01   -0.736596690729382658E+03
   -0.167661281008284514E-01   -0.151258300004234272E+02    0.643708173325973965E+00    0.143489021169186071E+01    0.902677566194562755E-02    0.184922330156886883E+01   -0.156314548876506287E+01   -0.139918501341889101E+00   -0.539578870052431192E+01   -0.206707681958469142E+00   -0.844835105677064352E-01   -0.328067767550579426E+00    0.538772121173220903E-01   -0.108113416597064527E+01   -0.736596690729382658E+03
   -0.152661165741177149E-01   -0.150810534070340232E+02    0.647764581382496041E+00    0.144318947917648877E+01    0.888178532077644502E-02    0.184837609309860018E+01   -0.164058758001995919E+01   -0.139777530274601713E+00   -0.532870392952432326E+01   -0.205509562235559801E+00   -0.518224637286485296E-01   -0.216765496751391312E+00    0.618555617328111831E-01   -0.108521034737896782E+01   -0.736595998046509521E+03
   -0.153079500282566512E-01   -0.150644138145973976E+02    0.645943699226633528E+00    0.143594052456174137E+01    0.894443789196935034E-02    0.184847977508416350E+01   -0.152405739451910538E+01   -0.139864437281265935E+00   -0.546081139540389771E+01   -0.206642223037080158E+00   -0.656050975285506627E-01   -0.246457922875972096E+00    0.434113328777702978E-01   -0.107863583074038116E+01   -0.736595141758868294E+03
   -0.147281256933653407E-01   -0.150468983836293404E+02    0.647891916469645390E+00    0.147279243865082909E+01    0.894604133609733752E-02    0.185012934997049250E+01   -0.163862010928318069E+01   -0.140685132222895332E+00   -0.531547887139470543E+01   -0.208075003160828859E+00   -0.658692196668447111E-01   -0.232163391006619368E+00    0.631899154665972185E-01   -0.107756392559714476E+01   -0.736593449333085346E+03
   -0.154338368328725412E-01   -0.150729598969154797E+02    0.645926512688721255E+00    0.146272170530796486E+01    0.909236329312134058E-02    0.184957553300225630E+01   -0.158466748474129027E+01   -0.140527959251765450E+00   -0.548430736636612615E+01   -0.207844677321589483E+00   -0.614340584368210652E-01   -0.231916310552116867E+00    0.714793800689624975E-01   -0.108318046976122595E+01   -0.736590771394738908E+03
   -0.154338368328725412E-01   -0.150729598969154797E+02    0.645926512688721255E+00    0.146272170530796486E+01    0.909236329312134058E-02    0.184957553300225630E+01   -0.158466748474129027E+01   -0.140527959251765450E+00   -0.548430736636612615E+01   -0.207844677321589483E+00   -0.614340584368210652E-01   -0.231916310552116867E+00    0.714793800689624975E-01   -0.108318046976122595E+01   -0.736590771394738908E+03
   -0.166469327601464732E-01   -0.150865805095625234E+02    0.645121450204389491E+00    0.145314968954345480E+01    0.893676746657565135E-02    0.184948886021819248E+01   -0.160081474210803809E+01   -0.140334566837348712E+00   -0.544626619010194002E+01   -0.210854334914136243E+00   -0.664268160162551774E-01   -0.253969616656196828E+00    0.818662796066853132E-01   -0.108140719331024604E+01   -0.736590540059038972E+03
   -0.166469327601464732E-01   -0.150865805095625234E+02    0.645121450204389491E+00    0.145314968954345480E+01    0.893676746657565135E-02    0.184948886021819248E+01   -0.160081474210803809E+01   -0.140334566837348712E+00   -0.544626619010194002E+01   -0.210854334914136243E+00   -0.664268160162551774E-01   -0.253969616656196828E+00    0.818662796066853132E-01   -0.108140719331024604E+01   -0.736590540059038972E+03
   -0.154194878733401475E-01   -0.150998725981791839E+02    0.645141401249644475E+00    0.143973983852481169E+01    0.892631747704868660E-02    0.184944922198911654E+01   -0.159772517869743091E+01   -0.140252036741891656E+00   -0.538161833050048077E+01   -0.208928251658625691E+00   -0.603166433230001853E-01   -0.233870776722603285E+00    0.533697594630271263E-01   -0.107838412414658280E+01   -0.736587702294439964E+03
   -0.161697276759836632E-01   -0.150500648547007820E+02    0.645352309668886237E+00    0.144909268835367211E+01    0.878442790341312126E-02    0.185179446185538699E+01   -0.154503252098575339E+01   -0.140797362828364359E+00   -0.537138195458913614E+01   -0.208088263164329657E+00   -0.622527017533197821E-01   -0.231710625725886493E+00    0.566450746356302187E-01   -0.107883759242421839E+01   -0.736585972778899873E+03
   -0.161697276759836632E-01   -0.150500648547007820E+02    0.645352309668886237E+00    0.144909268835367211E+01    0.878442790341312126E-02    0.185179446185538699E+01   -0.154503252098575339E+01   -0.140797362828364359E+00   -0.537138195458913614E+01   -0.208088263164329657E+00   -0.622527017533197821E-01   -0.231710625725886493E+00    0.566450746356302187E-01   -0.107883759242421839E+01   -0.736585972778899873E+03
   -0.158295976049855520E-01   -0.151239851556399874E+02    0.644094728251531023E+00    0.145472723858308317E+01    0.916526703601681231E-02    0.185074381236396746E+01   -0.163036348182180046E+01   -0.140201157332109361E+00   -0.530077007085276009E+01   -0.207428265153377756E+00   -0.474750583212748406E-01   -0.222951492323935296E+00    0.567993066560710455E-01   -0.108554943655722957E+01   -0.736585763253772825E+03
   -0.156529305054167109E-01   -0.151072270447352679E+02    0.645274144285306717E+00    0.144403000327350228E+01    0.904742372601767542E-02    0.184940351399743363E+01   -0.162308893531333021E+01   -0.140843872195140080E+00   -0.547121218026945044E+01   -0.205420210737585957E+00   -0.551475873133380340E-01   -0.173093296162693699E+00    0.657950645552471958E-01   -0.108276158902522135E+01   -0.736584853266029199E+03
   -0.147382957577378224E-01   -0.150859774693142992E+02    0.645433077190847193E+00    0.146504146890431053E+01    0.901979051176773558E-02    0.185229595137782432E+01   -0.158953749569323577E+01   -0.140182595819900335E+00   -0.531495600714377581E+01   -0.204079623336652693E+00   -0.503752319315941902E-01   -0.164284119655425054E+00    0.504403066539264588E-01   -0.107865130202012449E+01   -0.736582316415445234E+03
   -0.154678353382484597E-01   -0.150680485823287338E+02    0.645001704776062446E+00    0.144477354298117899E+01    0.896249550066569901E-02    0.184838687140040436E+01   -0.152763701468673219E+01   -0.140088199840386646E+00   -0.533742607857257489E+01   -0.206318037296541718E+00   -0.647171069445564850E-01   -0.279022683376141112E+00    0.379549558520416788E-01   -0.108073650931613408E+01   -0.736581950574683674E+03
   -0.154678353382484597E-01   -0.150680485823287338E+02    0.645001704776062446E+00    0.144477354298117899E+01    0.896249550066569901E-02    0.184838687140040436E+01   -0.152763701468673219E+01   -0.140088199840386646E+00   -0.533742607857257489E+01   -0.206318037296541718E+00   -0.647171069445564850E-01   -0.279022683376141112E+00    0.379549558520416788E-01   -0.108073650931613408E+01   -0.736581950574683674E+03
   -0.156356071003451620E-01   -0.150796051785351093E+02    0.646679333766295161E+00    0.147304403167546916E+01    0.884169517994726727E-02    0.185018070619613684E+01   -0.157548057377639239E+01   -0.139971468666547805E+00   -0.542049039645326935E+01   -0.206145583239991936E+00   -0.733917671025081653E-01   -0.260967856360975747E+00    0.567782996475305404E-01   -0.108224557618572681E+01   -0.736581852492972189E+03
   -0.142653239084684080E-01   -0.150814450860563749E+02    0.645532167808283819E+00    0.148577709939745795E+01    0.881970235055057339E-02    0.184740398141078921E+01   -0.147213264836898028E+01   -0.140759927024079134E+00   -0.535937003871270079E+01   -0.206134808165023165E+00   -0.694709777032045950E-01   -0.189458437923507361E+00    0.664452020138935062E-01   -0.108041303889870011E+01   -0.736581079553492032E+03
   -0.166070311606740205E-01   -0.150650523967399081E+02    0.645732737297842863E+00    0.146814379926614924E+01    0.902971979967163649E-02    0.185014116507641724E+01   -0.150359732231263310E+01   -0.140598228709625739E+00   -0.537995292157684624E+01   -0.208296370655568552E+00   -0.718116118985712565E-01   -0.284993287796711514E+00    0.687216867282488125E-01   -0.107889733135143673E+01   -0.736579859951895173E+03
   -0.160481077208380479E-01   -0.150898529388917790E+02    0.643585746937366365E+00    0.144108873955575678E+01    0.892486892399039708E-02    0.185106255206694392E+01   -0.163086937942705212E+01   -0.141042115366814186E+00   -0.541014255105015440E+01   -0.205909215782022259E+00   -0.514036189842353997E-01   -0.203651157401916277E+00    0.555273305688578148E-01   -0.108132430698827675E+01   -0.736578140505622969E+03
   -0.160481077208380479E-01   -0.150898529388917790E+02    0.643585746937366365E+00    0.144108873955575678E+01    0.892486892399039708E-02    0.185106255206694392E+01   -0.163086937942705212E+01   -0.141042115366814186E+00   -0.541014255105015440E+01   -0.205909215782022259E+00   -0.514036189842353997E-01   -0.203651157401916277E+00    0.555273305688578148E-01   -0.108132430698827675E+01   -0.736578140505622969E+03
   -0.152594911248671427E-01   -0.150710095009866016E+02    0.646831302726419310E+00    0.146849933847095926E+01    0.900999157055013683E-02    0.184942143631655642E+01   -0.163015984987240059E+01   -0.141224330631402578E+00   -0.542828405103208134E+01   -0.205474019224432342E+00   -0.645023600017197440E-01   -0.297443024635134168E+00    0.380906972567060659E-01   -0.107847856842913892E+01   -0.736574565589825625E+03
   -0.153859627883192532E-01   -0.150811369972717753E+02    0.644045007227324828E+00    0.145222928204171287E+01    0.889373038409902762E-02    0.184907155943232415E+01   -0.157090028462224440E+01   -0.140251590463294246E+00   -0.540149377935749797E+01   -0.205071626810308882E+00   -0.736778333796986595E-01   -0.131412556169804073E+00    0.424540336031202434E-01   -0.108527970027327614E+01   -0.736573716051725341E+03
   -0.158576760563065890E-01   -0.150562460144797754E+02    0.646494605539236433E+00    0.145465419404172169E+01    0.889726448245099430E-02    0.185010631982896179E+01   -0.154563182467275939E+01   -0.140910202594901363E+00   -0.537687701260507289E+01   -0.209234553104177323E+00   -0.378727190764693161E-01   -0.200778790286810116E+00    0.645834693617298589E-01   -0.108220424693869632E+01   -0.736573200362083639E+03
   -0.159365263837130157E-01   -0.150920413124010224E+02    0.646905917222691862E+00    0.148094997334702683E+01    0.898965961699809205E-02    0.185021289214000606E+01   -0.168732486715735930E+01   -0.139663225356300630E+00   -0.525995802847130278E+01   -0.206147087703279636E+00   -0.528920188380798545E-01   -0.249279954685239835E+00    0.557721374807320439E-01   -0.108313666505738193E+01   -0.736572862957728262E+03
   -0.165727446320012191E-01   -0.150885031223325718E+02    0.642624921679699423E+00    0.146154628550713084E+01    0.897297494763610488E-02    0.184920106675120755E+01   -0.155436277308478621E+01   -0.140374158820843670E+00   -0.536225155559725675E+01   -0.205561397832596082E+00   -0.617627639752782315E-01   -0.236558047980575059E+00    0.754481341390804139E-01   -0.107777344360551752E+01   -0.736570961975544151E+03
   -0.159144723732696607E-01   -0.150908282604047113E+02    0.646209059583444878E+00    0.146729872766379588E+01    0.909128308398461996E-02    0.184740682069220119E+01   -0.164632051549314840E+01   -0.139679865351163585E+00   -0.549054531199387874E+01   -0.209505533603700611E+00   -0.601687569738455011E-01   -0.236798708187605927E+00    0.636323921431805467E-01   -0.107830387590452093E+01   -0.736570228048508284E+03
   -0.159484329925119218E-01   -0.151613567948764167E+02    0.643103322051914339E+00    0.148308186008416376E+01    0.895980891663130524E-02    0.184893813133672236E+01   -0.162232536681257389E+01   -0.140510080174928415E+00   -0.534086870535238578E+01   -0.205504632783313185E+00   -0.565820862547958825E-01   -0.221908500171808604E+00    0.774650535230778786E-01   -0.108030448292293557E+01   -0.736569181629342779E+03
   -0.167952021209851719E-01   -0.150249796377193867E+02    0.645343131889419497E+00    0.145704084920538590E+01    0.883489923628130031E-02    0.184790709010160525E+01   -0.164071488028432144E+01   -0.141662495311267150E+00   -0.530212208611923508E+01   -0.208710016120438380E+00   -0.470214895617160553E-01   -0.197479844953227152E+00    0.780129974191817871E-01   -0.108480296613454508E+01   -0.736567540350546778E+03
   -0.151403495388803787E-01   -0.151142629958329966E+02    0.643579454037327858E+00    0.146677892150387268E+01    0.892280765808559605E-02    0.184801809669751416E+01   -0.162125200069746800E+01   -0.140138107795229977E+00   -0.536248158888611037E+01   -0.203958534153285298E+00   -0.628963867432874024E-01   -0.243984621840916960E+00    0.470345202224669023E-01   -0.108223630419119621E+01   -0.736566745566204986E+03
   -0.151376692362580889E-01   -0.150828544125475776E+02    0.644479123330804482E+00    0.145110417485164001E+01    0.888052574216461818E-02    0.184835512557410020E+01   -0.154734657819205279E+01   -0.141401039984180438E+00   -0.537194154755138431E+01   -0.209024934955398423E+00   -0.729123354040767668E-01   -0.203853815719778925E+00    0.432882652460856929E-01   -0.108324948896831796E+01   -0.736566690690725068E+03
   -0.149554697071020027E-01   -0.150753069901132406E+02    0.645743560251867188E+00    0.146389826232868581E+01    0.896081981061300561E-02    0.184862429230990499E+01   -0.155697668366067554E+01   -0.141134877166041561E+00   -0.530075129424003499E+01   -0.205575272176897028E+00   -0.649748292483354611E-01   -0.233627243281015196E+00    0.254335235965656437E-01   -0.108298216596123464E+01   -0.736566261280948083E+03
   -0.166709437152052879E-01   -0.150745239592814304E+02    0.645555657959544171E+00    0.147805660443231979E+01    0.887248141765695914E-02    0.185008042143097473E+01   -0.168467965114109686E+01   -0.139942441190584466E+00   -0.527133324235877243E+01   -0.208858516030726443E+00   -0.511619279476515920E-01   -0.216380871985598799E+00    0.727175979833423886E-01   -0.108114316518276543E+01   -0.736565140749307943E+03
   -0.165000027746016638E-01   -0.151665571322290358E+02    0.646381107999431936E+00    0.146328523518084386E+01    0.896947520047403253E-02    0.184716136302151135E+01   -0.164323051794337927E+01   -0.141686119489263157E+00   -0.542865356676139488E+01   -0.207420333654289801E+00   -0.756598595902204518E-01   -0.256955330473519927E+00    0.748355721162181492E-01   -0.108262168341274467E+01   -0.736565083584596323E+03
   -0.177812691349349614E-01   -0.150770643257944155E+02    0.647253879741597538E+00    0.145936133232331899E+01    0.915805982985125507E-02    0.184829323875165175E+01   -0.167618795660848119E+01   -0.139756461629610917E+00   -0.534642834009075951E+01   -0.204931616295975810E+00   -0.649688888534622200E-01   -0.168900037638339995E+00    0.706432757205601031E-01   -0.108460008100644956E+01   -0.736563550368784490E+03
   -0.166593742973552665E-01   -0.150623638928968457E+02    0.646108368427688595E+00    0.149804477484587562E+01    0.900115442222650802E-02    0.185031044069041695E+01   -0.157601217318301523E+01   -0.140407627341405716E+00   -0.536934254354422169E+01   -0.204807822922572269E+00   -0.545791180364837841E-01   -0.223899514710022951E+00    0.745253338214570960E-01   -0.108291757768600805E+01   -0.736563481953874771E+03
   -0.156928175128774397E-01   -0.151077771963198497E+02    0.645371649626833355E+00    0.147549237457852622E+01    0.907421311198181903E-02    0.184982564735642585E+01   -0.163516639227413885E+01   -0.140296261600369399E+00   -0.542910808800325650E+01   -0.203662784607692160E+00   -0.700161180001777073E-01   -0.165754818802207021E+00    0.763033020558426672E-01   -0.108735225955436232E+01   -0.736563116841377109E+03
   -0.169753078936284198E-01   -0.150702112522055192E+02    0.644290917182036904E+00    0.144393505196990368E+01    0.896719444102645272E-02    0.184894600674825127E+01   -0.152886197925889866E+01   -0.140816478850970539E+00   -0.534244546153646471E+01   -0.209372961472910263E+00   -0.626219482783563902E-01   -0.218622583437737161E+00    0.679747370275539664E-01   -0.108360665021011493E+01   -0.736562292448216795E+03
   -0.163400858264925626E-01   -0.151041393883431461E+02    0.644421288241820878E+00    0.148562483429858894E+01    0.912349196405357922E-02    0.184800856463771135E+01   -0.156938958457607480E+01   -0.140450330050988920E+00   -0.539958532435379102E+01   -0.202159314993639538E+00   -0.593491762308747950E-01   -0.255000361024453559E+00    0.573560460664217023E-01   -0.108570577980547367E+01   -0.736559705132914473E+03
   -0.154635327142789332E-01   -0.150561526851270493E+02    0.645658624434278683E+00    0.146868453618831873E+01    0.903620578217138176E-02    0.185003004214265543E+01   -0.152012922316105081E+01   -0.141293132618119238E+00   -0.544014272263770682E+01   -0.212196140201031058E+00   -0.648377822916937768E-01   -0.226494883875687114E+00    0.596778138036712577E-01   -0.108273296254553397E+01   -0.736559487531206628E+03
   -0.153479614482176265E-01   -0.150928205780967399E+02    0.647049923593005727E+00    0.146136951860082376E+01    0.897288688370922148E-02    0.184970885288201958E+01   -0.160620279087926465E+01   -0.139855503235410933E+00   -0.547133087981365129E+01   -0.213912421834244942E+00   -0.565403555441415240E-01   -0.190423627937785722E+00    0.366462125165121222E-01   -0.107925258998383700E+01   -0.736558483286156957E+03
   -0.169358593725118731E-01   -0.150751997700225395E+02    0.646377774032732888E+00    0.144711248129085956E+01    0.901230254532200611E-02    0.185081059105427603E+01   -0.165019288999096947E+01   -0.140990793194543024E+00   -0.540447872054296674E+01   -0.209001198275399508E+00   -0.535492674991936146E-01   -0.212733630715570998E+00    0.528901516691407114E-01   -0.108222250652851404E+01   -0.736558384259145328E+03
   -0.179488903175765505E-01   -0.151250678547640156E+02    0.644138537764971431E+00    0.151314263054629228E+01    0.912393032622155209E-02    0.184915091739865201E+01   -0.161068497022775881E+01   -0.140035005166660870E+00   -0.543241519670869799E+01   -0.205372668175252487E+00   -0.425669629229952218E-01   -0.288851780459650098E+00    0.507693447212311730E-01   -0.108278536187969232E+01   -0.736558179181494552E+03
   -0.160570829707739927E-01   -0.150878920502491436E+02    0.644030426059244099E+00    0.145771822279366869E+01    0.891398363383102445E-02    0.184934764492486048E+01   -0.161799824000339409E+01   -0.139703430772452369E+00   -0.539824738289550421E+01   -0.206644012256858245E+00   -0.594514468287394779E-01   -0.204311706370898988E+00    0.598136633487591635E-01   -0.108573358163589684E+01   -0.736557390009416054E+03
   -0.164564299755370694E-01   -0.150676395339262754E+02    0.647226232838985505E+00    0.146386725975108134E+01    0.899699509335772155E-02    0.185106279136881202E+01   -0.155231710266040457E+01   -0.140385270542282781E+00   -0.536509537985931217E+01   -0.204725420816805920E+00   -0.462778116529328210E-01   -0.182862325721425606E+00    0.602017166240313775E-01   -0.108088370025222735E+01   -0.736557076270576317E+03
   -0.168232521583478560E-01   -0.150799452968359571E+02    0.647473530991477642E+00    0.146501960056008707E+01    0.902965583179972733E-02    0.184826276316986871E+01   -0.156519225329628364E+01   -0.139835770110996432E+00   -0.547566472421372641E+01   -0.208511188981210155E+00   -0.419814216746715041E-01   -0.230356178211409635E+00    0.608662218625515908E-01   -0.107898895846798326E+01   -0.736556009461213876E+03
   -0.162042250841900048E-01   -0.150854375649470445E+02    0.644043574862991131E+00    0.147013257232858963E+01    0.890136261884587852E-02    0.184891766350711428E+01   -0.167255419108290138E+01   -0.141207296471732024E+00   -0.535724589176987731E+01   -0.203936177071807473E+00   -0.603155775543180797E-01   -0.241463985069974740E+00    0.599289319634128403E-01   -0.108236875720998849E+01   -0.736554915152168746E+03
   -0.165801592279717358E-01   -0.151389574720803122E+02    0.646765916596775403E+00    0.145061694853771672E+01    0.894073363044065213E-02    0.184834785191331918E+01   -0.151621201134501060E+01   -0.140609935819103166E+00   -0.537400378189932226E+01   -0.205000059447438709E+00   -0.685965601882814746E-01   -0.209772348236562656E+00    0.579957508259422924E-01   -0.107648291135625329E+01   -0.736554837153786821E+03
   -0.175231835473401674E-01   -0.150615343489708113E+02    0.649089436018726040E+00    0.145481355506769638E+01    0.896212679040630546E-02    0.184920789575083822E+01   -0.163656012158425179E+01   -0.139841252780478403E+00   -0.533946073440715629E+01   -0.209413746499704789E+00   -0.714562374825437885E-01   -0.193615930384211099E+00    0.752027998281513954E-01   -0.108091654297852435E+01   -0.736549795628811125E+03
   -0.173552845398474258E-01   -0.150784788591572738E+02    0.645532746310749972E+00    0.146172970487519072E+01    0.896287514185193333E-02    0.185006165401205580E+01   -0.155041268788025000E+01   -0.140892677110620312E+00   -0.535024681066250984E+01   -0.207308351004074493E+00   -0.614856414511550653E-01   -0.174397770436986815E+00    0.522144005910768066E-01   -0.107608314049041476E+01   -0.736530150420078030E+03
   -0.157371576800265818E-01   -0.150865724582932756E+02    0.645044556045235251E+00    0.148410077572731280E+01    0.911954692882974323E-02    0.184975972790952836E+01   -0.154203278939642208E+01   -0.139469104968187346E+00   -0.530647167835425915E+01   -0.210696092853863814E+00   -0.648204828751487022E-01   -0.177695500200808071E+00    0.523810237969666165E-01   -0.108048627067776226E+01   -0.736538742499669752E+03
   -0.180646710312123461E-01   -0.150742101466139093E+02    0.643805882823407560E+00    0.145409006619356806E+01    0.882394312037831224E-02    0.185022265422005128E+01   -0.159178510709416310E+01   -0.139925666563514212E+00   -0.534295721056803163E+01   -0.203757205321560636E+00   -0.617448194100437692E-01   -0.231783100266116232E+00    0.468651250522029855E-01   -0.107789566079114141E+01   -0.736533083097016060E+03
   -0.160488314425775297E-01   -0.150934182935540786E+02    0.648648421633257088E+00    0.147393758432509570E+01    0.892236383696369192E-02    0.185018591761080153E+01   -0.147545604002017594E+01   -0.139908661199543954E+00   -0.537149340926701058E+01   -0.207607283026266770E+00   -0.599584054615450446E-01   -0.210787021749811926E+00    0.459888359287272813E-01   -0.107981752711019308E+01   -0.736545167245329480E+03
   -0.175309002838702765E-01   -0.150889110551689782E+02    0.644524989508077017E+00    0.148906302698373283E+01    0.890922272899073026E-02    0.184998515575030842E+01   -0.147661467113924449E+01   -0.139943534108762091E+00   -0.538110745609164187E+01   -0.208253538295257473E+00   -0.694249300317038714E-01   -0.251203746338503175E+00    0.383102138652313962E-01   -0.107852093690115014E+01   -0.736506790295592509E+03
   -0.165558825037852089E-01   -0.151312485970933999E+02    0.646770114611182723E+00    0.145822451652480489E+01    0.892013436763172858E-02    0.184946247369008376E+01   -0.153915150039282866E+01   -0.140021096062924816E+00   -0.544263722919845083E+01   -0.208412060319941472E+00   -0.696687534106390505E-01   -0.219748920758723904E+00    0.535102668577591353E-01   -0.108290900755670161E+01   -0.736550202620350547E+03
   -0.171957017498344730E-01   -0.150859252971759688E+02    0.645093692962371623E+00    0.146955417122528753E+01    0.900557243668763212E-02    0.185032717014181403E+01   -0.162392478469010082E+01   -0.139767516104906814E+00   -0.538558532644267451E+01   -0.211957491189884523E+00   -0.705406611511576187E-01   -0.250684408391726454E+00    0.496731852085858516E-01   -0.108141416352093356E+01   -0.736533658411010720E+03
   -0.163946670193745939E-01   -0.151119235956853668E+02    0.646615298982683107E+00    0.147252990428219155E+01    0.885568709699413592E-02    0.184830745950369857E+01   -0.165598931923512094E+01   -0.140386628632716254E+00   -0.529708913109559187E+01   -0.206182007689264812E+00   -0.546852533689585474E-01   -0.232456880261346338E+00    0.611627298120256541E-01   -0.108011742746235639E+01   -0.736550495726138479E+03
   -0.164131683032565055E-01   -0.150965772869718773E+02    0.646370221192804628E+00    0.147278887038492234E+01    0.886967409883028871E-02    0.184794737272199838E+01   -0.157509571191459230E+01   -0.139997160658153486E+00   -0.524648102550519635E+01   -0.209898592149512203E+00   -0.854922400188469489E-01   -0.214360846722540299E+00    0.594245854834394224E-01   -0.107882765505667821E+01   -0.736532853817754244E+03
   -0.182877193779790587E-01   -0.150781285790809747E+02    0.642286555348963728E+00    0.146923106863505515E+01    0.896226645289298005E-02    0.184975394409162730E+01   -0.161111891162311571E+01   -0.139944332413795086E+00   -0.535403401563300285E+01   -0.210564808131739306E+00   -0.749248709979178640E-01   -0.284478356792660980E+00    0.482182600148459220E-01   -0.108161716458967394E+01   -0.736522299716761836E+03
   -0.175904265064726339E-01   -0.150758523194781802E+02    0.643209305688080768E+00    0.147621573378917414E+01    0.891120696198233371E-02    0.184994126710726392E+01   -0.160389180679288978E+01   -0.140443280205092336E+00   -0.531077418754269104E+01   -0.207380337709224205E+00   -0.686248944189039867E-01   -0.191831526016118747E+00    0.485057943462204252E-01   -0.107590022181419220E+01   -0.736511873219383801E+03
   -0.163519958408265866E-01   -0.151439153154738850E+02    0.647358231919570759E+00    0.146039791695269106E+01    0.893359740771730235E-02    0.184818424816920013E+01   -0.167259821983053225E+01   -0.140181718888916229E+00   -0.525581349680786136E+01   -0.206546317260271811E+00   -0.479949729370564848E-01   -0.206093117643325274E+00    0.564067545651085606E-01   -0.107885452595491271E+01   -0.736549376528299035E+03
   -0.156033176530493856E-01   -0.151095129274772155E+02    0.646612816626568887E+00    0.147689953179279598E+01    0.887821298244880104E-02    0.184954033499672033E+01   -0.158121589114080541E+01   -0.140146094686883077E+00   -0.537146006686944588E+01   -0.207966213946002232E+00   -0.764284213425471121E-01   -0.215286036569262346E+00    0.400190836604832831E-01   -0.108076974596786224E+01   -0.736544184151795548E+03
   -0.163808100821924117E-01   -0.150608848680202900E+02    0.644676133166780185E+00    0.147484071410542339E+01    0.910106533927485840E-02    0.184751275201868248E+01   -0.161632382199508906E+01   -0.140359696113967675E+00   -0.543366728872187288E+01   -0.205887359298397327E+00   -0.568104306067234444E-01   -0.217109357313870183E+00    0.638782328117933618E-01   -0.107919935730136629E+01   -0.736547955019431470E+03
   -0.161966245769786903E-01   -0.150804527885171122E+02    0.640792372899576246E+00    0.148839107301652840E+01    0.912334331392714373E-02    0.184789899588874640E+01   -0.158155508623116492E+01   -0.140529513055073441E+00   -0.533974774718567247E+01   -0.206511942640552254E+00   -0.479063394763373854E-01   -0.252121432133883550E+00    0.445723116195347602E-01   -0.108237962487091877E+01   -0.736544274787233348E+03
   -0.162911329679465977E-01   -0.150666030368218404E+02    0.642640028680346975E+00    0.147313033638926738E+01    0.907631966842829124E-02    0.184853438227281264E+01   -0.160852742877552335E+01   -0.140655429456768316E+00   -0.532232210860900956E+01   -0.210411915517632025E+00   -0.640743025874683653E-01   -0.189884541527313988E+00    0.612671598717734467E-01   -0.108142382719892893E+01   -0.736536551390907562E+03
   -0.160693758889337776E-01   -0.150795625391579087E+02    0.646948501775135409E+00    0.148273752153154126E+01    0.889105347164273994E-02    0.184820309612586575E+01   -0.160385621550707724E+01   -0.139908411502611796E+00   -0.537214606541861972E+01   -0.208582374878394122E+00   -0.645865672730809720E-01   -0.209582269503353458E+00    0.541389413337161063E-01   -0.108260135806876723E+01   -0.736530771168776596E+03
   -0.170710973350665374E-01   -0.151227521947960941E+02    0.645639009180186907E+00    0.145177573803084070E+01    0.901452176950961505E-02    0.184840650350469926E+01   -0.159066168633822747E+01   -0.140481430542437558E+00   -0.547249495683147202E+01   -0.210566880163857800E+00   -0.687044229411461899E-01   -0.199358220940400344E+00    0.550569436357634320E-01   -0.108597310050005746E+01   -0.736545382470031655E+03
   -0.163755005372756765E-01   -0.150521639404048848E+02    0.645381401667547649E+00    0.147668044143098087E+01    0.906644942878277044E-02    0.184966327522439533E+01   -0.160790399169331932E+01   -0.140095560048069778E+00   -0.526617635672628825E+01   -0.210454169861920781E+00   -0.670598127287028861E-01   -0.212414718598545466E+00    0.219203948214065567E-01   -0.108426608650119460E+01   -0.736543074724857320E+03
   -0.152662343326583488E-01   -0.150599655701737838E+02    0.644207568608959669E+00    0.149908024281643870E+01    0.898208795938226258E-02    0.184882720075920859E+01   -0.159469839924669610E+01   -0.140309585202582437E+00   -0.539023744938766569E+01   -0.205387371154378606E+00   -0.494594645776811337E-01   -0.231062043123380162E+00    0.441622832343229327E-01   -0.108025249295151005E+01   -0.736549145782938581E+03
   -0.165998546384720502E-01   -0.151061927195563186E+02    0.647044086280429975E+00    0.146037544663662966E+01    0.891886023636540362E-02    0.184889743004690943E+01   -0.159983724158059948E+01   -0.140214689069565496E+00   -0.544446271579366758E+01   -0.207103678795859225E+00   -0.632950038244119578E-01   -0.181217839863362651E+00    0.571534879385704395E-01   -0.108575368867320021E+01   -0.736540302294198341E+03
   -0.150880308060221437E-01   -0.151178763322485921E+02    0.646376231835162351E+00    0.151202096050349555E+01    0.895903923038969194E-02    0.184860272209592758E+01   -0.168240291422299815E+01   -0.140029272265529303E+00   -0.543251941194465271E+01   -0.206077176993717026E+00   -0.598857233780436399E-01   -0.182329042873748820E+00    0.345930522972692292E-01   -0.108153485587004483E+01   -0.736529051304988002E+03
   -0.163003396786208683E-01   -0.151164354181301324E+02    0.646959716006119567E+00    0.149873225575877322E+01    0.883774794324526138E-02    0.184861349150191812E+01   -0.162055127908426777E+01   -0.140832150221781194E+00   -0.541177529102625066E+01   -0.213864104186753418E+00   -0.637929263177963446E-01   -0.230002799775810146E+00    0.523563709184715412E-01   -0.108082530282607947E+01   -0.736521123217371496E+03
   -0.165835913165670069E-01   -0.150942263698199284E+02    0.645198383428299382E+00    0.151164830054650379E+01    0.910831029573419722E-02    0.184918861494891007E+01   -0.165970270218969196E+01   -0.140878179880815468E+00   -0.541562565812969421E+01   -0.202476681715091034E+00   -0.593604478292034873E-01   -0.182636907089682693E+00    0.645399375114100310E-01   -0.108323282053944170E+01   -0.736526254620686245E+03
   -0.174882234085493235E-01   -0.150554044474291722E+02    0.643519854447521245E+00    0.146061074759238219E+01    0.906234774302727870E-02    0.185018188428193886E+01   -0.160006625795103918E+01   -0.141304801704072391E+00   -0.547362709010665505E+01   -0.205571702598863398E+00   -0.725243138056319986E-01   -0.242894060851843396E+00    0.540752716584273485E-01   -0.107929901541035012E+01   -0.736545019360086712E+03
   -0.173046677736422537E-01   -0.151374755847896338E+02    0.644750456593840893E+00    0.147520029087883509E+01    0.898327682544610567E-02    0.185207842420519531E+01   -0.168093126231612788E+01   -0.140766025881117363E+00   -0.538577821290772984E+01   -0.207648258265611785E+00   -0.836725479317835114E-01   -0.237937684688091594E+00    0.552543636602341251E-01   -0.108863880694455428E+01   -0.736534648482742455E+03
   -0.164789016575455534E-01   -0.151196390820185069E+02    0.648048111633044432E+00    0.149374693369938005E+01    0.881615193315033081E-02    0.184984768620432338E+01   -0.165414270431718391E+01   -0.141648309348382129E+00   -0.538193897805625632E+01   -0.200919493781457653E+00   -0.530781549622440021E-01   -0.211703802718451656E+00    0.225571189434606023E-01   -0.108537501861131447E+01   -0.736533200658994474E+03
   -0.174116463048884437E-01   -0.151395775244767172E+02    0.643521049694003588E+00    0.149910082789775467E+01    0.905271272148067130E-02    0.184942178882583730E+01   -0.165478494547504251E+01   -0.140189965421629842E+00   -0.545090276415079611E+01   -0.207524213934896729E+00   -0.299411488219756619E-01   -0.230136584794015997E+00    0.422735320881526336E-01   -0.108593195107222451E+01   -0.736523952251517358E+03
   -0.162971712716351927E-01   -0.150687253584498357E+02    0.643497078436973124E+00    0.148220979919539619E+01    0.893771523919995557E-02    0.184902559310880621E+01   -0.159599847124310390E+01   -0.141027797011045286E+00   -0.537613089460330329E+01   -0.208137829390514673E+00   -0.679037830912187085E-01   -0.270356654237675686E+00    0.527300972892258274E-01   -0.108613051335453803E+01   -0.736544106474103160E+03
   -0.169252103737874936E-01   -0.150681627664182596E+02    0.645006901476010364E+00    0.146879086835117723E+01    0.890219400534636961E-02    0.184956723541064894E+01   -0.157560107910496194E+01   -0.140351152775178706E+00   -0.546298521796205350E+01   -0.205878593120144865E+00   -0.712363179003540903E-01   -0.249249047272847940E+00    0.524800938138212589E-01   -0.108205505607502595E+01   -0.736539033757508832E+03
   -0.169566594847211545E-01   -0.151068535017770476E+02    0.644767587969636957E+00    0.146737216492203126E+01    0.897903364082030045E-02    0.184872518092363136E+01   -0.162010698778662388E+01   -0.140686475338525324E+00   -0.539134583207669760E+01   -0.208142888966644651E+00   -0.553316759266778563E-01   -0.285580785424443040E+00    0.493116591789215797E-01   -0.108132504532946649E+01   -0.736546639935138955E+03
