    0.215967715568154361E+00   -0.491402012810770685E+02    0.164554860823737581E+01    0.715635707575158819E+00    0.180175788602273367E-01    0.228832138437842003E+01   -0.279316109482595554E+01   -0.109960922305208028E+00   -0.413474736036762636E+01   -0.166861758562294529E-01    0.622545348272982441E-01   -0.241710891668153321E+00   -0.259904492460506786E+00   -0.114587128066922839E+01   -0.418360185507606772E+02
    0.216636863441472205E+00   -0.487054614581547796E+02    0.164647927046670484E+01    0.689659477805000032E+00    0.179304553555716048E-01    0.228865401549638170E+01   -0.281958972437405997E+01   -0.102716634008902699E+00   -0.506615269546703928E+01    0.563723808414648836E-01    0.361170539955998418E-01   -0.156610296898566481E+00   -0.281204405314062045E+00   -0.114287247989401686E+01   -0.418050048592940655E+02
    0.216636863441472205E+00   -0.487054614581547796E+02    0.164647927046670484E+01    0.689659477805000032E+00    0.179304553555716048E-01    0.228865401549638170E+01   -0.281958972437405997E+01   -0.102716634008902699E+00   -0.506615269546703928E+01    0.563723808414648836E-01    0.361170539955998418E-01   -0.156610296898566481E+00   -0.281204405314062045E+00   -0.114287247989401686E+01   -0.418050048592940655E+02
    0.218133891297557031E+00   -0.485765155014818077E+02    0.164477113433694999E+01    0.690307243842361085E+00    0.179430296279744876E-01    0.228817165100063447E+01   -0.281158538404923464E+01   -0.836576306252470037E-01   -0.443626231535093574E+01    0.427618023756275098E-01    0.119962991387364812E+00   -0.227075663415371859E+00   -0.247030754233249022E+00   -0.115407990809829974E+01   -0.417933735433746989E+02
    0.218133891297557031E+00   -0.485765155014818077E+02    0.164477113433694999E+01    0.690307243842361085E+00    0.179430296279744876E-01    0.228817165100063447E+01   -0.281158538404923464E+01   -0.836576306252470037E-01   -0.443626231535093574E+01    0.427618023756275098E-01    0.119962991387364812E+00   -0.227075663415371859E+00   -0.247030754233249022E+00   -0.115407990809829974E+01   -0.417933735433746989E+02
    0.217767516834576735E+00   -0.487772442783129989E+02    0.164601454689294435E+01    0.684805564636187580E+00    0.183265316408675570E-01    0.228787264735226392E+01   -0.281615877964782824E+01   -0.121076698301102847E+00   -0.399866214197553083E+01    0.417680315416785811E-01   -0.198078708489676097E-01   -0.255458350922596167E+00   -0.293147537949457859E+00   -0.113713610741907090E+01   -0.417925249730319095E+02
    0.217767516834576735E+00   -0.487772442783129989E+02    0.164601454689294435E+01    0.684805564636187580E+00    0.183265316408675570E-01    0.228787264735226392E+01   -0.281615877964782824E+01   -0.121076698301102847E+00   -0.399866214197553083E+01    0.417680315416785811E-01   -0.198078708489676097E-01   -0.255458350922596167E+00   -0.293147537949457859E+00   -0.113713610741907090E+01   -0.417925249730319095E+02
    0.218122570482625705E+00   -0.490351492422501565E+02    0.164396336855167613E+01    0.658899069949791971E+00    0.178424925631417049E-01    0.228875013261597404E+01   -0.281969652391331449E+01   -0.772473251722375631E-01   -0.353785582778591046E+01    0.466779406760998924E-01   -0.100791550352762271E+00   -0.966189969354193379E-01   -0.295078113072762993E+00   -0.114529047799305306E+01   -0.417922189117580842E+02
    0.218122570482625705E+00   -0.490351492422501565E+02    0.164396336855167613E+01    0.658899069949791971E+00    0.178424925631417049E-01    0.228875013261597404E+01   -0.281969652391331449E+01   -0.772473251722375631E-01   -0.353785582778591046E+01    0.466779406760998924E-01   -0.100791550352762271E+00   -0.966189969354193379E-01   -0.295078113072762993E+00   -0.114529047799305306E+01   -0.417922189117580842E+02
    0.218203709795333600E+00   -0.485640397901065910E+02    0.164563310183316736E+01    0.691842218338933668E+00    0.181247114009213429E-01    0.228806788472491540E+01   -0.283594825377123572E+01   -0.948174838936626796E-01   -0.442469416862791665E+01    0.124299759802677934E-01   -0.898394530607944143E-02   -0.348345009572825604E+00   -0.265117772935646479E+00   -0.115582239395001052E+01   -0.417878476303109565E+02
    0.218203709795333600E+00   -0.485640397901065910E+02    0.164563310183316736E+01    0.691842218338933668E+00    0.181247114009213429E-01    0.228806788472491540E+01   -0.283594825377123572E+01   -0.948174838936626796E-01   -0.442469416862791665E+01    0.124299759802677934E-01   -0.898394530607944143E-02   -0.348345009572825604E+00   -0.265117772935646479E+00   -0.115582239395001052E+01   -0.417878476303109565E+02
    0.216559941383541010E+00   -0.486697905230545800E+02    0.164438455540088890E+01    0.695215641114108274E+00    0.180926774314318743E-01    0.228848849804009502E+01   -0.282388422896732960E+01   -0.126765157130785261E+00   -0.409031180470322830E+01    0.549281248523794050E-01    0.119757025958190474E+00   -0.165378308382967021E+00   -0.269958225955417519E+00   -0.114697700692994098E+01   -0.417868714911585784E+02
    0.216559941383541010E+00   -0.486697905230545800E+02    0.164438455540088890E+01    0.695215641114108274E+00    0.180926774314318743E-01    0.228848849804009502E+01   -0.282388422896732960E+01   -0.126765157130785261E+00   -0.409031180470322830E+01    0.549281248523794050E-01    0.119757025958190474E+00   -0.165378308382967021E+00   -0.269958225955417519E+00   -0.114697700692994098E+01   -0.417868714911585784E+02
    0.217588126605125581E+00   -0.487734781656498768E+02    0.164576976801594532E+01    0.693936630976192625E+00    0.181599194813538839E-01    0.228788176188647840E+01   -0.281963898971615690E+01   -0.833384195751394746E-01   -0.488566805479027355E+01    0.125426831097043556E-01   -0.542319544346538257E-01   -0.345275520417649251E+00   -0.258078621273699682E+00   -0.114721725207433867E+01   -0.417847106326056448E+02
    0.217588126605125581E+00   -0.487734781656498768E+02    0.164576976801594532E+01    0.693936630976192625E+00    0.181599194813538839E-01    0.228788176188647840E+01   -0.281963898971615690E+01   -0.833384195751394746E-01   -0.488566805479027355E+01    0.125426831097043556E-01   -0.542319544346538257E-01   -0.345275520417649251E+00   -0.258078621273699682E+00   -0.114721725207433867E+01   -0.417847106326056448E+02
    0.216855827952570468E+00   -0.487135445613731619E+02    0.164579268953310254E+01    0.693257289307277036E+00    0.179736330272732697E-01    0.228816078204570772E+01   -0.279999478600563645E+01   -0.101815936004316376E+00   -0.602237964065195097E+01    0.109412345126816468E+00   -0.729655650012252660E-01   -0.194489410998903933E+00   -0.246129165646147618E+00   -0.115199849021334710E+01   -0.417838826359309223E+02
    0.216855827952570468E+00   -0.487135445613731619E+02    0.164579268953310254E+01    0.693257289307277036E+00    0.179736330272732697E-01    0.228816078204570772E+01   -0.279999478600563645E+01   -0.101815936004316376E+00   -0.602237964065195097E+01    0.109412345126816468E+00   -0.729655650012252660E-01   -0.194489410998903933E+00   -0.246129165646147618E+00   -0.115199849021334710E+01   -0.417838826359309223E+02
    0.217588911943345537E+00   -0.491539110957318144E+02    0.164769693199057521E+01    0.677073026666605293E+00    0.181399386243960813E-01    0.228863492486656783E+01   -0.281898005459106038E+01   -0.127836865073691380E+00   -0.396451811956640432E+01    0.353370592591436827E-01   -0.290304629372684642E-01   -0.328057011457956182E+00   -0.277656711740046247E+00   -0.114151729933215029E+01   -0.417828569723603920E+02
    0.216141772582451763E+00   -0.489237853836721968E+02    0.164562282522015857E+01    0.686115588608236626E+00    0.182758648284883744E-01    0.228810371141093727E+01   -0.279548039143113680E+01   -0.125999634142865496E+00   -0.364797795850577344E+01    0.360960516433975198E-02   -0.123438065164114000E+00   -0.139207251463706660E+00   -0.263691656978367106E+00   -0.115413344951308372E+01   -0.417816703865587513E+02
    0.216271485615522868E+00   -0.489454880344524526E+02    0.164467444974121002E+01    0.695943147382054317E+00    0.180735456065913153E-01    0.228840014356525545E+01   -0.282388419128237578E+01   -0.132556494318736257E+00   -0.439252148694873501E+01    0.224282979368374928E-01    0.228789585282062544E-01   -0.147824929767635505E+00   -0.278751874018405066E+00   -0.115562680503019610E+01   -0.417805481076728782E+02
    0.216524356489062098E+00   -0.489180293220563343E+02    0.164420305086683682E+01    0.703454206391759485E+00    0.179743587235308838E-01    0.228861589143832500E+01   -0.282936740451231961E+01   -0.109099321916507008E+00   -0.429339377157489377E+01    0.709375969226869185E-01   -0.105649811434981020E+00   -0.996395897312674916E-01   -0.278244604062511725E+00   -0.113469601362839945E+01   -0.417773288283402024E+02
    0.217352977734929453E+00   -0.491015655276134737E+02    0.164785130623692910E+01    0.687305884615647344E+00    0.185474206477355373E-01    0.228801114922771642E+01   -0.281535493584037733E+01   -0.137845386847376850E+00   -0.522790816067255992E+01    0.529517307338258497E-01    0.116942480574123917E+00   -0.270980877368309836E+00   -0.249316665365854867E+00   -0.114793976814693388E+01   -0.417769000808321991E+02
    0.217352977734929453E+00   -0.491015655276134737E+02    0.164785130623692910E+01    0.687305884615647344E+00    0.185474206477355373E-01    0.228801114922771642E+01   -0.281535493584037733E+01   -0.137845386847376850E+00   -0.522790816067255992E+01    0.529517307338258497E-01    0.116942480574123917E+00   -0.270980877368309836E+00   -0.249316665365854867E+00   -0.114793976814693388E+01   -0.417769000808321991E+02
    0.216552122031285404E+00   -0.492952577209661413E+02    0.164471377082717951E+01    0.701655032329641881E+00    0.182078150283950767E-01    0.228837793764822539E+01   -0.279273928133551141E+01   -0.108334774963585345E+00   -0.535631704889675575E+01    0.107728546574191564E+00   -0.593036184348530102E-01   -0.215277452983015927E+00   -0.280388912984520955E+00   -0.112147156888525412E+01   -0.417758270910607123E+02
    0.216707433684300899E+00   -0.493262390102775541E+02    0.164545249403765381E+01    0.713099059005427138E+00    0.183177650067562446E-01    0.228819935761382887E+01   -0.281112411608976531E+01   -0.119196701675503947E+00   -0.415154893499778765E+01    0.966713986841648970E-01   -0.481184014475786043E-01   -0.335972850856051164E+00   -0.271391394487234261E+00   -0.115375689589004082E+01   -0.417749119973836613E+02
    0.216707433684300899E+00   -0.493262390102775541E+02    0.164545249403765381E+01    0.713099059005427138E+00    0.183177650067562446E-01    0.228819935761382887E+01   -0.281112411608976531E+01   -0.119196701675503947E+00   -0.415154893499778765E+01    0.966713986841648970E-01   -0.481184014475786043E-01   -0.335972850856051164E+00   -0.271391394487234261E+00   -0.115375689589004082E+01   -0.417749119973836613E+02
    0.217354947911748281E+00   -0.489743568487125387E+02    0.164354337164159636E+01    0.698326578196712955E+00    0.179892149182591873E-01    0.228793112301410728E+01   -0.281903107380761631E+01   -0.109036928649632131E+00   -0.573399127672790598E+01    0.911428914831466930E-01    0.496299474427972509E-01   -0.176377537736155554E+00   -0.303484880448572303E+00   -0.115199169156969772E+01   -0.417722035185608220E+02
    0.217354947911748281E+00   -0.489743568487125387E+02    0.164354337164159636E+01    0.698326578196712955E+00    0.179892149182591873E-01    0.228793112301410728E+01   -0.281903107380761631E+01   -0.109036928649632131E+00   -0.573399127672790598E+01    0.911428914831466930E-01    0.496299474427972509E-01   -0.176377537736155554E+00   -0.303484880448572303E+00   -0.115199169156969772E+01   -0.417722035185608220E+02
    0.216666863592790609E+00   -0.486724825910516614E+02    0.164453395442017580E+01    0.719979780614751319E+00    0.182661445686328992E-01    0.228866725970843765E+01   -0.280013290179395158E+01   -0.630641846079321028E-01   -0.564863387908833658E+01    0.636805239294722381E-01   -0.718562412884131974E-01   -0.217005402189093005E+00   -0.265673271220482399E+00   -0.116814829034974021E+01   -0.417705279667071636E+02
    0.216420432363813781E+00   -0.488619710045713944E+02    0.164327989989837087E+01    0.686451440600726825E+00    0.181277826589230397E-01    0.228820980551152342E+01   -0.281385088410590400E+01   -0.754902156053107176E-01   -0.385967352410096209E+01    0.298335895029792353E-01   -0.413652864288684766E-01   -0.325902131714656096E+00   -0.269740078732526145E+00   -0.114787009983316191E+01   -0.417682103378018610E+02
    0.216420432363813781E+00   -0.488619710045713944E+02    0.164327989989837087E+01    0.686451440600726825E+00    0.181277826589230397E-01    0.228820980551152342E+01   -0.281385088410590400E+01   -0.754902156053107176E-01   -0.385967352410096209E+01    0.298335895029792353E-01   -0.413652864288684766E-01   -0.325902131714656096E+00   -0.269740078732526145E+00   -0.114787009983316191E+01   -0.417682103378018610E+02
    0.216806713399475715E+00   -0.488505165594252020E+02    0.164488364133405773E+01    0.694870230752097973E+00    0.180804045949945723E-01    0.228868342417928572E+01   -0.281562293359045679E+01   -0.110443222729316892E+00   -0.437126183860500284E+01    0.814726558554762781E-01    0.960203698157771277E-02   -0.252559437406399356E+00   -0.265855667715714339E+00   -0.114199828208233312E+01   -0.417668507038686130E+02
    0.216956579959000917E+00   -0.487507089560222084E+02    0.164396319132828994E+01    0.677734585380676324E+00    0.180901126183545050E-01    0.228853432605942553E+01   -0.281886260905089392E+01   -0.804199949838408090E-01   -0.343299744076254809E+01    0.873835558846871308E-01   -0.958637272673446839E-01   -0.951003302464434042E-01   -0.290007206291873931E+00   -0.113634119201165085E+01   -0.417662066406666668E+02
    0.217099625279368741E+00   -0.494203139662334863E+02    0.164806018431982126E+01    0.704131199138670505E+00    0.182356893739787605E-01    0.228869768754624925E+01   -0.281866998342062924E+01   -0.943012477676860583E-01   -0.471172517729593476E+01    0.440560694467867497E-01    0.271237931097513749E-01   -0.410074878957759736E+00   -0.251977635172629111E+00   -0.116294692587499471E+01   -0.417624936041456678E+02
    0.217551802056322879E+00   -0.489697829261005495E+02    0.164459521580271772E+01    0.691896488730225134E+00    0.180505790004864969E-01    0.228824918195751037E+01   -0.282980975034683002E+01   -0.117989656462389320E+00   -0.457056551075208262E+01   -0.583303207969208815E-02   -0.899053338286465165E-01   -0.112609174916319138E+00   -0.270420000734162114E+00   -0.114557111634770759E+01   -0.417609105118286479E+02
    0.216877739756190679E+00   -0.494577939183353408E+02    0.164463454260889019E+01    0.699633490347201015E+00    0.179267453747898910E-01    0.228812870494575460E+01   -0.280481299084646407E+01   -0.982810781867605593E-01   -0.418831014356555364E+01    0.441702849196265873E-01   -0.614788746239368286E-01   -0.204450431333482535E+00   -0.285890527812788453E+00   -0.114036333557911540E+01   -0.417596104176672540E+02
    0.216419945278760767E+00   -0.492958067420043236E+02    0.164549502817757887E+01    0.684112400861440650E+00    0.180696854371725051E-01    0.228862000311979896E+01   -0.283175882886752639E+01   -0.150046664975369587E+00   -0.553840877809426768E+01    0.479163829898149665E-01    0.118063577528434993E-01   -0.295558409321592386E+00   -0.257814730318674357E+00   -0.114305017184460134E+01   -0.417593942728608383E+02
    0.217617083791247695E+00   -0.492195765022459142E+02    0.164648958142556157E+01    0.679351639477395963E+00    0.180592427692134391E-01    0.228792888645993653E+01   -0.279638575360593311E+01   -0.103032480079844807E+00   -0.378428525459808185E+01    0.173656771648724451E-01    0.118581171386838019E-01   -0.254935281738188857E+00   -0.261548970611796883E+00   -0.115668921898029287E+01   -0.417585459570765991E+02
    0.217973673291057130E+00   -0.490659622589495683E+02    0.164560397060251828E+01    0.714430449807018975E+00    0.182518915960051265E-01    0.228853126988476996E+01   -0.282869508540734405E+01   -0.103722053066630765E+00   -0.507548345515023236E+01    0.307054042833098811E-01   -0.763140578462415398E-01   -0.217830694526330831E+00   -0.258266935412386101E+00   -0.112449296671005428E+01   -0.417576560325700683E+02
    0.217930062393234592E+00   -0.490368688482859554E+02    0.164522319036072817E+01    0.705841155159259603E+00    0.178421839016055794E-01    0.228881605363535678E+01   -0.279548756426329081E+01   -0.961711772592560438E-01   -0.327148030779544019E+01    0.801329075400550733E-01    0.253616582012043054E-01   -0.277903894548857278E+00   -0.259789485851957158E+00   -0.115284661885164308E+01   -0.417569335432926891E+02
    0.216282593218414171E+00   -0.489482576710244572E+02    0.164543584761650563E+01    0.683554286921827958E+00    0.180736747658629231E-01    0.228877065996300333E+01   -0.281175660565567220E+01   -0.761466108719338619E-01   -0.494947513914380544E+01    0.383750234596954912E-01   -0.269595103461377633E-01   -0.279336353865921427E+00   -0.297669600124122746E+00   -0.117131593639935239E+01   -0.417568191213375712E+02
    0.217920067951167445E+00   -0.491789934948851766E+02    0.164333423289125324E+01    0.689836651261427680E+00    0.179427575846117064E-01    0.228871716173586881E+01   -0.281903093051391007E+01   -0.120411269244888333E+00   -0.572227818015454393E+01    0.922034735654889970E-01   -0.423243264447732692E-01   -0.375239450653389650E+00   -0.279004124020082844E+00   -0.113519477107875910E+01   -0.417556250449225317E+02
    0.217920067951167445E+00   -0.491789934948851766E+02    0.164333423289125324E+01    0.689836651261427680E+00    0.179427575846117064E-01    0.228871716173586881E+01   -0.281903093051391007E+01   -0.120411269244888333E+00   -0.572227818015454393E+01    0.922034735654889970E-01   -0.423243264447732692E-01   -0.375239450653389650E+00   -0.279004124020082844E+00   -0.113519477107875910E+01   -0.417556250449225317E+02
    0.216669219622978165E+00   -0.491770199515132660E+02    0.164426903018046766E+01    0.705171192286803028E+00    0.183962979929776470E-01    0.228802142267385822E+01   -0.283228376764085610E+01   -0.145645876179768791E+00   -0.551621002045294162E+01    0.699060278735009338E-01   -0.535438649234547190E-01   -0.284282070755593752E+00   -0.257232798854264366E+00   -0.115801934017903396E+01   -0.417540603049716950E+02
    0.216412548134848198E+00   -0.492999687065726064E+02    0.164576936129646700E+01    0.669202377048236041E+00    0.181912290637993301E-01    0.228787729212203717E+01   -0.281479539862516059E+01   -0.124751991544058541E+00   -0.500769506866484360E+01    0.692445568061542116E-01    0.663252091269378105E-02   -0.283634241339383864E+00   -0.274820167033258345E+00   -0.115224643449483755E+01   -0.417512551056829224E+02
    0.216860800075742682E+00   -0.490245139698378267E+02    0.164563913320838617E+01    0.707453317578037644E+00    0.183656412163194123E-01    0.228855919039637801E+01   -0.282814031681393452E+01   -0.984872142419175173E-01   -0.563293935088921494E+01    0.436617143611065794E-01   -0.186446434053132770E+00   -0.271295168169968293E+00   -0.271377185742296856E+00   -0.116309895229332572E+01   -0.417501090326097923E+02
    0.217161093019682172E+00   -0.491945145740482630E+02    0.164523384135303941E+01    0.684665373188577231E+00    0.179842464735732940E-01    0.228781614838564895E+01   -0.280011759712824793E+01   -0.906459880924024852E-01   -0.351060689521169378E+01    0.821346007689609248E-01    0.938368879241307033E-02   -0.221791574676353326E+00   -0.244781614051158364E+00   -0.114018311356732283E+01   -0.417496793353650020E+02
    0.216366656963173171E+00   -0.493830881964973827E+02    0.164603269526458029E+01    0.699126009135357052E+00    0.182962775937899752E-01    0.228876911919765336E+01   -0.284845884111989900E+01   -0.971284933670673728E-01   -0.600879269193464971E+01    0.412216861240382523E-01   -0.101353755020138978E-01   -0.350968640991574210E+00   -0.248969276165513675E+00   -0.113306605763400881E+01   -0.417496736096533496E+02
    0.217258303040704787E+00   -0.490305476298327676E+02    0.164582376005380726E+01    0.684344699436637782E+00    0.180886195251134425E-01    0.228853476936055023E+01   -0.279895708831926138E+01   -0.107345547057900920E+00   -0.401365061853465299E+01    0.343763551875486614E-01   -0.261621852411065836E-01   -0.329833129870954755E+00   -0.266034858966941901E+00   -0.117489549995080833E+01   -0.417492904366156381E+02
    0.216933908787800028E+00   -0.489485749327644442E+02    0.164464290632071397E+01    0.680106597327330364E+00    0.180717146031063591E-01    0.228840570313243896E+01   -0.284364080067873459E+01   -0.103678090590849883E+00   -0.389422856252229144E+01    0.730257950543192758E-01    0.435422403510441619E-01   -0.236027449158578650E+00   -0.279848080586949988E+00   -0.115139218146414235E+01   -0.417490560486301590E+02
    0.217286134814840076E+00   -0.492715362072979275E+02    0.164176943576131351E+01    0.701374269097876035E+00    0.180297038433060788E-01    0.228792852304082972E+01   -0.278542563523960096E+01   -0.103533892685092083E+00   -0.545194988510146139E+01    0.596981606689139799E-01   -0.120507318624870102E+00   -0.296919463561963581E+00   -0.263892872785917443E+00   -0.113774392383930656E+01   -0.417489061448265701E+02
    0.217531843250008655E+00   -0.487193361768494384E+02    0.164457832198665943E+01    0.665170453093175129E+00    0.182835640323779705E-01    0.228918919567248391E+01   -0.282592466310627977E+01   -0.798639062639273645E-01   -0.545342888568537543E+01    0.700621965301156807E-01   -0.141765457792647043E+00   -0.240280489380134410E+00   -0.273665795137932044E+00   -0.115120592452940063E+01   -0.417486999695219438E+02
    0.217690397081439307E+00   -0.487884624802668370E+02    0.164388127156814012E+01    0.676327840451050544E+00    0.182046080199798690E-01    0.228793257832535435E+01   -0.282189169857269651E+01   -0.125212830790718488E+00   -0.460153690814568339E+01    0.536850498627340356E-01   -0.389483403077713758E-01   -0.117919960250690084E+00   -0.260841262896862436E+00   -0.115520108435962143E+01   -0.417476660405645887E+02
    0.216356288995934565E+00   -0.492085012297120414E+02    0.164420029550048352E+01    0.696804535333668373E+00    0.181109444042722341E-01    0.228831556134841740E+01   -0.280018217500669531E+01   -0.848817247152795634E-01   -0.509757690866792679E+01    0.105977432060744697E-01    0.832170266999001651E-01   -0.175078977199114083E+00   -0.269902287950739173E+00   -0.116074481562634801E+01   -0.417467573144691571E+02
    0.217208617076940308E+00   -0.485550598699565086E+02    0.164442193897988309E+01    0.699127083851656117E+00    0.183110647078808635E-01    0.228894946798337884E+01   -0.283053608031900916E+01   -0.125961874326071838E+00   -0.434488965508041591E+01    0.347570508504694564E-01    0.130622268248634932E-01   -0.240200008085192068E+00   -0.248139185333641571E+00   -0.117001812692596885E+01   -0.417460632997738372E+02
    0.218086616270744604E+00   -0.487210090879560980E+02    0.164397247283979553E+01    0.673979599524659023E+00    0.182741403638336311E-01    0.228841899412025418E+01   -0.281525993363476701E+01   -0.818446399336870134E-01   -0.576885049658317062E+01    0.737484379009826357E-01   -0.219181369490017604E-01   -0.168001580215385860E+00   -0.287577200602484928E+00   -0.115306478043126925E+01   -0.417446716820472901E+02
    0.217868805441537083E+00   -0.490699488358506386E+02    0.164550508254940175E+01    0.688554989498757042E+00    0.183049417138586856E-01    0.228800652936297677E+01   -0.280899277125317948E+01   -0.919269166333046284E-01   -0.488965713548004732E+01    0.722110409675730258E-01   -0.862905525551618258E-01   -0.243816286090702355E+00   -0.269943519714261115E+00   -0.113011126338868428E+01   -0.417431841413690918E+02
    0.217320333141717170E+00   -0.490398278674597208E+02    0.164310319762407464E+01    0.686122261150416524E+00    0.180374799296685838E-01    0.228833901844679843E+01   -0.279267638095277837E+01   -0.807379577186759234E-01   -0.509331102459236806E+01    0.841293142344468614E-01   -0.339925586748078198E-02   -0.226395769880944508E+00   -0.280259577414281147E+00   -0.114368932423094694E+01   -0.417429459426582383E+02
    0.216573817657021161E+00   -0.490858130197467020E+02    0.164331491434764532E+01    0.689994355583965047E+00    0.183606184674437074E-01    0.228789940252364943E+01   -0.281911509601127541E+01   -0.131244662557788105E+00   -0.517323967781730243E+01    0.522306864118615710E-01   -0.117549543852770319E+00   -0.250932750499119228E+00   -0.263046560296811116E+00   -0.114863094408604760E+01   -0.417423619766296525E+02
    0.217277919605799147E+00   -0.492308015526333804E+02    0.164514274413001083E+01    0.684335773219188925E+00    0.179653139864356347E-01    0.228832770004181052E+01   -0.280190099863047637E+01   -0.858418412446647905E-01   -0.450729361331464595E+01    0.655613547682244169E-01    0.113379587880310245E-01   -0.313813660482584689E+00   -0.283260927744313995E+00   -0.116275357612419983E+01   -0.417407433057040649E+02
    0.216979877551627481E+00   -0.493210284690019094E+02    0.164582819654622692E+01    0.675136871810915418E+00    0.181642742892339400E-01    0.228768147691487034E+01   -0.282563047070365814E+01   -0.913645413739414963E-01   -0.560778394162514537E+01    0.775668037338818478E-01   -0.139836436398277197E+00   -0.232613256281830744E+00   -0.274977990739060318E+00   -0.113858010583573899E+01   -0.417402389737617696E+02
    0.218164752731253825E+00   -0.488776757769721613E+02    0.164439486677037450E+01    0.693015371789587387E+00    0.183279436514651901E-01    0.228842186483478160E+01   -0.280732672679977258E+01   -0.101876002887540396E+00   -0.449087612663250724E+01    0.384871312469221294E-01    0.403934024736893049E-01   -0.219028082728634138E+00   -0.280616433499953355E+00   -0.114364287710447043E+01   -0.417397631393206794E+02
    0.216627958234388296E+00   -0.492245048677123691E+02    0.164309761285134659E+01    0.705451241966599807E+00    0.183243017166631154E-01    0.228796198657657168E+01   -0.281144226375577411E+01   -0.822366823008689740E-01   -0.504653884127320573E+01    0.200769333767376879E-02    0.917779126896817038E-01   -0.193374554667000847E+00   -0.267391000883384689E+00   -0.116101219885510121E+01   -0.417396134755762205E+02
    0.218136447962137825E+00   -0.488747098211051352E+02    0.164563046091225873E+01    0.693776558834506396E+00    0.181284347654470483E-01    0.228871206841046870E+01   -0.283455282851161616E+01   -0.100103644764137925E+00   -0.542376550232506460E+01    0.894704600997481558E-01    0.443328122072555730E-01   -0.366453464918951699E+00   -0.256420325981839059E+00   -0.115677368044860307E+01   -0.417395286084235764E+02
    0.217189354665558082E+00   -0.490612333306457984E+02    0.164305114888817694E+01    0.696045634490058629E+00    0.180403892878508131E-01    0.228884869263921154E+01   -0.283804986230046197E+01   -0.114023984252626692E+00   -0.487070003905606352E+01    0.187311789288225825E-01    0.434576692635801065E-01   -0.231783450527501461E+00   -0.264350923479702515E+00   -0.114583291491103534E+01   -0.417385231807053856E+02
    0.216087332342216831E+00   -0.492915630227687345E+02    0.164319319550164944E+01    0.700717423484420676E+00    0.182382921845814366E-01    0.228839045541466968E+01   -0.282810848820986660E+01   -0.629457850397871499E-01   -0.374621997619256053E+01    0.501756142741401970E-01   -0.579865725569110521E-01   -0.353172467848883787E+00   -0.275234979502080146E+00   -0.114850023718887773E+01   -0.417384662625284264E+02
    0.217056770147339373E+00   -0.491769303318784878E+02    0.164449488541985978E+01    0.679914975546110134E+00    0.180996780454697991E-01    0.228804852110240731E+01   -0.280226422360395233E+01   -0.919161442668520734E-01   -0.410742221961575993E+01    0.413477149597373667E-01   -0.512003159698446245E-02   -0.202092271337627472E+00   -0.240474890436659122E+00   -0.114223456305426230E+01   -0.417381191310894408E+02
    0.217569435558558566E+00   -0.491165764952513939E+02    0.164468704432781632E+01    0.689573268847332721E+00    0.181328492143372662E-01    0.228910378664494063E+01   -0.280159628029093399E+01   -0.100134945109572202E+00   -0.517694200556768713E+01    0.219599853867441762E-01    0.629117221590644315E-01   -0.273799032691885713E+00   -0.267092317016415226E+00   -0.114713614925038554E+01   -0.417368227201183828E+02
    0.216513072604942236E+00   -0.493218995869383505E+02    0.164427178388691941E+01    0.687462782442206488E+00    0.180645520121572867E-01    0.228866499852151195E+01   -0.283229359163000582E+01   -0.113733339297616559E+00   -0.446602650888580754E+01    0.499645330301440732E-01   -0.277563563067368957E-01   -0.221674070938646078E+00   -0.281967170512528342E+00   -0.114279207015262685E+01   -0.417365665356002751E+02
    0.217910300816477137E+00   -0.489039880805065366E+02    0.164406999771455875E+01    0.686524722768140250E+00    0.185228288073561835E-01    0.228867552090306781E+01   -0.284817777375114334E+01   -0.907986059213169300E-01   -0.514418649336228118E+01    0.364290196238685471E-01    0.263175471368920361E-01   -0.930386660318187342E-01   -0.272305861265353610E+00   -0.114356300992601545E+01   -0.416965026622876209E+02
    0.217952141173133385E+00   -0.492670348978212473E+02    0.164484290892405882E+01    0.696987652249796308E+00    0.182913835827696845E-01    0.228818044554071820E+01   -0.281940088356619833E+01   -0.930423562125872322E-01   -0.490949631322734970E+01    0.258774559322722877E-01   -0.133391840807499690E+00   -0.271402000164947421E+00   -0.282462280176885350E+00   -0.116210169223000492E+01   -0.417149537682247527E+02
    0.217512310166454670E+00   -0.492284491250239853E+02    0.164543293289688308E+01    0.682973436027332403E+00    0.181173684039524462E-01    0.228824181932085136E+01   -0.282848003141828563E+01   -0.107104913144993319E+00   -0.594941908584087020E+01    0.116066623703287158E+00    0.303522502069297068E-01   -0.101042095691178641E+00   -0.257513187739047744E+00   -0.113799960020869850E+01   -0.417270616467669555E+02
    0.217409646421861974E+00   -0.492284265223770845E+02    0.164349055749442141E+01    0.704052418421966753E+00    0.182043983859427015E-01    0.228873338967390350E+01   -0.283075938241526881E+01   -0.993710122901313997E-01   -0.477642527287849106E+01    0.279071760058667261E-01   -0.839389538935832874E-03   -0.360991334975421019E+00   -0.265571939924832134E+00   -0.112821663969375541E+01   -0.417361974075437203E+02
    0.216823307068978066E+00   -0.495727892695537236E+02    0.164284741727317307E+01    0.688157608762955730E+00    0.182843861137476707E-01    0.228854647764302799E+01   -0.282944591138030610E+01   -0.113062005984654212E+00   -0.549387736258984294E+01    0.338831392831177580E-01    0.366912275852859654E-01   -0.131140210177040639E+00   -0.267764757025316213E+00   -0.114222857473859585E+01   -0.416854292158574893E+02
    0.217183169255433572E+00   -0.491609930261393870E+02    0.164441631413656109E+01    0.680577880478360986E+00    0.180884823935704639E-01    0.228903271393775976E+01   -0.282819113789286369E+01   -0.900520434143223941E-01   -0.468651028483116061E+01    0.431877134531781920E-01    0.410085590874664507E-01   -0.226632246516360047E+00   -0.282479347246205215E+00   -0.116033033009577369E+01   -0.417185242905303468E+02
    0.218391805401749073E+00   -0.493713030730498232E+02    0.164594819982175578E+01    0.691700070862122818E+00    0.182106743457015399E-01    0.228873060203057843E+01   -0.279202499179082864E+01   -0.645773767715090707E-01   -0.348652944556741407E+01    0.531229363945260880E-01    0.189255311673913185E-01   -0.380221012806963021E+00   -0.266745704268425865E+00   -0.114524439543963941E+01   -0.417238430714892274E+02
    0.218343941570221495E+00   -0.492582367945438335E+02    0.164455463009743563E+01    0.700224459671452193E+00    0.183319379208431651E-01    0.228858841502907229E+01   -0.281012896707423954E+01   -0.882869814848393358E-01   -0.464760448581818508E+01    0.645011639926491437E-01    0.735573659916579498E-03   -0.347108763987556135E+00   -0.268918080635593415E+00   -0.115349217189514053E+01   -0.416991400800493537E+02
    0.218295328858424009E+00   -0.492014549093364622E+02    0.164520835744270588E+01    0.682842118232048656E+00    0.183505776351026162E-01    0.228820536985214229E+01   -0.282575052705772656E+01   -0.105062354918103562E+00   -0.501256260382578844E+01    0.253121404271387448E-01   -0.155584329984849223E+00   -0.391871896406827624E+00   -0.289820422430518865E+00   -0.114579195598027095E+01   -0.417356685966128111E+02
    0.217029004258661590E+00   -0.494762059962192566E+02    0.164602792304460777E+01    0.690761540820699738E+00    0.181310690985619499E-01    0.228864900973191965E+01   -0.282119987841353570E+01   -0.113244512648588286E+00   -0.533774678996798801E+01    0.954641510677290972E-01   -0.951758341354667046E-02   -0.295201778396602665E+00   -0.249749666522826819E+00   -0.113904406885355436E+01   -0.417239253530505536E+02
    0.216879073087860280E+00   -0.493271584947563397E+02    0.164355724898001720E+01    0.686378491624729636E+00    0.183164306411667463E-01    0.228834083179092040E+01   -0.283580816188957741E+01   -0.797687284666394325E-01   -0.550737759026966245E+01    0.724061241498362707E-01   -0.312784311807432699E-01   -0.352805672731349274E+00   -0.253557117716506020E+00   -0.114047750874756049E+01   -0.416998574639626369E+02
    0.217154880325881955E+00   -0.494842216416251972E+02    0.164572714372725004E+01    0.688957368813967630E+00    0.182282233450491125E-01    0.228858237034555101E+01   -0.282644300549424488E+01   -0.748197929668673600E-01   -0.496433511889191426E+01   -0.130396246545770519E-01   -0.564016501936492817E-01   -0.308811701285557461E+00   -0.270040170285910097E+00   -0.114417564387489912E+01   -0.417326301050448265E+02
    0.217428662645028997E+00   -0.493858502948690443E+02    0.164590393770118504E+01    0.683281330198637904E+00    0.181941773495125324E-01    0.228882346617713228E+01   -0.282377015412663379E+01   -0.858286636970818084E-01   -0.551309246777811701E+01    0.714619537530353233E-01   -0.157972785114683240E-01   -0.225188882322129275E+00   -0.277416940723046179E+00   -0.113883637342940713E+01   -0.417136858938787825E+02
    0.218557664438661675E+00   -0.492081248085431540E+02    0.164374732898143816E+01    0.676133529215806051E+00    0.181118997358110795E-01    0.228812678208180964E+01   -0.284133933914634440E+01   -0.762838155221121639E-01   -0.544318676259262446E+01    0.392855345781842058E-01    0.756205756514686037E-02   -0.162550976352847071E+00   -0.261791054593908168E+00   -0.114128386898711476E+01   -0.417124637433130232E+02
    0.217926371290236204E+00   -0.493006143962655159E+02    0.164447196847092592E+01    0.683388128261069538E+00    0.181052497937557316E-01    0.228856556558962909E+01   -0.284248730412364381E+01   -0.973458819228985445E-01   -0.539773272059766107E+01    0.648035186691919562E-01    0.114222144816691504E+00   -0.228931498486949825E+00   -0.272680200478225054E+00   -0.115791630893254083E+01   -0.417010115842389837E+02
    0.217581009318077806E+00   -0.492425516092158233E+02    0.164466429849358931E+01    0.695349675964087699E+00    0.185918081757795901E-01    0.228856975308576027E+01   -0.280155258698403475E+01   -0.794996869996633798E-01   -0.529981517408525526E+01    0.767127028486007667E-01   -0.172933379344868576E+00   -0.260064957549872688E+00   -0.284770878560511032E+00   -0.115021714906076111E+01   -0.417014122303864951E+02
    0.217245058996889756E+00   -0.494387227075449189E+02    0.164481526283633417E+01    0.693118369990022964E+00    0.181712837052732668E-01    0.228831135606910330E+01   -0.280807535367875483E+01   -0.834315752053950560E-01   -0.485223451697344377E+01    0.435605785910741089E-01    0.259648813906988435E-01   -0.201224975259343852E+00   -0.268011872985132737E+00   -0.114957300699003873E+01   -0.417135980171891987E+02
    0.217724991377610699E+00   -0.490090235042193640E+02    0.164523671964771978E+01    0.684711024190450934E+00    0.184330809833026799E-01    0.228808214017283040E+01   -0.283910153071456683E+01   -0.830576381644746314E-01   -0.490667072247695835E+01    0.300628842395629543E-01    0.640661520158012504E-01   -0.214272672605066772E+00   -0.253293699685489870E+00   -0.115834319201755886E+01   -0.417144147080556493E+02
    0.217323060178904653E+00   -0.490704777255967386E+02    0.164555520657022947E+01    0.701536693377184828E+00    0.181560226636491989E-01    0.228902766873583641E+01   -0.282913384174584825E+01   -0.111075864906695687E+00   -0.449352104135705233E+01    0.484249260841257134E-01    0.721720090208196052E-01   -0.181354447773169142E+00   -0.257451014889407304E+00   -0.115514048984939177E+01   -0.417287097173834240E+02
    0.217588714274453282E+00   -0.490355151848485562E+02    0.164315076375656988E+01    0.682358781660347247E+00    0.181270579033056718E-01    0.228860629979661345E+01   -0.282663783768818710E+01   -0.128166143092896617E+00   -0.541424072998643258E+01    0.221159604605638722E-01    0.108383501538727875E+00   -0.184424444954815692E+00   -0.246649119644621273E+00   -0.114587927471773421E+01   -0.417320453812735011E+02
    0.217672268038377970E+00   -0.488682341178066153E+02    0.164356351659730993E+01    0.689701656005116459E+00    0.184869613005223359E-01    0.228797552256304559E+01   -0.280113561581084314E+01   -0.104527417936895753E+00   -0.491815029196259879E+01    0.551899337601668705E-01   -0.437563683801218961E-02   -0.136258822035617261E+00   -0.254062404730231783E+00   -0.115754030239618144E+01   -0.417100034693478534E+02
    0.217047160589610266E+00   -0.490019682738733380E+02    0.164484657625100206E+01    0.692744952472907238E+00    0.182623393401113339E-01    0.228875764125248660E+01   -0.283890889554174297E+01   -0.102498523263749003E+00   -0.473547279443008762E+01    0.692625126523591789E-01    0.903497622903040865E-01   -0.432164015793595535E+00   -0.257888465910237841E+00   -0.114562016791786525E+01   -0.417345488022919469E+02
    0.216642845595225980E+00   -0.492447346429550947E+02    0.164285089487268765E+01    0.680825382262487344E+00    0.181888460155391687E-01    0.228790479032421556E+01   -0.283550523906342677E+01   -0.133055895178621486E+00   -0.458878539422648757E+01    0.649193003735065027E-01    0.578585454689324041E-01   -0.404897573195350302E+00   -0.269182535762622022E+00   -0.114986121935041652E+01   -0.417347832751376018E+02
    0.217434789816042889E+00   -0.488706848088221122E+02    0.164213850442420140E+01    0.688169431801366249E+00    0.181636870684582542E-01    0.228839581524290336E+01   -0.282611655496165026E+01   -0.886509900759805541E-01   -0.430198923495417240E+01    0.950460624883466970E-01   -0.683790059340042278E-01   -0.331184039824543697E+00   -0.253248243690152586E+00   -0.114031516997218563E+01   -0.417307829484279296E+02
    0.217494672290694552E+00   -0.487958799998345327E+02    0.164464863446157583E+01    0.691641319996030068E+00    0.181972632269968571E-01    0.228855283854187297E+01   -0.281938201658481580E+01   -0.537766352849292223E-01   -0.541699727001196152E+01    0.632000205095520629E-01    0.954219296268885159E-01   -0.166158319247765029E+00   -0.257845484874261233E+00   -0.115394575882113437E+01   -0.417344647791967631E+02
    0.217249669510427262E+00   -0.491373602236410818E+02    0.164100802911821475E+01    0.701659985732543290E+00    0.182809199059655141E-01    0.228859503806642062E+01   -0.282306234500842734E+01   -0.882020343319207256E-01   -0.562582124572744835E+01    0.401012851593888636E-01    0.113660671417932138E+00   -0.184149868055234145E+00   -0.248007344763086585E+00   -0.116812815049517615E+01   -0.416810878284267616E+02
    0.217117128934735643E+00   -0.495820908579939683E+02    0.164482890193959674E+01    0.698503650645620144E+00    0.183406782164598492E-01    0.228830767027172843E+01   -0.280756029098115789E+01   -0.105335175340313197E+00   -0.498685598435841460E+01    0.838048654263750248E-01    0.119695511869493162E+00   -0.224337823262005021E+00   -0.258256088794026450E+00   -0.115049747689814286E+01   -0.417084361933480423E+02
    0.217364417895537870E+00   -0.489857970425252702E+02    0.164248368582691651E+01    0.710594076023689958E+00    0.182370731637815225E-01    0.228871498366628900E+01   -0.281249748966812874E+01   -0.104853683772297160E+00   -0.368914495169412548E+01    0.636435745574923523E-01    0.804737655647482786E-01   -0.145670941568383672E+00   -0.272683120764404430E+00   -0.115017366589847181E+01   -0.417210434855980097E+02
    0.216444190744535359E+00   -0.492109049303232595E+02    0.164313874807262783E+01    0.678278989019648892E+00    0.180888327450589338E-01    0.228799710987702509E+01   -0.281192865237029777E+01   -0.108198540060954126E+00   -0.633529507584479212E+01    0.111851091762234151E+00    0.533299759147355529E-01   -0.240321532473103616E+00   -0.239771328587486260E+00   -0.115643244552751168E+01   -0.417195256536834407E+02
    0.217130393918483072E+00   -0.491600078514596106E+02    0.164334361865394585E+01    0.671147376364341741E+00    0.182653142200167075E-01    0.228801883755975632E+01   -0.283569819806623213E+01   -0.103078574223176359E+00   -0.500420123317241394E+01    0.594837451841408460E-01   -0.158143540951172848E-01   -0.216484495530144705E+00   -0.258881048452980878E+00   -0.115039267028575720E+01   -0.417059057523734964E+02
    0.217701011229823133E+00   -0.491925468846647931E+02    0.164310135584738037E+01    0.678902668963998535E+00    0.179293057246387791E-01    0.228880996041628837E+01   -0.282293374864795377E+01   -0.842939914328205697E-01   -0.599678238498068872E+01    0.492465009266680534E-01    0.517630804639535175E-01   -0.296500306341925701E+00   -0.243887017229115377E+00   -0.115763126505684588E+01   -0.417272530881257211E+02
    0.217998688054483525E+00   -0.492425057134666915E+02    0.164432915078173725E+01    0.705750578654396943E+00    0.179349053262259361E-01    0.228877091712804237E+01   -0.279347971131298811E+01   -0.119387318013122981E+00   -0.508077243473070350E+01    0.749788703014017260E-01   -0.929558264376582725E-02   -0.165669122249827216E+00   -0.245021763497247969E+00   -0.114294644135375134E+01   -0.417290649393832638E+02
    0.217625631674172704E+00   -0.489257395939560098E+02    0.164509398033030507E+01    0.714625980864032506E+00    0.182108745241862623E-01    0.228862811392722687E+01   -0.281568534354875810E+01   -0.746102229503076003E-01   -0.470577760237701259E+01    0.796910727801113800E-01   -0.313562393149142415E-01   -0.212007303406182679E+00   -0.251160269490126264E+00   -0.115596781703731222E+01   -0.417351445245558992E+02
    0.217430529790720639E+00   -0.491294536515660454E+02    0.164278091433382212E+01    0.698135491936339836E+00    0.181791084558258695E-01    0.228871853501198297E+01   -0.281374339414650887E+01   -0.124725948581311794E+00   -0.375398588191075433E+01    0.258230660337917493E-01    0.326566213165462443E-01   -0.256756499471880117E+00   -0.262007435222061991E+00   -0.114044539983520443E+01   -0.417328649122134081E+02
