    0.702347238196982665E-02   -0.265495860170462237E+02    0.707613951939622954E+00    0.159737559453614697E+01    0.109068277269940336E-01    0.231155965385416495E+01   -0.173583848016111086E+01   -0.126758162601148722E+00   -0.122072437582668702E+01   -0.160641794746502892E+00    0.179584321593782459E+00   -0.786429584165463658E-01    0.570453755434792639E-01   -0.106313094245452322E+01   -0.386802650700931778E+02
    0.702347238196982665E-02   -0.265495860170462237E+02    0.707613951939622954E+00    0.159737559453614697E+01    0.109068277269940336E-01    0.231155965385416495E+01   -0.173583848016111086E+01   -0.126758162601148722E+00   -0.122072437582668702E+01   -0.160641794746502892E+00    0.179584321593782459E+00   -0.786429584165463658E-01    0.570453755434792639E-01   -0.106313094245452322E+01   -0.386802650700931778E+02
    0.669587983687263810E-02   -0.265112359238867477E+02    0.679983211788020014E+00    0.159727178871879549E+01    0.108977759205664427E-01    0.231074353854374426E+01   -0.178600701748744650E+01   -0.127232905624875353E+00   -0.130821722197582746E+01   -0.156639126480393159E+00    0.176987151682140798E+00   -0.812619914472212657E-01    0.524873180197859765E-01   -0.106371381482127170E+01   -0.386751909737671937E+02
    0.669587983687263810E-02   -0.265112359238867477E+02    0.679983211788020014E+00    0.159727178871879549E+01    0.108977759205664427E-01    0.231074353854374426E+01   -0.178600701748744650E+01   -0.127232905624875353E+00   -0.130821722197582746E+01   -0.156639126480393159E+00    0.176987151682140798E+00   -0.812619914472212657E-01    0.524873180197859765E-01   -0.106371381482127170E+01   -0.386751909737671937E+02
    0.698309403846330157E-02   -0.265225401723619250E+02    0.687936715359400597E+00    0.160076038166715096E+01    0.109079088634127727E-01    0.231216222783998004E+01   -0.197334089471599050E+01   -0.126841698318705232E+00   -0.119540328515635919E+01   -0.132085627490463153E+00    0.178149695365698274E+00   -0.793169278931914468E-01    0.618733011075533260E-01   -0.106309081383608661E+01   -0.386421444027987917E+02
    0.698309403846330157E-02   -0.265225401723619250E+02    0.687936715359400597E+00    0.160076038166715096E+01    0.109079088634127727E-01    0.231216222783998004E+01   -0.197334089471599050E+01   -0.126841698318705232E+00   -0.119540328515635919E+01   -0.132085627490463153E+00    0.178149695365698274E+00   -0.793169278931914468E-01    0.618733011075533260E-01   -0.106309081383608661E+01   -0.386421444027987917E+02
    0.712356970894677168E-02   -0.264475583348815988E+02    0.687272398635204951E+00    0.159624593880522148E+01    0.109407354633243095E-01    0.231150835073454264E+01   -0.177421519073005629E+01   -0.127169768082989826E+00   -0.112954903153506292E+01   -0.149671388918115544E+00    0.178656116909506280E+00   -0.792956195431682859E-01    0.593123390643891316E-01   -0.106125636439010385E+01   -0.386282593221905088E+02
    0.712356970894677168E-02   -0.264475583348815988E+02    0.687272398635204951E+00    0.159624593880522148E+01    0.109407354633243095E-01    0.231150835073454264E+01   -0.177421519073005629E+01   -0.127169768082989826E+00   -0.112954903153506292E+01   -0.149671388918115544E+00    0.178656116909506280E+00   -0.792956195431682859E-01    0.593123390643891316E-01   -0.106125636439010385E+01   -0.386282593221905088E+02
    0.708695673583110801E-02   -0.265293177822339175E+02    0.669146239777075769E+00    0.159532060551584487E+01    0.108777773277871324E-01    0.231150165530975293E+01   -0.182198228195664180E+01   -0.126610496242123727E+00   -0.124776928284004196E+01   -0.158618633407768383E+00    0.177434256329088824E+00   -0.815857928889573009E-01    0.674355335445865206E-01   -0.106421213716889551E+01   -0.386279351770000616E+02
    0.708695673583110801E-02   -0.265293177822339175E+02    0.669146239777075769E+00    0.159532060551584487E+01    0.108777773277871324E-01    0.231150165530975293E+01   -0.182198228195664180E+01   -0.126610496242123727E+00   -0.124776928284004196E+01   -0.158618633407768383E+00    0.177434256329088824E+00   -0.815857928889573009E-01    0.674355335445865206E-01   -0.106421213716889551E+01   -0.386279351770000616E+02
    0.774800023519577139E-02   -0.265214218665360519E+02    0.693562897258571898E+00    0.159484850527818289E+01    0.108862253113975981E-01    0.231174318249176247E+01   -0.187708107451191619E+01   -0.126885262451202990E+00   -0.121320615841701018E+01   -0.148367281871308931E+00    0.177873867309050693E+00   -0.819790320255444488E-01    0.522202099348076168E-01   -0.106397972678596453E+01   -0.386209789121310223E+02
    0.774800023519577139E-02   -0.265214218665360519E+02    0.693562897258571898E+00    0.159484850527818289E+01    0.108862253113975981E-01    0.231174318249176247E+01   -0.187708107451191619E+01   -0.126885262451202990E+00   -0.121320615841701018E+01   -0.148367281871308931E+00    0.177873867309050693E+00   -0.819790320255444488E-01    0.522202099348076168E-01   -0.106397972678596453E+01   -0.386209789121310223E+02
    0.710809618257808931E-02   -0.265376061034425383E+02    0.691979500830886773E+00    0.159919868708882507E+01    0.108783030420077538E-01    0.231211747379877641E+01   -0.180735254919543253E+01   -0.126542977176024279E+00   -0.126870716734689681E+01   -0.165427396635228069E+00    0.178543481272585874E+00   -0.803626357651967826E-01    0.600966307885924603E-01   -0.106102195589782133E+01   -0.386104669656162827E+02
    0.710809618257808931E-02   -0.265376061034425383E+02    0.691979500830886773E+00    0.159919868708882507E+01    0.108783030420077538E-01    0.231211747379877641E+01   -0.180735254919543253E+01   -0.126542977176024279E+00   -0.126870716734689681E+01   -0.165427396635228069E+00    0.178543481272585874E+00   -0.803626357651967826E-01    0.600966307885924603E-01   -0.106102195589782133E+01   -0.386104669656162827E+02
    0.748006394623543409E-02   -0.264668971639450952E+02    0.702521314035169708E+00    0.159874273575609660E+01    0.108972445350384878E-01    0.231034947502001797E+01   -0.156314474807728465E+01   -0.126864093263379163E+00   -0.133347434831513412E+01   -0.161231843657136859E+00    0.176370451243971355E+00   -0.809861544603598243E-01    0.572220137457955594E-01   -0.106379261506383571E+01   -0.386096017254448469E+02
    0.700693051362889178E-02   -0.265208284598815709E+02    0.692345092103004878E+00    0.160044017778468550E+01    0.108850045844016141E-01    0.231203145850401004E+01   -0.185001802912251834E+01   -0.126573302066858212E+00   -0.104371249437717806E+01   -0.150020114623911766E+00    0.177650668463100014E+00   -0.809636212653255666E-01    0.563142330472613736E-01   -0.106049874740164629E+01   -0.386094920477628349E+02
    0.751034751269248624E-02   -0.265116264991387602E+02    0.689559889406840987E+00    0.159676162564099466E+01    0.108678861975111361E-01    0.231071739103098217E+01   -0.171109196794848861E+01   -0.126645852008109794E+00   -0.117843552717243827E+01   -0.178620092425754023E+00    0.177703841956966951E+00   -0.809563245943289433E-01    0.649066974887506920E-01   -0.106046311246584035E+01   -0.386012695355507915E+02
    0.751034751269248624E-02   -0.265116264991387602E+02    0.689559889406840987E+00    0.159676162564099466E+01    0.108678861975111361E-01    0.231071739103098217E+01   -0.171109196794848861E+01   -0.126645852008109794E+00   -0.117843552717243827E+01   -0.178620092425754023E+00    0.177703841956966951E+00   -0.809563245943289433E-01    0.649066974887506920E-01   -0.106046311246584035E+01   -0.386012695355507915E+02
    0.776248632111155388E-02   -0.264576079492661371E+02    0.684330791292337315E+00    0.159765683779123746E+01    0.108939258200481011E-01    0.231184673425271026E+01   -0.185416535654837378E+01   -0.126865203778922797E+00   -0.125834459599340454E+01   -0.143651405122004805E+00    0.177488291935084447E+00   -0.802833375658385529E-01    0.578212367361122664E-01   -0.105681518861619095E+01   -0.386011607180472325E+02
    0.776248632111155388E-02   -0.264576079492661371E+02    0.684330791292337315E+00    0.159765683779123746E+01    0.108939258200481011E-01    0.231184673425271026E+01   -0.185416535654837378E+01   -0.126865203778922797E+00   -0.125834459599340454E+01   -0.143651405122004805E+00    0.177488291935084447E+00   -0.802833375658385529E-01    0.578212367361122664E-01   -0.105681518861619095E+01   -0.386011607180472325E+02
    0.633318236520976924E-02   -0.264368770826777215E+02    0.686146384131210318E+00    0.159728654391510649E+01    0.108861916651913325E-01    0.231128487048952902E+01   -0.165520489266178350E+01   -0.126789056839829106E+00   -0.125479933969800994E+01   -0.165476556246139522E+00    0.177181730748881466E+00   -0.820943746462749341E-01    0.586577270052447142E-01   -0.106422697688088297E+01   -0.386010655701312402E+02
    0.738593074274103683E-02   -0.265304860562821148E+02    0.707315738368186731E+00    0.159503554156605287E+01    0.109402630465617635E-01    0.231225607677720024E+01   -0.180260881055110556E+01   -0.127505290336555527E+00   -0.123378283606496852E+01   -0.175719704551352329E+00    0.176890023417980047E+00   -0.825678597959648014E-01    0.563851673607598872E-01   -0.105915873078673939E+01   -0.385965299139025362E+02
    0.738593074274103683E-02   -0.265304860562821148E+02    0.707315738368186731E+00    0.159503554156605287E+01    0.109402630465617635E-01    0.231225607677720024E+01   -0.180260881055110556E+01   -0.127505290336555527E+00   -0.123378283606496852E+01   -0.175719704551352329E+00    0.176890023417980047E+00   -0.825678597959648014E-01    0.563851673607598872E-01   -0.105915873078673939E+01   -0.385965299139025362E+02
    0.757161034929897808E-02   -0.264107893668093539E+02    0.690120380734230099E+00    0.159675910135341059E+01    0.109014023404333527E-01    0.231098325828070772E+01   -0.186649828930155670E+01   -0.126325930664801384E+00   -0.132644516547413160E+01   -0.143308618609878730E+00    0.177635576362397629E+00   -0.810815381720082634E-01    0.575595882618284635E-01   -0.106390469837905188E+01   -0.385952223433122299E+02
    0.700050650043101182E-02   -0.264464250960415512E+02    0.695539425760447361E+00    0.159571631730176566E+01    0.108991595078459687E-01    0.231064021531260710E+01   -0.191754459174101388E+01   -0.126487017815024999E+00   -0.112273480552241489E+01   -0.154007664996850729E+00    0.177961200670097630E+00   -0.795734500255455557E-01    0.571222972123519371E-01   -0.105869883894329475E+01   -0.385905378463847555E+02
    0.757420349673215958E-02   -0.264904683381825308E+02    0.703188433445259609E+00    0.159727891658190857E+01    0.108807985568868375E-01    0.231160457167586175E+01   -0.183235576675446432E+01   -0.126880168224074108E+00   -0.114376991544100792E+01   -0.127540886980405110E+00    0.176088568880935936E+00   -0.825833594075526811E-01    0.600919694656202943E-01   -0.106205033356500200E+01   -0.385884427312923890E+02
    0.757420349673215958E-02   -0.264904683381825308E+02    0.703188433445259609E+00    0.159727891658190857E+01    0.108807985568868375E-01    0.231160457167586175E+01   -0.183235576675446432E+01   -0.126880168224074108E+00   -0.114376991544100792E+01   -0.127540886980405110E+00    0.176088568880935936E+00   -0.825833594075526811E-01    0.600919694656202943E-01   -0.106205033356500200E+01   -0.385884427312923890E+02
    0.728471171875634971E-02   -0.264325434271654842E+02    0.681958976850172371E+00    0.159678777029600694E+01    0.109352970283320972E-01    0.231189484467568063E+01   -0.171722044586637979E+01   -0.126731052735366778E+00   -0.133413513970953090E+01   -0.170117143707778917E+00    0.178296331968542193E+00   -0.803793720865829259E-01    0.709310957482878479E-01   -0.106095432286527447E+01   -0.385873169737117721E+02
    0.808454680849037682E-02   -0.265617922796982029E+02    0.686871977351274698E+00    0.159575395427800637E+01    0.109271904413504126E-01    0.231070220087918576E+01   -0.175155818384029960E+01   -0.126542109921473245E+00   -0.120817155586163194E+01   -0.152467604247243871E+00    0.177010647552182321E+00   -0.818197678860511646E-01    0.582977258441092147E-01   -0.106398814694873622E+01   -0.385854892317264344E+02
    0.680378206032029604E-02   -0.264619409401119512E+02    0.692502052571710824E+00    0.159859498220093155E+01    0.108893315415948769E-01    0.231120676136627212E+01   -0.176976607138090181E+01   -0.126051494402659947E+00   -0.949057732461018877E+00   -0.154576083918070983E+00    0.177766144988006719E+00   -0.809211915914317403E-01    0.581207607200165052E-01   -0.105989405711273621E+01   -0.385823102006718130E+02
    0.720163522790600186E-02   -0.265591655367738007E+02    0.694287712527557832E+00    0.159843151102026293E+01    0.109448630694169973E-01    0.231042452611235394E+01   -0.172639749767563355E+01   -0.127123739865040719E+00   -0.109981548719195432E+01   -0.139588846160723978E+00    0.177995945824004048E+00   -0.813998165444512478E-01    0.631880535383990416E-01   -0.105924859227602952E+01   -0.385809104020002636E+02
    0.694488830930512294E-02   -0.264928591175754349E+02    0.681712454218207475E+00    0.159635964562208454E+01    0.109070446960219166E-01    0.231090963057376264E+01   -0.187126637765462900E+01   -0.126434576860622594E+00   -0.116617250613367074E+01   -0.163101099981331932E+00    0.178267948041481411E+00   -0.835119339183487547E-01    0.652525081527767919E-01   -0.106192541802442553E+01   -0.385797685055219333E+02
    0.699713709138219311E-02   -0.264816122040310056E+02    0.692831460057985904E+00    0.159779481751620223E+01    0.108885933715763706E-01    0.231093522155600484E+01   -0.180355842297990976E+01   -0.127356172394994638E+00   -0.121538600806085895E+01   -0.160979775137629399E+00    0.179521957912631230E+00   -0.842611954420998122E-01    0.588817631842384059E-01   -0.106145876761093705E+01   -0.385787537758633832E+02
    0.699713709138219311E-02   -0.264816122040310056E+02    0.692831460057985904E+00    0.159779481751620223E+01    0.108885933715763706E-01    0.231093522155600484E+01   -0.180355842297990976E+01   -0.127356172394994638E+00   -0.121538600806085895E+01   -0.160979775137629399E+00    0.179521957912631230E+00   -0.842611954420998122E-01    0.588817631842384059E-01   -0.106145876761093705E+01   -0.385787537758633832E+02
    0.735811535055834725E-02   -0.265108775316817002E+02    0.699698963099487092E+00    0.159738989578723345E+01    0.108651274645589213E-01    0.231109301382575349E+01   -0.175241209325415892E+01   -0.126834910188038663E+00   -0.113968947973631041E+01   -0.140075307505295149E+00    0.178281150604766681E+00   -0.805101920241363400E-01    0.575390857948902962E-01   -0.106184342564378720E+01   -0.385775767996448948E+02
    0.680431510004258187E-02   -0.264627759741155799E+02    0.682768155493266637E+00    0.159677092836277890E+01    0.108822115338307827E-01    0.231205935852014566E+01   -0.190793396033720741E+01   -0.126702763817166303E+00   -0.116634886028481954E+01   -0.146587727772825055E+00    0.177451386422977586E+00   -0.800964864418339667E-01    0.591538661298811400E-01   -0.106681344539978551E+01   -0.385767250006609146E+02
    0.734453487885880670E-02   -0.264566939266862882E+02    0.713687206695967746E+00    0.159596643816797679E+01    0.108918102943490625E-01    0.231257022005288793E+01   -0.186178689087704630E+01   -0.126611939194656992E+00   -0.109283729507855853E+01   -0.152487812661531968E+00    0.178588259574065988E+00   -0.800612013477981915E-01    0.609525224149501180E-01   -0.106444881888829412E+01   -0.385765366414847293E+02
    0.734453487885880670E-02   -0.264566939266862882E+02    0.713687206695967746E+00    0.159596643816797679E+01    0.108918102943490625E-01    0.231257022005288793E+01   -0.186178689087704630E+01   -0.126611939194656992E+00   -0.109283729507855853E+01   -0.152487812661531968E+00    0.178588259574065988E+00   -0.800612013477981915E-01    0.609525224149501180E-01   -0.106444881888829412E+01   -0.385765366414847293E+02
    0.748972821824739256E-02   -0.265454020775638533E+02    0.691126737627008936E+00    0.159825255153481205E+01    0.108854957819483015E-01    0.231103702274443235E+01   -0.182481804148610749E+01   -0.126435328963684368E+00   -0.124537041284591687E+01   -0.154229186626752446E+00    0.178050267408924823E+00   -0.801021463076613260E-01    0.610227231365697287E-01   -0.106544128625087797E+01   -0.385759922492722680E+02
    0.705041670746352038E-02   -0.265272635957237668E+02    0.691278861474816875E+00    0.159770565162094047E+01    0.109243208127568041E-01    0.231155124686324198E+01   -0.194412501914768887E+01   -0.127002471899472558E+00   -0.139223361123505085E+01   -0.150661124413392911E+00    0.178301902617043317E+00   -0.821239588514809521E-01    0.618551979930844487E-01   -0.105962130222387141E+01   -0.385756635822460652E+02
    0.710956574439873101E-02   -0.263996268306221893E+02    0.691088284866946623E+00    0.159908648940525899E+01    0.108871694183034912E-01    0.231108805409919915E+01   -0.192071367771100054E+01   -0.127063145263691529E+00   -0.130814240375174018E+01   -0.148224152203053738E+00    0.177486477687355509E+00   -0.842626984846044230E-01    0.605933147992642196E-01   -0.106041007169630053E+01   -0.385754829461159403E+02
    0.702177258826756304E-02   -0.264628775787625230E+02    0.695228909786459126E+00    0.159724963072212955E+01    0.108988897912485512E-01    0.231230187262281550E+01   -0.175299584255165053E+01   -0.126534238096827539E+00   -0.894057782922696553E+00   -0.151464071942482931E+00    0.175408178749877935E+00   -0.817843495589755110E-01    0.568692234588351192E-01   -0.105975147764407884E+01   -0.385750296505464334E+02
    0.653807089078633184E-02   -0.264921600161111179E+02    0.697716397528686416E+00    0.159738992220271125E+01    0.109433250841527354E-01    0.231085002697532271E+01   -0.190380728144071520E+01   -0.127266301475694149E+00   -0.117009755649464608E+01   -0.129048694984869927E+00    0.177512482189983112E+00   -0.813099117894428014E-01    0.656773478449763776E-01   -0.106437390552275990E+01   -0.385745276173089451E+02
    0.698506403454978147E-02   -0.265074818166718913E+02    0.692153089998371884E+00    0.159681014447421310E+01    0.109069160260379869E-01    0.231160183216762816E+01   -0.204429549850127490E+01   -0.126815924544406433E+00   -0.116523518078266664E+01   -0.136686382637703718E+00    0.177144459977939067E+00   -0.806674068561011592E-01    0.574700527374227832E-01   -0.106306827215092126E+01   -0.385743169834485471E+02
    0.722273532709977358E-02   -0.265311994939573061E+02    0.676180808513679121E+00    0.159455941237713339E+01    0.109157655539613967E-01    0.231085253319465922E+01   -0.190300679999902700E+01   -0.126739315372885242E+00   -0.112648949719106173E+01   -0.142812377774736210E+00    0.177551652019332457E+00   -0.834898159267877249E-01    0.621354649488677149E-01   -0.106471018116468330E+01   -0.385737664740835626E+02
    0.722273532709977358E-02   -0.265311994939573061E+02    0.676180808513679121E+00    0.159455941237713339E+01    0.109157655539613967E-01    0.231085253319465922E+01   -0.190300679999902700E+01   -0.126739315372885242E+00   -0.112648949719106173E+01   -0.142812377774736210E+00    0.177551652019332457E+00   -0.834898159267877249E-01    0.621354649488677149E-01   -0.106471018116468330E+01   -0.385737664740835626E+02
    0.776675454670951951E-02   -0.264185287252971719E+02    0.699023714760036108E+00    0.159755878014682828E+01    0.109216033191050551E-01    0.231262148242569321E+01   -0.179595573466841008E+01   -0.126360973819028194E+00   -0.104047817386318853E+01   -0.144627901602073478E+00    0.174889870321100566E+00   -0.818122067653289375E-01    0.597491334149381562E-01   -0.106480391522392104E+01   -0.385723872781882733E+02
    0.724498975717504431E-02   -0.265196631368037075E+02    0.681587448532309459E+00    0.159847157484822699E+01    0.109278135109199780E-01    0.231195661206377334E+01   -0.179923973964508677E+01   -0.126708240029013319E+00   -0.123119943726097092E+01   -0.141975217534457632E+00    0.176634052682922121E+00   -0.806617149976416453E-01    0.619161634623415086E-01   -0.106040823377092552E+01   -0.385721651791499980E+02
    0.763525008527726062E-02   -0.265072545735335012E+02    0.690919474666262468E+00    0.159910336541688003E+01    0.109224569828543124E-01    0.231227289714413997E+01   -0.191279081194796019E+01   -0.126856223698934595E+00   -0.119919565840942521E+01   -0.143377428875432394E+00    0.178080437534358788E+00   -0.817079679101907902E-01    0.606936467134747207E-01   -0.106235287381075660E+01   -0.385703534450209631E+02
    0.730002457492361784E-02   -0.265841377478438794E+02    0.696756768167560270E+00    0.159427550832318166E+01    0.108734701716304560E-01    0.231191262547527865E+01   -0.183967226550431939E+01   -0.126335479193310063E+00   -0.116689698343648596E+01   -0.142073745048800298E+00    0.177482760921759408E+00   -0.812836092909440117E-01    0.603157637862619320E-01   -0.106189129323526110E+01   -0.385689835493040576E+02
    0.739232690374188196E-02   -0.265549905987270307E+02    0.703984312495082531E+00    0.159550771118741475E+01    0.109370881693750619E-01    0.231112488117442538E+01   -0.176073001353313741E+01   -0.126862793620051151E+00   -0.118222205418926629E+01   -0.114792500639406575E+00    0.177294964279846229E+00   -0.803132327114389200E-01    0.665610749091363751E-01   -0.106388302859410411E+01   -0.385662761899106243E+02
    0.635370970319955580E-02   -0.265500987829434010E+02    0.681463577434840539E+00    0.159621686285044961E+01    0.109293057031030899E-01    0.231024630116229623E+01   -0.173998854199473563E+01   -0.126960007536361691E+00   -0.120392205796704865E+01   -0.172113687573776569E+00    0.177888861819408634E+00   -0.820037931853986740E-01    0.697621387475431814E-01   -0.105862384773496232E+01   -0.385658299741177899E+02
    0.611952099857009015E-02   -0.264785602050183932E+02    0.709854480785535924E+00    0.159725801123258315E+01    0.108851192880401199E-01    0.231274530664285916E+01   -0.178092695536904944E+01   -0.126511746918717360E+00   -0.114472008572268846E+01   -0.158124011442891260E+00    0.176430154423230984E+00   -0.801565888124093490E-01    0.595152410107432986E-01   -0.106339414963375822E+01   -0.385640545163825124E+02
    0.666512962912676685E-02   -0.266211930635861265E+02    0.677722442578488349E+00    0.159738623128596569E+01    0.109226421667013643E-01    0.231220826493515874E+01   -0.174581800689220312E+01   -0.126849342149991051E+00   -0.125121127093645468E+01   -0.150101193265014365E+00    0.176931272899804592E+00   -0.809377948850621282E-01    0.646390620556786255E-01   -0.106285055518083649E+01   -0.385605866421431074E+02
    0.758414381009278431E-02   -0.265588792849054549E+02    0.684319279150407911E+00    0.159647018735351076E+01    0.108930254875556042E-01    0.231052446041447057E+01   -0.172207451859289584E+01   -0.127377006888500094E+00   -0.125577444775849600E+01   -0.156577848120207502E+00    0.178340370386946584E+00   -0.805731254282925913E-01    0.643987569677035993E-01   -0.105925510011157242E+01   -0.385588976328108615E+02
    0.647849790134944967E-02   -0.264816032884581638E+02    0.697563478845817264E+00    0.159596683839806008E+01    0.108983411439250218E-01    0.231071124737732836E+01   -0.190286814870883436E+01   -0.126823206525650184E+00   -0.116327871911277225E+01   -0.153511587985515979E+00    0.176526329726348352E+00   -0.820454107826651541E-01    0.589688657824624513E-01   -0.105917429523547857E+01   -0.385562965980020564E+02
    0.687359077836022757E-02   -0.264906322244222316E+02    0.685803688854639826E+00    0.159848268306103991E+01    0.109239591697898285E-01    0.231159438907400583E+01   -0.186924488696503288E+01   -0.126845016146614475E+00   -0.115781578792110085E+01   -0.159865357923936580E+00    0.176222298751223333E+00   -0.821667100190715954E-01    0.640801613242344970E-01   -0.106690673230701427E+01   -0.385556130168482341E+02
    0.821089612474075470E-02   -0.265186143148948084E+02    0.704316449047959647E+00    0.159603519910991221E+01    0.109091354012164476E-01    0.231166189157185542E+01   -0.182839673620220400E+01   -0.126821488017974049E+00   -0.972887944059855458E+00   -0.153976912372276259E+00    0.179848183724136829E+00   -0.803203623927957050E-01    0.619838133279025094E-01   -0.106126554514499083E+01   -0.385554528047525267E+02
    0.672974721890629707E-02   -0.265341564689020473E+02    0.689240021150494431E+00    0.159740863220492146E+01    0.109001157111006646E-01    0.231133673590037514E+01   -0.168818236994208770E+01   -0.126703396492816006E+00   -0.123098724785595026E+01   -0.157438284615755708E+00    0.179482637848452697E+00   -0.835724608278810011E-01    0.626215395298520966E-01   -0.106455469088376597E+01   -0.385530055403078009E+02
    0.650850720074033339E-02   -0.264716762298070769E+02    0.693336957666014664E+00    0.159780595442214834E+01    0.108828240683368684E-01    0.231214951402697322E+01   -0.204511122600448614E+01   -0.126657323904215052E+00   -0.116639293318574100E+01   -0.154234942504754724E+00    0.176329465529016294E+00   -0.787524683978743784E-01    0.622284130243239419E-01   -0.106390075029951792E+01   -0.385527459681866347E+02
    0.734761412029983664E-02   -0.265788094580813663E+02    0.690019332678964759E+00    0.159703288054367776E+01    0.109001630436232292E-01    0.231090602676639856E+01   -0.180489319251996094E+01   -0.126947450908678511E+00   -0.121424171945804305E+01   -0.156027591987694059E+00    0.177579459363741560E+00   -0.829239394234086019E-01    0.618391946668207723E-01   -0.106175665890043947E+01   -0.385522434529936646E+02
    0.701482124407928811E-02   -0.264649959752092983E+02    0.686968865016660324E+00    0.159841768578823751E+01    0.109213536716625120E-01    0.231129871840561574E+01   -0.179332892015267853E+01   -0.126756013105737281E+00   -0.112664274622064808E+01   -0.145214236495318921E+00    0.176627102236071504E+00   -0.828499836794789613E-01    0.620451170149992834E-01   -0.105678365744232905E+01   -0.385515504634379695E+02
    0.747210914984069649E-02   -0.264647875841954772E+02    0.702027600459306567E+00    0.159651922472187557E+01    0.109114818890966910E-01    0.231166545215907204E+01   -0.190572310382182830E+01   -0.126426037947114989E+00   -0.114010519581696457E+01   -0.158375959419099960E+00    0.176600438173773217E+00   -0.830430045173233267E-01    0.664044823498423087E-01   -0.105837662514150765E+01   -0.385515161768344470E+02
    0.683247499692024238E-02   -0.264871248214638193E+02    0.703032079747422878E+00    0.159662560937795028E+01    0.109398005725447230E-01    0.231125315170734558E+01   -0.182092484418404776E+01   -0.126658842231195723E+00   -0.121669616785668366E+01   -0.149502728597793705E+00    0.174990400704479160E+00   -0.821896279639467570E-01    0.610274528334623645E-01   -0.106138869767268362E+01   -0.385511957850372440E+02
    0.693373393034555242E-02   -0.264073602654485597E+02    0.700360974446485707E+00    0.159565744036225099E+01    0.109163411300245497E-01    0.231037887994255087E+01   -0.184061575711160663E+01   -0.126894010152313413E+00   -0.130642779892827954E+01   -0.132458201890836264E+00    0.176751826546057172E+00   -0.817455853602501586E-01    0.642745841093279313E-01   -0.106220965588476890E+01   -0.385500898570308124E+02
    0.725298353766512180E-02   -0.264955994104630932E+02    0.690894208817918742E+00    0.159563609067223600E+01    0.109295631106905693E-01    0.231125729441190630E+01   -0.181150754911158596E+01   -0.126250070822798544E+00   -0.122934913351823205E+01   -0.167400494832150221E+00    0.175749019766669790E+00   -0.801564673105608916E-01    0.682204600500204844E-01   -0.106488311196134355E+01   -0.385478609998958746E+02
    0.722301381554606246E-02   -0.265204154169625035E+02    0.687438130517178392E+00    0.159932437767267244E+01    0.109135085823292149E-01    0.231119452986005225E+01   -0.178457378578255721E+01   -0.126365434399932391E+00   -0.112421584055033885E+01   -0.161605933096084314E+00    0.175231400018992428E+00   -0.812130538635263410E-01    0.662765747896107288E-01   -0.106261300430184269E+01   -0.385476612127978342E+02
    0.737304405547738791E-02   -0.265332473308017036E+02    0.700526047561745413E+00    0.159518456491912519E+01    0.109219455710849924E-01    0.231164951265409879E+01   -0.174795353774239959E+01   -0.126712928578499140E+00   -0.123133866665315139E+01   -0.150607659573259500E+00    0.177502495781948821E+00   -0.835330827306773327E-01    0.627426306448313625E-01   -0.106162160580738196E+01   -0.385474091934829133E+02
    0.762552566888096556E-02   -0.264966009598113637E+02    0.693165333979350318E+00    0.159759578444639527E+01    0.109241967835347845E-01    0.231208633502992811E+01   -0.176609966070980828E+01   -0.126766896669259999E+00   -0.128363960886857620E+01   -0.156166551166327799E+00    0.176481745102316789E+00   -0.807473691793683113E-01    0.702064287037685031E-01   -0.106036401656699009E+01   -0.385163976054443680E+02
    0.702284073519152986E-02   -0.264377235387216913E+02    0.702339751420136826E+00    0.159794839017838042E+01    0.109192588827595801E-01    0.231204850928267414E+01   -0.197678691155549724E+01   -0.126972994230199671E+00   -0.121421791685178770E+01   -0.153545307359027688E+00    0.178333218955761486E+00   -0.800968035197822392E-01    0.672481824515645532E-01   -0.105868781485002605E+01   -0.385396319550446194E+02
    0.713556146717119703E-02   -0.264968717589724569E+02    0.701654005182512974E+00    0.159505870832186991E+01    0.108818608841029524E-01    0.231044910640118895E+01   -0.171121982568480058E+01   -0.126496408098854068E+00   -0.114362063150329663E+01   -0.157987103059075346E+00    0.180404952035746718E+00   -0.820170032653456393E-01    0.646487910149312617E-01   -0.106035953551137729E+01   -0.385346018120017035E+02
    0.702111839914057196E-02   -0.264820773142389214E+02    0.699679185826517780E+00    0.159716665024568916E+01    0.109013804111238038E-01    0.231138738170658575E+01   -0.179469779614203118E+01   -0.126449907962385810E+00   -0.118037820484613998E+01   -0.157271062880224521E+00    0.179207367569887144E+00   -0.819285738625457061E-01    0.629574118090447388E-01   -0.106010241241208814E+01   -0.385430330451035204E+02
    0.753451775567980011E-02   -0.264752960795009535E+02    0.697822649039252840E+00    0.159792564021088568E+01    0.109283457734237772E-01    0.231162752036119290E+01   -0.165372168995551538E+01   -0.126732451540318841E+00   -0.129204316474930736E+01   -0.133282751802196675E+00    0.177442818302195437E+00   -0.821146174184962385E-01    0.656520862684962930E-01   -0.106080559779989314E+01   -0.385280931244013800E+02
    0.739337831930473362E-02   -0.264910162654298382E+02    0.688747178863815646E+00    0.159772788423915690E+01    0.108769502733043651E-01    0.231151094688760050E+01   -0.199827099390566953E+01   -0.126775270899262965E+00   -0.121297423939728088E+01   -0.153779038915022009E+00    0.181426342356764719E+00   -0.818231469736396405E-01    0.672245140871683411E-01   -0.105771786481813490E+01   -0.385387205749609763E+02
    0.725966783179605567E-02   -0.264911680066970021E+02    0.703171665572524640E+00    0.159592643683903312E+01    0.109268988242370926E-01    0.231145491138951664E+01   -0.190017001026332721E+01   -0.126825681197972301E+00   -0.130327666721739210E+01   -0.137084176004815567E+00    0.177222088179378706E+00   -0.830957331320169995E-01    0.646583604094111419E-01   -0.106248078387046729E+01   -0.385364753426668045E+02
    0.725041744206412000E-02   -0.265347737565942801E+02    0.701422264715025112E+00    0.159949463355836596E+01    0.109000452096784575E-01    0.231126115097409324E+01   -0.181936819756208323E+01   -0.126569440699505459E+00   -0.115137908765890873E+01   -0.139886062812595913E+00    0.177165088647999652E+00   -0.829331270404496668E-01    0.635138089581747528E-01   -0.106168216990812847E+01   -0.385370772364094520E+02
    0.709722346950867732E-02   -0.265135508625859551E+02    0.693103685646091261E+00    0.159562867021960364E+01    0.108778529125605032E-01    0.231200167537258228E+01   -0.189423883176175978E+01   -0.126741076629269533E+00   -0.976428459793562187E+00   -0.157087767850311144E+00    0.179331073542460862E+00   -0.817950251646012705E-01    0.632417553765513979E-01   -0.106564062460171050E+01   -0.385419613374591563E+02
    0.698296049316110123E-02   -0.264905473987842370E+02    0.697359468967536533E+00    0.159727367749865534E+01    0.109202009927682839E-01    0.231112713698182892E+01   -0.194980432574331397E+01   -0.126773911026514335E+00   -0.131638791043618864E+01   -0.150071676637023282E+00    0.173347362832390356E+00   -0.810822530693920823E-01    0.671277093356316551E-01   -0.106274636390339294E+01   -0.385282130269248455E+02
    0.730161317973467699E-02   -0.265562108972657569E+02    0.695352577713316267E+00    0.159868468555891363E+01    0.109150814744169624E-01    0.231088087421841060E+01   -0.182474480720473986E+01   -0.126760039264979057E+00   -0.127934615105353133E+01   -0.164569500687868825E+00    0.175649404634015543E+00   -0.803009137400187145E-01    0.692688452724553594E-01   -0.106318985489560536E+01   -0.385346257952940832E+02
    0.712803394804032309E-02   -0.264795156938732532E+02    0.700173629459355351E+00    0.159737298438227193E+01    0.109115951576267290E-01    0.231097267294211850E+01   -0.196585285786495301E+01   -0.126664240793331856E+00   -0.105875304241755153E+01   -0.154024925732393320E+00    0.176790024956005543E+00   -0.816246399537704365E-01    0.644893810997766020E-01   -0.106782314188456917E+01   -0.385263037121875414E+02
    0.733812327696347667E-02   -0.265035877462184537E+02    0.688964219754330975E+00    0.159999819419510025E+01    0.108724554574507332E-01    0.231146604752494778E+01   -0.189778856686485309E+01   -0.127052750594320113E+00   -0.103038769218874826E+01   -0.159378134877604632E+00    0.176811916708325662E+00   -0.834856343041730092E-01    0.685589440194514649E-01   -0.106359838590843392E+01   -0.385378295257712438E+02
    0.739748177543788146E-02   -0.264750679787805971E+02    0.680699266629803290E+00    0.159620652306269939E+01    0.109196095360896278E-01    0.231144188629781411E+01   -0.185085733464672519E+01   -0.126540449016426720E+00   -0.964229016760562940E+00   -0.152148227366463634E+00    0.177281239662752027E+00   -0.825948454121790826E-01    0.736585368265271628E-01   -0.106425380020266713E+01   -0.385395204205726287E+02
    0.734795117669625065E-02   -0.264724884567439638E+02    0.698269692077769344E+00    0.159580974855583291E+01    0.109024920416970084E-01    0.231160999510803933E+01   -0.187261614638016627E+01   -0.126836211891081824E+00   -0.115635447320422635E+01   -0.167638761162993394E+00    0.176493785636312822E+00   -0.815387361383104886E-01    0.682184675324936096E-01   -0.106428603495635898E+01   -0.385411127222354253E+02
    0.699524316644059042E-02   -0.264980202674450247E+02    0.691156529629859406E+00    0.159798010200028817E+01    0.109072225784845444E-01    0.231201894525749951E+01   -0.186018354965838739E+01   -0.126658106087471106E+00   -0.117396227228150662E+01   -0.152093259749906978E+00    0.176705655308183551E+00   -0.808071225529654324E-01    0.650328234248021692E-01   -0.105880060978884805E+01   -0.385276480882436303E+02
    0.711375097202952226E-02   -0.265226689121722323E+02    0.704944086808433457E+00    0.159720044303955655E+01    0.109043579270046154E-01    0.231145755848090806E+01   -0.171980876445849695E+01   -0.127023949478437786E+00   -0.125457873213483606E+01   -0.134755193119963507E+00    0.175405883013186326E+00   -0.821675371498653967E-01    0.649365971721062168E-01   -0.106269170898010334E+01   -0.385394320789723750E+02
    0.650682395706946113E-02   -0.265422647782750438E+02    0.704892651707542006E+00    0.159516455562389181E+01    0.109124604015888669E-01    0.231205930055552900E+01   -0.164692907126670862E+01   -0.126929637132811274E+00   -0.131304967928161065E+01   -0.159235454456583936E+00    0.176888208969001232E+00   -0.817276491923019655E-01    0.655693676800381958E-01   -0.106038218959526165E+01   -0.385298883468082636E+02
    0.707431368942611390E-02   -0.264811750631120439E+02    0.697217133858173965E+00    0.159690863122610871E+01    0.109330485860433431E-01    0.231076994250949186E+01   -0.187185627645424857E+01   -0.126907417730272892E+00   -0.124265388822124567E+01   -0.138411872513541340E+00    0.174780801550290688E+00   -0.812056131519916097E-01    0.635991071977645844E-01   -0.106353905524062187E+01   -0.385384237080834353E+02
    0.710322934725101784E-02   -0.265680176212931158E+02    0.693965774341084751E+00    0.159704259463969689E+01    0.108961062752881040E-01    0.231185985511724823E+01   -0.172408197185996825E+01   -0.126792092709921950E+00   -0.156727382604397270E+01   -0.147491465955945977E+00    0.176435381307678329E+00   -0.815114789611861845E-01    0.669805030539230434E-01   -0.106951804396319838E+01   -0.385403286305034811E+02
    0.706954369702048838E-02   -0.264374740308174339E+02    0.693432799299913971E+00    0.159803437911874213E+01    0.108947654556698012E-01    0.231147760604865793E+01   -0.173683864458418347E+01   -0.126170763469308694E+00   -0.127162496023529936E+01   -0.143017152620919963E+00    0.175421227926570555E+00   -0.795662933429475416E-01    0.633857426084562386E-01   -0.106600852463811369E+01   -0.385415294845481711E+02
    0.714169654017708135E-02   -0.265439794286849633E+02    0.696703665602164568E+00    0.159406860561729569E+01    0.109012692209212829E-01    0.230994132653991402E+01   -0.173418479918707003E+01   -0.127358436933841052E+00   -0.126574745220316753E+01   -0.157446597385234199E+00    0.176051245009205520E+00   -0.786844623324371856E-01    0.650195236935992432E-01   -0.106279962648139170E+01   -0.385355204539929943E+02
    0.667420193058720045E-02   -0.265533573182513116E+02    0.689433347765212035E+00    0.159551566865757954E+01    0.109234416259108933E-01    0.231144745176608968E+01   -0.168684591870057776E+01   -0.126510030854595917E+00   -0.104369854549806207E+01   -0.161615732288040326E+00    0.178131330033889201E+00   -0.819824984536648843E-01    0.708645541038544352E-01   -0.106329115229601023E+01   -0.385021935935398005E+02
    0.655917483835481534E-02   -0.265984503826844936E+02    0.690464585824720700E+00    0.159602571064208809E+01    0.109212477722195264E-01    0.231170993686761284E+01   -0.180932370272355136E+01   -0.126366881412285720E+00   -0.111441647030475344E+01   -0.137310290038976685E+00    0.174633202988993957E+00   -0.821802200100696101E-01    0.609622681993354440E-01   -0.106396487148815022E+01   -0.385358703688278226E+02
    0.664953656306534018E-02   -0.265863759875848693E+02    0.688712242877535741E+00    0.159497061901839210E+01    0.108772505999357103E-01    0.231171365286578023E+01   -0.195154217498347493E+01   -0.126847567188848181E+00   -0.122239833658676234E+01   -0.146826041862002432E+00    0.177851272059997040E+00   -0.812489660875227310E-01    0.685285703261229590E-01   -0.106367197716156525E+01   -0.385131751534390858E+02
    0.636580336982890162E-02   -0.265785688753215332E+02    0.694577310260108383E+00    0.159631040471077745E+01    0.108655354702495762E-01    0.231138999298839209E+01   -0.167225647136571531E+01   -0.126652426511790067E+00   -0.126080084610333398E+01   -0.147804283641869372E+00    0.176023333615495464E+00   -0.806129202337143302E-01    0.658376978063298646E-01   -0.106264949134261855E+01   -0.385167014580189786E+02
    0.655849653703829191E-02   -0.265253311541881018E+02    0.685852354297105338E+00    0.159532806962112761E+01    0.109169151160821848E-01    0.231204278063315272E+01   -0.180124968978383282E+01   -0.126597903717144439E+00   -0.118325456203485713E+01   -0.148318802821827050E+00    0.176011507246431276E+00   -0.818290088133457882E-01    0.640973197796492061E-01   -0.106701864713154926E+01   -0.385348853067690840E+02
    0.623111260281282529E-02   -0.265812024841539731E+02    0.686410662332422761E+00    0.159824559738564265E+01    0.108856869557207529E-01    0.231125996260187838E+01   -0.190179764478915869E+01   -0.127044074883209013E+00   -0.123719132267335818E+01   -0.133519105536268529E+00    0.176870006264738283E+00   -0.808036834849293339E-01    0.629080891509020135E-01   -0.105620084892240707E+01   -0.385421424307135609E+02
    0.632096261425540897E-02   -0.265750118641491646E+02    0.684495187505023139E+00    0.159438921157540037E+01    0.108851120976858427E-01    0.231142214950291081E+01   -0.176201577864478254E+01   -0.126600789819659748E+00   -0.117915564760675440E+01   -0.151801872153613432E+00    0.177609588968269644E+00   -0.814606690468438893E-01    0.660441964475045051E-01   -0.106239661647220807E+01   -0.385304660040844951E+02
    0.713667423370985699E-02   -0.264881391902482441E+02    0.691966079631555653E+00    0.159733811436589401E+01    0.109220152532753627E-01    0.231142030597047032E+01   -0.168357727870011753E+01   -0.126521349122260818E+00   -0.122675673465018686E+01   -0.154280877303044267E+00    0.176613907258124120E+00   -0.813781457522439466E-01    0.642032072544190674E-01   -0.106589935334051877E+01   -0.385395462877883261E+02
    0.686627371976235128E-02   -0.265576963295986026E+02    0.695213657376404504E+00    0.159653785569099571E+01    0.109083022289464485E-01    0.231140372347497891E+01   -0.189065414183830249E+01   -0.126455441631623422E+00   -0.119704777569880405E+01   -0.135678000614103622E+00    0.176658648962331827E+00   -0.814116363646248953E-01    0.621150097252202923E-01   -0.106538103265662776E+01   -0.385301854053626727E+02
    0.687542484386294544E-02   -0.264919593818723769E+02    0.701288071509543531E+00    0.159613724026369819E+01    0.108910445349308053E-01    0.231105496824053835E+01   -0.204070062063063107E+01   -0.126810649509352447E+00   -0.102689124878801419E+01   -0.149477562585974777E+00    0.175674023762229098E+00   -0.814239926074529913E-01    0.692703348732863350E-01   -0.106343605679833209E+01   -0.385221119851054254E+02
    0.690634066218153656E-02   -0.264642935479737211E+02    0.694957867137342089E+00    0.159698141965925777E+01    0.108935267953400722E-01    0.231137440924201076E+01   -0.199920472265504756E+01   -0.126381180989563580E+00   -0.112996324272208648E+01   -0.142832100845782073E+00    0.176865392334531663E+00   -0.797084680424879760E-01    0.658942784338226173E-01   -0.106245881673847142E+01   -0.385177900266367530E+02
    0.742984559053001727E-02   -0.265132298618404327E+02    0.694739432636908072E+00    0.159743273762417570E+01    0.108776080455336762E-01    0.231145642981000821E+01   -0.180593147900213302E+01   -0.126666848760680129E+00   -0.121908344088515519E+01   -0.157735593980195793E+00    0.173566847495745830E+00   -0.797415671940607390E-01    0.661886035191766725E-01   -0.106331276582006562E+01   -0.385412038010843574E+02
    0.753600723874294724E-02   -0.264939866446283148E+02    0.684192253856135135E+00    0.159700074679651172E+01    0.109079414749711622E-01    0.231040926540023550E+01   -0.184890965739770441E+01   -0.126567469692795143E+00   -0.113658058497465531E+01   -0.142015639620791112E+00    0.176284336669769670E+00   -0.801571121257370067E-01    0.674055750073974946E-01   -0.106685306561630178E+01   -0.385188578649596920E+02
    0.708965780798110658E-02   -0.265361083347788380E+02    0.698319347435236493E+00    0.159644246813324453E+01    0.109267556106024608E-01    0.231119960413610048E+01   -0.172062679705638844E+01   -0.126969578860857052E+00   -0.132021407999166218E+01   -0.158914265696428886E+00    0.174063135258517576E+00   -0.818313216361871015E-01    0.668215154903063213E-01   -0.106310295127283760E+01   -0.385374642714382531E+02
