    0.361829164764794348E-01   -0.166903638749537251E+02    0.448497637731158139E+00    0.145011259279218296E+01    0.674055132036020192E-02    0.134462530630836041E+01   -0.207387950443123747E+01   -0.212119549865996265E+00   -0.171642355878481923E+00   -0.945971872037970896E-01   -0.859509269185711744E-01   -0.219435249913989078E+00   -0.437837320646410205E-01   -0.105960497773386786E+01   -0.388969032008443794E+01
    0.361829164764794348E-01   -0.166903638749537251E+02    0.448497637731158139E+00    0.145011259279218296E+01    0.674055132036020192E-02    0.134462530630836041E+01   -0.207387950443123747E+01   -0.212119549865996265E+00   -0.171642355878481923E+00   -0.945971872037970896E-01   -0.859509269185711744E-01   -0.219435249913989078E+00   -0.437837320646410205E-01   -0.105960497773386786E+01   -0.388969032008443794E+01
    0.365645203090714660E-01   -0.166696399608132388E+02    0.446489491100319713E+00    0.144945006749626049E+01    0.678233026332278333E-02    0.134335562157170085E+01   -0.158293603583654430E+01   -0.211229641353355396E+00   -0.167983857089195304E+00   -0.900593141345991804E-01   -0.844614892302163189E-01   -0.198342599219230586E+00   -0.440058423559941195E-01   -0.108563683613201856E+01   -0.387529749566654802E+01
    0.365645203090714660E-01   -0.166696399608132388E+02    0.446489491100319713E+00    0.144945006749626049E+01    0.678233026332278333E-02    0.134335562157170085E+01   -0.158293603583654430E+01   -0.211229641353355396E+00   -0.167983857089195304E+00   -0.900593141345991804E-01   -0.844614892302163189E-01   -0.198342599219230586E+00   -0.440058423559941195E-01   -0.108563683613201856E+01   -0.387529749566654802E+01
    0.354754301153465262E-01   -0.167243965394727852E+02    0.450468245743047946E+00    0.144844587063770436E+01    0.688569064133888551E-02    0.133982397690444377E+01   -0.197262853524914084E+01   -0.211146798630236221E+00   -0.194483219566087773E+00   -0.101893738905170048E+00   -0.869571647527579289E-01   -0.190554955178816571E+00   -0.419360562854102434E-01   -0.107993427192017166E+01   -0.387366308921207603E+01
    0.354754301153465262E-01   -0.167243965394727852E+02    0.450468245743047946E+00    0.144844587063770436E+01    0.688569064133888551E-02    0.133982397690444377E+01   -0.197262853524914084E+01   -0.211146798630236221E+00   -0.194483219566087773E+00   -0.101893738905170048E+00   -0.869571647527579289E-01   -0.190554955178816571E+00   -0.419360562854102434E-01   -0.107993427192017166E+01   -0.387366308921207603E+01
    0.351475001587999020E-01   -0.167035641778261024E+02    0.453609179986770472E+00    0.145229766294028084E+01    0.683383714605163752E-02    0.134335474455243831E+01   -0.182031530261276231E+01   -0.210575335740974201E+00   -0.181753292418106727E+00   -0.986692434902549237E-01   -0.838690769798000335E-01   -0.200411396958975918E+00   -0.430500838475447248E-01   -0.107873831583899804E+01   -0.387306374775650530E+01
    0.351475001587999020E-01   -0.167035641778261024E+02    0.453609179986770472E+00    0.145229766294028084E+01    0.683383714605163752E-02    0.134335474455243831E+01   -0.182031530261276231E+01   -0.210575335740974201E+00   -0.181753292418106727E+00   -0.986692434902549237E-01   -0.838690769798000335E-01   -0.200411396958975918E+00   -0.430500838475447248E-01   -0.107873831583899804E+01   -0.387306374775650530E+01
    0.356483837538439929E-01   -0.167135684879779234E+02    0.448966927445259456E+00    0.144857017587314574E+01    0.686419212366445874E-02    0.133857001183322799E+01   -0.177366629364696804E+01   -0.211236445853627608E+00   -0.190264243902000890E+00   -0.844789607924048697E-01   -0.850844772596215243E-01   -0.190034467464825191E+00   -0.448193190692662002E-01   -0.108305557599278424E+01   -0.386662576046216211E+01
    0.356483837538439929E-01   -0.167135684879779234E+02    0.448966927445259456E+00    0.144857017587314574E+01    0.686419212366445874E-02    0.133857001183322799E+01   -0.177366629364696804E+01   -0.211236445853627608E+00   -0.190264243902000890E+00   -0.844789607924048697E-01   -0.850844772596215243E-01   -0.190034467464825191E+00   -0.448193190692662002E-01   -0.108305557599278424E+01   -0.386662576046216211E+01
    0.356390437719559736E-01   -0.166970572417029857E+02    0.445203438292792519E+00    0.144974145580703762E+01    0.684575002404893499E-02    0.134215437802537596E+01   -0.174523493693678811E+01   -0.212717452675319940E+00   -0.189780108005094095E+00   -0.986252777578359580E-01   -0.860373436252331592E-01   -0.184269344070557756E+00   -0.448562305064135955E-01   -0.106205570623931145E+01   -0.385838167549764810E+01
    0.356390437719559736E-01   -0.166970572417029857E+02    0.445203438292792519E+00    0.144974145580703762E+01    0.684575002404893499E-02    0.134215437802537596E+01   -0.174523493693678811E+01   -0.212717452675319940E+00   -0.189780108005094095E+00   -0.986252777578359580E-01   -0.860373436252331592E-01   -0.184269344070557756E+00   -0.448562305064135955E-01   -0.106205570623931145E+01   -0.385838167549764810E+01
    0.353840831064845956E-01   -0.166836150688743352E+02    0.446945662865221027E+00    0.144950207105733941E+01    0.667084847881718127E-02    0.134406804455931650E+01   -0.183703501457715213E+01   -0.210451991511631076E+00   -0.185286135293817739E+00   -0.891636267448234487E-01   -0.853039499565551723E-01   -0.199277837844388267E+00   -0.430693676352035051E-01   -0.105378281954952580E+01   -0.385683876432344386E+01
    0.353840831064845956E-01   -0.166836150688743352E+02    0.446945662865221027E+00    0.144950207105733941E+01    0.667084847881718127E-02    0.134406804455931650E+01   -0.183703501457715213E+01   -0.210451991511631076E+00   -0.185286135293817739E+00   -0.891636267448234487E-01   -0.853039499565551723E-01   -0.199277837844388267E+00   -0.430693676352035051E-01   -0.105378281954952580E+01   -0.385683876432344386E+01
    0.364362455646110514E-01   -0.166708787462686594E+02    0.448076879956606555E+00    0.144955884013205938E+01    0.688923749347924910E-02    0.133970322142988385E+01   -0.173610406208256696E+01   -0.212274369955823966E+00   -0.211975999503002582E+00   -0.961949326085852624E-01   -0.843868947417322213E-01   -0.173213984319962544E+00   -0.431147396443058439E-01   -0.109412608515237553E+01   -0.384565957898050215E+01
    0.364362455646110514E-01   -0.166708787462686594E+02    0.448076879956606555E+00    0.144955884013205938E+01    0.688923749347924910E-02    0.133970322142988385E+01   -0.173610406208256696E+01   -0.212274369955823966E+00   -0.211975999503002582E+00   -0.961949326085852624E-01   -0.843868947417322213E-01   -0.173213984319962544E+00   -0.431147396443058439E-01   -0.109412608515237553E+01   -0.384565957898050215E+01
    0.363174577253902384E-01   -0.167142407803355475E+02    0.449689116811000655E+00    0.144941931643142796E+01    0.674610500238439180E-02    0.133998451737590507E+01   -0.187304177652210413E+01   -0.208369512974786397E+00   -0.182107825821648056E+00   -0.909412566504562980E-01   -0.849709624795524920E-01   -0.209082295197178303E+00   -0.431019856475686816E-01   -0.106354119162863636E+01   -0.384311039130395793E+01
    0.363174577253902384E-01   -0.167142407803355475E+02    0.449689116811000655E+00    0.144941931643142796E+01    0.674610500238439180E-02    0.133998451737590507E+01   -0.187304177652210413E+01   -0.208369512974786397E+00   -0.182107825821648056E+00   -0.909412566504562980E-01   -0.849709624795524920E-01   -0.209082295197178303E+00   -0.431019856475686816E-01   -0.106354119162863636E+01   -0.384311039130395793E+01
    0.361174447376504462E-01   -0.166913319054739056E+02    0.449563501240016761E+00    0.145020115345406597E+01    0.691154502371983410E-02    0.134072317914430572E+01   -0.169826234233282047E+01   -0.212735115078935139E+00   -0.201215643385914411E+00   -0.940063679546125353E-01   -0.872427144912108349E-01   -0.179555009070587773E+00   -0.428040130300251717E-01   -0.107671380661456784E+01   -0.383125003875106662E+01
    0.361174447376504462E-01   -0.166913319054739056E+02    0.449563501240016761E+00    0.145020115345406597E+01    0.691154502371983410E-02    0.134072317914430572E+01   -0.169826234233282047E+01   -0.212735115078935139E+00   -0.201215643385914411E+00   -0.940063679546125353E-01   -0.872427144912108349E-01   -0.179555009070587773E+00   -0.428040130300251717E-01   -0.107671380661456784E+01   -0.383125003875106662E+01
    0.360484811164404964E-01   -0.167063559557101478E+02    0.447477233219691795E+00    0.145079317646695594E+01    0.682644564533430986E-02    0.134149314456731572E+01   -0.147404234192287498E+01   -0.214221771981060405E+00   -0.203550578984689062E+00   -0.100456248711865079E+00   -0.859300704094273921E-01   -0.181262050861833890E+00   -0.432789509046579771E-01   -0.108491105154767942E+01   -0.382907881811050599E+01
    0.348716191327084757E-01   -0.166919609151715989E+02    0.447403878996452176E+00    0.144864236029385252E+01    0.680448927662610347E-02    0.134288854107577404E+01   -0.161620410473625564E+01   -0.212582742383397805E+00   -0.183164147093980878E+00   -0.872819527755367003E-01   -0.849868301728237546E-01   -0.186098038697213974E+00   -0.423786992396145493E-01   -0.108054193006182175E+01   -0.382549600626828168E+01
    0.360002577009394115E-01   -0.166880702010836437E+02    0.450418027788055286E+00    0.144884175737444676E+01    0.684445252732750892E-02    0.134159088527432169E+01   -0.184893903730599085E+01   -0.211954685348686805E+00   -0.183239857149021301E+00   -0.100139129488191189E+00   -0.839661307716748212E-01   -0.193573232950915469E+00   -0.433832891029760775E-01   -0.105487210820761246E+01   -0.382486523678092505E+01
    0.360002577009394115E-01   -0.166880702010836437E+02    0.450418027788055286E+00    0.144884175737444676E+01    0.684445252732750892E-02    0.134159088527432169E+01   -0.184893903730599085E+01   -0.211954685348686805E+00   -0.183239857149021301E+00   -0.100139129488191189E+00   -0.839661307716748212E-01   -0.193573232950915469E+00   -0.433832891029760775E-01   -0.105487210820761246E+01   -0.382486523678092505E+01
    0.364473896474326320E-01   -0.166981555654448215E+02    0.445226780974408543E+00    0.145017721425614687E+01    0.684900961359579362E-02    0.133987425018076345E+01   -0.166848543618880085E+01   -0.213213676257351992E+00   -0.195604709962047291E+00   -0.925934863684270970E-01   -0.866163981962987384E-01   -0.179710489745646934E+00   -0.432611029265768665E-01   -0.108190376241394559E+01   -0.382437151140372444E+01
    0.364473896474326320E-01   -0.166981555654448215E+02    0.445226780974408543E+00    0.145017721425614687E+01    0.684900961359579362E-02    0.133987425018076345E+01   -0.166848543618880085E+01   -0.213213676257351992E+00   -0.195604709962047291E+00   -0.925934863684270970E-01   -0.866163981962987384E-01   -0.179710489745646934E+00   -0.432611029265768665E-01   -0.108190376241394559E+01   -0.382437151140372444E+01
    0.356723876068751611E-01   -0.166876160133300182E+02    0.451103371485827465E+00    0.144819271682980832E+01    0.684122893443289953E-02    0.134265631891551895E+01   -0.164807818025033748E+01   -0.212133359888212109E+00   -0.226529340548053404E+00   -0.926990509652610845E-01   -0.887340314343904313E-01   -0.198094842930130494E+00   -0.435872861241617601E-01   -0.107158135344913852E+01   -0.382408291760871011E+01
    0.354351717829421708E-01   -0.166939547279779426E+02    0.450284787377237650E+00    0.145035257233153492E+01    0.683905943791979221E-02    0.134231212141894996E+01   -0.177132931293301521E+01   -0.213210015502214828E+00   -0.220590517179576701E+00   -0.912391814938888213E-01   -0.834127555187908626E-01   -0.171436455869605847E+00   -0.455770941484524086E-01   -0.106638072140345264E+01   -0.382011746906519134E+01
    0.357487528156402515E-01   -0.166832835425338395E+02    0.446742348853543358E+00    0.144906222644352756E+01    0.672345579610766995E-02    0.134162553709771282E+01   -0.206995013116515469E+01   -0.211679719227331420E+00   -0.180879309848549663E+00   -0.948882974134427626E-01   -0.855569542580910114E-01   -0.171341982044900837E+00   -0.429528168742453892E-01   -0.106510344926072031E+01   -0.381689724662359309E+01
    0.351281626009645256E-01   -0.167185607729182983E+02    0.452421682634461253E+00    0.144883651016321302E+01    0.680047322934941492E-02    0.133982364259959974E+01   -0.184607781560778372E+01   -0.212215754818814412E+00   -0.186317201648675934E+00   -0.879773067929592173E-01   -0.838179975625251705E-01   -0.192938147868090160E+00   -0.434593936673497300E-01   -0.108568483623796674E+01   -0.381582898012143223E+01
    0.361302541931520158E-01   -0.167027022100623626E+02    0.447065048169812185E+00    0.145162952182233140E+01    0.691108358085623826E-02    0.134164567581140570E+01   -0.175677123704265048E+01   -0.208914027936527885E+00   -0.209231614285205952E+00   -0.917082760624254173E-01   -0.836564540883387442E-01   -0.186521496405636811E+00   -0.432228712777353100E-01   -0.109016050471186632E+01   -0.381508655616347392E+01
    0.361302541931520158E-01   -0.167027022100623626E+02    0.447065048169812185E+00    0.145162952182233140E+01    0.691108358085623826E-02    0.134164567581140570E+01   -0.175677123704265048E+01   -0.208914027936527885E+00   -0.209231614285205952E+00   -0.917082760624254173E-01   -0.836564540883387442E-01   -0.186521496405636811E+00   -0.432228712777353100E-01   -0.109016050471186632E+01   -0.381508655616347392E+01
    0.353800682509457162E-01   -0.166908486952908994E+02    0.450268342759382934E+00    0.145032939336322775E+01    0.673498325775739697E-02    0.134132668228763041E+01   -0.187494796851846957E+01   -0.211879363429607309E+00   -0.186945354462588725E+00   -0.989379045182276068E-01   -0.873081815298453467E-01   -0.177093077271257143E+00   -0.441278081823256799E-01   -0.107940963056250094E+01   -0.381473739283046287E+01
    0.353800682509457162E-01   -0.166908486952908994E+02    0.450268342759382934E+00    0.145032939336322775E+01    0.673498325775739697E-02    0.134132668228763041E+01   -0.187494796851846957E+01   -0.211879363429607309E+00   -0.186945354462588725E+00   -0.989379045182276068E-01   -0.873081815298453467E-01   -0.177093077271257143E+00   -0.441278081823256799E-01   -0.107940963056250094E+01   -0.381473739283046287E+01
    0.356915072264479757E-01   -0.167260248600887422E+02    0.442510146377559921E+00    0.144988625754130340E+01    0.672179789679398874E-02    0.133888292311671564E+01   -0.167735259618507060E+01   -0.211720764043745735E+00   -0.192254333200194555E+00   -0.967188601270805581E-01   -0.863086943150830205E-01   -0.179881082363851336E+00   -0.441564908502465325E-01   -0.107661159482548974E+01   -0.381417292839943167E+01
    0.367357268806395576E-01   -0.166959562597311653E+02    0.447923949688369571E+00    0.145098755082237107E+01    0.682841751909541318E-02    0.134376562349380757E+01   -0.188513423946691128E+01   -0.213800823554747194E+00   -0.191723876491356443E+00   -0.914339862246600077E-01   -0.859313794767687933E-01   -0.175121621838836616E+00   -0.425166563562234881E-01   -0.107830093769279967E+01   -0.381175189258303293E+01
    0.349470874935846609E-01   -0.167090697577539338E+02    0.449834519867468252E+00    0.145210020502590798E+01    0.694650896253773496E-02    0.134251741603841457E+01   -0.188432224533929493E+01   -0.212736210400824022E+00   -0.197792967186830981E+00   -0.885855945815963303E-01   -0.840234682461389742E-01   -0.189303363282737974E+00   -0.426386474904589807E-01   -0.107243099550394971E+01   -0.381155546459161432E+01
    0.349470874935846609E-01   -0.167090697577539338E+02    0.449834519867468252E+00    0.145210020502590798E+01    0.694650896253773496E-02    0.134251741603841457E+01   -0.188432224533929493E+01   -0.212736210400824022E+00   -0.197792967186830981E+00   -0.885855945815963303E-01   -0.840234682461389742E-01   -0.189303363282737974E+00   -0.426386474904589807E-01   -0.107243099550394971E+01   -0.381155546459161432E+01
    0.367479735094411175E-01   -0.166929846593587392E+02    0.447148916116561657E+00    0.144888066015801442E+01    0.690646621526405831E-02    0.134141305351232498E+01   -0.179686650933596481E+01   -0.212495273888517772E+00   -0.188319724708458591E+00   -0.912328257035431023E-01   -0.842022436209168973E-01   -0.206663086715183797E+00   -0.420784873960559358E-01   -0.107108425178139433E+01   -0.381099566509352083E+01
    0.357186149976093867E-01   -0.167128059058231209E+02    0.444055858803946324E+00    0.145044544731731118E+01    0.686268511394017705E-02    0.134274159542986782E+01   -0.178279719136568215E+01   -0.211219859220178330E+00   -0.192328717671558708E+00   -0.919698141012434828E-01   -0.844841797777785841E-01   -0.203761404216705522E+00   -0.425851144789094957E-01   -0.107869661427525632E+01   -0.381039851175486310E+01
    0.366659439239849158E-01   -0.167230932791137690E+02    0.445675269260688955E+00    0.144849220516453880E+01    0.669860584474828592E-02    0.134183035221196012E+01   -0.175046188469544783E+01   -0.214176749932851934E+00   -0.185784242689911505E+00   -0.999523976128537800E-01   -0.840671157395746632E-01   -0.166963435381263403E+00   -0.431120459412995261E-01   -0.107814840500254605E+01   -0.380977252238660702E+01
    0.354186093506085806E-01   -0.167182590742704278E+02    0.443673571800080269E+00    0.145108676258248037E+01    0.671018306253063496E-02    0.133978505404423642E+01   -0.177160792339070183E+01   -0.213365569153772000E+00   -0.160670619596919056E+00   -0.947053579450998634E-01   -0.843674661841416762E-01   -0.188368313706827134E+00   -0.448452113378045927E-01   -0.106823931840379327E+01   -0.380921848879706815E+01
    0.356667201037349918E-01   -0.167045311597460362E+02    0.444284292682860460E+00    0.145117207858822095E+01    0.689504823386833353E-02    0.134065906203468566E+01   -0.186704055789529821E+01   -0.212616753659927826E+00   -0.189793731541645305E+00   -0.875047765192261962E-01   -0.891936909036496473E-01   -0.214544901598395510E+00   -0.436929691194419823E-01   -0.107912622158148319E+01   -0.380920435408674285E+01
    0.355832996629356774E-01   -0.167042669419225582E+02    0.449313090642593727E+00    0.145156855641145266E+01    0.675100589837718951E-02    0.134139725762663620E+01   -0.188788971237778247E+01   -0.215024027586859762E+00   -0.193962811347176939E+00   -0.976063767794317222E-01   -0.866008526688325508E-01   -0.220405538463251671E+00   -0.445170446671974140E-01   -0.108651262405300053E+01   -0.380839440822139386E+01
    0.348011347383980971E-01   -0.167265928751245205E+02    0.453313064359264606E+00    0.144941599401762167E+01    0.685455208387984304E-02    0.134219815466088721E+01   -0.185003428410956938E+01   -0.209574173230863359E+00   -0.195310381795103544E+00   -0.944371938258347643E-01   -0.872689107328094155E-01   -0.202450773429126818E+00   -0.445228022156721609E-01   -0.107402479667257555E+01   -0.380796258765178974E+01
    0.361925805623278599E-01   -0.166807876644733639E+02    0.446815518172862192E+00    0.145070117026100776E+01    0.675223666841881075E-02    0.133978550698130361E+01   -0.167315207279259570E+01   -0.212542639819982865E+00   -0.205822121231321792E+00   -0.932800521928644349E-01   -0.865531539848764242E-01   -0.179070437113993841E+00   -0.431108184717830453E-01   -0.107985766641162528E+01   -0.380627498566452704E+01
    0.361925805623278599E-01   -0.166807876644733639E+02    0.446815518172862192E+00    0.145070117026100776E+01    0.675223666841881075E-02    0.133978550698130361E+01   -0.167315207279259570E+01   -0.212542639819982865E+00   -0.205822121231321792E+00   -0.932800521928644349E-01   -0.865531539848764242E-01   -0.179070437113993841E+00   -0.431108184717830453E-01   -0.107985766641162528E+01   -0.380627498566452704E+01
    0.366062154557865102E-01   -0.166889812420347390E+02    0.453229224873046344E+00    0.144920543551778880E+01    0.686946737179705731E-02    0.134072507498890103E+01   -0.171924758471063011E+01   -0.210381532950806915E+00   -0.191972610793310128E+00   -0.100515037341594879E+00   -0.853514082285406206E-01   -0.185995241360125990E+00   -0.445712684564825296E-01   -0.106662845810525830E+01   -0.380548904246595798E+01
    0.364068252787829449E-01   -0.166919976224353164E+02    0.448538620257330600E+00    0.145009739232066992E+01    0.685378781638249467E-02    0.134053922448312557E+01   -0.184243237781902325E+01   -0.212716962287573391E+00   -0.195984135612153332E+00   -0.971210880491744644E-01   -0.849956604254413634E-01   -0.203021091794926833E+00   -0.416098716146206041E-01   -0.105855830792095684E+01   -0.380478085726176340E+01
    0.364409086115947967E-01   -0.166813548149095325E+02    0.448695473586166182E+00    0.144972698269097533E+01    0.683111629517670679E-02    0.134186345587443379E+01   -0.177298128656986509E+01   -0.212106989667719070E+00   -0.192991627280333311E+00   -0.949653616474702839E-01   -0.866899121674148121E-01   -0.196414692219758852E+00   -0.443038174297934531E-01   -0.108677598411620036E+01   -0.380466889048642409E+01
    0.356169165203631607E-01   -0.167091330327993361E+02    0.457256825184723825E+00    0.145161984970204627E+01    0.667614375238315128E-02    0.134137273423806636E+01   -0.204506583937870312E+01   -0.210173466010162346E+00   -0.198513634333068872E+00   -0.994718325428286393E-01   -0.840555869114897880E-01   -0.175174674189038787E+00   -0.431756352730022358E-01   -0.108619434728984965E+01   -0.380403005573554021E+01
    0.362882825681342946E-01   -0.167036938609390013E+02    0.455330842081317244E+00    0.145135371825647175E+01    0.673388928679248197E-02    0.134244352929648270E+01   -0.171461161823339636E+01   -0.212568383779352305E+00   -0.206171158939824545E+00   -0.953473486634822953E-01   -0.863359893816024321E-01   -0.198691754391856101E+00   -0.422460322885862896E-01   -0.106897452095142476E+01   -0.380395868918489510E+01
    0.358713523764926379E-01   -0.167124149289026924E+02    0.450471755250974548E+00    0.144950914174640033E+01    0.684384462471129482E-02    0.133959854766135367E+01   -0.172115582363123609E+01   -0.211776630439595853E+00   -0.212471206280910929E+00   -0.949398740600878033E-01   -0.854238021141715265E-01   -0.190850684750369870E+00   -0.444227645310875316E-01   -0.107970235841807249E+01   -0.380393706756665440E+01
    0.358952748397708549E-01   -0.166940803686005239E+02    0.446779849848941313E+00    0.144942492504739429E+01    0.676437601226047985E-02    0.134450164484257706E+01   -0.187479793929874083E+01   -0.211763788040160605E+00   -0.229273065714643509E+00   -0.926529539037818511E-01   -0.854915348827405552E-01   -0.193760992182003988E+00   -0.426462392196215942E-01   -0.107274235223415859E+01   -0.380331430017754357E+01
    0.348177433566280725E-01   -0.167193137643201197E+02    0.449710409191416416E+00    0.144939375064010756E+01    0.679567772560958367E-02    0.134194016217946643E+01   -0.183347972442703422E+01   -0.210055030248280261E+00   -0.184057291780338944E+00   -0.980794461462084349E-01   -0.820501916304510748E-01   -0.185610773570148185E+00   -0.421297423053682146E-01   -0.107805674958230968E+01   -0.380293464741879417E+01
    0.348138636168361937E-01   -0.167208925400633461E+02    0.448547525846458128E+00    0.145064060349460444E+01    0.687033879934741219E-02    0.134197420542060830E+01   -0.198234072342250767E+01   -0.211674823002168888E+00   -0.185682770594902152E+00   -0.923104490601044797E-01   -0.850725517724010699E-01   -0.172124566605023399E+00   -0.439619292017449717E-01   -0.109238608053291864E+01   -0.380279224867171539E+01
    0.352441078997272339E-01   -0.167081109979172666E+02    0.447964779779144229E+00    0.145223425853138810E+01    0.683038116528888496E-02    0.134191624361467854E+01   -0.171774966821380737E+01   -0.214008165256111327E+00   -0.195917214730679440E+00   -0.858915569100392323E-01   -0.869770125009353690E-01   -0.198026239896948036E+00   -0.454081657744768996E-01   -0.108129951661729251E+01   -0.380251595211543236E+01
    0.359440698227414743E-01   -0.167086492161922280E+02    0.448957026938227810E+00    0.145045173144909056E+01    0.688522664775199564E-02    0.134117718621680027E+01   -0.161237902313034209E+01   -0.212621445144802912E+00   -0.206004415953320780E+00   -0.976586826171437911E-01   -0.819481305756336875E-01   -0.199064251598691316E+00   -0.440873278924658885E-01   -0.107523184210099765E+01   -0.380195742734043796E+01
    0.351413956810881917E-01   -0.167086954929450364E+02    0.449604144008849516E+00    0.144978768660493595E+01    0.685738279711538886E-02    0.134150481753380801E+01   -0.174834189192780332E+01   -0.211748288190571121E+00   -0.202621453359970061E+00   -0.964749641020091475E-01   -0.850061079904343708E-01   -0.191119336679674678E+00   -0.436744153771780400E-01   -0.107911600252973350E+01   -0.380065026495202796E+01
    0.362742797894033062E-01   -0.167026410850283114E+02    0.448875776478738664E+00    0.145102532376826887E+01    0.684831131493770801E-02    0.134023658582601302E+01   -0.205362271790062412E+01   -0.209245886072844722E+00   -0.184707318750626098E+00   -0.988930384622828951E-01   -0.860434083542767209E-01   -0.189971043595557304E+00   -0.439763759875994656E-01   -0.106228051583389127E+01   -0.380060062727397963E+01
    0.371445242958098817E-01   -0.167183363794952200E+02    0.447827302831371343E+00    0.145184675851460687E+01    0.674655297639112361E-02    0.134260167605935665E+01   -0.186103684054935936E+01   -0.212703605083623376E+00   -0.188888603516637499E+00   -0.932955863324576307E-01   -0.861835213866307404E-01   -0.193706152130803555E+00   -0.430370780019948343E-01   -0.107292343266906198E+01   -0.380035302974904798E+01
    0.344889098937983182E-01   -0.167191783042055988E+02    0.446778367711317625E+00    0.145080854601436715E+01    0.685566817848437884E-02    0.134201299838631782E+01   -0.178144872317858782E+01   -0.211152020667309565E+00   -0.200641050360806511E+00   -0.958992750354828311E-01   -0.863657413948314551E-01   -0.189004299699027406E+00   -0.434938064772089072E-01   -0.108584310384989902E+01   -0.380024692257887198E+01
    0.360487093298989397E-01   -0.167055114396962026E+02    0.448293424589518930E+00    0.145063574320253941E+01    0.684608160161979690E-02    0.134345659398340889E+01   -0.174053643097022870E+01   -0.211072762380155099E+00   -0.186940129142598888E+00   -0.971153526832649328E-01   -0.875746771741543195E-01   -0.165591994619585181E+00   -0.445838577486922308E-01   -0.108626236305396806E+01   -0.379999142605781159E+01
    0.357877786431882380E-01   -0.166997573329271951E+02    0.446860285444981020E+00    0.145012542815391221E+01    0.687489466474510390E-02    0.134017064613304338E+01   -0.171145392237068417E+01   -0.211838649940372631E+00   -0.200945450615358706E+00   -0.926957207656042004E-01   -0.841622838323126538E-01   -0.188565870504750599E+00   -0.428040030738559563E-01   -0.109117697431371274E+01   -0.379913760310426341E+01
    0.366484756704981637E-01   -0.167007655526215473E+02    0.444470211377155811E+00    0.144980377197265953E+01    0.679705579097029857E-02    0.133878572141063712E+01   -0.177256091307554575E+01   -0.210572192393494367E+00   -0.215918249250798083E+00   -0.901165679734213659E-01   -0.854085024237697249E-01   -0.192012728394553273E+00   -0.448583990213609271E-01   -0.107361574644761015E+01   -0.379400957691819141E+01
    0.362240321382598443E-01   -0.167025053693078611E+02    0.447585108210302007E+00    0.144987281820638669E+01    0.686069933244384724E-02    0.134119412294145834E+01   -0.175908171825566839E+01   -0.210756854260416737E+00   -0.195506836025510472E+00   -0.892374748351883601E-01   -0.845449541325376530E-01   -0.205392265297857618E+00   -0.442740384166832868E-01   -0.105243963199776935E+01   -0.379318723462678564E+01
    0.358054492412854183E-01   -0.167077815165267189E+02    0.447649888818579589E+00    0.145071759618618112E+01    0.664486534283423563E-02    0.134037325695823362E+01   -0.178283362816507474E+01   -0.211735655888410562E+00   -0.197208802355822499E+00   -0.100891295969021633E+00   -0.831896483227328315E-01   -0.182598709198418974E+00   -0.430837467283484363E-01   -0.106590964921761677E+01   -0.379279186745456709E+01
    0.359673382685174320E-01   -0.167035973675138436E+02    0.446096217429088615E+00    0.145069656986045725E+01    0.681069643539621104E-02    0.133998104933112372E+01   -0.176755359308444815E+01   -0.213213101805730415E+00   -0.195807359244314305E+00   -0.930869320840839592E-01   -0.835290294817051804E-01   -0.201111416577280711E+00   -0.430134411803257607E-01   -0.107529501893602530E+01   -0.379250214412415021E+01
    0.365233643348775727E-01   -0.166980204876017773E+02    0.452146704674861011E+00    0.145089930068757078E+01    0.686976630813878816E-02    0.134302030033679398E+01   -0.170019548542824595E+01   -0.212367123605069902E+00   -0.198135241009387342E+00   -0.914519001013400917E-01   -0.845391727342176685E-01   -0.187945623591744992E+00   -0.427668836866377453E-01   -0.107096212844860728E+01   -0.378773363217973280E+01
    0.364443911590733721E-01   -0.167159054111334626E+02    0.447849534187778564E+00    0.145160725447048167E+01    0.685263869233648012E-02    0.134186116175929260E+01   -0.208737097551574680E+01   -0.211319101049807778E+00   -0.199918966714621310E+00   -0.823636776316431646E-01   -0.879366033627989457E-01   -0.174797847005765949E+00   -0.427173730843416685E-01   -0.107872951584674981E+01   -0.376034987739830706E+01
    0.366897322847113821E-01   -0.167028819491758185E+02    0.448474743131363596E+00    0.145084349253120348E+01    0.678503947065363204E-02    0.134346986631197596E+01   -0.187130710918138088E+01   -0.211448723506045322E+00   -0.194237541240950246E+00   -0.893023426884009680E-01   -0.853112774778701372E-01   -0.169573194715629538E+00   -0.435635206027911170E-01   -0.107306665926151945E+01   -0.377658787066871682E+01
    0.364943044630770055E-01   -0.167176609653653969E+02    0.448932503248624493E+00    0.144875471806904832E+01    0.673886874226177403E-02    0.134161638743499223E+01   -0.186326471192004095E+01   -0.211633301061276091E+00   -0.201793798456993329E+00   -0.856616856413954936E-01   -0.862653202411268472E-01   -0.186221591582629686E+00   -0.430807459960190070E-01   -0.108146545066951405E+01   -0.375044191904843416E+01
    0.364807039956379781E-01   -0.167033284820310648E+02    0.444612530020367769E+00    0.144993727299686537E+01    0.679685052496535342E-02    0.134279536039244518E+01   -0.201359388338675371E+01   -0.210818453898828417E+00   -0.197975694039631916E+00   -0.916159704325830021E-01   -0.855703435111592470E-01   -0.172186120012950583E+00   -0.437669729252589956E-01   -0.106443713011914087E+01   -0.377432797891160998E+01
    0.364695431843548717E-01   -0.166884541114436082E+02    0.451628830085525124E+00    0.145070628149149283E+01    0.691797578863125300E-02    0.134116718074990793E+01   -0.181190871426681710E+01   -0.211542111660003196E+00   -0.209923142123350781E+00   -0.933088961718759741E-01   -0.838633486827813912E-01   -0.180860515874669586E+00   -0.434423163800085749E-01   -0.107334777232843193E+01   -0.378293725801183411E+01
    0.367972089602752184E-01   -0.167249218506416568E+02    0.450058070333144489E+00    0.144863514229513202E+01    0.682377020559001186E-02    0.134384082511692871E+01   -0.165904430136960190E+01   -0.210502083122598299E+00   -0.194547428456198129E+00   -0.891694197903045577E-01   -0.847853055162141878E-01   -0.172809783223698776E+00   -0.424855999057375811E-01   -0.107659021907212349E+01   -0.375650388585715911E+01
    0.364957410901189175E-01   -0.167073952105852825E+02    0.451124483282076882E+00    0.145035862952006855E+01    0.694414603995033384E-02    0.134322350845523464E+01   -0.200970681864979683E+01   -0.211829579280511632E+00   -0.188189851052637497E+00   -0.917976226931690731E-01   -0.848939249091621162E-01   -0.191695240208166168E+00   -0.429775377811757869E-01   -0.109069100916457273E+01   -0.378364912051567392E+01
    0.367820309893311520E-01   -0.166981532502507832E+02    0.447947300833645146E+00    0.145021918361824542E+01    0.683777921447208895E-02    0.133984237130881900E+01   -0.186538285699029416E+01   -0.212165984364044241E+00   -0.198189032652904024E+00   -0.894808893140312256E-01   -0.834976899505514014E-01   -0.188958383550245468E+00   -0.434891635915987396E-01   -0.106516543369450911E+01   -0.377031631947371837E+01
    0.361116272337529409E-01   -0.167206619545463724E+02    0.445328896990613288E+00    0.145014927162865503E+01    0.683439723662957691E-02    0.134137436258995479E+01   -0.184698198266703173E+01   -0.209919243532359301E+00   -0.183409952216116917E+00   -0.824223205426355965E-01   -0.829366714993545057E-01   -0.188414704687101031E+00   -0.434736716752578967E-01   -0.109010310390919973E+01   -0.377958063863938154E+01
    0.366478613369675618E-01   -0.166980271658916166E+02    0.449239974999718517E+00    0.144924514267553373E+01    0.693449958887733860E-02    0.134154083946659397E+01   -0.191377607916804160E+01   -0.212160394127661439E+00   -0.197121032631290022E+00   -0.888243763610195441E-01   -0.850337492562693864E-01   -0.197212835797118402E+00   -0.431587849634320550E-01   -0.109720488464153854E+01   -0.378924431988935373E+01
    0.361620666267507759E-01   -0.167075702237900359E+02    0.448901726431946757E+00    0.145027584985417524E+01    0.687619914225163272E-02    0.134127204626016239E+01   -0.180896007775646472E+01   -0.211380010813979280E+00   -0.202444188848693640E+00   -0.977751131340491991E-01   -0.849218865708442072E-01   -0.202169794116106916E+00   -0.435900773696766553E-01   -0.107439096908458942E+01   -0.379004675539899694E+01
    0.370639300316866482E-01   -0.167022353561777344E+02    0.447052590311289522E+00    0.144992896053877995E+01    0.685696516960643179E-02    0.134253969332012835E+01   -0.198938785108082583E+01   -0.212324127982081473E+00   -0.195504996626656574E+00   -0.903821587666236853E-01   -0.874479279102925722E-01   -0.192610759730324377E+00   -0.438884175068397220E-01   -0.106279223672923107E+01   -0.377142369798853450E+01
    0.359259906956329519E-01   -0.167047831940282556E+02    0.447866131131959500E+00    0.145076255790844022E+01    0.679963381067859047E-02    0.134057911304088262E+01   -0.181698030024426260E+01   -0.210737190261272272E+00   -0.181351061169266470E+00   -0.896155554469560828E-01   -0.830567578377102295E-01   -0.192876854583423463E+00   -0.439012522707323619E-01   -0.108597583026126854E+01   -0.378873355208855500E+01
    0.358699370286088629E-01   -0.167139260708906292E+02    0.454819830927244317E+00    0.144940611336194980E+01    0.672571431149908156E-02    0.133903564136112019E+01   -0.178033186005699551E+01   -0.211029795231077955E+00   -0.200830813861199664E+00   -0.954826203604382528E-01   -0.865405174282614514E-01   -0.197158212013205603E+00   -0.440334933260324649E-01   -0.108728888802836066E+01   -0.378918635965546668E+01
    0.356186001784476736E-01   -0.167026606432425737E+02    0.449739076299290608E+00    0.145022253302619952E+01    0.672516078904063577E-02    0.134099322717838954E+01   -0.173053452682523035E+01   -0.211810786338671592E+00   -0.206805281233917837E+00   -0.939225263455432252E-01   -0.851062605282654622E-01   -0.192694553536341601E+00   -0.424725125877687820E-01   -0.108417102760566131E+01   -0.376197349112008439E+01
    0.363775331247737643E-01   -0.167236572520529521E+02    0.450028412931504307E+00    0.145097603879983006E+01    0.671931779778313018E-02    0.134113524065312761E+01   -0.174522182136437576E+01   -0.210117023228224453E+00   -0.192211797169383247E+00   -0.951435734493457919E-01   -0.864374229675701627E-01   -0.188866026443922724E+00   -0.434987889505128525E-01   -0.108367261463479569E+01   -0.375981369092441042E+01
    0.356199362230909047E-01   -0.167231555046754075E+02    0.450524385756605583E+00    0.144905175584045853E+01    0.663610231323975928E-02    0.133786535440340559E+01   -0.180356967143222469E+01   -0.212053736310297863E+00   -0.162615902382386601E+00   -0.842864000283780196E-01   -0.863425070705298170E-01   -0.217977234424285293E+00   -0.448825970434441543E-01   -0.108487580476675638E+01   -0.378598267722373993E+01
    0.361302250038788228E-01   -0.167349014702662444E+02    0.446169334584470778E+00    0.145043705142687207E+01    0.681376838680796282E-02    0.134074539930631254E+01   -0.195373891180212267E+01   -0.209624889058742964E+00   -0.189174799629354545E+00   -0.968275201280938969E-01   -0.880775888554602704E-01   -0.200022351196698728E+00   -0.432636606575058230E-01   -0.107245490781975628E+01   -0.376969886606844140E+01
    0.349493778742772307E-01   -0.167284409236842961E+02    0.450195999516819101E+00    0.145008423963368527E+01    0.668092823580697121E-02    0.134177449934009840E+01   -0.186528760703403051E+01   -0.211106297469061482E+00   -0.197695865137392762E+00   -0.916329085750540312E-01   -0.865546932764989785E-01   -0.192428984464904834E+00   -0.441344674437062420E-01   -0.107259625413861759E+01   -0.374444996730801227E+01
    0.351642069053934025E-01   -0.167138947133102072E+02    0.448825292287013178E+00    0.145147895947648364E+01    0.671030100318579549E-02    0.134009681964143468E+01   -0.187143245324202567E+01   -0.209897495360214653E+00   -0.174272873261250683E+00   -0.971399467294887659E-01   -0.848088184759165642E-01   -0.172897649641677503E+00   -0.437788276800925510E-01   -0.107109806451897982E+01   -0.376222720154341683E+01
    0.356223747937598201E-01   -0.166994540002007952E+02    0.452150893303283230E+00    0.145279211650973838E+01    0.678165960395151445E-02    0.133995758239031559E+01   -0.193317847958865974E+01   -0.209798652757723719E+00   -0.191077509392533818E+00   -0.915914117502739378E-01   -0.853241301814351150E-01   -0.174414466431016546E+00   -0.444605905974786372E-01   -0.107038506033223091E+01   -0.376933124884260096E+01
    0.354302721605036716E-01   -0.167113079412822287E+02    0.448894661845047838E+00    0.145058753173277344E+01    0.683985720336370649E-02    0.134184414951154407E+01   -0.168530221827147830E+01   -0.212766886754339468E+00   -0.192977516433462670E+00   -0.930160284244247321E-01   -0.864235327655082652E-01   -0.206657303584942581E+00   -0.441281889945013481E-01   -0.107810175873842140E+01   -0.378089008884980515E+01
    0.351744820413545101E-01   -0.166979176103479894E+02    0.451317249979496238E+00    0.145040626078192636E+01    0.678761666036361948E-02    0.134122378078087978E+01   -0.181073471055293145E+01   -0.211830194826369556E+00   -0.208684419439004870E+00   -0.955574013326011690E-01   -0.840881828757905764E-01   -0.193756654744114604E+00   -0.439882550950969134E-01   -0.107133678380463260E+01   -0.378380115541518736E+01
    0.362752102348762873E-01   -0.167180145681650991E+02    0.450262677436177927E+00    0.145302207906112191E+01    0.683319945974383922E-02    0.134003497813622574E+01   -0.173593472874490029E+01   -0.211481680792951071E+00   -0.172596474920464260E+00   -0.916325067918704883E-01   -0.867041238919211282E-01   -0.175297674729938957E+00   -0.444907929475278699E-01   -0.107238807447222184E+01   -0.375480351908357424E+01
    0.356693051007397691E-01   -0.167211083347140104E+02    0.448915130348972180E+00    0.144865605046951096E+01    0.675877856166664029E-02    0.134201221811596105E+01   -0.188876017443107158E+01   -0.212865658955517151E+00   -0.199112210012997864E+00   -0.978730829791552570E-01   -0.821954861650446011E-01   -0.185263926100483700E+00   -0.429390161346531879E-01   -0.108167593193039679E+01   -0.377282397462231289E+01
    0.363711618097415784E-01   -0.167312133712969882E+02    0.446506763360804693E+00    0.145046896593799679E+01    0.678167907542074049E-02    0.134041903132560547E+01   -0.179689291143882568E+01   -0.211866254388201780E+00   -0.179776796256222920E+00   -0.942985760462419359E-01   -0.860434022630556100E-01   -0.182782670795207103E+00   -0.429918580879554701E-01   -0.108381602746497618E+01   -0.374592206907646519E+01
    0.350707331831311003E-01   -0.167132594447577780E+02    0.451972858394303345E+00    0.144974643822694826E+01    0.675870315024391585E-02    0.134124835262938058E+01   -0.177515601378826782E+01   -0.213725390648020569E+00   -0.193897750286137233E+00   -0.930981911172637372E-01   -0.860516640950186873E-01   -0.219303380279741056E+00   -0.448665742402805587E-01   -0.108478234280343266E+01   -0.378918942059944763E+01
    0.360357081792462772E-01   -0.167218612148791763E+02    0.450456984335613819E+00    0.144996818736538824E+01    0.679969100415661176E-02    0.133909027895085475E+01   -0.185805032474999021E+01   -0.211899085391519054E+00   -0.185975522601883436E+00   -0.938530192922428230E-01   -0.860643734022359663E-01   -0.186182445956637577E+00   -0.431780531526489431E-01   -0.108692076778792956E+01   -0.377746063153451317E+01
    0.363571189661255206E-01   -0.167103316598800617E+02    0.451912784912939014E+00    0.145082050877948010E+01    0.682439977614976174E-02    0.134307726313612608E+01   -0.165817147262534204E+01   -0.211581673473079601E+00   -0.190100177742366594E+00   -0.977890451463535176E-01   -0.865734622037793861E-01   -0.176557590538780118E+00   -0.435184949726112533E-01   -0.107486194412068059E+01   -0.377528211113535717E+01
