    0.222519830670052848E+00   -0.778157558781704140E+01    0.189868115835390427E+01    0.846252092085556518E+00    0.907714258586918114E-02    0.217840663818760394E+01   -0.210735946339900782E+01   -0.162140358907030963E+00   -0.407840276736970164E+01    0.115707607986690664E+00   -0.278389661415519574E-01   -0.181812914779805851E+00   -0.556402170810944771E-01   -0.105203778683390281E+01   -0.920477391120780553E+01
    0.222519830670052848E+00   -0.778157558781704140E+01    0.189868115835390427E+01    0.846252092085556518E+00    0.907714258586918114E-02    0.217840663818760394E+01   -0.210735946339900782E+01   -0.162140358907030963E+00   -0.407840276736970164E+01    0.115707607986690664E+00   -0.278389661415519574E-01   -0.181812914779805851E+00   -0.556402170810944771E-01   -0.105203778683390281E+01   -0.920477391120780553E+01
    0.223032288932210082E+00   -0.769623500875635802E+01    0.189335187383349046E+01    0.867815529158212806E+00    0.875589058883647318E-02    0.217802435136199257E+01   -0.204864283029698058E+01   -0.162901245955159479E+00   -0.501951700326958949E+01    0.116193743361755003E+00   -0.137742672622660295E+00   -0.194977196304366246E+00   -0.552362579023410044E-01   -0.105129485890825203E+01   -0.919119197677465039E+01
    0.223032288932210082E+00   -0.769623500875635802E+01    0.189335187383349046E+01    0.867815529158212806E+00    0.875589058883647318E-02    0.217802435136199257E+01   -0.204864283029698058E+01   -0.162901245955159479E+00   -0.501951700326958949E+01    0.116193743361755003E+00   -0.137742672622660295E+00   -0.194977196304366246E+00   -0.552362579023410044E-01   -0.105129485890825203E+01   -0.919119197677465039E+01
    0.222819223668982019E+00   -0.798103459616668509E+01    0.189365522421111132E+01    0.888693671079845982E+00    0.896214437730478292E-02    0.217812243682553586E+01   -0.206912024632212477E+01   -0.162598195426841619E+00   -0.188303062707435420E+01    0.113237655752947280E+00   -0.181661703169288591E+00   -0.231000299388269659E+00   -0.543341707966779747E-01   -0.105071456109135442E+01   -0.913477920110248576E+01
    0.222819223668982019E+00   -0.798103459616668509E+01    0.189365522421111132E+01    0.888693671079845982E+00    0.896214437730478292E-02    0.217812243682553586E+01   -0.206912024632212477E+01   -0.162598195426841619E+00   -0.188303062707435420E+01    0.113237655752947280E+00   -0.181661703169288591E+00   -0.231000299388269659E+00   -0.543341707966779747E-01   -0.105071456109135442E+01   -0.913477920110248576E+01
    0.223254885735507114E+00   -0.785418524289385811E+01    0.189410627889402172E+01    0.865324790789980258E+00    0.878403710528764640E-02    0.217816627830422593E+01   -0.192604914274361838E+01   -0.162738888900709255E+00   -0.177139537919246925E+01    0.114017426433258379E+00   -0.822314683644388977E-01   -0.191848923912806391E+00   -0.529965109039876522E-01   -0.104768652265071793E+01   -0.913314303420009388E+01
    0.224272049739130369E+00   -0.765449732562703122E+01    0.189419427596107659E+01    0.802826564557108546E+00    0.868138796102371248E-02    0.217782345883093775E+01   -0.198179973060026171E+01   -0.162582321678372999E+00   -0.432462242060137303E+01    0.115946964478081005E+00   -0.744598687555195066E-01   -0.199207650969916300E+00   -0.552781239646043809E-01   -0.104581184164407426E+01   -0.913212624143520024E+01
    0.224272049739130369E+00   -0.765449732562703122E+01    0.189419427596107659E+01    0.802826564557108546E+00    0.868138796102371248E-02    0.217782345883093775E+01   -0.198179973060026171E+01   -0.162582321678372999E+00   -0.432462242060137303E+01    0.115946964478081005E+00   -0.744598687555195066E-01   -0.199207650969916300E+00   -0.552781239646043809E-01   -0.104581184164407426E+01   -0.913212624143520024E+01
    0.223384652702214886E+00   -0.770560979769244714E+01    0.189549983100536124E+01    0.789702256098958832E+00    0.875282537362211295E-02    0.217858937927679852E+01   -0.189542891125518920E+01   -0.162087213742023117E+00   -0.485321190107207823E+01    0.110702836748182806E+00   -0.600656757939019362E-01   -0.199566433149411498E+00   -0.543600441917327995E-01   -0.105672811919071830E+01   -0.913079430630081035E+01
    0.223384652702214886E+00   -0.770560979769244714E+01    0.189549983100536124E+01    0.789702256098958832E+00    0.875282537362211295E-02    0.217858937927679852E+01   -0.189542891125518920E+01   -0.162087213742023117E+00   -0.485321190107207823E+01    0.110702836748182806E+00   -0.600656757939019362E-01   -0.199566433149411498E+00   -0.543600441917327995E-01   -0.105672811919071830E+01   -0.913079430630081035E+01
    0.222836529664106192E+00   -0.768848551708952410E+01    0.189529776078324219E+01    0.839124211194404945E+00    0.879567223060210082E-02    0.217794803584729380E+01   -0.198829739545760265E+01   -0.161713399334421914E+00   -0.325257634640938820E+01    0.112043169419245053E+00    0.113876846449942518E+00   -0.201965285422548074E+00   -0.546145249123548976E-01   -0.104995771808859328E+01   -0.912901180199078333E+01
    0.222661003570694849E+00   -0.790010031669073598E+01    0.189647438366105825E+01    0.821768367077598483E+00    0.886136059374630775E-02    0.217731455364300741E+01   -0.205845377922036032E+01   -0.162444200214884538E+00   -0.393731917906929452E+01    0.115353830078793559E+00   -0.144084843701946880E+00   -0.233560509699376917E+00   -0.544595423088094013E-01   -0.106302497767793724E+01   -0.912849200371017666E+01
    0.222661003570694849E+00   -0.790010031669073598E+01    0.189647438366105825E+01    0.821768367077598483E+00    0.886136059374630775E-02    0.217731455364300741E+01   -0.205845377922036032E+01   -0.162444200214884538E+00   -0.393731917906929452E+01    0.115353830078793559E+00   -0.144084843701946880E+00   -0.233560509699376917E+00   -0.544595423088094013E-01   -0.106302497767793724E+01   -0.912849200371017666E+01
    0.224041756839718775E+00   -0.769029304073818665E+01    0.189536822957960949E+01    0.880676154974812442E+00    0.865940839611187459E-02    0.217801892371992700E+01   -0.201336685012966798E+01   -0.161939852908137782E+00   -0.509830379410907142E+01    0.114012940683340044E+00   -0.191006293898531687E+00   -0.218429145866619628E+00   -0.555474719491059962E-01   -0.105086382748279084E+01   -0.912824733854810511E+01
    0.224041756839718775E+00   -0.769029304073818665E+01    0.189536822957960949E+01    0.880676154974812442E+00    0.865940839611187459E-02    0.217801892371992700E+01   -0.201336685012966798E+01   -0.161939852908137782E+00   -0.509830379410907142E+01    0.114012940683340044E+00   -0.191006293898531687E+00   -0.218429145866619628E+00   -0.555474719491059962E-01   -0.105086382748279084E+01   -0.912824733854810511E+01
    0.223110061964914286E+00   -0.786191814793254284E+01    0.189447633209277333E+01    0.810922039723413257E+00    0.867334556868527146E-02    0.217838105027511153E+01   -0.196255052898665938E+01   -0.162491426871363115E+00   -0.427219604086465132E+01    0.112793658014567921E+00   -0.155866570103217139E+00   -0.219494842302994098E+00   -0.543287152322677602E-01   -0.105497406991601084E+01   -0.912672839769443733E+01
    0.223110061964914286E+00   -0.786191814793254284E+01    0.189447633209277333E+01    0.810922039723413257E+00    0.867334556868527146E-02    0.217838105027511153E+01   -0.196255052898665938E+01   -0.162491426871363115E+00   -0.427219604086465132E+01    0.112793658014567921E+00   -0.155866570103217139E+00   -0.219494842302994098E+00   -0.543287152322677602E-01   -0.105497406991601084E+01   -0.912672839769443733E+01
    0.223682760678523662E+00   -0.765036879192701313E+01    0.189229257558667285E+01    0.802456837868896544E+00    0.878065563283126488E-02    0.217787002911645544E+01   -0.204935000505129228E+01   -0.162153670140034012E+00   -0.482525359770407558E+01    0.110496618878851066E+00   -0.333390442273748255E-03   -0.212023895605420010E+00   -0.547906465567357739E-01   -0.105534324290323056E+01   -0.912378921124652642E+01
    0.223682760678523662E+00   -0.765036879192701313E+01    0.189229257558667285E+01    0.802456837868896544E+00    0.878065563283126488E-02    0.217787002911645544E+01   -0.204935000505129228E+01   -0.162153670140034012E+00   -0.482525359770407558E+01    0.110496618878851066E+00   -0.333390442273748255E-03   -0.212023895605420010E+00   -0.547906465567357739E-01   -0.105534324290323056E+01   -0.912378921124652642E+01
    0.222728116039772855E+00   -0.784694926138557047E+01    0.189344570507156873E+01    0.808317590232803251E+00    0.899963358358072361E-02    0.217801899143555033E+01   -0.214577392939821143E+01   -0.162238442853394671E+00   -0.421055339314701627E+01    0.111661851865751477E+00   -0.113909902492190879E+00   -0.189289691811376865E+00   -0.543320137241155854E-01   -0.104429493584037369E+01   -0.912292410152309508E+01
    0.222728116039772855E+00   -0.784694926138557047E+01    0.189344570507156873E+01    0.808317590232803251E+00    0.899963358358072361E-02    0.217801899143555033E+01   -0.214577392939821143E+01   -0.162238442853394671E+00   -0.421055339314701627E+01    0.111661851865751477E+00   -0.113909902492190879E+00   -0.189289691811376865E+00   -0.543320137241155854E-01   -0.104429493584037369E+01   -0.912292410152309508E+01
    0.223149712790415483E+00   -0.770360031173694715E+01    0.189284739013255665E+01    0.837700039021037179E+00    0.885978446393850469E-02    0.217855399918665116E+01   -0.205449686909840956E+01   -0.162343791819455185E+00   -0.447238084702449257E+01    0.112218162693961371E+00   -0.253952969907450532E-02   -0.205485056797807736E+00   -0.551613284196573600E-01   -0.106104037406190543E+01   -0.911962953850972902E+01
    0.223149712790415483E+00   -0.770360031173694715E+01    0.189284739013255665E+01    0.837700039021037179E+00    0.885978446393850469E-02    0.217855399918665116E+01   -0.205449686909840956E+01   -0.162343791819455185E+00   -0.447238084702449257E+01    0.112218162693961371E+00   -0.253952969907450532E-02   -0.205485056797807736E+00   -0.551613284196573600E-01   -0.106104037406190543E+01   -0.911962953850972902E+01
    0.222504603697594894E+00   -0.792873950735609245E+01    0.189766377562948851E+01    0.837575616420860980E+00    0.864902668103601120E-02    0.217715945199026928E+01   -0.202428266475980179E+01   -0.162548309288004456E+00   -0.278405281341899036E+01    0.115216316200400876E+00   -0.387815728074761695E-01   -0.252712976754711272E+00   -0.533382370895597382E-01   -0.105527837802755564E+01   -0.911506148358974322E+01
    0.222504603697594894E+00   -0.792873950735609245E+01    0.189766377562948851E+01    0.837575616420860980E+00    0.864902668103601120E-02    0.217715945199026928E+01   -0.202428266475980179E+01   -0.162548309288004456E+00   -0.278405281341899036E+01    0.115216316200400876E+00   -0.387815728074761695E-01   -0.252712976754711272E+00   -0.533382370895597382E-01   -0.105527837802755564E+01   -0.911506148358974322E+01
    0.222653187617698006E+00   -0.791534093351935653E+01    0.189536665714143138E+01    0.802641149557353883E+00    0.887407810786615577E-02    0.217785459369623613E+01   -0.199623036685969568E+01   -0.162217056341049187E+00   -0.155502271747440846E+01    0.108365090898051977E+00   -0.113387394359767316E+00   -0.171779279991807865E+00   -0.537956178602849860E-01   -0.105037905984003932E+01   -0.911499253781270014E+01
    0.223061182805184555E+00   -0.781098390845515489E+01    0.189342863682132911E+01    0.841033598749538536E+00    0.860517823301902053E-02    0.217807268651752794E+01   -0.200057930140078755E+01   -0.162257891546577743E+00   -0.255301741921309144E+01    0.113636215618002259E+00   -0.124582735964752236E+00   -0.191817869214901016E+00   -0.530421458908117566E-01   -0.104826731660553540E+01   -0.911457544362354533E+01
    0.223610441095905638E+00   -0.773104146828963668E+01    0.189682511648585406E+01    0.830301107905757396E+00    0.862485291239298985E-02    0.217839342339345121E+01   -0.201956559605922648E+01   -0.162256536196195317E+00   -0.370049003503201801E+01    0.113338113721071498E+00   -0.245428047497593671E-01   -0.223888177286471785E+00   -0.549446624593901839E-01   -0.105630934682504307E+01   -0.911009919790373246E+01
    0.223210958101100365E+00   -0.806598673874328576E+01    0.189512431486478583E+01    0.888353677402788033E+00    0.895843309329793017E-02    0.217801748079228163E+01   -0.214154494863771472E+01   -0.161793418244537107E+00   -0.321510431732261015E+01    0.117154848502548953E+00   -0.535869440254632401E-01   -0.189317412018136760E+00   -0.540386626497779757E-01   -0.105040581604394223E+01   -0.910995036145942549E+01
    0.223210958101100365E+00   -0.806598673874328576E+01    0.189512431486478583E+01    0.888353677402788033E+00    0.895843309329793017E-02    0.217801748079228163E+01   -0.214154494863771472E+01   -0.161793418244537107E+00   -0.321510431732261015E+01    0.117154848502548953E+00   -0.535869440254632401E-01   -0.189317412018136760E+00   -0.540386626497779757E-01   -0.105040581604394223E+01   -0.910995036145942549E+01
    0.223012540610304927E+00   -0.776982623418026463E+01    0.189232560432289154E+01    0.832076457912191425E+00    0.886317302673672244E-02    0.217809221944839715E+01   -0.205092507281402625E+01   -0.162463157888882853E+00   -0.315336016799887275E+01    0.110589686041027799E+00   -0.827846274879224797E-01   -0.210707967178327460E+00   -0.540066738222454920E-01   -0.105538008026327379E+01   -0.910910803290884274E+01
    0.223601412216763273E+00   -0.762859667275178222E+01    0.189332168045672633E+01    0.798094344164404723E+00    0.867288450314621442E-02    0.217788630516328041E+01   -0.198969706941332558E+01   -0.162308873622317856E+00   -0.263643389097437364E+01    0.117075065207154216E+00   -0.116359992562479780E+00   -0.207113572178665606E+00   -0.533337485627553148E-01   -0.104893834084673343E+01   -0.910835017347028320E+01
    0.223393058918790383E+00   -0.775665127417042832E+01    0.189690041064556136E+01    0.840662824337253034E+00    0.871146873526767139E-02    0.217834668136535958E+01   -0.187753584394524387E+01   -0.162445870844819124E+00   -0.461257624120683918E+01    0.115552318147981642E+00   -0.180064653350720860E+00   -0.200767695354380632E+00   -0.533655948918318329E-01   -0.105233883367791647E+01   -0.910795101194994139E+01
    0.223193235491197156E+00   -0.788663951268837682E+01    0.189450680932145898E+01    0.816813126999811012E+00    0.863942333669602026E-02    0.217791357953711939E+01   -0.201015124713390625E+01   -0.162312865195796074E+00   -0.418614658854031774E+01    0.114037886873671959E+00   -0.306946146007207599E-01   -0.195428149405078133E+00   -0.540690807864876860E-01   -0.105668788529999103E+01   -0.910674829819522991E+01
    0.223210328366750532E+00   -0.796732581083946023E+01    0.189380546852177534E+01    0.822257685935662952E+00    0.902323752213774789E-02    0.217865206467928685E+01   -0.197309736978406791E+01   -0.162257451641464795E+00   -0.300041280635401897E+01    0.112445040663581811E+00   -0.811332051623399053E-01   -0.199954882210242990E+00   -0.542046888704586713E-01   -0.105439218585825167E+01   -0.910599414358523873E+01
    0.223125439677139520E+00   -0.769776749949936612E+01    0.189580813050598884E+01    0.838197903400827671E+00    0.880261133677584864E-02    0.217773691976733685E+01   -0.203214534598667784E+01   -0.162234414880250838E+00   -0.340201198739215904E+01    0.113866600402106208E+00   -0.101240584441367465E-01   -0.247212964435164634E+00   -0.542547458156291407E-01   -0.105834015855851526E+01   -0.910508654777525273E+01
    0.223977983354133880E+00   -0.791092158279386570E+01    0.189409362854490748E+01    0.861816393123425062E+00    0.873705303106938128E-02    0.217818401255350969E+01   -0.191806763488176424E+01   -0.162234773400535298E+00   -0.257534516690591442E+01    0.114154707028968766E+00   -0.117800656682816821E+00   -0.153077577655765601E+00   -0.536689215394032526E-01   -0.105570914223520473E+01   -0.910361187763226276E+01
    0.223977983354133880E+00   -0.791092158279386570E+01    0.189409362854490748E+01    0.861816393123425062E+00    0.873705303106938128E-02    0.217818401255350969E+01   -0.191806763488176424E+01   -0.162234773400535298E+00   -0.257534516690591442E+01    0.114154707028968766E+00   -0.117800656682816821E+00   -0.153077577655765601E+00   -0.536689215394032526E-01   -0.105570914223520473E+01   -0.910361187763226276E+01
    0.223056824710112483E+00   -0.782094409837061200E+01    0.189454670965449412E+01    0.785351939352004313E+00    0.862703631413450425E-02    0.217802356455705048E+01   -0.211640130172049989E+01   -0.162630487636076237E+00   -0.261755714422500985E+01    0.112077487959331035E+00   -0.120854489356083783E+00   -0.185464986099896117E+00   -0.543124068413183281E-01   -0.105260493175663972E+01   -0.910349388205018428E+01
    0.223056824710112483E+00   -0.782094409837061200E+01    0.189454670965449412E+01    0.785351939352004313E+00    0.862703631413450425E-02    0.217802356455705048E+01   -0.211640130172049989E+01   -0.162630487636076237E+00   -0.261755714422500985E+01    0.112077487959331035E+00   -0.120854489356083783E+00   -0.185464986099896117E+00   -0.543124068413183281E-01   -0.105260493175663972E+01   -0.910349388205018428E+01
    0.223879758311999411E+00   -0.777659326591808853E+01    0.189238140106616126E+01    0.831374023118133132E+00    0.877980870846177021E-02    0.217804942592891582E+01   -0.199376837326878631E+01   -0.162140243293945940E+00   -0.389176190239982622E+01    0.116287408558870875E+00   -0.195371147518556554E-01   -0.205892545307306191E+00   -0.543335350127690034E-01   -0.104769941746940543E+01   -0.910300505841531482E+01
    0.223797336152122439E+00   -0.788973386612482042E+01    0.189660832478602903E+01    0.855953101704973407E+00    0.883136103731084997E-02    0.217847198335517200E+01   -0.204097326523477429E+01   -0.162223529482122902E+00   -0.397832687739966495E+01    0.112876680022791526E+00   -0.137230563605519912E+00   -0.173037981907037036E+00   -0.538743918558517790E-01   -0.104776143029477264E+01   -0.910130496870569061E+01
    0.223379404236430434E+00   -0.779792072014524607E+01    0.189537469531707825E+01    0.878109750448268112E+00    0.888698714044900556E-02    0.217813856692192331E+01   -0.203971618205602212E+01   -0.162042540652803213E+00   -0.252873174593597483E+01    0.114145136632402389E+00   -0.951473740789959971E-01   -0.206784700931126997E+00   -0.537580246754323365E-01   -0.104760156918185854E+01   -0.910090444629845230E+01
    0.223314335589749113E+00   -0.779598569020351029E+01    0.189439342275041200E+01    0.778948891013717559E+00    0.885293810820994738E-02    0.217779668761059719E+01   -0.196380895636779118E+01   -0.161329182110025893E+00   -0.351817356586372476E+01    0.111383509933222505E+00   -0.449502755732890252E-01   -0.192079173156283450E+00   -0.553720635715250070E-01   -0.105506702477504311E+01   -0.910045009558990259E+01
    0.222753177490109283E+00   -0.792279020283645963E+01    0.189501954951103313E+01    0.817545666130927495E+00    0.883491429576621287E-02    0.217827956318793836E+01   -0.200373680097125462E+01   -0.162345195862892727E+00   -0.352315531560527351E+01    0.113738888572404551E+00   -0.515219942905811579E-01   -0.219648392299789080E+00   -0.541860908226094382E-01   -0.105045760437144575E+01   -0.910024294218202634E+01
    0.223021801619266519E+00   -0.783758783713713125E+01    0.189555987346263422E+01    0.773713608931183128E+00    0.880543177948502932E-02    0.217820062951634785E+01   -0.202567109216284713E+01   -0.162135318366938758E+00   -0.280000193646421813E+01    0.117130881597895947E+00   -0.905443412754374510E-01   -0.195604917538685835E+00   -0.552328438976396954E-01   -0.105236464564717114E+01   -0.909977697747362946E+01
    0.222855542225970732E+00   -0.799765820552050410E+01    0.189285549963569455E+01    0.862668931482033607E+00    0.883384628649007755E-02    0.217790765016641785E+01   -0.198465243860630780E+01   -0.162419327882066478E+00   -0.259903178918481892E+01    0.116665579664844685E+00   -0.140119271548450414E+00   -0.201675288218898852E+00   -0.552526453062739259E-01   -0.105164392679517471E+01   -0.909946500741303943E+01
    0.223617035391229874E+00   -0.791190034951005039E+01    0.189547008887291124E+01    0.833305465635806208E+00    0.854843123610369779E-02    0.217811012810270022E+01   -0.187103924913042774E+01   -0.162297098599036682E+00   -0.291627169299290978E+01    0.114917754562290170E+00   -0.185108809241903233E+00   -0.197336994896814610E+00   -0.549716900313041573E-01   -0.105563909064216088E+01   -0.909759704168685346E+01
    0.222683806013879326E+00   -0.792946286979346482E+01    0.189399610451250311E+01    0.845024619732727911E+00    0.896281161169502211E-02    0.217842182179764388E+01   -0.204251756019537067E+01   -0.162001822637817788E+00   -0.287596656045126586E+01    0.114077476884677148E+00   -0.235796033843795994E+00   -0.217617565320378958E+00   -0.546473833692678115E-01   -0.105385242709985150E+01   -0.909752465691546419E+01
    0.223160216470570910E+00   -0.777014115418733997E+01    0.189387387183170186E+01    0.865326664789199729E+00    0.882646199853491693E-02    0.217838760255417707E+01   -0.209579630940791084E+01   -0.162161118401703996E+00   -0.417859400874081999E+01    0.118141990047000489E+00   -0.132054694964241465E+00   -0.225905336898615194E+00   -0.543848876750756063E-01   -0.105066172760012688E+01   -0.909743032721192613E+01
    0.223097457240875097E+00   -0.784677407757349776E+01    0.189425259108676158E+01    0.875821168872803923E+00    0.864251023816132134E-02    0.217812045620044747E+01   -0.197774015710062367E+01   -0.162268372692733059E+00   -0.381488489089922078E+01    0.114515217896821730E+00   -0.186865415988419631E-01   -0.199031876689504839E+00   -0.535661514795548813E-01   -0.105674773033234182E+01   -0.909683147423218230E+01
    0.222910637610894941E+00   -0.780341846457021582E+01    0.189544567136256070E+01    0.838008352657560907E+00    0.876101638695398442E-02    0.217821313433361974E+01   -0.201369211928537650E+01   -0.162091381614847485E+00   -0.256406816880000044E+01    0.115528111898275623E+00   -0.155779367722419237E+00   -0.221905087237022763E+00   -0.526665739195539342E-01   -0.104526627657456528E+01   -0.909638738818033588E+01
    0.223618004630514594E+00   -0.780701427136113146E+01    0.189626055877444610E+01    0.823386778333565661E+00    0.880438458947605321E-02    0.217772760218156058E+01   -0.203045777418779050E+01   -0.162187641163170748E+00   -0.406201728861026190E+01    0.116523588947029702E+00   -0.208032711801263037E+00   -0.191059078872213989E+00   -0.536859034634701235E-01   -0.104698265513298749E+01   -0.909619046760608008E+01
    0.222428689101684507E+00   -0.770455331885695927E+01    0.189462058954438950E+01    0.848495692695143910E+00    0.886327946762781663E-02    0.217766141657624690E+01   -0.204727313733416416E+01   -0.161853389635494671E+00   -0.294509888626055583E+01    0.113326567808069448E+00   -0.437835535517037411E-01   -0.215233797020398410E+00   -0.547295179747325014E-01   -0.105507592016726814E+01   -0.909599903322678749E+01
    0.222982476053578849E+00   -0.749314368837942624E+01    0.189517110328175198E+01    0.805162114106841575E+00    0.859837387887727941E-02    0.217795997176097744E+01   -0.206684294319789652E+01   -0.162511178739807916E+00   -0.243221286846969953E+01    0.113928404792210392E+00   -0.209395375908396519E+00   -0.217191983569226588E+00   -0.542568720090453663E-01   -0.105438738788776565E+01   -0.909583860168559788E+01
    0.222617159605259934E+00   -0.774792564251772653E+01    0.189411884052808510E+01    0.825859518430781980E+00    0.886685953457687012E-02    0.217817796742897585E+01   -0.207543077294239353E+01   -0.162347998082171430E+00   -0.272430871920783080E+01    0.115708388203960247E+00   -0.140919417689306992E+00   -0.238564044560813343E+00   -0.541572967759781990E-01   -0.104867549473228872E+01   -0.909578664466942577E+01
    0.222738764163028846E+00   -0.778625371239460229E+01    0.189557557897195639E+01    0.825190932461742133E+00    0.866588077095543571E-02    0.217812876049761606E+01   -0.206045675506271753E+01   -0.162285685888276021E+00   -0.224101719175496905E+01    0.114683125550893286E+00   -0.175490517929286410E+00   -0.214991173291930487E+00   -0.534826304302603583E-01   -0.105168549326768157E+01   -0.909479414832676625E+01
    0.222913838399515896E+00   -0.791411002248531936E+01    0.189668324677855726E+01    0.854204620695403594E+00    0.875166898153830440E-02    0.217780924872449644E+01   -0.198183705539433919E+01   -0.162328154431183896E+00   -0.377645039694977580E+01    0.114680934684697505E+00   -0.128816626929248695E+00   -0.201546538988172347E+00   -0.536901714975289712E-01   -0.105079565759406535E+01   -0.909456154538950123E+01
    0.222709840142309157E+00   -0.786790529258058502E+01    0.189475032209588168E+01    0.864177486594356892E+00    0.879781644083092382E-02    0.217794020713014991E+01   -0.193000920474497928E+01   -0.162290801852686517E+00   -0.362491222948379699E+01    0.112477898583738911E+00   -0.902169932193607471E-01   -0.209395941694681259E+00   -0.537893319284075688E-01   -0.105208106558053971E+01   -0.909432772064578110E+01
    0.222507263603938077E+00   -0.781843713739251989E+01    0.189592565824333481E+01    0.836249990678996413E+00    0.902956716102390998E-02    0.217789245297345202E+01   -0.195425591598413151E+01   -0.162475157522262104E+00   -0.339794781750497643E+01    0.112354328377987783E+00   -0.142264090988873687E+00   -0.211319648835143759E+00   -0.536918123391105714E-01   -0.104832560903637040E+01   -0.909420013637374502E+01
    0.223267344380517957E+00   -0.750280723461066135E+01    0.189158027886885627E+01    0.859815543951022554E+00    0.886681356296222835E-02    0.217808751065113082E+01   -0.202201113729131388E+01   -0.161621470790652727E+00   -0.350223051286899123E+01    0.114878514529394599E+00   -0.581493136614471481E-01   -0.180607917296675663E+00   -0.549517982189796361E-01   -0.104655732536771273E+01   -0.909362711687700376E+01
    0.222435823578085889E+00   -0.774005799605042721E+01    0.189499982428370872E+01    0.837934440212480536E+00    0.880632343967470074E-02    0.217823070062484936E+01   -0.188716138236276443E+01   -0.161937160349324455E+00   -0.291237818582676233E+01    0.114765147815219834E+00   -0.122262614336340433E+00   -0.221793843859202311E+00   -0.537003815753873612E-01   -0.104805253008049815E+01   -0.909334042625592254E+01
    0.223152581887497120E+00   -0.785502230165820770E+01    0.189379803995030604E+01    0.834329830724130139E+00    0.896301861218345639E-02    0.217802502952191945E+01   -0.207075661128673039E+01   -0.162155741182571311E+00   -0.315157829813135759E+01    0.115628232531284389E+00   -0.127227913810497473E+00   -0.195731147155607327E+00   -0.551329284266867600E-01   -0.105353167498673161E+01   -0.909314353232648998E+01
    0.223671115446286345E+00   -0.786632035231769144E+01    0.189642093453201799E+01    0.868390492201587261E+00    0.887923754109332455E-02    0.217811854502837310E+01   -0.199011861887732477E+01   -0.162160253588208486E+00   -0.353576984812417594E+01    0.117788284782328070E+00   -0.284020595382947993E+00   -0.216068899670066844E+00   -0.547538349838942728E-01   -0.105344053568160612E+01   -0.909223783488721260E+01
    0.223279374772136885E+00   -0.774526849405956241E+01    0.189506817441473863E+01    0.846409749800330347E+00    0.879453130468586114E-02    0.217834428262673274E+01   -0.205187170563226262E+01   -0.162235117063049522E+00   -0.322904766874340421E+01    0.114066855798762343E+00   -0.320739661867766729E-01   -0.194577707203934330E+00   -0.539339511478850939E-01   -0.105096981872734863E+01   -0.909198756251930895E+01
    0.224265427261062772E+00   -0.758245468194382255E+01    0.189394865017972158E+01    0.848556188621398921E+00    0.862647113174862257E-02    0.217760865656362679E+01   -0.202328392602451057E+01   -0.162891823876954694E+00   -0.302441429272553730E+01    0.111129639402834948E+00   -0.144339565053526769E+00   -0.182035496939258051E+00   -0.551944397017954252E-01   -0.105609641809522192E+01   -0.908989208792969272E+01
    0.223225423401066964E+00   -0.784149484639849348E+01    0.189551754215838542E+01    0.822682859307036662E+00    0.867008667375567844E-02    0.217837960657427887E+01   -0.199947336059144831E+01   -0.162265954487923164E+00   -0.354519968332679802E+01    0.116012282212274706E+00   -0.154596907545418827E+00   -0.200690970234091354E+00   -0.533334036163637115E-01   -0.105179521370595874E+01   -0.908922873492462990E+01
    0.223306305635932151E+00   -0.797062793317465079E+01    0.189614016661770690E+01    0.816194332582458992E+00    0.873852385400401138E-02    0.217791983498548403E+01   -0.193837087222202098E+01   -0.161887493813325067E+00   -0.319345389178311301E+01    0.116096623442740618E+00   -0.181037033441771300E+00   -0.204027206216602808E+00   -0.546099179752766728E-01   -0.105354736781750025E+01   -0.908801606164028009E+01
    0.223256272333952455E+00   -0.758492554645435035E+01    0.189143070833889060E+01    0.844924030582588692E+00    0.890165388711947753E-02    0.217793637651830174E+01   -0.193578455838516228E+01   -0.162964508719184747E+00   -0.317332920385702577E+01    0.112736835489515436E+00   -0.146372063181737261E+00   -0.172382700115437049E+00   -0.544658766869807257E-01   -0.105305517602736587E+01   -0.908768181119961582E+01
    0.223171786391287125E+00   -0.763341544404977856E+01    0.189787365319375256E+01    0.801635501713799936E+00    0.867585320688339656E-02    0.217777007042132542E+01   -0.205041677177677295E+01   -0.162401084906976328E+00   -0.267224931362725560E+01    0.112325781408355641E+00   -0.157354179971208874E+00   -0.224326854271037990E+00   -0.538238325500937573E-01   -0.104500951572172940E+01   -0.907313186821473927E+01
    0.223177538983584028E+00   -0.786028066195775654E+01    0.189541047344927271E+01    0.825845228125136832E+00    0.859603949402167229E-02    0.217789240573069431E+01   -0.203942297970643160E+01   -0.162059395745258350E+00   -0.303002835983247687E+01    0.113450036056424522E+00   -0.174027754490658437E+00   -0.213321106221636941E+00   -0.535612205658666587E-01   -0.105366509372432704E+01   -0.908722957144470556E+01
    0.222606223813966525E+00   -0.780993944952912322E+01    0.189649158687228847E+01    0.796722749517031814E+00    0.882047708217272713E-02    0.217796320797590193E+01   -0.202427124046658058E+01   -0.162093299354109377E+00   -0.293334000257678262E+01    0.113677002959210058E+00   -0.105339490472594721E+00   -0.203131334959584187E+00   -0.544402975564407532E-01   -0.105348242360547339E+01   -0.908290667204512481E+01
    0.223300092379474430E+00   -0.791085247499538280E+01    0.189502327848078833E+01    0.815356095567720374E+00    0.878577301882206736E-02    0.217785624148310886E+01   -0.206048904480568762E+01   -0.161892619189243692E+00   -0.241843983530842443E+01    0.115478316495120803E+00   -0.212050932894072952E+00   -0.188557143344598943E+00   -0.543129740881265061E-01   -0.104477764001469242E+01   -0.907478261759527527E+01
    0.223217427126999129E+00   -0.779091131195745135E+01    0.189396805096075371E+01    0.823484866382983904E+00    0.874737577438945528E-02    0.217798339928808637E+01   -0.202807375259126221E+01   -0.161894418267936741E+00   -0.247796660059343354E+01    0.116906438888395844E+00   -0.179676243428716187E+00   -0.193334321520074348E+00   -0.540353613149493969E-01   -0.104843464284064303E+01   -0.907924943371707016E+01
    0.223352435384251868E+00   -0.780322236610219733E+01    0.189620148663519617E+01    0.788584407505813378E+00    0.885404595353316698E-02    0.217812384764556199E+01   -0.201898073677587098E+01   -0.161991080938635373E+00   -0.302563488567957251E+01    0.116192298297291260E+00   -0.914713415746397779E-01   -0.223843945737938393E+00   -0.543141924279323327E-01   -0.105504840640442610E+01   -0.908028513329976406E+01
    0.223248699735208361E+00   -0.780432525916579412E+01    0.189520548501048891E+01    0.860495087671487857E+00    0.915560311662514878E-02    0.217803278816014068E+01   -0.204321828155801244E+01   -0.161883028878564178E+00   -0.295220865515814790E+01    0.117736090150256670E+00   -0.130997168832546751E+00   -0.215477150876128121E+00   -0.535181705789309417E-01   -0.106105303640294757E+01   -0.907788897925794380E+01
    0.223379812235934783E+00   -0.795075675060515508E+01    0.189383534396537789E+01    0.822393991201640362E+00    0.881642189510881136E-02    0.217806793378936270E+01   -0.203423717670680171E+01   -0.162022153649501788E+00   -0.316428360752855120E+01    0.119689018870107300E+00   -0.200817969127010054E+00   -0.227139985072113165E+00   -0.541670445287902660E-01   -0.105456582259393072E+01   -0.908412125720882813E+01
    0.223517952687023846E+00   -0.775287597173446130E+01    0.189522690925388848E+01    0.837654788001708228E+00    0.883960775464525707E-02    0.217822347092523128E+01   -0.202829025666096063E+01   -0.162386174374551134E+00   -0.377157500840758342E+01    0.114433016304031770E+00   -0.159309898096798797E+00   -0.206994434571793201E+00   -0.533603282972810733E-01   -0.105114457843800113E+01   -0.907347515865928500E+01
    0.223235658065130765E+00   -0.782166072080106023E+01    0.189538905927229440E+01    0.846058545904485482E+00    0.879552476687295998E-02    0.217816562999307450E+01   -0.209175892798589746E+01   -0.162451945035593820E+00   -0.362282105024728862E+01    0.114453577138372772E+00   -0.111167251038413031E+00   -0.208430362976465583E+00   -0.540699524145343557E-01   -0.105382853074496552E+01   -0.908331949228814572E+01
    0.223355740870804731E+00   -0.784956456777991995E+01    0.189531009498143144E+01    0.840100724417147338E+00    0.882958884587740737E-02    0.217766748074588223E+01   -0.210208916555343439E+01   -0.162379683559229021E+00   -0.304308369302228998E+01    0.113375951041835163E+00   -0.156395276587834642E+00   -0.211371813949322890E+00   -0.545902396784284649E-01   -0.104941404960575935E+01   -0.907402356144234190E+01
    0.223060946431003937E+00   -0.787418254521179328E+01    0.189534178888571003E+01    0.805143408075682743E+00    0.888787966027231036E-02    0.217795478351018446E+01   -0.200406812386388244E+01   -0.161610919878245968E+00   -0.310146181473073934E+01    0.114767857580501412E+00   -0.124186324074164522E+00   -0.214739123860049841E+00   -0.541720491410844149E-01   -0.105036338821255537E+01   -0.907855293085540360E+01
    0.223889336964205404E+00   -0.771917008858073217E+01    0.189661677677888107E+01    0.837657370282288039E+00    0.870831281167765668E-02    0.217801412192847055E+01   -0.195714425197521646E+01   -0.162773818107788404E+00   -0.264097394810209085E+01    0.115249547179598857E+00   -0.802173940504198879E-01   -0.201752502024610203E+00   -0.543363192662033312E-01   -0.105236178936932623E+01   -0.907564404774847588E+01
    0.222954632433147004E+00   -0.777137725873364271E+01    0.189563555248458204E+01    0.817850223905617346E+00    0.898534487061405235E-02    0.217789670832616089E+01   -0.222927288892383713E+01   -0.162083291369387594E+00   -0.335336525649242390E+01    0.113741430621367379E+00   -0.810564975654010089E-01   -0.200591049524926540E+00   -0.532500196361659281E-01   -0.105639768710804915E+01   -0.907198557393445704E+01
    0.223837056182770860E+00   -0.775872616228409751E+01    0.189741896838904500E+01    0.849886676407457076E+00    0.882445208568220091E-02    0.217814094173020356E+01   -0.194083955326735103E+01   -0.162231156025558293E+00   -0.413464241165629165E+01    0.111954291552418581E+00   -0.106098373776838728E+00   -0.196966207149604250E+00   -0.531349516870828834E-01   -0.105862671484546933E+01   -0.906783758438680998E+01
    0.224019422817502228E+00   -0.764429947532966292E+01    0.189575314471930612E+01    0.825530967983871933E+00    0.911360712404731682E-02    0.217810198681728506E+01   -0.201234104246638568E+01   -0.162349372069299502E+00   -0.335246851586304961E+01    0.113244114247647007E+00   -0.106769578086603062E+00   -0.211948195026828407E+00   -0.537544239379110153E-01   -0.104882071984136260E+01   -0.906584395472015458E+01
    0.223455339306517592E+00   -0.777079592101274574E+01    0.189668445857683943E+01    0.858742362428777994E+00    0.865345607854647696E-02    0.217797617370614427E+01   -0.197940786235006727E+01   -0.162238185381971961E+00   -0.440227787643255031E+01    0.116825734713931845E+00   -0.467791536620026302E-01   -0.212100435091173101E+00   -0.541184243638076351E-01   -0.104616637014884395E+01   -0.908753323158758164E+01
    0.223140408456240530E+00   -0.774829076115246984E+01    0.189572223738195955E+01    0.829584994550946808E+00    0.886535352052613031E-02    0.217795426078652277E+01   -0.196329288563286042E+01   -0.162082319795926966E+00   -0.315296579067150562E+01    0.111200778142987192E+00   -0.724808941251815497E-01   -0.203850674644178220E+00   -0.535570227513298622E-01   -0.104548175691897849E+01   -0.908301211492095817E+01
    0.223135952137371169E+00   -0.776729068882316920E+01    0.189557305620410332E+01    0.834575857061737203E+00    0.870283786312883202E-02    0.217819684587870777E+01   -0.191051363912529681E+01   -0.162218055351799229E+00   -0.371751645161700406E+01    0.114572017773440837E+00   -0.135650525924239901E+00   -0.208169524144512508E+00   -0.523850145228243469E-01   -0.104997061099806777E+01   -0.907655013304455771E+01
    0.223458624075162204E+00   -0.766367096135074810E+01    0.189592583314596230E+01    0.839589080306850755E+00    0.884377800867358968E-02    0.217802429802480946E+01   -0.193271426675004543E+01   -0.161694052738494187E+00   -0.322390054885727473E+01    0.114626196810103442E+00   -0.942820731424659914E-01   -0.201081949310382785E+00   -0.533419497194057429E-01   -0.105485332181177061E+01   -0.907153708881540410E+01
    0.222965469437554020E+00   -0.774235432499160670E+01    0.189493673367858606E+01    0.866763427862149993E+00    0.887214967705471889E-02    0.217798421145357768E+01   -0.208092423086534284E+01   -0.162349399817205670E+00   -0.320216549260873284E+01    0.114015627056040694E+00   -0.114003629765621839E+00   -0.204577930807826242E+00   -0.542136309946086373E-01   -0.105365322823298380E+01   -0.907981682464416551E+01
    0.223911255874950560E+00   -0.775623886078827240E+01    0.189676943403060361E+01    0.834170849744944265E+00    0.872425776809247940E-02    0.217817854596876570E+01   -0.190708792668001581E+01   -0.162747511212992135E+00   -0.280939717139643408E+01    0.114074821570092924E+00   -0.105634436340200713E+00   -0.207221233289201334E+00   -0.533296098711843400E-01   -0.104778595032596322E+01   -0.908296557721342701E+01
    0.223529940405749472E+00   -0.769441373385739880E+01    0.189721126180474786E+01    0.832638967066751445E+00    0.886240850198731327E-02    0.217815422486510091E+01   -0.206050460385863232E+01   -0.161747367594894831E+00   -0.376962094186650187E+01    0.115141014510290490E+00   -0.609789666820205328E-01   -0.196017161521480077E+00   -0.535193801334928887E-01   -0.105289695923367232E+01   -0.906907815649088000E+01
    0.223371871831330004E+00   -0.773001543128233148E+01    0.189461637338429978E+01    0.871513554129050072E+00    0.886001588189426308E-02    0.217798806916338705E+01   -0.190726638206727683E+01   -0.162488480326450246E+00   -0.429413408900646587E+01    0.114627523047876045E+00   -0.157548158091836310E+00   -0.202975209613762864E+00   -0.538022845208619774E-01   -0.104839074324882220E+01   -0.908651748062808018E+01
    0.223273536468390876E+00   -0.768107731578118269E+01    0.189703232039057168E+01    0.824221321615773550E+00    0.897895860102609390E-02    0.217827232612397426E+01   -0.190317839738949579E+01   -0.162323290176518892E+00   -0.279368426815368798E+01    0.113860341625884168E+00   -0.780205969294376633E-01   -0.209063043070961130E+00   -0.537618336793882143E-01   -0.104726651482410404E+01   -0.907597516097644963E+01
    0.223267594865713043E+00   -0.771522709519686067E+01    0.189580612586561958E+01    0.860090067699651906E+00    0.895290555460385475E-02    0.217808335297539735E+01   -0.198295070297614484E+01   -0.162533588554145653E+00   -0.385866370165957662E+01    0.114021051396684114E+00   -0.130986519883036612E+00   -0.212047187330800913E+00   -0.540457185894058986E-01   -0.105169340317046212E+01   -0.907879980063591141E+01
    0.223230893767315197E+00   -0.772306759102821694E+01    0.189531903155900783E+01    0.870596166487097478E+00    0.888700519472068393E-02    0.217818166254747991E+01   -0.202052830573669251E+01   -0.162331614286190418E+00   -0.412414368206316428E+01    0.113776573008466761E+00   -0.120094832041888519E+00   -0.190480944202829239E+00   -0.536355144762048278E-01   -0.105690438976662748E+01   -0.908623338745629283E+01
