    0.128143915630681338E+00   -0.223111018747118557E+02    0.897653327553008529E+00    0.109667398959363815E+01    0.817945330042742572E-02    0.179713271038314781E+01   -0.180166855485382116E+01   -0.116280202349443404E+00   -0.496851035032611410E+01   -0.199691170592583775E-01   -0.683066015867563464E-01   -0.220339492812920534E+00   -0.144364490596523537E+00   -0.108360992721147675E+01   -0.102911513753296857E+01
    0.128143915630681338E+00   -0.223111018747118557E+02    0.897653327553008529E+00    0.109667398959363815E+01    0.817945330042742572E-02    0.179713271038314781E+01   -0.180166855485382116E+01   -0.116280202349443404E+00   -0.496851035032611410E+01   -0.199691170592583775E-01   -0.683066015867563464E-01   -0.220339492812920534E+00   -0.144364490596523537E+00   -0.108360992721147675E+01   -0.102911513753296857E+01
    0.121061341917475904E+00   -0.223659137824068495E+02    0.896508717696220647E+00    0.109446484689221046E+01    0.805345673789314813E-02    0.179390605267902448E+01   -0.181789893894690069E+01   -0.116158280473926470E+00   -0.535809960105162908E+01   -0.248901622563455077E-01   -0.934975626979738100E-01   -0.192961946478681590E+00   -0.145865736340379831E+00   -0.110530720073983857E+01   -0.100153424026571947E+01
    0.127207309667962148E+00   -0.223106744215189003E+02    0.902732758918564415E+00    0.109871345448047975E+01    0.780328270367230525E-02    0.179481929840611287E+01   -0.174362951294117474E+01   -0.115678506716920121E+00   -0.545663808185050669E+01   -0.228605254884393476E-01   -0.815366062969552496E-01   -0.178344552099385906E+00   -0.143852825880416590E+00   -0.111158600551514408E+01   -0.998642509429202963E+00
    0.127207309667962148E+00   -0.223106744215189003E+02    0.902732758918564415E+00    0.109871345448047975E+01    0.780328270367230525E-02    0.179481929840611287E+01   -0.174362951294117474E+01   -0.115678506716920121E+00   -0.545663808185050669E+01   -0.228605254884393476E-01   -0.815366062969552496E-01   -0.178344552099385906E+00   -0.143852825880416590E+00   -0.111158600551514408E+01   -0.998642509429202963E+00
    0.121802129090965869E+00   -0.223170788394410664E+02    0.900778682673711750E+00    0.109674908769821666E+01    0.802264033006963063E-02    0.179609308951185587E+01   -0.187460770627389195E+01   -0.116565571331846626E+00   -0.566252294836377601E+01   -0.317083480926192499E-01   -0.971255753316040971E-01   -0.157785759339612086E+00   -0.140565868572634062E+00   -0.107041554482647960E+01   -0.996002778511814846E+00
    0.121802129090965869E+00   -0.223170788394410664E+02    0.900778682673711750E+00    0.109674908769821666E+01    0.802264033006963063E-02    0.179609308951185587E+01   -0.187460770627389195E+01   -0.116565571331846626E+00   -0.566252294836377601E+01   -0.317083480926192499E-01   -0.971255753316040971E-01   -0.157785759339612086E+00   -0.140565868572634062E+00   -0.107041554482647960E+01   -0.996002778511814846E+00
    0.125858853624216699E+00   -0.223794987049717058E+02    0.913473716804221736E+00    0.109733513586581877E+01    0.788962679271625403E-02    0.179747178138568797E+01   -0.170184963537681733E+01   -0.113768056772957815E+00   -0.512515907714811192E+01   -0.175981310157740066E-01   -0.696757347705574265E-01   -0.212605319677506122E+00   -0.143389068377603679E+00   -0.106477172720992264E+01   -0.995131588306081616E+00
    0.125858853624216699E+00   -0.223794987049717058E+02    0.913473716804221736E+00    0.109733513586581877E+01    0.788962679271625403E-02    0.179747178138568797E+01   -0.170184963537681733E+01   -0.113768056772957815E+00   -0.512515907714811192E+01   -0.175981310157740066E-01   -0.696757347705574265E-01   -0.212605319677506122E+00   -0.143389068377603679E+00   -0.106477172720992264E+01   -0.995131588306081616E+00
    0.126901920883621677E+00   -0.223974826402712459E+02    0.908480286346194266E+00    0.109791963105102908E+01    0.771856424402481492E-02    0.179440573971444195E+01   -0.171979751214481968E+01   -0.113099203799337480E+00   -0.516150148530575414E+01    0.356397228389546128E-02   -0.928889232684280697E-01   -0.177256155365874773E+00   -0.148076597607815802E+00   -0.108380409274859590E+01   -0.993592888837163346E+00
    0.126901920883621677E+00   -0.223974826402712459E+02    0.908480286346194266E+00    0.109791963105102908E+01    0.771856424402481492E-02    0.179440573971444195E+01   -0.171979751214481968E+01   -0.113099203799337480E+00   -0.516150148530575414E+01    0.356397228389546128E-02   -0.928889232684280697E-01   -0.177256155365874773E+00   -0.148076597607815802E+00   -0.108380409274859590E+01   -0.993592888837163346E+00
    0.119570116882639174E+00   -0.224762434289885000E+02    0.897049167535551195E+00    0.109295309403044794E+01    0.791149341248382001E-02    0.179512544326798196E+01   -0.165218143326375921E+01   -0.115267556013032707E+00   -0.569680479428221798E+01   -0.269506653025614190E-01   -0.821509188019357989E-01   -0.200215630009277779E+00   -0.142250118290979388E+00   -0.107613270400208272E+01   -0.986733141679087100E+00
    0.119570116882639174E+00   -0.224762434289885000E+02    0.897049167535551195E+00    0.109295309403044794E+01    0.791149341248382001E-02    0.179512544326798196E+01   -0.165218143326375921E+01   -0.115267556013032707E+00   -0.569680479428221798E+01   -0.269506653025614190E-01   -0.821509188019357989E-01   -0.200215630009277779E+00   -0.142250118290979388E+00   -0.107613270400208272E+01   -0.986733141679087100E+00
    0.126941458651166100E+00   -0.224464039762882450E+02    0.907246514494934431E+00    0.109806048710583926E+01    0.759563220732904342E-02    0.179457317252236570E+01   -0.169148353590880651E+01   -0.114119116928033532E+00   -0.524421838599216539E+01   -0.275417367171358722E-01   -0.821915855137369256E-01   -0.213076336166569236E+00   -0.146414711763597577E+00   -0.109576264421666836E+01   -0.986509857974894544E+00
    0.126941458651166100E+00   -0.224464039762882450E+02    0.907246514494934431E+00    0.109806048710583926E+01    0.759563220732904342E-02    0.179457317252236570E+01   -0.169148353590880651E+01   -0.114119116928033532E+00   -0.524421838599216539E+01   -0.275417367171358722E-01   -0.821915855137369256E-01   -0.213076336166569236E+00   -0.146414711763597577E+00   -0.109576264421666836E+01   -0.986509857974894544E+00
    0.125879319617538260E+00   -0.224726242040386559E+02    0.897503794765815321E+00    0.110447566583963130E+01    0.757532618273071539E-02    0.179306743505492050E+01   -0.172997355681943232E+01   -0.113152706003370004E+00   -0.509958960046726872E+01   -0.261859740493883622E-02   -0.701562721702868181E-01   -0.208264316020633694E+00   -0.145623703358407686E+00   -0.109010538922640698E+01   -0.981426972479695792E+00
    0.125879319617538260E+00   -0.224726242040386559E+02    0.897503794765815321E+00    0.110447566583963130E+01    0.757532618273071539E-02    0.179306743505492050E+01   -0.172997355681943232E+01   -0.113152706003370004E+00   -0.509958960046726872E+01   -0.261859740493883622E-02   -0.701562721702868181E-01   -0.208264316020633694E+00   -0.145623703358407686E+00   -0.109010538922640698E+01   -0.981426972479695792E+00
    0.122956455970376355E+00   -0.223689575881519573E+02    0.897749902087743301E+00    0.109661144316996872E+01    0.767744558678273500E-02    0.179345144700451486E+01   -0.179269345293541660E+01   -0.113552041784511074E+00   -0.525363365661542048E+01   -0.971473458237721854E-02   -0.986732153532212386E-01   -0.159181851267297753E+00   -0.144800388109500938E+00   -0.108317886418544140E+01   -0.980275617091802109E+00
    0.122956455970376355E+00   -0.223689575881519573E+02    0.897749902087743301E+00    0.109661144316996872E+01    0.767744558678273500E-02    0.179345144700451486E+01   -0.179269345293541660E+01   -0.113552041784511074E+00   -0.525363365661542048E+01   -0.971473458237721854E-02   -0.986732153532212386E-01   -0.159181851267297753E+00   -0.144800388109500938E+00   -0.108317886418544140E+01   -0.980275617091802109E+00
    0.128498066613497969E+00   -0.223780617301891169E+02    0.892898545165996649E+00    0.109556557339411076E+01    0.806327499660444008E-02    0.179374575756224797E+01   -0.168683531696045597E+01   -0.115445757039721722E+00   -0.513976290513043299E+01   -0.216244925144880133E-01   -0.591112098072954714E-01   -0.176639035507653058E+00   -0.146006640872818422E+00   -0.108597597321173422E+01   -0.978014640412037450E+00
    0.120243408507130140E+00   -0.224046688048183640E+02    0.901289236615385292E+00    0.110164403544007605E+01    0.796405443139923744E-02    0.179298230747535414E+01   -0.181902829974836244E+01   -0.115099934548585123E+00   -0.511145080653649586E+01   -0.374087478570516371E-01   -0.965410609088647453E-01   -0.190691189111690307E+00   -0.142130682691076565E+00   -0.107849533710469081E+01   -0.977685476546988008E+00
    0.120243408507130140E+00   -0.224046688048183640E+02    0.901289236615385292E+00    0.110164403544007605E+01    0.796405443139923744E-02    0.179298230747535414E+01   -0.181902829974836244E+01   -0.115099934548585123E+00   -0.511145080653649586E+01   -0.374087478570516371E-01   -0.965410609088647453E-01   -0.190691189111690307E+00   -0.142130682691076565E+00   -0.107849533710469081E+01   -0.977685476546988008E+00
    0.125580923761090674E+00   -0.223966202847310498E+02    0.909638830596802284E+00    0.109654333608713039E+01    0.788619968071831330E-02    0.179397227199826426E+01   -0.176818145130850413E+01   -0.115616601826494331E+00   -0.504260148554769572E+01   -0.126870486026753205E-01   -0.103683136272930521E+00   -0.195994992672839902E+00   -0.144704622570620917E+00   -0.109050831977309781E+01   -0.977222577897002398E+00
    0.128264800531653123E+00   -0.224353968811405906E+02    0.904299288075061547E+00    0.109634377055684418E+01    0.781260854767273916E-02    0.179293177887256472E+01   -0.183153996077503223E+01   -0.113692586406963253E+00   -0.504123936039682885E+01   -0.383023322172663522E-01   -0.765940691015068176E-01   -0.178926578739385611E+00   -0.145188270316957524E+00   -0.107883512148327365E+01   -0.977145365115698938E+00
    0.128264800531653123E+00   -0.224353968811405906E+02    0.904299288075061547E+00    0.109634377055684418E+01    0.781260854767273916E-02    0.179293177887256472E+01   -0.183153996077503223E+01   -0.113692586406963253E+00   -0.504123936039682885E+01   -0.383023322172663522E-01   -0.765940691015068176E-01   -0.178926578739385611E+00   -0.145188270316957524E+00   -0.107883512148327365E+01   -0.977145365115698938E+00
    0.128058057769601386E+00   -0.224304037527850610E+02    0.900908648761585606E+00    0.109652590722854493E+01    0.813722487454618046E-02    0.179641369806900775E+01   -0.182910720550698724E+01   -0.114960173012893532E+00   -0.506899769968439706E+01   -0.233362366563100582E-01   -0.783901265296016447E-01   -0.213886083814270100E+00   -0.146766887912134630E+00   -0.106914356400636334E+01   -0.976225334697733205E+00
    0.128058057769601386E+00   -0.224304037527850610E+02    0.900908648761585606E+00    0.109652590722854493E+01    0.813722487454618046E-02    0.179641369806900775E+01   -0.182910720550698724E+01   -0.114960173012893532E+00   -0.506899769968439706E+01   -0.233362366563100582E-01   -0.783901265296016447E-01   -0.213886083814270100E+00   -0.146766887912134630E+00   -0.106914356400636334E+01   -0.976225334697733205E+00
    0.123405055448789658E+00   -0.223753885931788332E+02    0.892673643936265471E+00    0.109447565423665760E+01    0.748841988233075150E-02    0.179363760890707091E+01   -0.171939903971338226E+01   -0.115207063492150832E+00   -0.511439426716728640E+01   -0.258352945348908555E-01   -0.815493400424446846E-01   -0.218132159328654596E+00   -0.143932317451016978E+00   -0.107196997018938678E+01   -0.974848985573851801E+00
    0.123405055448789658E+00   -0.223753885931788332E+02    0.892673643936265471E+00    0.109447565423665760E+01    0.748841988233075150E-02    0.179363760890707091E+01   -0.171939903971338226E+01   -0.115207063492150832E+00   -0.511439426716728640E+01   -0.258352945348908555E-01   -0.815493400424446846E-01   -0.218132159328654596E+00   -0.143932317451016978E+00   -0.107196997018938678E+01   -0.974848985573851801E+00
    0.125539097883042461E+00   -0.224275710157011048E+02    0.907723206644045266E+00    0.109450182214615421E+01    0.762086222051965370E-02    0.179647919653776844E+01   -0.173878406489000992E+01   -0.114052063262991360E+00   -0.544975790403041227E+01   -0.288654341228422248E-01   -0.768492338431629590E-01   -0.219249360354837275E+00   -0.147003957270663371E+00   -0.108153485416308492E+01   -0.973619574349698813E+00
    0.125369368773526557E+00   -0.223391698384223396E+02    0.908262752529540807E+00    0.109568329369280537E+01    0.786349312350325715E-02    0.179511766436322606E+01   -0.187021385571250587E+01   -0.116269478098449286E+00   -0.515863644782570496E+01   -0.145651877623463981E-01   -0.766559197146970267E-01   -0.188905779045463212E+00   -0.144416297108762220E+00   -0.106222195183849766E+01   -0.972600490424278208E+00
    0.122395113639157074E+00   -0.223385997599746098E+02    0.901233031712038946E+00    0.109314727739639861E+01    0.786384022294895312E-02    0.179457244762719892E+01   -0.170854479479322996E+01   -0.114958735142615592E+00   -0.554454288172530863E+01   -0.111848045763406310E-01   -0.791144727166701311E-01   -0.172795026701581728E+00   -0.144562346292105931E+00   -0.108026700761273431E+01   -0.972370042594576711E+00
    0.122395113639157074E+00   -0.223385997599746098E+02    0.901233031712038946E+00    0.109314727739639861E+01    0.786384022294895312E-02    0.179457244762719892E+01   -0.170854479479322996E+01   -0.114958735142615592E+00   -0.554454288172530863E+01   -0.111848045763406310E-01   -0.791144727166701311E-01   -0.172795026701581728E+00   -0.144562346292105931E+00   -0.108026700761273431E+01   -0.972370042594576711E+00
    0.125038443219659540E+00   -0.224134259427074269E+02    0.904052588780266952E+00    0.109598269387538894E+01    0.774827870828483263E-02    0.179521774422811653E+01   -0.170221605480941607E+01   -0.111799585429044016E+00   -0.540907555695410824E+01    0.524767383724029576E-02   -0.891231962637847180E-01   -0.172558696323881433E+00   -0.143770448991444227E+00   -0.107630001521974283E+01   -0.969963543726450550E+00
    0.125895610106089240E+00   -0.222948283238831628E+02    0.903569771916596709E+00    0.109567018713450182E+01    0.801560824732730146E-02    0.179258492692358096E+01   -0.168940040383554746E+01   -0.115813831939618722E+00   -0.519158733133780981E+01   -0.154785851307358575E-01   -0.978472783391601264E-01   -0.202886817869931846E+00   -0.145985831689961432E+00   -0.109842429615589565E+01   -0.969838656713421066E+00
    0.125895610106089240E+00   -0.222948283238831628E+02    0.903569771916596709E+00    0.109567018713450182E+01    0.801560824732730146E-02    0.179258492692358096E+01   -0.168940040383554746E+01   -0.115813831939618722E+00   -0.519158733133780981E+01   -0.154785851307358575E-01   -0.978472783391601264E-01   -0.202886817869931846E+00   -0.145985831689961432E+00   -0.109842429615589565E+01   -0.969838656713421066E+00
    0.122592534663286068E+00   -0.224689487036585476E+02    0.895003048144902724E+00    0.109332253332784002E+01    0.797885686483517514E-02    0.179513388892224235E+01   -0.170958760729740278E+01   -0.114968063967751902E+00   -0.519774820906151014E+01   -0.129833735432029630E-01   -0.717142456780145293E-01   -0.171278561769564713E+00   -0.152541578584178938E+00   -0.109256582481598108E+01   -0.969107614866173361E+00
    0.122592534663286068E+00   -0.224689487036585476E+02    0.895003048144902724E+00    0.109332253332784002E+01    0.797885686483517514E-02    0.179513388892224235E+01   -0.170958760729740278E+01   -0.114968063967751902E+00   -0.519774820906151014E+01   -0.129833735432029630E-01   -0.717142456780145293E-01   -0.171278561769564713E+00   -0.152541578584178938E+00   -0.109256582481598108E+01   -0.969107614866173361E+00
    0.126111640059053676E+00   -0.223255374342604931E+02    0.907734688619091457E+00    0.109574800570121678E+01    0.802748271676409844E-02    0.179422626646598804E+01   -0.178910088591554706E+01   -0.115494459092022619E+00   -0.541228539307731360E+01   -0.858086711220261249E-02   -0.840710964071068184E-01   -0.171272356774091306E+00   -0.143430630928157943E+00   -0.108366496569138393E+01   -0.968975517079150306E+00
    0.124905533537143204E+00   -0.223791782606531662E+02    0.899137640544840133E+00    0.109347002377292646E+01    0.773501111688665918E-02    0.179528753291644683E+01   -0.182872971557747643E+01   -0.114252667205196431E+00   -0.506535260696921164E+01   -0.397701102819082303E-01   -0.757810555955627518E-01   -0.177747186668418156E+00   -0.145537477958672445E+00   -0.108489934180753433E+01   -0.968804519292577160E+00
    0.121402047289043857E+00   -0.224354155956013237E+02    0.900013477910790116E+00    0.109986492792202917E+01    0.771494595262843356E-02    0.179311809343926520E+01   -0.169521023160012074E+01   -0.114876086911176303E+00   -0.482617069167506418E+01   -0.171306320560310824E-01   -0.839075962338758363E-01   -0.190719206179154915E+00   -0.145069844443100920E+00   -0.108723575152621033E+01   -0.968643434876240050E+00
    0.128778173344830549E+00   -0.224052573710042218E+02    0.900590340089836072E+00    0.109634289124325290E+01    0.822997887572995968E-02    0.179435574771969297E+01   -0.164832956133289144E+01   -0.116667275180801833E+00   -0.521321982049650678E+01   -0.368738065257837311E-01   -0.102004190697546848E+00   -0.205673474307654702E+00   -0.145511294025915283E+00   -0.106567668936039772E+01   -0.968520141480642027E+00
    0.119736501019567787E+00   -0.225254787953035525E+02    0.912008667036024123E+00    0.109846081371678594E+01    0.797593323768355615E-02    0.179527242575613943E+01   -0.176739394496616931E+01   -0.115235460601976786E+00   -0.524084556482506247E+01   -0.357195815742270689E-01   -0.837890054044788946E-01   -0.210348887902551629E+00   -0.140992530387272774E+00   -0.107336529822093407E+01   -0.967942148092821752E+00
    0.127902469181100154E+00   -0.225141469744394733E+02    0.909676840566305267E+00    0.109588314179015023E+01    0.776697009629862423E-02    0.179407799732097661E+01   -0.170940038376913961E+01   -0.114766255517338933E+00   -0.535160461856077951E+01   -0.281396481913835095E-01   -0.597995707580899066E-01   -0.198813990196861579E+00   -0.146327713919073399E+00   -0.107706114547749277E+01   -0.967385427704168910E+00
    0.127966675118923123E+00   -0.224326135810083827E+02    0.907545664238813332E+00    0.109072088777510401E+01    0.802615607048464547E-02    0.179568474757916086E+01   -0.176423857621215596E+01   -0.114713184184702527E+00   -0.552761653155932997E+01   -0.449999206164832868E-01   -0.825778442844840310E-01   -0.182452539884411041E+00   -0.145836289907086469E+00   -0.107893180338583727E+01   -0.966068851018041630E+00
    0.123152114555361042E+00   -0.223752578557283854E+02    0.899933610843643539E+00    0.109464027034466271E+01    0.762308766477086397E-02    0.179469863682071340E+01   -0.173515637824017777E+01   -0.115667480477510423E+00   -0.524368810607818236E+01   -0.147622536851574043E-01   -0.825617989710215605E-01   -0.215409876115945476E+00   -0.145162435652386901E+00   -0.106753598231641456E+01   -0.965520304934110785E+00
    0.125622224949226341E+00   -0.224545082059236876E+02    0.906160181043685231E+00    0.109388813255739459E+01    0.794368908005345202E-02    0.179487468873008771E+01   -0.184671075598725243E+01   -0.116440342258548143E+00   -0.490734859433505832E+01   -0.184625649242014245E-01   -0.574720503864865687E-01   -0.226898212496317309E+00   -0.145144003596764493E+00   -0.106389971379332882E+01   -0.962601283837047128E+00
    0.122554450474682594E+00   -0.223750978725661156E+02    0.908800960292666216E+00    0.109676091920942587E+01    0.775108537983127364E-02    0.179467311709048882E+01   -0.182140224997567923E+01   -0.115692573855814385E+00   -0.517324327334893397E+01   -0.215726562588837018E-01   -0.846770378180005528E-01   -0.191503511063175369E+00   -0.142326299729298028E+00   -0.108528526225005639E+01   -0.962418585061452725E+00
    0.123848350828917916E+00   -0.223517153256991854E+02    0.895869112842504811E+00    0.109200011622956539E+01    0.819080140000871468E-02    0.179689995772547983E+01   -0.176896385680271284E+01   -0.114042459144673120E+00   -0.509716759550916176E+01   -0.152066006531854769E-01   -0.835648912010090034E-01   -0.190200953327384570E+00   -0.138444116317974569E+00   -0.107367312973764517E+01   -0.961971369469101334E+00
    0.125105423695881041E+00   -0.224551266978427542E+02    0.910345163133342239E+00    0.110125923443625440E+01    0.779103121573221629E-02    0.179476825464165346E+01   -0.166638610611535687E+01   -0.114538852097153726E+00   -0.496272631377609219E+01   -0.313416640344286734E-01   -0.748916723495401254E-01   -0.188281963660286350E+00   -0.145505294588261974E+00   -0.108337672934873686E+01   -0.961814276636219101E+00
    0.124901161175656930E+00   -0.224018927885828916E+02    0.910542351178999287E+00    0.109440628346246549E+01    0.796153519810376478E-02    0.179509001380522948E+01   -0.172675266714515718E+01   -0.115638706745227471E+00   -0.524310422275515453E+01   -0.278375096877949597E-01   -0.829144599930615456E-01   -0.175536524882226319E+00   -0.146931408964454030E+00   -0.108103784735175745E+01   -0.960469061649760092E+00
    0.124103530113369151E+00   -0.223546920530424167E+02    0.924466398775656173E+00    0.110110684284471549E+01    0.793039878812193746E-02    0.179427966382696003E+01   -0.183972646035279053E+01   -0.114789889587876115E+00   -0.515452183835308464E+01   -0.311315470589689641E-01   -0.838744577242622330E-01   -0.200125427779341170E+00   -0.142155910504217442E+00   -0.108095366764637868E+01   -0.960354965816527240E+00
    0.124106286348307171E+00   -0.223631602274369037E+02    0.907375964891460218E+00    0.109682488551431301E+01    0.773448571103772711E-02    0.179276938763265470E+01   -0.175720215458331475E+01   -0.115258334566943552E+00   -0.528666619277357519E+01   -0.254445635023104189E-01   -0.962707855542644930E-01   -0.222347870730684932E+00   -0.145338532008694926E+00   -0.109419007198896523E+01   -0.958759814921357423E+00
    0.125118956197018100E+00   -0.223723952338024077E+02    0.896944490371549885E+00    0.109843999320782659E+01    0.769374141738094017E-02    0.179357001646387193E+01   -0.177145596485122270E+01   -0.114294894169665831E+00   -0.542548138861103091E+01   -0.279181758196693115E-01   -0.566096755928354733E-01   -0.174966247308732281E+00   -0.145473452792553776E+00   -0.107444396979723145E+01   -0.958516663814362735E+00
    0.122239564891235775E+00   -0.224293515213992016E+02    0.894011156035781296E+00    0.109303098958038514E+01    0.773851062830197868E-02    0.179594819939612371E+01   -0.176814979771134406E+01   -0.115426635848178055E+00   -0.548725782389757555E+01   -0.275147738938685618E-01   -0.786883141441884759E-01   -0.166278317916005614E+00   -0.139286278969696253E+00   -0.108327951682320767E+01   -0.957814218854318611E+00
    0.126005369348739682E+00   -0.223180989327457482E+02    0.905595740102630664E+00    0.109721887560325637E+01    0.797141750373248255E-02    0.179332362216853447E+01   -0.179894081929808758E+01   -0.114536051307682366E+00   -0.510824124418833758E+01   -0.242035292201320945E-01   -0.643738842449381732E-01   -0.157505708955524626E+00   -0.143732606442402877E+00   -0.109351078890149633E+01   -0.957788608602770486E+00
    0.121230481743752047E+00   -0.223559711505533443E+02    0.894593238161977444E+00    0.109378724550335504E+01    0.800805538910633920E-02    0.179560749845360035E+01   -0.181402199900336170E+01   -0.113779671706257121E+00   -0.527636657417226473E+01   -0.162240666175802045E-01   -0.765055799562639471E-01   -0.179853188077930937E+00   -0.143550609027672360E+00   -0.107829771211268222E+01   -0.956871371624655964E+00
    0.124184710837020193E+00   -0.223289529157253170E+02    0.906367443225785885E+00    0.109428106986744478E+01    0.757619767774290326E-02    0.179275719120444643E+01   -0.179094320437281795E+01   -0.116515320386324533E+00   -0.532487505827896968E+01   -0.450718088251652049E-01   -0.619262242909528471E-01   -0.170840039741426308E+00   -0.145662882366016627E+00   -0.107724533092908481E+01   -0.956466033245924607E+00
    0.123730175270312714E+00   -0.224184964556761415E+02    0.912452620208296095E+00    0.109591295664071819E+01    0.813187214702717348E-02    0.179230734789602519E+01   -0.175067708114288600E+01   -0.114615533625484517E+00   -0.500397377378998875E+01   -0.247321325551320276E-01   -0.859357230787682197E-01   -0.185573562037918388E+00   -0.143283803094911066E+00   -0.108910807856737435E+01   -0.956314361930199142E+00
    0.124765488955822790E+00   -0.224031340191225965E+02    0.886032736650858355E+00    0.109507335186452237E+01    0.811533693109699195E-02    0.179339435600820063E+01   -0.170866371973109499E+01   -0.116767455565178965E+00   -0.509100248487483231E+01   -0.439313192518959728E-01   -0.721121550684220014E-01   -0.178140304594440663E+00   -0.143114146097376910E+00   -0.106728257660234194E+01   -0.955915849375021387E+00
    0.123349433851743018E+00   -0.223000144789599872E+02    0.909120741035803759E+00    0.109871803961475889E+01    0.803136234890190412E-02    0.179137602721268263E+01   -0.175601344526004932E+01   -0.115384577538846858E+00   -0.500041232035835570E+01   -0.278183597647552773E-01   -0.640697814381500641E-01   -0.178143998367893075E+00   -0.144100983315482434E+00   -0.107425478973927668E+01   -0.954431710400553301E+00
    0.123395958496823333E+00   -0.223985137679637916E+02    0.907885500492229491E+00    0.109744387321698289E+01    0.771900449948187319E-02    0.179398065331033441E+01   -0.175053265498358290E+01   -0.115341710314652832E+00   -0.526634695462582325E+01   -0.207164073955622419E-01   -0.805558277709487736E-01   -0.193942657837018279E+00   -0.143023381699312224E+00   -0.108530143885026908E+01   -0.953599038182492365E+00
    0.127334762775673738E+00   -0.223911447466205900E+02    0.912178002921478215E+00    0.109046970310979430E+01    0.819863090452109707E-02    0.179527965226081077E+01   -0.167125630244116929E+01   -0.115619154214370981E+00   -0.528506653586292341E+01   -0.454463874867976764E-01   -0.858838636087413954E-01   -0.171745013519676221E+00   -0.143958939599930502E+00   -0.107551573251747845E+01   -0.953256547507310148E+00
    0.125702184411072504E+00   -0.224150505135568388E+02    0.905334006963387061E+00    0.109122363885565088E+01    0.750460422441455791E-02    0.179267248124217171E+01   -0.172522578667243875E+01   -0.113716446895795423E+00   -0.529631842108391737E+01   -0.418114175331753130E-01   -0.750058072119200586E-01   -0.226178236604609062E+00   -0.146466043383511518E+00   -0.109935158762265761E+01   -0.952761635557029307E+00
    0.124768828781405300E+00   -0.223688200124953305E+02    0.896452346600035810E+00    0.109472641798466208E+01    0.777369151087289878E-02    0.179053913367560913E+01   -0.178776512126170140E+01   -0.114783453854689743E+00   -0.503276212462735462E+01   -0.215598101698835538E-01   -0.833259930741142296E-01   -0.209294470571706137E+00   -0.145456771438680244E+00   -0.106170753894788028E+01   -0.952667317264906943E+00
    0.124419974881359363E+00   -0.223771757643816258E+02    0.905082537143539256E+00    0.109557190539139948E+01    0.756949164155727109E-02    0.179170461499744382E+01   -0.173374408952384518E+01   -0.113336132218209845E+00   -0.500911974911184643E+01   -0.160661130435755459E-01   -0.734217577774891050E-01   -0.201621710577107455E+00   -0.147157333654584638E+00   -0.107554777770367349E+01   -0.952054827496655820E+00
    0.123438688589205411E+00   -0.224047990944890429E+02    0.893185337395036139E+00    0.109728573492108694E+01    0.785219451845302861E-02    0.179526036434982594E+01   -0.175173860907593992E+01   -0.114311101484632319E+00   -0.533272199593389207E+01   -0.457274146490367281E-01   -0.937848217951731400E-01   -0.211469151186323395E+00   -0.142926534646608372E+00   -0.107192983784270712E+01   -0.951724385760399305E+00
    0.126806303577036511E+00   -0.224306502682411164E+02    0.895786569075594397E+00    0.110120082086811721E+01    0.810389375979848545E-02    0.179246680350320808E+01   -0.180113547701089494E+01   -0.114110380425720942E+00   -0.548188803770172228E+01    0.594008186547293621E-02   -0.744225768094184809E-01   -0.177470579386247329E+00   -0.145234652331975134E+00   -0.107206357959170173E+01   -0.951523053099191940E+00
    0.123925871465329837E+00   -0.224288328659750995E+02    0.888708244463716324E+00    0.109473181784759510E+01    0.773518979837726182E-02    0.179112400559643281E+01   -0.173519977682741700E+01   -0.114937059953691134E+00   -0.504456121309679695E+01   -0.300263471785704936E-01   -0.755665667561551541E-01   -0.210273437728080353E+00   -0.146632753750218586E+00   -0.110028369520583325E+01   -0.951201803274256297E+00
    0.123582728389925789E+00   -0.222546966835670155E+02    0.899708158404361691E+00    0.109449165072533261E+01    0.790651034245664318E-02    0.179305542440948229E+01   -0.177436673406231971E+01   -0.113358008581000688E+00   -0.527214379436692848E+01   -0.303758852280637051E-01   -0.836694435229854289E-01   -0.195086978106683961E+00   -0.144429946173007195E+00   -0.108426114812416463E+01   -0.950852293312595687E+00
    0.124430881082958911E+00   -0.223617746463266300E+02    0.902281603107177199E+00    0.109725695368814380E+01    0.770418878580488020E-02    0.179387422032361510E+01   -0.171865554240475227E+01   -0.113485029162382803E+00   -0.539749683407883385E+01   -0.272139842591483418E-01   -0.826645074328849760E-01   -0.217506121642044664E+00   -0.145258101536357320E+00   -0.109294774465283950E+01   -0.950400583303361635E+00
    0.125539718072238043E+00   -0.223782174882046654E+02    0.896621699961774987E+00    0.109274272100454906E+01    0.800086483439913822E-02    0.179380574728042808E+01   -0.170503274724552201E+01   -0.114336457956196208E+00   -0.513883374885862931E+01   -0.343659583465769497E-01   -0.901915490763301186E-01   -0.213770921568391115E+00   -0.144505287027963142E+00   -0.107451389000324982E+01   -0.947333049388506265E+00
    0.123782793103479546E+00   -0.224222508280779671E+02    0.894344292490272808E+00    0.109287215743774890E+01    0.806744807451633891E-02    0.179305501580030824E+01   -0.180334560387637688E+01   -0.113878131860167930E+00   -0.521803672092554471E+01   -0.198316854465047689E-01   -0.591504482217263955E-01   -0.184518496091265166E+00   -0.145778891853839743E+00   -0.108009948624149299E+01   -0.930816000245769937E+00
    0.125394628517478568E+00   -0.224994802186643916E+02    0.907476550249668890E+00    0.109412196414827800E+01    0.781557837487402082E-02    0.179335943152174759E+01   -0.175310642670061556E+01   -0.113780325768049709E+00   -0.512824990817398429E+01   -0.287434277557034185E-01   -0.676120156402701955E-01   -0.201889717515204015E+00   -0.146704210054533574E+00   -0.107108340185228190E+01   -0.933881118456701964E+00
    0.125496680554472023E+00   -0.223940259356481484E+02    0.902359386374664840E+00    0.109892686340450974E+01    0.789562001863324328E-02    0.179045006363188253E+01   -0.168891766494522289E+01   -0.112172008775899973E+00   -0.518266680308273742E+01   -0.224742558434076617E-01   -0.864426300928706759E-01   -0.219092111012425039E+00   -0.146579981633999962E+00   -0.106834920861499150E+01   -0.931068013795265381E+00
    0.125153050336756999E+00   -0.224234458773482217E+02    0.908269235863520930E+00    0.109745556395892940E+01    0.804788426775118922E-02    0.179293627310727399E+01   -0.172337657899918573E+01   -0.113576053188803178E+00   -0.563543141223194866E+01   -0.320601211662193478E-01   -0.683203196321058026E-01   -0.196349377144911685E+00   -0.143689658506997386E+00   -0.107392394453944529E+01   -0.929444220874625082E+00
    0.120007215966059927E+00   -0.224273017525636433E+02    0.903764442873198015E+00    0.109523744284417668E+01    0.770746375434474759E-02    0.179134937169346675E+01   -0.180912709305948072E+01   -0.114263471067621525E+00   -0.535058394120162806E+01   -0.296109744928851823E-01   -0.593361102954452213E-01   -0.203638233922931067E+00   -0.141489850788477395E+00   -0.107380488526938089E+01   -0.947156131254217937E+00
    0.123858010967923329E+00   -0.223814663760520602E+02    0.904082134135575033E+00    0.109187248223887545E+01    0.787341368134309577E-02    0.179390790451588900E+01   -0.181076389150566675E+01   -0.114298864238225759E+00   -0.524617724841896838E+01   -0.302069541238020774E-01   -0.784483091205829403E-01   -0.188398417005880364E+00   -0.143877004067345826E+00   -0.107230446133082791E+01   -0.942229368931317812E+00
    0.124813633730971901E+00   -0.223934655837520822E+02    0.905584948596307671E+00    0.109204295415277230E+01    0.815893324038883573E-02    0.179459253369125649E+01   -0.182269472763856100E+01   -0.115270793372904440E+00   -0.559305679886407603E+01   -0.201771855958628385E-01   -0.734738695250677365E-01   -0.190464054894368906E+00   -0.142740391956041046E+00   -0.107711479539712784E+01   -0.943621501017324560E+00
    0.123019274177868315E+00   -0.223890484016257929E+02    0.903679950364057016E+00    0.109435715209435136E+01    0.797008324565340494E-02    0.179384040642303777E+01   -0.186974245561238184E+01   -0.113884065743894397E+00   -0.518014399997517572E+01   -0.442407551729613324E-01   -0.738302065451081485E-01   -0.179560271725710041E+00   -0.142471637725280209E+00   -0.107494654815133828E+01   -0.937906688368438046E+00
    0.123435042061743730E+00   -0.224617114754135123E+02    0.903459502956783234E+00    0.109198630156429810E+01    0.800393273426771266E-02    0.179413326186614386E+01   -0.183549666243142617E+01   -0.114381244181160135E+00   -0.509308546189848155E+01   -0.179169086950499781E-01   -0.658620667933601939E-01   -0.209467308526293139E+00   -0.144124204672037542E+00   -0.108389211952963804E+01   -0.935536282573640299E+00
    0.125094501654046869E+00   -0.223691119291845979E+02    0.893846775827428885E+00    0.109499086249595301E+01    0.798291413961877208E-02    0.179457126957701707E+01   -0.180613395842679214E+01   -0.115182756170753908E+00   -0.529640951189888565E+01   -0.267171271734804074E-01   -0.734993175626348361E-01   -0.217562795860182845E+00   -0.147298353795767112E+00   -0.107524620624653000E+01   -0.947862046324030705E+00
    0.122645468145146930E+00   -0.224578100865906904E+02    0.898333918242899210E+00    0.109500545215969147E+01    0.771601783015026660E-02    0.179497850464234654E+01   -0.172216634878141628E+01   -0.114752243993972103E+00   -0.539541047032098309E+01   -0.214386111143254968E-01   -0.743773558076619573E-01   -0.172839829761979202E+00   -0.141314695155008607E+00   -0.106620689381511680E+01   -0.947685424065364934E+00
    0.123937717231970973E+00   -0.224503817323953285E+02    0.906028636052408576E+00    0.109004756598859465E+01    0.797130821239291389E-02    0.178942276951266166E+01   -0.189567319138884716E+01   -0.115050059298202223E+00   -0.509719802098718677E+01   -0.114820062458035211E-01   -0.685089555582206466E-01   -0.208188166027495153E+00   -0.142981086985216888E+00   -0.107336726359405787E+01   -0.948208727049617339E+00
    0.126985905256594006E+00   -0.224941743931793745E+02    0.890766958457573033E+00    0.109767350676326214E+01    0.811129893607503982E-02    0.179441304348925956E+01   -0.186545382708733842E+01   -0.115190504197964172E+00   -0.528665406238034841E+01   -0.339140377200765203E-01   -0.876847038197054729E-01   -0.197265278721845627E+00   -0.144062454634465847E+00   -0.105879317923177196E+01   -0.948983219606110651E+00
    0.126295843548527076E+00   -0.224358890913516262E+02    0.897502479513771378E+00    0.109859178246853761E+01    0.806825444709158117E-02    0.179279948957914903E+01   -0.170288165146814885E+01   -0.112496951376995530E+00   -0.531344572892828726E+01   -0.161574050918135044E-01   -0.860480382617332396E-01   -0.190695564602246098E+00   -0.146883824301094618E+00   -0.108177397724236291E+01   -0.937465802358234845E+00
    0.125760472808330581E+00   -0.225314506521969093E+02    0.899442585235225689E+00    0.109737786660199621E+01    0.779362609943199097E-02    0.179368137130028971E+01   -0.179716945223152336E+01   -0.115203336744937920E+00   -0.516458683887455550E+01   -0.330258715263230043E-01   -0.725413371027670006E-01   -0.205683020650506698E+00   -0.144784058637989682E+00   -0.107216860549941040E+01   -0.943685407246622532E+00
    0.123683982563516745E+00   -0.223617607168935102E+02    0.912466937467992012E+00    0.109053904914664535E+01    0.753954583906317650E-02    0.179382785605773609E+01   -0.171856789159406542E+01   -0.114185344299514407E+00   -0.545092278326867063E+01   -0.301504293751200768E-01   -0.783118357061182296E-01   -0.243795629445599127E+00   -0.145688093395818258E+00   -0.109162381258001839E+01   -0.944992814890840749E+00
    0.126427541741586852E+00   -0.224431288783639999E+02    0.899232384232876880E+00    0.109872314903181967E+01    0.834093529882647469E-02    0.179231421616668563E+01   -0.176564722715370825E+01   -0.115261131132413305E+00   -0.553778041322681425E+01   -0.472109122202677770E-01   -0.939757836614830699E-01   -0.198985311665728776E+00   -0.145269901500947207E+00   -0.109891356843549759E+01   -0.945104183548254206E+00
    0.123535166058445639E+00   -0.224144877272108403E+02    0.910602122213724496E+00    0.109916982584468870E+01    0.782761783832078804E-02    0.179504304937267367E+01   -0.178795756517315341E+01   -0.113152346313120669E+00   -0.552609012776385633E+01   -0.223253943311773166E-01   -0.715550875716391283E-01   -0.199997859241920928E+00   -0.142280625844886294E+00   -0.109868222018500017E+01   -0.939835779255393078E+00
    0.127743071764612165E+00   -0.224639984040654035E+02    0.911975361081789671E+00    0.109467883282681222E+01    0.821247017837502258E-02    0.179172366017451723E+01   -0.175081282540390593E+01   -0.114349668188285222E+00   -0.507769455020159466E+01   -0.872356465056197371E-02   -0.818634947464357693E-01   -0.207816333871110925E+00   -0.142554903614057704E+00   -0.108866618779480806E+01   -0.942235599410016111E+00
    0.124181242841080036E+00   -0.223475676751622565E+02    0.912780842585535934E+00    0.110017611694128670E+01    0.811168449587787443E-02    0.179236427911670337E+01   -0.170339568164611133E+01   -0.114407158881989504E+00   -0.511030443756661601E+01   -0.281908877060470069E-01   -0.878556715704104790E-01   -0.212511109134845250E+00   -0.145457631993877679E+00   -0.108741981592434267E+01   -0.944834888425612696E+00
    0.124799083625735649E+00   -0.224738155233193595E+02    0.908135493861421117E+00    0.109796699870581560E+01    0.806294379356859402E-02    0.179521827697623371E+01   -0.173314443657731143E+01   -0.115750795896391853E+00   -0.543093451905519320E+01   -0.113362597389509278E-01   -0.739186163216658254E-01   -0.193418879594332516E+00   -0.144258358963646000E+00   -0.110575012192554278E+01   -0.948691027551023747E+00
    0.124517832711993140E+00   -0.223452027195327219E+02    0.910016251069518223E+00    0.109418763318225554E+01    0.779965055752881043E-02    0.179269425201187227E+01   -0.164168193975250576E+01   -0.113448392207629242E+00   -0.529830184731829323E+01   -0.128865857706703252E-01   -0.647125601734236111E-01   -0.172793190216841391E+00   -0.140493186653433438E+00   -0.110095786903174631E+01   -0.946281851570354382E+00
    0.124254737770788395E+00   -0.224286771466378205E+02    0.910440393144864801E+00    0.109590914881596069E+01    0.802945798588759405E-02    0.179220295330410306E+01   -0.180284025894247479E+01   -0.114028615436529382E+00   -0.506759128058547592E+01   -0.117090541198484142E-01   -0.736565840008395895E-01   -0.229755302255248095E+00   -0.142588678020623194E+00   -0.109389869613462487E+01   -0.940051466673047953E+00
    0.123180975615591506E+00   -0.225221780716364393E+02    0.906772130361044648E+00    0.109293457878826561E+01    0.794980614122445944E-02    0.179402169227981356E+01   -0.181184112318803336E+01   -0.116613972511033739E+00   -0.491217071604784294E+01   -0.354312476997599712E-01   -0.612487597122264582E-01   -0.177618010779425323E+00   -0.143438855179248620E+00   -0.109988105870672070E+01   -0.947928769826428264E+00
    0.123343077172495902E+00   -0.223753784004219085E+02    0.914897407712616073E+00    0.110062857657178004E+01    0.768137753279841528E-02    0.179421068491080771E+01   -0.169484508822838276E+01   -0.115114822849375187E+00   -0.546525545566839988E+01   -0.294882522663468642E-01   -0.722977931606037932E-01   -0.201868852874076965E+00   -0.142621769158375433E+00   -0.108640526828928419E+01   -0.948322560178300522E+00
    0.121650736817118091E+00   -0.224216450812939598E+02    0.907759883051188154E+00    0.109685004264416608E+01    0.794381188841182181E-02    0.179205171443493416E+01   -0.174012276836157964E+01   -0.115302352908971895E+00   -0.511717682069084212E+01   -0.226403700434656581E-01   -0.560844342055323020E-01   -0.198791145804563363E+00   -0.144016648096626232E+00   -0.108273959565269706E+01   -0.947811747167514262E+00
    0.125007802936785456E+00   -0.223987639685268185E+02    0.914025009322745996E+00    0.109610573644307552E+01    0.799985582692860041E-02    0.179272150820989973E+01   -0.171734645439584233E+01   -0.113459278470554370E+00   -0.515938026905981939E+01   -0.250983549459922357E-01   -0.906279305276429664E-01   -0.176879083517077845E+00   -0.144950207571533457E+00   -0.108961180124774892E+01   -0.948366456915113676E+00
    0.121514561228272047E+00   -0.224014444515541413E+02    0.907463880718943683E+00    0.109555666663552165E+01    0.773632964993773830E-02    0.179443250147575450E+01   -0.163565295485902373E+01   -0.115199979946542852E+00   -0.518060970907294482E+01   -0.364429590471844200E-01   -0.587293249455798499E-01   -0.168598943689941660E+00   -0.145321285043085058E+00   -0.108727728940008106E+01   -0.945578878086357766E+00
    0.122528401822916758E+00   -0.223984063006232290E+02    0.905285122716126822E+00    0.110275427842597518E+01    0.798246449475706679E-02    0.179333042498371187E+01   -0.178479489568390237E+01   -0.114400541753169577E+00   -0.516944459295247150E+01   -0.276991261344583864E-01   -0.656864397266839345E-01   -0.170077017108331119E+00   -0.144351395349995110E+00   -0.109360715501691375E+01   -0.939876905480808489E+00
    0.122994045369347133E+00   -0.225134371465182745E+02    0.903866072126263909E+00    0.109226932499939422E+01    0.785667194060513802E-02    0.179445934150836561E+01   -0.182036641613184513E+01   -0.114786872760962208E+00   -0.517290766919311285E+01   -0.269216857782852495E-01   -0.811684221487647684E-01   -0.194976485604207467E+00   -0.143809865659177694E+00   -0.109312741524651291E+01   -0.942385276577820119E+00
