    0.139050886196486367E+00   -0.309292306665173591E+02    0.138177786342805198E+01    0.891319111835569444E+00    0.616687506285764752E-02    0.228241630938607454E+01   -0.270933336193198393E+01   -0.166952748732137973E+00   -0.368776246196190538E+01   -0.165415821733912276E-01   -0.943842578979074143E-01   -0.269427291801137392E+00   -0.716868922972640349E-01   -0.111289820307921827E+01   -0.450259916674302918E+01
    0.139050886196486367E+00   -0.309292306665173591E+02    0.138177786342805198E+01    0.891319111835569444E+00    0.616687506285764752E-02    0.228241630938607454E+01   -0.270933336193198393E+01   -0.166952748732137973E+00   -0.368776246196190538E+01   -0.165415821733912276E-01   -0.943842578979074143E-01   -0.269427291801137392E+00   -0.716868922972640349E-01   -0.111289820307921827E+01   -0.450259916674302918E+01
    0.139310194469021653E+00   -0.311928985106150236E+02    0.136334182687080374E+01    0.940885190267571003E+00    0.691804020521699821E-02    0.227937828903452466E+01   -0.272650030529176224E+01   -0.154269031700750903E+00   -0.479335789969737469E+01   -0.357246354305499128E-01   -0.150673742710940972E+00   -0.285405032071976206E+00   -0.103617542473375721E+00   -0.110293576283716832E+01   -0.443210553519126194E+01
    0.134470094960086550E+00   -0.309865207483033807E+02    0.138274179572732248E+01    0.102683810686273724E+01    0.757635444969197592E-02    0.227884048001114348E+01   -0.268282359622939515E+01   -0.144957371195719498E+00   -0.490626421407102420E+01   -0.148790206564168304E-01   -0.120215487911335003E+00   -0.309539049073429606E+00   -0.720040983472137325E-01   -0.111270194909287579E+01   -0.441247084719614424E+01
    0.134470094960086550E+00   -0.309865207483033807E+02    0.138274179572732248E+01    0.102683810686273724E+01    0.757635444969197592E-02    0.227884048001114348E+01   -0.268282359622939515E+01   -0.144957371195719498E+00   -0.490626421407102420E+01   -0.148790206564168304E-01   -0.120215487911335003E+00   -0.309539049073429606E+00   -0.720040983472137325E-01   -0.111270194909287579E+01   -0.441247084719614424E+01
    0.137525569192346903E+00   -0.314138693021150743E+02    0.138029807156922280E+01    0.981329125268270097E+00    0.753779357376199201E-02    0.227731384031601403E+01   -0.274706882607157388E+01   -0.121693145756192306E+00   -0.447219006571055555E+01   -0.225483219474917063E-01   -0.191379650939529883E+00   -0.155068275364872665E+00   -0.128581225205370131E+00   -0.111941818967926743E+01   -0.440777490700024721E+01
    0.137525569192346903E+00   -0.314138693021150743E+02    0.138029807156922280E+01    0.981329125268270097E+00    0.753779357376199201E-02    0.227731384031601403E+01   -0.274706882607157388E+01   -0.121693145756192306E+00   -0.447219006571055555E+01   -0.225483219474917063E-01   -0.191379650939529883E+00   -0.155068275364872665E+00   -0.128581225205370131E+00   -0.111941818967926743E+01   -0.440777490700024721E+01
    0.139391955595122602E+00   -0.307198708658873976E+02    0.138225322278151186E+01    0.958553462481328555E+00    0.735574158930404984E-02    0.228130690875540232E+01   -0.272160726325770685E+01   -0.135704933487676871E+00   -0.551778968164266992E+01   -0.208159324775748188E-01    0.258286916996610938E-01   -0.262595276001274802E+00   -0.100517153598740722E+00   -0.112038394163734112E+01   -0.439668471775215064E+01
    0.139391955595122602E+00   -0.307198708658873976E+02    0.138225322278151186E+01    0.958553462481328555E+00    0.735574158930404984E-02    0.228130690875540232E+01   -0.272160726325770685E+01   -0.135704933487676871E+00   -0.551778968164266992E+01   -0.208159324775748188E-01    0.258286916996610938E-01   -0.262595276001274802E+00   -0.100517153598740722E+00   -0.112038394163734112E+01   -0.439668471775215064E+01
    0.138469455908521361E+00   -0.310855836203210494E+02    0.137859636170750810E+01    0.929238753865579192E+00    0.713626738201950366E-02    0.228097390027162428E+01   -0.266848644484233910E+01   -0.152119954692451098E+00   -0.506287118070005704E+01   -0.448282244056320417E-01    0.514864934839343036E-02   -0.242609271121105280E+00   -0.608670476516572842E-01   -0.111631011247730361E+01   -0.437851789350776066E+01
    0.138469455908521361E+00   -0.310855836203210494E+02    0.137859636170750810E+01    0.929238753865579192E+00    0.713626738201950366E-02    0.228097390027162428E+01   -0.266848644484233910E+01   -0.152119954692451098E+00   -0.506287118070005704E+01   -0.448282244056320417E-01    0.514864934839343036E-02   -0.242609271121105280E+00   -0.608670476516572842E-01   -0.111631011247730361E+01   -0.437851789350776066E+01
    0.137336434513584876E+00   -0.308257801551551402E+02    0.137903613500078848E+01    0.943782715903729974E+00    0.648380122032059508E-02    0.228198643266721213E+01   -0.281385320889634238E+01   -0.120113385368215933E+00   -0.502587336589574996E+01   -0.580454771338315550E-01   -0.133833617910547820E+00   -0.259150174175816483E+00   -0.107171761268378699E+00   -0.113641113829334550E+01   -0.437657677885542551E+01
    0.137336434513584876E+00   -0.308257801551551402E+02    0.137903613500078848E+01    0.943782715903729974E+00    0.648380122032059508E-02    0.228198643266721213E+01   -0.281385320889634238E+01   -0.120113385368215933E+00   -0.502587336589574996E+01   -0.580454771338315550E-01   -0.133833617910547820E+00   -0.259150174175816483E+00   -0.107171761268378699E+00   -0.113641113829334550E+01   -0.437657677885542551E+01
    0.140190865343601201E+00   -0.309144808622154699E+02    0.137471579010482192E+01    0.108231898310452213E+01    0.726906084652916007E-02    0.228497018602601498E+01   -0.273528766923380928E+01   -0.148592633968862853E+00   -0.631361566081510084E+01   -0.137089121844663660E-01   -0.154809050816501037E+00   -0.266205622611423165E+00   -0.116389611003356097E+00   -0.112605912417414422E+01   -0.437580623865378016E+01
    0.140190865343601201E+00   -0.309144808622154699E+02    0.137471579010482192E+01    0.108231898310452213E+01    0.726906084652916007E-02    0.228497018602601498E+01   -0.273528766923380928E+01   -0.148592633968862853E+00   -0.631361566081510084E+01   -0.137089121844663660E-01   -0.154809050816501037E+00   -0.266205622611423165E+00   -0.116389611003356097E+00   -0.112605912417414422E+01   -0.437580623865378016E+01
    0.137306783814689665E+00   -0.313213269965438386E+02    0.138426471669342788E+01    0.943592489432100723E+00    0.632798151913304026E-02    0.228297041090261743E+01   -0.270910711729788245E+01   -0.169822995697889056E+00   -0.413221452215928231E+01   -0.118516322750433049E-01   -0.768604731068945335E-01   -0.200317183625789569E+00   -0.126765715416904762E+00   -0.112886842031148582E+01   -0.437060181558085592E+01
    0.137306783814689665E+00   -0.313213269965438386E+02    0.138426471669342788E+01    0.943592489432100723E+00    0.632798151913304026E-02    0.228297041090261743E+01   -0.270910711729788245E+01   -0.169822995697889056E+00   -0.413221452215928231E+01   -0.118516322750433049E-01   -0.768604731068945335E-01   -0.200317183625789569E+00   -0.126765715416904762E+00   -0.112886842031148582E+01   -0.437060181558085592E+01
    0.136028672698386643E+00   -0.314077536685225311E+02    0.138211755188507968E+01    0.881343085599885501E+00    0.739575404767922086E-02    0.228180202777822627E+01   -0.267792207605366972E+01   -0.122252524176396690E+00   -0.491627148445050288E+01   -0.439204195016959092E-01   -0.883399074997622824E-01   -0.220413603656950702E+00   -0.122708485700047332E+00   -0.111566382043930967E+01   -0.437054865755175737E+01
    0.136028672698386643E+00   -0.314077536685225311E+02    0.138211755188507968E+01    0.881343085599885501E+00    0.739575404767922086E-02    0.228180202777822627E+01   -0.267792207605366972E+01   -0.122252524176396690E+00   -0.491627148445050288E+01   -0.439204195016959092E-01   -0.883399074997622824E-01   -0.220413603656950702E+00   -0.122708485700047332E+00   -0.111566382043930967E+01   -0.437054865755175737E+01
    0.138664511427258774E+00   -0.307391648155473547E+02    0.137928885855946204E+01    0.982189075430388803E+00    0.727869481069173298E-02    0.227898271898874949E+01   -0.268200309748064347E+01   -0.175439751855279158E+00   -0.471025559166387708E+01   -0.180324379311906265E-01   -0.286251620190163952E-01   -0.239554841868462209E+00   -0.123753588439886070E+00   -0.111179865846481718E+01   -0.437042152081999635E+01
    0.140275905909616749E+00   -0.308693242553251466E+02    0.138170112133137657E+01    0.104794001332584896E+01    0.738438232384857306E-02    0.228152892729322110E+01   -0.277267689042882237E+01   -0.132316639318671575E+00   -0.565545600747486432E+01   -0.192900226406157241E-01   -0.686837237892043012E-01   -0.222513129344799276E+00   -0.655434755093951688E-01   -0.112286967199257615E+01   -0.436959148001812370E+01
    0.140275905909616749E+00   -0.308693242553251466E+02    0.138170112133137657E+01    0.104794001332584896E+01    0.738438232384857306E-02    0.228152892729322110E+01   -0.277267689042882237E+01   -0.132316639318671575E+00   -0.565545600747486432E+01   -0.192900226406157241E-01   -0.686837237892043012E-01   -0.222513129344799276E+00   -0.655434755093951688E-01   -0.112286967199257615E+01   -0.436959148001812370E+01
    0.137433678980286439E+00   -0.308802575860370148E+02    0.137967501041058860E+01    0.103171427481877132E+01    0.766951907435960839E-02    0.227942266661294157E+01   -0.271761450076121180E+01   -0.148023788974418147E+00   -0.467699757412490413E+01   -0.599459888656349721E-01   -0.160816977778340531E+00   -0.255387100124536859E+00   -0.509591583896899444E-01   -0.112713316042188572E+01   -0.436693144604876871E+01
    0.133772207971398993E+00   -0.310627813883887818E+02    0.138056435726179805E+01    0.976209700227013255E+00    0.714079620110016824E-02    0.228049754447928743E+01   -0.266771421257029395E+01   -0.135787716007234882E+00   -0.461608538178594419E+01   -0.356104390477142846E-01   -0.581126595249855799E-01   -0.304267639769061848E+00   -0.292662022035187486E-01   -0.110116516680606336E+01   -0.436424131477759314E+01
    0.134838085006480812E+00   -0.307163458392530728E+02    0.137755632636868630E+01    0.948075939978817006E+00    0.749477711453579165E-02    0.227876177909428312E+01   -0.271242150457231102E+01   -0.136477052419182843E+00   -0.484990143231379278E+01   -0.590762334407742423E-01   -0.704876054540992669E-02   -0.243946212059697548E+00   -0.101657786222700705E+00   -0.110104493875685971E+01   -0.436363570611133778E+01
    0.135006415545835923E+00   -0.309331173465496150E+02    0.137159247240308879E+01    0.973171467234167697E+00    0.770632271837053823E-02    0.228192881971509465E+01   -0.269543067402980885E+01   -0.127971677304100584E+00   -0.530278964599720481E+01   -0.317141754996360797E-01   -0.113733890648991295E+00   -0.320429180977524763E+00   -0.470017174293574022E-01   -0.112457262402580893E+01   -0.436009069162069629E+01
    0.135006415545835923E+00   -0.309331173465496150E+02    0.137159247240308879E+01    0.973171467234167697E+00    0.770632271837053823E-02    0.228192881971509465E+01   -0.269543067402980885E+01   -0.127971677304100584E+00   -0.530278964599720481E+01   -0.317141754996360797E-01   -0.113733890648991295E+00   -0.320429180977524763E+00   -0.470017174293574022E-01   -0.112457262402580893E+01   -0.436009069162069629E+01
    0.135620495477206809E+00   -0.309701758861995735E+02    0.137673468143811362E+01    0.107016871008098713E+01    0.747368831130641644E-02    0.228057227977450649E+01   -0.270850389163353000E+01   -0.175011173927428348E+00   -0.485531124622884036E+01   -0.331187328602954995E-01   -0.932366264948936013E-01   -0.361059949694363724E+00   -0.145381458540403075E+00   -0.111312916329947176E+01   -0.435802962660721427E+01
    0.137170780360070244E+00   -0.311871623000230365E+02    0.137998249542380269E+01    0.102057178639302681E+01    0.758411408332115410E-02    0.228021682784103907E+01   -0.276875461313290794E+01   -0.129620950834350462E+00   -0.510715543435193542E+01   -0.355568016323364253E-01   -0.166506166457170146E+00   -0.250554277818697713E+00   -0.820397866687908733E-01   -0.111447058833670276E+01   -0.435663813899377406E+01
    0.137806755293067462E+00   -0.309563122520829097E+02    0.137995322131615561E+01    0.921602042125187815E+00    0.748917715723965843E-02    0.228040713928256711E+01   -0.273753124336503451E+01   -0.153608057558663968E+00   -0.451770861401926549E+01   -0.593477929035284291E-01   -0.362862530821982526E-01   -0.329995806117464707E+00   -0.619724816430500397E-01   -0.112733275476863715E+01   -0.435117906679837496E+01
    0.137806755293067462E+00   -0.309563122520829097E+02    0.137995322131615561E+01    0.921602042125187815E+00    0.748917715723965843E-02    0.228040713928256711E+01   -0.273753124336503451E+01   -0.153608057558663968E+00   -0.451770861401926549E+01   -0.593477929035284291E-01   -0.362862530821982526E-01   -0.329995806117464707E+00   -0.619724816430500397E-01   -0.112733275476863715E+01   -0.435117906679837496E+01
    0.137094042050567633E+00   -0.310438121970573100E+02    0.138508866097474481E+01    0.971212344123219218E+00    0.724197289878575345E-02    0.228392807272397347E+01   -0.272540882995094025E+01   -0.157822755064874087E+00   -0.465589681231838526E+01   -0.388004079924581663E-01   -0.399823167376597843E-01   -0.274149099057369616E+00   -0.849561090740880986E-01   -0.111708343031939350E+01   -0.434970029695047078E+01
    0.135400884183218578E+00   -0.312323467124864216E+02    0.137415159826211930E+01    0.100026512611335683E+01    0.731902449376630685E-02    0.227825865550443529E+01   -0.272105649971730168E+01   -0.175303096043327167E+00   -0.628077890535248073E+01   -0.650776387016675228E-01   -0.544438800922345534E-01   -0.240102856265747205E+00   -0.116904325979861959E+00   -0.111238855076290344E+01   -0.434820030155220572E+01
    0.137946067524485932E+00   -0.308421054838364874E+02    0.138771206658053337E+01    0.980884350898884816E+00    0.713137598360871414E-02    0.227820238634660610E+01   -0.273687645068341023E+01   -0.146007952334185870E+00   -0.518759142168535270E+01   -0.434288476902795484E-01   -0.923493300928155958E-01   -0.175543116993374215E+00   -0.128050761227509913E+00   -0.111293479834170572E+01   -0.434783320962234132E+01
    0.138376915031109354E+00   -0.307793969077873264E+02    0.137482546094421654E+01    0.941254089697083240E+00    0.739654448632767227E-02    0.227933498216690689E+01   -0.274763065886861924E+01   -0.160558544555022442E+00   -0.572526789536679370E+01   -0.246172632757314727E-01   -0.115134967270946992E+00   -0.202538844199662726E+00   -0.645048367486752428E-01   -0.111952827899069840E+01   -0.434539906593526837E+01
    0.138376915031109354E+00   -0.307793969077873264E+02    0.137482546094421654E+01    0.941254089697083240E+00    0.739654448632767227E-02    0.227933498216690689E+01   -0.274763065886861924E+01   -0.160558544555022442E+00   -0.572526789536679370E+01   -0.246172632757314727E-01   -0.115134967270946992E+00   -0.202538844199662726E+00   -0.645048367486752428E-01   -0.111952827899069840E+01   -0.434539906593526837E+01
    0.135015718940416557E+00   -0.310861554258485029E+02    0.138058016136809480E+01    0.101020592661475073E+01    0.730265054395863155E-02    0.228011847906454435E+01   -0.268221658159052323E+01   -0.149349231531101828E+00   -0.565857207937269457E+01   -0.233447747398452740E-01   -0.715995350882094039E-01   -0.218195127532859801E+00   -0.144433294170919824E+00   -0.110921316240617873E+01   -0.434406612456483199E+01
    0.137176980927016134E+00   -0.313756858323215120E+02    0.137864411166488998E+01    0.890753434964134616E+00    0.689213378325139511E-02    0.228190690788027783E+01   -0.272790749055246051E+01   -0.147615738906145433E+00   -0.508485758536001686E+01   -0.146136656388028037E-01   -0.549498702931297545E-01   -0.251372100107543406E+00   -0.921130419901387137E-01   -0.111479051692323194E+01   -0.434198048707744011E+01
    0.137176980927016134E+00   -0.313756858323215120E+02    0.137864411166488998E+01    0.890753434964134616E+00    0.689213378325139511E-02    0.228190690788027783E+01   -0.272790749055246051E+01   -0.147615738906145433E+00   -0.508485758536001686E+01   -0.146136656388028037E-01   -0.549498702931297545E-01   -0.251372100107543406E+00   -0.921130419901387137E-01   -0.111479051692323194E+01   -0.434198048707744011E+01
    0.135387400131096763E+00   -0.312578378393853917E+02    0.138184082077596115E+01    0.100778424483224427E+01    0.742818724236361805E-02    0.228181163906494566E+01   -0.268297372385935295E+01   -0.148918600379189053E+00   -0.361365635051220302E+01   -0.343840892164481091E-01   -0.658381674100984443E-01   -0.185813777665446267E+00   -0.155723572910525243E+00   -0.111651090668310249E+01   -0.434120323174204614E+01
    0.135219504801648072E+00   -0.308518767381948145E+02    0.138418497738444812E+01    0.935630780161951892E+00    0.690429703177725031E-02    0.228219316485503176E+01   -0.259230112397575052E+01   -0.151470377559386138E+00   -0.422502429576319027E+01   -0.251266776389095087E-01   -0.969495183866438542E-01   -0.276474967716367870E+00   -0.966465331628927338E-01   -0.109888771274709862E+01   -0.434081290596023806E+01
    0.135027050697947765E+00   -0.311745733796485460E+02    0.138010651000670759E+01    0.940720456546792483E+00    0.757025619589031182E-02    0.228567849172564985E+01   -0.274402810547931697E+01   -0.148925683905026779E+00   -0.525255341114903462E+01   -0.580208375413541616E-01   -0.919470842628694468E-01   -0.280269473932736879E+00   -0.999580332190369431E-01   -0.111408726459954188E+01   -0.434059563937875392E+01
    0.134783222334225156E+00   -0.311646035141024917E+02    0.138068715517981722E+01    0.103354445921759797E+01    0.726743976108547036E-02    0.227952727641131592E+01   -0.267187769611454762E+01   -0.133983756950911331E+00   -0.546066802578665111E+01   -0.416098803059169881E-01    0.327944785994844640E-01   -0.252581087234816648E+00   -0.107522104815187619E+00   -0.113004050473053397E+01   -0.434010444535148743E+01
    0.133736239834472026E+00   -0.309672030315244022E+02    0.138218579605649605E+01    0.104782980990387409E+01    0.720850267370118022E-02    0.228046775211097819E+01   -0.264854712656376323E+01   -0.142127425192250967E+00   -0.486027715991957887E+01   -0.393778437750348237E-01   -0.961989151356855560E-01   -0.242301490738950770E+00   -0.100844768690950173E+00   -0.111446504078576081E+01   -0.433662141337991880E+01
    0.133736239834472026E+00   -0.309672030315244022E+02    0.138218579605649605E+01    0.104782980990387409E+01    0.720850267370118022E-02    0.228046775211097819E+01   -0.264854712656376323E+01   -0.142127425192250967E+00   -0.486027715991957887E+01   -0.393778437750348237E-01   -0.961989151356855560E-01   -0.242301490738950770E+00   -0.100844768690950173E+00   -0.111446504078576081E+01   -0.433662141337991880E+01
    0.134598205896035994E+00   -0.312000734648119895E+02    0.138841934034328252E+01    0.917954479127517597E+00    0.721052054811881747E-02    0.227926632935101026E+01   -0.271590880608505003E+01   -0.136503184653875176E+00   -0.515146494895975682E+01   -0.384384471708600836E-01   -0.506868929978776459E-01   -0.293496794343554968E+00   -0.701310838228409172E-01   -0.113406322247170799E+01   -0.433356737218141852E+01
    0.134598205896035994E+00   -0.312000734648119895E+02    0.138841934034328252E+01    0.917954479127517597E+00    0.721052054811881747E-02    0.227926632935101026E+01   -0.271590880608505003E+01   -0.136503184653875176E+00   -0.515146494895975682E+01   -0.384384471708600836E-01   -0.506868929978776459E-01   -0.293496794343554968E+00   -0.701310838228409172E-01   -0.113406322247170799E+01   -0.433356737218141852E+01
    0.136748314488335382E+00   -0.307154987415711815E+02    0.138026159711787622E+01    0.998471200662672365E+00    0.691216270801304176E-02    0.227934447843637011E+01   -0.271502874103386871E+01   -0.180066570102508067E+00   -0.524708340978639587E+01   -0.343721975113044156E-01   -0.716274679145322279E-01   -0.206633330242363883E+00   -0.142236418207081911E+00   -0.112368302737814973E+01   -0.433216430231784688E+01
    0.135991434940048311E+00   -0.309535741788324366E+02    0.137486411610001436E+01    0.862772231497784370E+00    0.718769693101599470E-02    0.228138265295480913E+01   -0.270482113116140033E+01   -0.150071932710036382E+00   -0.436927893622035590E+01   -0.251790953893701874E-02   -0.924405491925393979E-01   -0.296638720236393982E+00   -0.604682371199674815E-01   -0.112367657139933375E+01   -0.433018586941857198E+01
    0.134399707083981940E+00   -0.309195072132630955E+02    0.138677484286843433E+01    0.962188777069675205E+00    0.717888226958368104E-02    0.228323169673031368E+01   -0.269715560697311219E+01   -0.128796272744089613E+00   -0.530152772249707116E+01   -0.324613984996101890E-01   -0.100476660049789529E+00   -0.367142926510978740E+00   -0.845794124062910074E-01   -0.112104173636415583E+01   -0.432990636644906068E+01
    0.137308139279157748E+00   -0.310552856887719422E+02    0.136935163166055518E+01    0.102596628962395964E+01    0.697156712859826021E-02    0.228169149254999892E+01   -0.268910505113590936E+01   -0.138942255022243083E+00   -0.504710601658137392E+01   -0.323401011952796566E-01   -0.823300732346349678E-01   -0.247472725875769128E+00   -0.106619211414395273E+00   -0.111443752156658071E+01   -0.432968462692629963E+01
    0.136502554638497975E+00   -0.313312066940841412E+02    0.137998767833750313E+01    0.982320770314554670E+00    0.723968241239438415E-02    0.228299450724068764E+01   -0.268283185913576583E+01   -0.132420994633215661E+00   -0.527971270942706994E+01   -0.378108929865149865E-01   -0.697737645349016389E-01   -0.171936389400128620E+00   -0.112683594790870492E+00   -0.112042955770856745E+01   -0.432943141896005290E+01
    0.135035659460069984E+00   -0.303594081012159691E+02    0.138702825469509183E+01    0.100366997658301438E+01    0.712029779217029837E-02    0.228210786748088346E+01   -0.267469564347159849E+01   -0.139497223831720696E+00   -0.584064363102660256E+01   -0.852604083276703451E-02   -0.503218840110843529E-01   -0.300101666150541790E+00   -0.137262972550373119E+00   -0.113760892110776846E+01   -0.432785813284746723E+01
    0.135305155730416460E+00   -0.310288420926285156E+02    0.137624481075106231E+01    0.939906847722619010E+00    0.743407598133885746E-02    0.228152503766509795E+01   -0.264893305610953522E+01   -0.148890423986502624E+00   -0.574869879768041070E+01   -0.189243178230783515E-01   -0.103240471163504072E+00   -0.254953804613985424E+00   -0.905276798582714537E-01   -0.110745210381511328E+01   -0.432756355388031633E+01
    0.136148985755558921E+00   -0.309162354283197622E+02    0.137534296338640316E+01    0.983977033597460804E+00    0.757042889612858164E-02    0.227981663235261900E+01   -0.277470022022663088E+01   -0.135427344307278208E+00   -0.353633781607408304E+01   -0.303521067849849037E-01   -0.131162216884451233E+00   -0.286091822376793314E+00   -0.160581961206388485E+00   -0.112354756813234014E+01   -0.432628018097681100E+01
    0.135959424885701535E+00   -0.312468284803487109E+02    0.137263131472953770E+01    0.977940097224273108E+00    0.746903652098490807E-02    0.227939044987258166E+01   -0.271851881234398096E+01   -0.168459878334591306E+00   -0.425595363482710276E+01   -0.339855464328056994E-01   -0.521338918279639491E-01   -0.249489391077779510E+00   -0.114103541152269658E+00   -0.111529245095508922E+01   -0.432580754996213113E+01
    0.136506809032616611E+00   -0.309677966468833716E+02    0.137824411217330600E+01    0.976783146697917104E+00    0.762155434865220693E-02    0.228206685116812658E+01   -0.272986540869536798E+01   -0.136775145370107098E+00   -0.405845182198674692E+01   -0.489138160418687851E-01   -0.479533370690439151E-01   -0.259688644255102408E+00   -0.107002583263376500E+00   -0.113209498243677431E+01   -0.432563056545847413E+01
    0.137220352077832702E+00   -0.314170504202264773E+02    0.138061399988177613E+01    0.887900815110253760E+00    0.676368202208287375E-02    0.227884183516399208E+01   -0.267925732181505261E+01   -0.143948547303729413E+00   -0.530372196961706255E+01   -0.298091235745288965E-01   -0.649685364145418942E-01   -0.138806717675267866E+00   -0.816004312380844560E-01   -0.111873542985518926E+01   -0.432503301877337076E+01
    0.133041510002471136E+00   -0.308821524689257352E+02    0.138128682166384165E+01    0.918772978695065579E+00    0.729115038129063420E-02    0.227967947990783104E+01   -0.272538679725685018E+01   -0.146201489444684585E+00   -0.510853897969101745E+01   -0.293282232209725671E-01   -0.531032164421804190E-01   -0.250376605356013970E+00   -0.117006045152447599E+00   -0.110200178215756717E+01   -0.432464375266983048E+01
    0.137164406048944226E+00   -0.308933463573170144E+02    0.137779562226522145E+01    0.102687166931586882E+01    0.717184556145984524E-02    0.227882372280788514E+01   -0.268061806972609196E+01   -0.151368060007271626E+00   -0.584134455765458682E+01   -0.359527097213218766E-01   -0.524639884468550213E-01   -0.297962187050475558E+00   -0.935331197732693909E-01   -0.111018124109309668E+01   -0.432385288850167004E+01
    0.135639804194969738E+00   -0.309996582476502311E+02    0.137338077955745552E+01    0.959728279461006029E+00    0.702662045489025732E-02    0.228128577150817424E+01   -0.267723075461959281E+01   -0.143676119331791224E+00   -0.546572254763660847E+01   -0.349076106837119815E-01   -0.703793193716971133E-01   -0.299148295468997572E+00   -0.106278676548418591E+00   -0.110482545790182463E+01   -0.432158875643746132E+01
    0.135507652167504156E+00   -0.307864143829040806E+02    0.138228284709617655E+01    0.981629803565843506E+00    0.697804383707804985E-02    0.228075755982756734E+01   -0.263999494710317206E+01   -0.144876000641816799E+00   -0.530323656342627991E+01   -0.251301161603512922E-01   -0.523554941328402274E-01   -0.221547901656630991E+00   -0.660976134450955988E-01   -0.110933156915789644E+01   -0.431802263155315647E+01
    0.136712409389483258E+00   -0.306371751854731791E+02    0.137551755636770823E+01    0.100591607021095086E+01    0.718362043605194796E-02    0.227823063385115177E+01   -0.272603170275483775E+01   -0.150710615870502107E+00   -0.516043707465137569E+01   -0.219893360260841261E-01   -0.754043548966292360E-01   -0.279878741794751418E+00   -0.762421910118954577E-01   -0.112594384236187772E+01   -0.431786682333447303E+01
    0.136399684234919882E+00   -0.309698598681339270E+02    0.138905982464377975E+01    0.955380705296827282E+00    0.638727410304306895E-02    0.228177612269541230E+01   -0.268758579043275558E+01   -0.146898767971528926E+00   -0.496044742880828071E+01   -0.200163360126136836E-01   -0.916483220703257356E-01   -0.314680048124478584E+00   -0.101166827270187623E+00   -0.111525156073885334E+01   -0.431721443338890598E+01
    0.136645301905037181E+00   -0.305393874095734468E+02    0.138029237462829735E+01    0.967681526577533035E+00    0.698294625724936273E-02    0.227975961576867414E+01   -0.277645597540282196E+01   -0.138875348004955879E+00   -0.531259080111067572E+01   -0.216769819449173715E-01   -0.118407197238889123E+00   -0.202365223754506329E+00   -0.676697082693807073E-01   -0.111411388752180396E+01   -0.431688238254730106E+01
    0.136562127383089704E+00   -0.312964764097676458E+02    0.137310209339579603E+01    0.998516630461024013E+00    0.697133576511841345E-02    0.228105237678049866E+01   -0.268832012059185654E+01   -0.137767207691781662E+00   -0.521819274051767668E+01   -0.136502607070909665E-01    0.217637722295364877E-02   -0.247313009355338481E+00   -0.147325967551723336E+00   -0.110899872534006727E+01   -0.431570139100783301E+01
    0.134837831019577414E+00   -0.311663823586779074E+02    0.138346984270585294E+01    0.985301055453496777E+00    0.742551762358908529E-02    0.228354424453108917E+01   -0.268177564459724493E+01   -0.148013282642949023E+00   -0.496076794375081409E+01   -0.291786898329822256E-01   -0.151948431818250740E+00   -0.299968756536637793E+00   -0.103715723998130102E+00   -0.112788810024671871E+01   -0.431508840900773460E+01
    0.133203503182502292E+00   -0.310915774958488953E+02    0.137899365644321503E+01    0.980079175329902519E+00    0.696008908234621408E-02    0.228122023737492352E+01   -0.269638816829905359E+01   -0.130476353859652283E+00   -0.510631826989610449E+01   -0.701678152657792126E-01   -0.823163275059597827E-01   -0.276089563745278099E+00   -0.645603585812808967E-01   -0.110927192200317681E+01   -0.431325016606091349E+01
    0.135462880070786662E+00   -0.306848763470015449E+02    0.137664183170299892E+01    0.983079046986374272E+00    0.736363113049957017E-02    0.228083127057846369E+01   -0.269031014027763238E+01   -0.179389893123341304E+00   -0.512091512625214840E+01   -0.339416933997067627E-01   -0.131568367086991878E+00   -0.275193831112438780E+00   -0.643086061323506764E-01   -0.111712736368921739E+01   -0.431272764032442879E+01
    0.138132367957785024E+00   -0.308924484686751910E+02    0.137692734449128662E+01    0.105888209771085262E+01    0.708606618865676059E-02    0.228149822234210742E+01   -0.264139857779188114E+01   -0.148534546494258068E+00   -0.515898258812548161E+01   -0.944482480084731998E-02   -0.791821501901208979E-01   -0.282975029563437563E+00   -0.127785961274011733E+00   -0.113613244690450688E+01   -0.431270254907562123E+01
    0.135738809287831746E+00   -0.310989922904756355E+02    0.137226416062232426E+01    0.979922277526635521E+00    0.670621551072727272E-02    0.228215250455420815E+01   -0.275553128013908610E+01   -0.133863981131315146E+00   -0.584133574499649555E+01   -0.414527165970342004E-01   -0.822873157862256815E-01   -0.313173861751435911E+00   -0.913563472991137937E-01   -0.112429598215285553E+01   -0.431071872736257156E+01
    0.136017626858888352E+00   -0.311577127998542771E+02    0.138009183306145999E+01    0.955352058159210649E+00    0.661232466535354411E-02    0.228065129048470094E+01   -0.269934584755877705E+01   -0.125030410788325275E+00   -0.394902193115264044E+01   -0.309160429636874470E-01   -0.596109027820884846E-01   -0.284307333315692246E+00   -0.818375519684495512E-01   -0.112399358498451085E+01   -0.431047030852383717E+01
    0.134534288099415367E+00   -0.309261236598486846E+02    0.137932928408877942E+01    0.102571835758847141E+01    0.700582641072028216E-02    0.228141009670788364E+01   -0.270946751401007635E+01   -0.141365649815313632E+00   -0.607735296477977460E+01   -0.323992130641809761E-01   -0.153137059734688052E+00   -0.214113357908186752E+00   -0.141857310198759468E+00   -0.110852798867060010E+01   -0.429642298606314643E+01
    0.136468083930829071E+00   -0.311097355990620521E+02    0.138935574892319424E+01    0.938391240446012742E+00    0.683670173999943211E-02    0.228102340729642661E+01   -0.276027666262693216E+01   -0.151102410405896503E+00   -0.560930484588979184E+01   -0.302339793857243945E-01   -0.134664539869237765E+00   -0.131309427402635903E+00   -0.122727211109462109E+00   -0.113257328373074984E+01   -0.430561952667439218E+01
    0.133411275072865043E+00   -0.310696440691971318E+02    0.137696201771138060E+01    0.936597304773747474E+00    0.693223880366752171E-02    0.228191003885008659E+01   -0.267229619575613286E+01   -0.151243329413678379E+00   -0.537960347272891504E+01   -0.184258102511683369E-01   -0.973216659344678103E-01   -0.214059388498603509E+00   -0.713268317106256489E-01   -0.112330789531143305E+01   -0.426931251437314163E+01
    0.135011310153602015E+00   -0.312338709348900068E+02    0.137776819482801693E+01    0.951937313510804239E+00    0.706938605854683533E-02    0.228292111851141177E+01   -0.265547604120796432E+01   -0.160432638011102857E+00   -0.471639581457608248E+01   -0.699183558606429889E-01   -0.261613843141535463E-01   -0.269485620253905878E+00   -0.934778881448560250E-01   -0.110979216582502094E+01   -0.430301007231398192E+01
    0.136164614400738987E+00   -0.312603136779603155E+02    0.137355004799642755E+01    0.102891505047071452E+01    0.656016257528854296E-02    0.228324456015167732E+01   -0.273598833195636804E+01   -0.156051114977322547E+00   -0.533978129112536948E+01   -0.114798686545906047E-01   -0.772504703821080690E-01   -0.345435253120317476E+00   -0.991088240432154433E-01   -0.112310781818255578E+01   -0.429112055330777498E+01
    0.134344534738797483E+00   -0.312432017546830423E+02    0.138098035907140848E+01    0.929206608327166839E+00    0.712585142299569912E-02    0.228104856380116106E+01   -0.273842132700510055E+01   -0.155665451893879703E+00   -0.521638975133326532E+01   -0.463067035386210413E-01   -0.629154332973194952E-01   -0.266417744618189845E+00   -0.901370299408629921E-01   -0.111094440202592093E+01   -0.427840336087516349E+01
    0.134508351310822533E+00   -0.315682185738166403E+02    0.137263443161788268E+01    0.956436749109676576E+00    0.730448645404652673E-02    0.227974763186531071E+01   -0.268791472722548885E+01   -0.157787605561439337E+00   -0.525505929588342546E+01   -0.110321129524153030E-01   -0.896532569739627722E-01   -0.299486293920763147E+00   -0.881718268293178592E-01   -0.110805560737166608E+01   -0.430377028576925191E+01
    0.136145702330486063E+00   -0.315372295298176866E+02    0.137761482829202353E+01    0.983269003697473054E+00    0.711726099786586137E-02    0.228111543767695268E+01   -0.277799739078517982E+01   -0.167767112260110624E+00   -0.495100393295782926E+01   -0.220223023560163315E-01   -0.349919280650160883E-01   -0.333962885634778717E+00   -0.131038869584092943E+00   -0.113366115154560099E+01   -0.428152584005701620E+01
    0.133765199230260867E+00   -0.314718014697724975E+02    0.137582623086955302E+01    0.985676203379133087E+00    0.687807899857623660E-02    0.228008901949380505E+01   -0.271195724338167032E+01   -0.123527437209048407E+00   -0.546560460632221545E+01   -0.438130423273947883E-01   -0.539265208878801222E-01   -0.313500974720868464E+00   -0.152719655996854164E+00   -0.111768468050272785E+01   -0.428769365148755721E+01
    0.133034973907601189E+00   -0.310889007832756050E+02    0.137284757968468041E+01    0.984610737953848125E+00    0.699262945985583938E-02    0.228203750747240264E+01   -0.273999072776372987E+01   -0.166240696151060963E+00   -0.435506079351135522E+01   -0.310582574344330092E-01   -0.540282892110427737E-01   -0.292128159885759464E+00   -0.951379417533287502E-01   -0.112454283365015306E+01   -0.425593987078516545E+01
    0.138458262040317248E+00   -0.308932825448783284E+02    0.138525480911039622E+01    0.102489223025482734E+01    0.674975247848525438E-02    0.228039064647512957E+01   -0.276271198514613037E+01   -0.168904860978819349E+00   -0.505287192291885212E+01   -0.286827205651470768E-01   -0.733181660599000334E-01   -0.271553045795071002E+00   -0.915054004434128904E-01   -0.111670825084811431E+01   -0.430662299193496523E+01
    0.133016825279760997E+00   -0.309297918959137910E+02    0.138143458020035115E+01    0.971944708657515477E+00    0.723892458958319811E-02    0.228231384309232999E+01   -0.278133513725666237E+01   -0.143585316009889219E+00   -0.532279368906053563E+01   -0.474125422101803751E-01   -0.106685413777451193E+00   -0.264493253215946356E+00   -0.734586559390592309E-01   -0.111283250881751017E+01   -0.428485267982314699E+01
    0.136533653116389320E+00   -0.312506043556504594E+02    0.138125389651019370E+01    0.104126472402349268E+01    0.691282660454026806E-02    0.227984214414605635E+01   -0.273200619977230996E+01   -0.152801409881772599E+00   -0.568000411865991239E+01   -0.455929850085462149E-01   -0.519551273284680759E-01   -0.273595414752315247E+00   -0.106119873744766544E+00   -0.111069678125186933E+01   -0.428336634213961354E+01
    0.136436361280683677E+00   -0.307472845342725449E+02    0.137863962315614486E+01    0.985198668182875270E+00    0.696112182610203120E-02    0.228047430065997947E+01   -0.269426540295920258E+01   -0.140846967461324107E+00   -0.439747497374854568E+01   -0.296939241863655723E-01   -0.721330523356132070E-01   -0.263137327941728727E+00   -0.109465795858706860E+00   -0.111713460840900347E+01   -0.431034040315980871E+01
    0.135357318747153177E+00   -0.311211689708106078E+02    0.138701345246967689E+01    0.100013944314145675E+01    0.722371279145151216E-02    0.228186890866366232E+01   -0.278985736961682029E+01   -0.145391605774685490E+00   -0.468212023806362687E+01   -0.329719793217801149E-01   -0.540913409235764114E-01   -0.287636834671883557E+00   -0.110351092063529721E+00   -0.111022551668426450E+01   -0.430369627605860217E+01
    0.133758042809993760E+00   -0.311450096895690045E+02    0.138197750584092782E+01    0.999067702836322402E+00    0.706246919580624105E-02    0.228180340630700496E+01   -0.269799892353322868E+01   -0.123414294716489126E+00   -0.434721235736423495E+01   -0.434337500509497515E-01   -0.341317795715561645E-01   -0.243244426448313178E+00   -0.101413747277117675E+00   -0.112248227950371726E+01   -0.429425499175087122E+01
    0.135568370448202857E+00   -0.310277714211047559E+02    0.137781677797222479E+01    0.945931113130011769E+00    0.704720404626795523E-02    0.228213671371036986E+01   -0.272641233942366767E+01   -0.137777050954631747E+00   -0.531623076696846120E+01   -0.352744529129715503E-01   -0.123857393602172960E+00   -0.260984939103445002E+00   -0.605685052975959703E-01   -0.112213422190857859E+01   -0.430937497501045197E+01
    0.135363133812657493E+00   -0.310870975885759044E+02    0.137205618136815133E+01    0.953228751181341094E+00    0.717562925167825744E-02    0.227972108201748025E+01   -0.276884854684937665E+01   -0.155205230529452731E+00   -0.376681248468520291E+01   -0.299762973903243898E-01   -0.133157545550278006E+00   -0.216455681413996459E+00   -0.961963512451158298E-01   -0.112851559932089440E+01   -0.428356178037784030E+01
    0.134725530169941154E+00   -0.310860097733802370E+02    0.137382089351540548E+01    0.998446020575694537E+00    0.729591640777197108E-02    0.228214953330023640E+01   -0.273973941634561680E+01   -0.137359732403306289E+00   -0.492195401073530725E+01   -0.197562002569457093E-01   -0.767816425098313132E-01   -0.217261111188123385E+00   -0.105640181532444283E+00   -0.112122594318220892E+01   -0.427826220307402849E+01
    0.136965721931059575E+00   -0.308820110443398050E+02    0.138074599391672947E+01    0.936687518936983765E+00    0.687414927126469861E-02    0.227975592508161373E+01   -0.274920786392910577E+01   -0.158098854198914701E+00   -0.453520999718553064E+01   -0.236689284587812201E-01   -0.153252291296741006E+00   -0.215987908278988339E+00   -0.990220305811730789E-01   -0.111054714698490864E+01   -0.430968692624253080E+01
    0.136795951169774138E+00   -0.309501631353274149E+02    0.137163321244456382E+01    0.102811138671104807E+01    0.688743421647003331E-02    0.227866424851183957E+01   -0.273696602968016922E+01   -0.157786182929660429E+00   -0.428161778660482462E+01   -0.393466405632890495E-01   -0.141987546636351131E-01   -0.359181989433641102E+00   -0.109620131738809107E+00   -0.111335855525373928E+01   -0.430118983904762153E+01
    0.132984831581074991E+00   -0.313275338966154031E+02    0.136923682960070225E+01    0.101080091655951199E+01    0.748964650839952471E-02    0.228244742223493979E+01   -0.269963375329392141E+01   -0.144783849190888214E+00   -0.515193088880116257E+01   -0.273953207248388633E-01   -0.391695842351964321E-01   -0.290328969249049273E+00   -0.588976361370804405E-01   -0.112340484514857231E+01   -0.429456419880094753E+01
    0.135111005086889974E+00   -0.309861309040812607E+02    0.137603360733288760E+01    0.992044229100878749E+00    0.736877588625895006E-02    0.228361338873711528E+01   -0.277086295512617076E+01   -0.153332867760567398E+00   -0.578671022723830397E+01   -0.131960697205187501E-01   -0.115370931810373348E+00   -0.224177373368790567E+00   -0.455882088825494830E-01   -0.110781848070446842E+01   -0.428975259203669079E+01
    0.136646959450705263E+00   -0.316742734411138329E+02    0.137194205506048394E+01    0.986212464123290444E+00    0.728453696312722151E-02    0.228079395315309164E+01   -0.269788577816413744E+01   -0.180483215262084440E+00   -0.510722882571631054E+01   -0.224252190138968521E-01   -0.109570465060075256E+00   -0.243502976950743633E+00   -0.865161423911186833E-01   -0.113649459142658960E+01   -0.430038593518637580E+01
    0.133915824107052467E+00   -0.312952436599477046E+02    0.138303208099342156E+01    0.916484930273779086E+00    0.710449848522986659E-02    0.228044600976951894E+01   -0.271576191292930158E+01   -0.144196343933674614E+00   -0.696800637104131226E+01   -0.416326361000016743E-01   -0.154748371305225202E+00   -0.236799956369656645E+00   -0.751219163344685054E-01   -0.112669936919333047E+01   -0.428668393927728975E+01
    0.136564823742230501E+00   -0.312873230285416994E+02    0.136848726707589807E+01    0.103206191891146015E+01    0.695018694457190216E-02    0.228112779153644896E+01   -0.273528576906831056E+01   -0.133940802247926538E+00   -0.450386270196996641E+01   -0.261996440376680226E-01   -0.147742323573278517E+00   -0.352828560293726223E+00   -0.917561199935094524E-01   -0.110604167337364889E+01   -0.430171168207944099E+01
    0.133888637926073473E+00   -0.309915140358485672E+02    0.138043567007451817E+01    0.999148206549159812E+00    0.703879764522493453E-02    0.228089744238935577E+01   -0.269006777936980512E+01   -0.137716000875917455E+00   -0.381908829638357261E+01   -0.182117796309987368E-01   -0.513517866025073877E-01   -0.249280938144585934E+00   -0.101477803324213092E+00   -0.111766889046040840E+01   -0.428136233167478775E+01
