    0.138585793478707447E+00   -0.315740019564293846E+02    0.112585749937668012E+01    0.132244311313664431E+01    0.778411663363083074E-02    0.189263058649708626E+01   -0.266343546657497621E+01   -0.585527161971615071E-01   -0.165809021879062124E+01    0.196557976097558373E+00   -0.744354394823966564E-01   -0.738770862225416602E-01   -0.144336637918628996E+00   -0.108418080786059878E+01   -0.284459316852568478E+00
    0.127095530598404310E+00   -0.305086126388957766E+02    0.111828808750568043E+01    0.128590696962010975E+01    0.682649135866989810E-02    0.187474371183088340E+01   -0.243145060202007945E+01   -0.511600040990177682E-01   -0.660392568174875350E+00   -0.233696827502932303E+00   -0.728344883180083863E-01   -0.545244429230047067E-01   -0.993294130777998829E-01   -0.109330600474474471E+01   -0.279195168143899386E+00
    0.127095530598404310E+00   -0.305086126388957766E+02    0.111828808750568043E+01    0.128590696962010975E+01    0.682649135866989810E-02    0.187474371183088340E+01   -0.243145060202007945E+01   -0.511600040990177682E-01   -0.660392568174875350E+00   -0.233696827502932303E+00   -0.728344883180083863E-01   -0.545244429230047067E-01   -0.993294130777998829E-01   -0.109330600474474471E+01   -0.279195168143899386E+00
    0.131558587731137766E+00   -0.288342777641391841E+02    0.112576975876103447E+01    0.129665379262865543E+01    0.783400842283328049E-02    0.188568315259395924E+01   -0.242395791792029236E+01   -0.673520345033987167E-01   -0.184648511597126008E+01   -0.135238972804746144E+00   -0.569371718257352805E-01    0.715409221212515989E-01   -0.525493740060628961E-01   -0.105103314460220454E+01   -0.246696020894668910E+00
    0.131558587731137766E+00   -0.288342777641391841E+02    0.112576975876103447E+01    0.129665379262865543E+01    0.783400842283328049E-02    0.188568315259395924E+01   -0.242395791792029236E+01   -0.673520345033987167E-01   -0.184648511597126008E+01   -0.135238972804746144E+00   -0.569371718257352805E-01    0.715409221212515989E-01   -0.525493740060628961E-01   -0.105103314460220454E+01   -0.246696020894668910E+00
    0.140642448831976047E+00   -0.293613934654067315E+02    0.108578713802287541E+01    0.154058176700323424E+01    0.747047450161974092E-02    0.189980028844507598E+01   -0.252851505501977369E+01   -0.546280960535414223E-01   -0.135349831523099029E+01   -0.373376885769647393E+00   -0.652837145274175884E-01   -0.326544314791826329E+00   -0.184555992583024797E+00   -0.115256226589882171E+01   -0.236111449212353997E+00
    0.140642448831976047E+00   -0.293613934654067315E+02    0.108578713802287541E+01    0.154058176700323424E+01    0.747047450161974092E-02    0.189980028844507598E+01   -0.252851505501977369E+01   -0.546280960535414223E-01   -0.135349831523099029E+01   -0.373376885769647393E+00   -0.652837145274175884E-01   -0.326544314791826329E+00   -0.184555992583024797E+00   -0.115256226589882171E+01   -0.236111449212353997E+00
    0.149954573550800191E+00   -0.304370863242221787E+02    0.111132401397490566E+01    0.131794169632068470E+01    0.736673169469070563E-02    0.188915706137963868E+01   -0.235917064465149462E+01   -0.527580164291384379E-01   -0.139724261823452345E+01   -0.171877206159109536E+00   -0.708477779802018370E-01   -0.494866599743073343E+00   -0.231397030709941887E+00   -0.107922325661108331E+01   -0.224086767418478550E+00
    0.140377542632146857E+00   -0.290563399273139531E+02    0.106175035774399351E+01    0.147477221193910224E+01    0.739141182744826927E-02    0.189091954941329110E+01   -0.244147464386093604E+01   -0.651908218256327665E-01   -0.130540107343528744E+01    0.487443744887681996E-02   -0.895656343741925293E-01   -0.365922891742968992E+00   -0.160839601336716542E+00   -0.110079610187419807E+01   -0.219985688184375999E+00
    0.140377542632146857E+00   -0.290563399273139531E+02    0.106175035774399351E+01    0.147477221193910224E+01    0.739141182744826927E-02    0.189091954941329110E+01   -0.244147464386093604E+01   -0.651908218256327665E-01   -0.130540107343528744E+01    0.487443744887681996E-02   -0.895656343741925293E-01   -0.365922891742968992E+00   -0.160839601336716542E+00   -0.110079610187419807E+01   -0.219985688184375999E+00
    0.135770404820894558E+00   -0.307937274155248026E+02    0.113857746613365429E+01    0.138388962471104482E+01    0.761809827450507081E-02    0.188103183755364256E+01   -0.253988082955718131E+01   -0.589142046252876181E-01   -0.146775998719334755E+01    0.271039071761608880E-01   -0.665414158660138783E-01   -0.222549614901283471E+00   -0.310307794132799741E-02   -0.112922233010041939E+01   -0.213853598762197283E+00
    0.135809892333998011E+00   -0.309900255475822775E+02    0.112030725541380538E+01    0.136202134642849582E+01    0.789126189948483915E-02    0.191004057806620908E+01   -0.264897772730359371E+01   -0.515661847869341994E-01   -0.908332802250453319E+00   -0.288663880048752930E+00   -0.126689110449490772E+00   -0.332795923108733238E+00   -0.137213067146749162E+00   -0.106904291286958131E+01   -0.211152012192644650E+00
    0.137087198595447546E+00   -0.303459195057444084E+02    0.109673620165877095E+01    0.138575074681601529E+01    0.725838211410479231E-02    0.187450801651676247E+01   -0.243133433174601699E+01   -0.563416831771064927E-01   -0.750334568606125907E+00   -0.441873014410262416E-01   -0.495431320134687367E-01   -0.133577400477443375E+00   -0.308344478499580299E+00   -0.110707185378072737E+01   -0.206239386635854199E+00
    0.137087198595447546E+00   -0.303459195057444084E+02    0.109673620165877095E+01    0.138575074681601529E+01    0.725838211410479231E-02    0.187450801651676247E+01   -0.243133433174601699E+01   -0.563416831771064927E-01   -0.750334568606125907E+00   -0.441873014410262416E-01   -0.495431320134687367E-01   -0.133577400477443375E+00   -0.308344478499580299E+00   -0.110707185378072737E+01   -0.206239386635854199E+00
    0.136197106006709034E+00   -0.299245047075742470E+02    0.108949010034364657E+01    0.142833765815598346E+01    0.652112028591044380E-02    0.190025075292876289E+01   -0.254088055808904745E+01   -0.655776474484118799E-01   -0.148008767673865926E+01   -0.958222480071090760E-01   -0.915731765904889139E-01   -0.150523739561811476E+00   -0.668572648464381136E-01   -0.109554317637215104E+01   -0.202890104554024842E+00
    0.136197106006709034E+00   -0.299245047075742470E+02    0.108949010034364657E+01    0.142833765815598346E+01    0.652112028591044380E-02    0.190025075292876289E+01   -0.254088055808904745E+01   -0.655776474484118799E-01   -0.148008767673865926E+01   -0.958222480071090760E-01   -0.915731765904889139E-01   -0.150523739561811476E+00   -0.668572648464381136E-01   -0.109554317637215104E+01   -0.202890104554024842E+00
    0.133040616617882107E+00   -0.297483444993879509E+02    0.111033426454572526E+01    0.133573084668359776E+01    0.768672213303805540E-02    0.188976003090161870E+01   -0.244021588226300601E+01   -0.521773734128620839E-01   -0.164416187025342730E+01   -0.253149535199170939E+00   -0.111257920567411614E+00   -0.352300433741302432E-01   -0.125986104938658555E+00   -0.108406431448118945E+01   -0.199826345176139591E+00
    0.133040616617882107E+00   -0.297483444993879509E+02    0.111033426454572526E+01    0.133573084668359776E+01    0.768672213303805540E-02    0.188976003090161870E+01   -0.244021588226300601E+01   -0.521773734128620839E-01   -0.164416187025342730E+01   -0.253149535199170939E+00   -0.111257920567411614E+00   -0.352300433741302432E-01   -0.125986104938658555E+00   -0.108406431448118945E+01   -0.199826345176139591E+00
    0.146686246194498382E+00   -0.293772175557034920E+02    0.110894104831942530E+01    0.137025410039091611E+01    0.661405334719153068E-02    0.189393974010248356E+01   -0.247295553888030861E+01   -0.734951977137765500E-01   -0.140497858318585944E+01   -0.109161015474911846E+00   -0.565391389199334099E-01   -0.405324093591673262E+00   -0.136165463446859175E+00   -0.112321212747495558E+01   -0.198634014809430187E+00
    0.146686246194498382E+00   -0.293772175557034920E+02    0.110894104831942530E+01    0.137025410039091611E+01    0.661405334719153068E-02    0.189393974010248356E+01   -0.247295553888030861E+01   -0.734951977137765500E-01   -0.140497858318585944E+01   -0.109161015474911846E+00   -0.565391389199334099E-01   -0.405324093591673262E+00   -0.136165463446859175E+00   -0.112321212747495558E+01   -0.198634014809430187E+00
    0.146659421131139389E+00   -0.297002452688690184E+02    0.109487436395680904E+01    0.146368379389592174E+01    0.761064724140849292E-02    0.189601281180235426E+01   -0.246292018697793669E+01   -0.625080509723150157E-01   -0.921844272103079954E+00    0.919305768328075590E-02   -0.690889343832797737E-01   -0.302478080034584318E+00   -0.109722622816167806E+00   -0.106524661582413738E+01   -0.197280661106516930E+00
    0.146659421131139389E+00   -0.297002452688690184E+02    0.109487436395680904E+01    0.146368379389592174E+01    0.761064724140849292E-02    0.189601281180235426E+01   -0.246292018697793669E+01   -0.625080509723150157E-01   -0.921844272103079954E+00    0.919305768328075590E-02   -0.690889343832797737E-01   -0.302478080034584318E+00   -0.109722622816167806E+00   -0.106524661582413738E+01   -0.197280661106516930E+00
    0.147169503169692600E+00   -0.302765581699388413E+02    0.115967357937641746E+01    0.135686569750624719E+01    0.760409081304621627E-02    0.188768393852977034E+01   -0.245533036693965023E+01   -0.560430439340542583E-01   -0.478836026077450905E+00   -0.154253687224671948E+00   -0.525185250861802053E-01   -0.230494900278392784E+00   -0.475234052914589866E-01   -0.110867961357739020E+01   -0.195631235057803332E+00
    0.134182310960624995E+00   -0.297871274525314575E+02    0.112267212767319879E+01    0.141688539021731486E+01    0.803041471606376692E-02    0.187972305258894501E+01   -0.245667477822255176E+01   -0.499419005894171791E-01   -0.118713943176114456E+01   -0.318666034461797643E+00   -0.471083120749049289E-01   -0.103932898013975414E+00   -0.794873388246894463E-01   -0.110287845654567951E+01   -0.194590239717137736E+00
    0.133969424873572468E+00   -0.295085186157631689E+02    0.111516370087985761E+01    0.140004982840531333E+01    0.773123822333721730E-02    0.186835190351688873E+01   -0.253219159705060459E+01   -0.602401409562437207E-01   -0.175616452252652211E+01    0.132519397015940954E+00   -0.699199353714216598E-01   -0.219614139257728797E+00   -0.251532792046412323E+00   -0.112089360287942941E+01   -0.194216155287154607E+00
    0.133969424873572468E+00   -0.295085186157631689E+02    0.111516370087985761E+01    0.140004982840531333E+01    0.773123822333721730E-02    0.186835190351688873E+01   -0.253219159705060459E+01   -0.602401409562437207E-01   -0.175616452252652211E+01    0.132519397015940954E+00   -0.699199353714216598E-01   -0.219614139257728797E+00   -0.251532792046412323E+00   -0.112089360287942941E+01   -0.194216155287154607E+00
    0.137797895583965102E+00   -0.312397438446015983E+02    0.114007683180281161E+01    0.147200840882074058E+01    0.746314808061276144E-02    0.187971990695359081E+01   -0.257416689740591487E+01   -0.852376256589412462E-01   -0.191806030210068013E+01   -0.581076600344140534E-01   -0.600997340572293065E-01    0.113264352667994922E+00   -0.129252874316983069E+00   -0.109559197339240555E+01   -0.189569897544711180E+00
    0.137797895583965102E+00   -0.312397438446015983E+02    0.114007683180281161E+01    0.147200840882074058E+01    0.746314808061276144E-02    0.187971990695359081E+01   -0.257416689740591487E+01   -0.852376256589412462E-01   -0.191806030210068013E+01   -0.581076600344140534E-01   -0.600997340572293065E-01    0.113264352667994922E+00   -0.129252874316983069E+00   -0.109559197339240555E+01   -0.189569897544711180E+00
    0.129824840605047204E+00   -0.288002345175771559E+02    0.108474875107625279E+01    0.145512532972458319E+01    0.715318379225640417E-02    0.188792506029355911E+01   -0.250619132076554729E+01   -0.451844815158029406E-01   -0.121804605009804545E+01   -0.614752264245781305E-01   -0.752918442702757568E-01   -0.304233489589289474E+00   -0.351693800755241009E-01   -0.112350703841804167E+01   -0.183070618763206516E+00
    0.134025924288667719E+00   -0.299676994038288811E+02    0.110957188791288774E+01    0.133399037775544960E+01    0.774599358615974624E-02    0.189681930588814951E+01   -0.243154539258950919E+01   -0.675541584611522444E-01   -0.225123254646884474E+01   -0.740254669611788430E-01   -0.114051450424556139E+00   -0.273903612929459417E+00   -0.699194923508965338E-01   -0.110595219876897621E+01   -0.181465827643956884E+00
    0.136239566327690020E+00   -0.303909375721330051E+02    0.110171779491823885E+01    0.127138683092976179E+01    0.707061809627958053E-02    0.190680756669178009E+01   -0.239041179877213761E+01   -0.514552025460461790E-01   -0.136727978478924306E+01   -0.132340689609215051E+00   -0.616186390039517237E-01   -0.683353361281249794E-01   -0.923338087279153147E-01   -0.108721529266255734E+01   -0.180513339701087794E+00
    0.138262981441396399E+00   -0.298015800871391292E+02    0.110412826576872969E+01    0.142346692492220117E+01    0.758130664427227909E-02    0.189881093360647735E+01   -0.250322458916992874E+01   -0.508099208505005603E-01   -0.245045325827978200E+01   -0.249789429863702450E+00   -0.416931432469778707E-01   -0.284401395872169893E+00   -0.185464226258539644E+00   -0.102330679246715928E+01   -0.175196483678854431E+00
    0.138262981441396399E+00   -0.298015800871391292E+02    0.110412826576872969E+01    0.142346692492220117E+01    0.758130664427227909E-02    0.189881093360647735E+01   -0.250322458916992874E+01   -0.508099208505005603E-01   -0.245045325827978200E+01   -0.249789429863702450E+00   -0.416931432469778707E-01   -0.284401395872169893E+00   -0.185464226258539644E+00   -0.102330679246715928E+01   -0.175196483678854431E+00
    0.140906110446132188E+00   -0.287132503343810619E+02    0.111182605711090332E+01    0.139225267316477797E+01    0.699814359208346306E-02    0.189857505055891762E+01   -0.264627938125389761E+01   -0.671475325207979840E-01   -0.215366727308881822E+01   -0.201359535130733430E+00   -0.400007703684884183E-01   -0.282426976584873757E+00   -0.131112052989153266E+00   -0.109554819990011088E+01   -0.174765830535640349E+00
    0.140906110446132188E+00   -0.287132503343810619E+02    0.111182605711090332E+01    0.139225267316477797E+01    0.699814359208346306E-02    0.189857505055891762E+01   -0.264627938125389761E+01   -0.671475325207979840E-01   -0.215366727308881822E+01   -0.201359535130733430E+00   -0.400007703684884183E-01   -0.282426976584873757E+00   -0.131112052989153266E+00   -0.109554819990011088E+01   -0.174765830535640349E+00
    0.135554137359611970E+00   -0.300287218483909406E+02    0.115075594978984141E+01    0.129494993518455415E+01    0.688512628213832668E-02    0.190355230351440996E+01   -0.247519677859952525E+01   -0.730481382280288999E-01   -0.115989384645889793E+01   -0.698679541134774595E-01   -0.829444412050519414E-01   -0.319346978966783934E+00   -0.760100761688324300E-01   -0.111503365598258619E+01   -0.173454530958069425E+00
    0.131795006943942333E+00   -0.298199953831217286E+02    0.113221405069089109E+01    0.136552380597472189E+01    0.719496682473038957E-02    0.188103055064517632E+01   -0.257120321999647539E+01   -0.700346289318465043E-01   -0.167409012307487726E+01   -0.255970043571965067E+00   -0.693121822106657348E-01   -0.129195927074664957E+00   -0.132961070217348098E+00   -0.106414647887540603E+01   -0.171347752510552426E+00
    0.131795006943942333E+00   -0.298199953831217286E+02    0.113221405069089109E+01    0.136552380597472189E+01    0.719496682473038957E-02    0.188103055064517632E+01   -0.257120321999647539E+01   -0.700346289318465043E-01   -0.167409012307487726E+01   -0.255970043571965067E+00   -0.693121822106657348E-01   -0.129195927074664957E+00   -0.132961070217348098E+00   -0.106414647887540603E+01   -0.171347752510552426E+00
    0.139691619651186066E+00   -0.298082153341338305E+02    0.107123783499003022E+01    0.137193167844907626E+01    0.731159036853526109E-02    0.189917052179691748E+01   -0.257347666673027442E+01   -0.618862757782325038E-01   -0.139639259702786056E+01   -0.194939158362110149E+00   -0.615801072585862863E-01   -0.133491082679424389E+00   -0.811800647343825788E-01   -0.112050523016661119E+01   -0.169898914953921926E+00
    0.139379485546101273E+00   -0.295952014480455148E+02    0.116990593643245866E+01    0.134853746886120507E+01    0.678517775664651355E-02    0.187698877781292106E+01   -0.246352578357983543E+01   -0.754431303730464242E-01   -0.147037449282017940E+01   -0.290987965870230958E+00   -0.607157525444705151E-01   -0.314619893700972042E+00   -0.385432804798420126E-01   -0.104420498118234528E+01   -0.169328657293758761E+00
    0.135203935223551314E+00   -0.296291555752668785E+02    0.114136111295660636E+01    0.136097931023303031E+01    0.695526380254631125E-02    0.189714957794719363E+01   -0.251429030925094388E+01   -0.619214429936707500E-01   -0.130893067944334107E+01    0.306574569813865550E+00   -0.712022225482772525E-01   -0.199587960787274005E+00   -0.170982005942284576E+00   -0.111090469375239476E+01   -0.169263267256913652E+00
    0.139962767261005677E+00   -0.282651406367214406E+02    0.111144402812464360E+01    0.145005831294031706E+01    0.740341629363973266E-02    0.189166730722023102E+01   -0.249388522723378925E+01   -0.730532601796013009E-01   -0.135087541672048572E+01   -0.812577253684123035E-01   -0.755072364808196811E-01   -0.217121021917828866E+00   -0.189403688342021204E+00   -0.109424686126579318E+01   -0.169090616437079205E+00
    0.136229863153763842E+00   -0.306511195529989635E+02    0.113818084049831358E+01    0.137038298607323772E+01    0.711393093324548878E-02    0.188308157577150914E+01   -0.259044212756378078E+01   -0.638356401810158680E-01   -0.238874298219125114E+01   -0.497239797260715655E-01   -0.667316893220536722E-01   -0.111678081313549699E+00   -0.125223157889297387E+00   -0.112662532783745117E+01   -0.168976231354499518E+00
    0.135594182321279899E+00   -0.305452478427465159E+02    0.108583395992295406E+01    0.143469664084142901E+01    0.794698677930394740E-02    0.189155215448716496E+01   -0.244151473814667863E+01   -0.624448752119259598E-01   -0.135730348749924912E+01    0.302117055992996847E-01   -0.500726746311602050E-01    0.277207039590128546E-01   -0.615670770044797477E-01   -0.112260986674914887E+01   -0.167297181013932234E+00
    0.149240041268398849E+00   -0.299718980280125820E+02    0.114549509379744952E+01    0.136277645184617779E+01    0.704331115248148665E-02    0.188913312133723599E+01   -0.256001115480424080E+01   -0.595540482974276641E-01   -0.151875128011963700E+01   -0.983859565176606887E-01   -0.104195225640788647E+00   -0.288113410249143664E+00   -0.206845779348777903E+00   -0.109774713141555180E+01   -0.166377787169956382E+00
    0.128802309761220174E+00   -0.287097307876854799E+02    0.110986820770401673E+01    0.134420500428116929E+01    0.650403097912304485E-02    0.189555190129761741E+01   -0.252838252263881280E+01   -0.646596938564986262E-01   -0.159710151751258200E+01   -0.333079433911105838E+00   -0.632364188791503246E-01   -0.739918551513725486E-01    0.225084122697639943E-02   -0.114546979802937954E+01   -0.165139020409870246E+00
    0.131107512433110057E+00   -0.300174758114444664E+02    0.114240383731020501E+01    0.137197349978124183E+01    0.710285170460834593E-02    0.188894241376303196E+01   -0.249699415915857559E+01   -0.628419732711343326E-01   -0.144768195428911839E+01    0.219846734080753475E-01   -0.445505917558369213E-01   -0.229571426058449546E+00   -0.461367662882493090E-01   -0.112798051139021571E+01   -0.163753201164646062E+00
    0.132839480242850805E+00   -0.305931870780628650E+02    0.116388720656614253E+01    0.150210314775074649E+01    0.740165992294665280E-02    0.189413353602207768E+01   -0.261158885922428441E+01   -0.550236980948874618E-01   -0.874056073253247079E+00   -0.279766497533064429E+00   -0.783563042535197624E-01   -0.220809415196042108E+00   -0.134209407941738246E+00   -0.109451072917156766E+01   -0.163491472379749286E+00
    0.140079476334840775E+00   -0.308068311327576829E+02    0.109873825026326499E+01    0.140797995143886334E+01    0.740439977489962785E-02    0.188938611527976441E+01   -0.252547913145836400E+01   -0.570669161834561067E-01   -0.191189575766403830E+01   -0.822668180445744607E-01   -0.769483573882019656E-01   -0.334538129331242551E+00   -0.205439515265067679E+00   -0.111654713255346727E+01   -0.163311222964540759E+00
    0.139153127046409558E+00   -0.287415300807492429E+02    0.109566810553613214E+01    0.139028556561445127E+01    0.770942835347838105E-02    0.188272998182043994E+01   -0.250259095105112372E+01   -0.629593368944660475E-01   -0.145234266319785421E+01   -0.302673193072013125E+00   -0.102220460391440754E+00   -0.333515037204079434E+00   -0.327769268141706593E-01   -0.108245970177810213E+01   -0.162503622132081027E+00
    0.139333393576480002E+00   -0.296485142944147064E+02    0.112291619529256526E+01    0.132239930264723382E+01    0.752448356318695041E-02    0.189030128986148682E+01   -0.248541463035505572E+01   -0.688325868528299745E-01   -0.945540366983171898E+00   -0.277511984849892812E+00   -0.544512992535104157E-01   -0.327720009999962314E+00   -0.732190278412046536E-01   -0.108993346763745924E+01   -0.161932893424914182E+00
    0.130244200144064542E+00   -0.293980201961899112E+02    0.114859030291581909E+01    0.145922935977273993E+01    0.730153604369219045E-02    0.188715406026605059E+01   -0.252794646796985756E+01   -0.687431218778433301E-01   -0.176964088293677291E+01   -0.749566668249457835E-01   -0.416060055394639194E-01   -0.361607944631800959E+00   -0.310777596350984564E-01   -0.105095570372852753E+01   -0.161587880517177457E+00
    0.139387292361650678E+00   -0.301672497017131356E+02    0.111558684283397147E+01    0.140383347038997575E+01    0.737455119464683860E-02    0.189787036088399153E+01   -0.261328333114094047E+01   -0.471116949093894413E-01   -0.133944945833855389E+01   -0.338125258061103662E+00   -0.135930675922903213E-01   -0.235939563404009955E+00   -0.898642741594910255E-01   -0.110354055832197018E+01   -0.159460779039322514E+00
    0.140223549703815509E+00   -0.292103241333032777E+02    0.109605146099578143E+01    0.133591290554393538E+01    0.739796102037543115E-02    0.189423286545912029E+01   -0.241429059145087077E+01   -0.678877756955508505E-01   -0.131653109439724747E+01   -0.220279183933387357E+00   -0.240381901039851270E-01   -0.341189755850163090E+00   -0.100089197620232814E+00   -0.109571604103033526E+01   -0.156615493273114803E+00
    0.134533263792692509E+00   -0.293320710615329467E+02    0.116159171225169700E+01    0.139152758298682566E+01    0.725915296147172477E-02    0.189596219468262861E+01   -0.266027555809504213E+01   -0.721854455661059824E-01   -0.170814797827663245E+01   -0.456901258423372952E-01   -0.932649204923597652E-01   -0.191786890591967213E+00   -0.121278376905074606E+00   -0.104004638082216982E+01   -0.156450977135151964E+00
    0.141536083229220067E+00   -0.301969611097641426E+02    0.115688019472655301E+01    0.141051294457922238E+01    0.717192170210538722E-02    0.188903980337030220E+01   -0.243485351568516695E+01   -0.683893104921144412E-01   -0.174052506009226327E+01   -0.287157327119947903E+00   -0.785061117886095422E-01   -0.175219788225284917E+00   -0.177300636686576252E+00   -0.114421719608347261E+01   -0.155966036365845911E+00
    0.135301279263398827E+00   -0.302792984654599273E+02    0.112464067683920121E+01    0.141030311421359045E+01    0.703742573266436661E-02    0.189233317626788655E+01   -0.246095282808126958E+01   -0.603911020378197147E-01   -0.210500333970505826E+00   -0.106411952430899057E+00   -0.671848848347111616E-01   -0.345589498489841329E+00   -0.643163088154272006E-01   -0.107040852322121172E+01   -0.155683161688654537E+00
    0.135876017950701505E+00   -0.287227945842497050E+02    0.114903602794579895E+01    0.137833135302627485E+01    0.703935050643735363E-02    0.189540876085872489E+01   -0.245407989554963413E+01   -0.780930351207570345E-01   -0.153162178278750027E+01   -0.151968372675251262E+00   -0.491541159553454537E-01   -0.869143632131218202E-01   -0.191208245429303397E+00   -0.110352907257303667E+01   -0.154374862137296481E+00
    0.139023978675315879E+00   -0.294253138037972057E+02    0.116483737450475200E+01    0.135201911998843816E+01    0.707808273495249499E-02    0.189731652071849655E+01   -0.254986550176224647E+01   -0.491662661777879859E-01   -0.167156859548856818E+01   -0.248359772244402810E+00   -0.345245002255356315E-01    0.533682693304420031E-01   -0.979332454452195023E-01   -0.112872470409524772E+01   -0.154261026545060437E+00
    0.142175539363508352E+00   -0.304321558959274157E+02    0.112186950980256661E+01    0.137025374279550705E+01    0.711418839453846832E-02    0.189418777250355186E+01   -0.254594249094367031E+01   -0.625665030657631960E-01   -0.160114778607166186E+01   -0.732733447874166083E-01   -0.399026927582734406E-01   -0.343366715687352442E+00   -0.951159847116134632E-01   -0.112320456632733534E+01   -0.154059494617592690E+00
    0.134699806017960499E+00   -0.304562080101707799E+02    0.113836377002758993E+01    0.147436297564646490E+01    0.675436356604715033E-02    0.189711258745694433E+01   -0.256305400709231046E+01   -0.749613102891662636E-01   -0.127232624852116216E+01   -0.182114579013004207E+00   -0.629526312759938755E-01   -0.190589607205994160E+00   -0.105112947226514819E+00   -0.109646564308731542E+01   -0.153211841527063519E+00
    0.131889315908775451E+00   -0.301836459652491591E+02    0.114583299965509222E+01    0.144238077168828260E+01    0.733268814351909111E-02    0.190333387510348340E+01   -0.251785374524965144E+01   -0.538061752794393097E-01   -0.229447369938595802E+01   -0.424842156722793352E-01   -0.809155671882259009E-01   -0.376696772636540000E-01   -0.104567089755908380E+00   -0.111731607429206914E+01   -0.152809250909739791E+00
    0.135932846297048604E+00   -0.293078194350695256E+02    0.113013516459086194E+01    0.138778907913415384E+01    0.773810171149228680E-02    0.189678351017211044E+01   -0.255235584075991140E+01   -0.724952788697906941E-01   -0.297339693373520797E+01   -0.273445379751642070E+00   -0.923341481571371969E-01   -0.304123548733052584E+00   -0.171530252640429426E+00   -0.114228096855053063E+01   -0.152770383583548858E+00
    0.134498057474467109E+00   -0.284075121788090215E+02    0.111384723972186328E+01    0.140386070188906320E+01    0.715842875328681454E-02    0.189219192481470255E+01   -0.256364842117563407E+01   -0.713151627331327087E-01   -0.198377692919780091E+01   -0.151942616200589020E+00   -0.175234057516168509E-01   -0.221696865766585843E+00   -0.126328192285951185E+00   -0.109112201567914924E+01   -0.152733825749005847E+00
    0.132428546045182005E+00   -0.288020388784588022E+02    0.113405487992967169E+01    0.138706428499468792E+01    0.738385212530316172E-02    0.189997407822522346E+01   -0.255692806658678640E+01   -0.706784396847304347E-01   -0.112291880742221273E+01   -0.108692234575323191E+00   -0.576854639135564590E-01   -0.172489681982195719E+00   -0.999707126326441209E-01   -0.111429167441241006E+01   -0.152520742626704536E+00
    0.132869693490660662E+00   -0.295195704780606434E+02    0.112093236805597241E+01    0.135942503660291747E+01    0.732888262164614439E-02    0.188506496955733049E+01   -0.259816637288008367E+01   -0.666617018879421819E-01   -0.177535637405135760E+01   -0.133406495134577863E+00   -0.552257196074283224E-01   -0.122239687134092820E+00   -0.981228172280723676E-01   -0.110255265000261748E+01   -0.152441655368826090E+00
    0.135887687826106912E+00   -0.294641098720987102E+02    0.110761606547931790E+01    0.143702973776322218E+01    0.743119538871384131E-02    0.188957201661403196E+01   -0.257881752083073712E+01   -0.456177809678946153E-01   -0.124564031720635837E+01   -0.181899059840949284E+00   -0.152292101379399789E-01   -0.226741578689487133E+00   -0.539492757737104617E-01   -0.109154024895612478E+01   -0.150844825528168663E+00
    0.140207969728971316E+00   -0.289624312442247316E+02    0.107738894523413808E+01    0.138731788804167344E+01    0.779440084454511434E-02    0.187424946356815281E+01   -0.254533429802394329E+01   -0.610553857387876250E-01   -0.199074248825087241E+01   -0.270582900381518693E-01   -0.294760715376787275E-01   -0.870880428598008738E-01   -0.160044411442832546E+00   -0.109874458680812137E+01   -0.149769451898357636E+00
    0.131587005559549358E+00   -0.298611858507862209E+02    0.110794050171852665E+01    0.141270724951826510E+01    0.730633129754078292E-02    0.188265540111990837E+01   -0.248592004679122391E+01   -0.679733660965643333E-01   -0.162409227924641986E+01    0.812748225256027940E-01   -0.575529976008456456E-01   -0.423184098313562074E+00   -0.709839630487185957E-01   -0.109118953701955435E+01   -0.139489511746803158E+00
    0.134889085449063195E+00   -0.293740602707119116E+02    0.112078031669322176E+01    0.142060603973413890E+01    0.688040593626802408E-02    0.189110715596263157E+01   -0.260207069678660874E+01   -0.796359618210468745E-01   -0.113030477385230910E+01    0.366356271420198026E-01   -0.522804805081603097E-01   -0.418834340015513618E+00   -0.158426470970618516E+00   -0.108606361110536809E+01   -0.130575488156314090E+00
    0.138200659057699904E+00   -0.298234806675921362E+02    0.111704094505169582E+01    0.146747065519652486E+01    0.737425451832725287E-02    0.188287544762832759E+01   -0.244706657522142379E+01   -0.494061906859144667E-01   -0.128613404457805536E+01    0.409324189454756820E-01   -0.428634632722768305E-01   -0.182810474604474693E+00   -0.146004879209516186E+00   -0.105350750724719111E+01   -0.125463452956518562E+00
    0.139345491231507967E+00   -0.298728556893442843E+02    0.111812735323190182E+01    0.148544348089836831E+01    0.732506653655965335E-02    0.187817881885682780E+01   -0.261014380179736127E+01   -0.576780676431983830E-01   -0.189472833293878429E+01   -0.995519802884958782E-02   -0.571002691320698016E-01    0.294510663463812827E-01   -0.368673698033672309E-01   -0.111106628089945669E+01   -0.120597709882141149E+00
    0.140388005665980559E+00   -0.296936283596935020E+02    0.111398940716775363E+01    0.140030310806152114E+01    0.715728872209883162E-02    0.187855984104626605E+01   -0.249607583311325953E+01   -0.517050278565670263E-01   -0.121813278578990536E+01   -0.290074563943096830E+00   -0.341041900907587958E-01   -0.123260076774162924E+00   -0.160517487968402955E+00   -0.112000012343927735E+01   -0.128882657001500367E+00
    0.132574636679211461E+00   -0.305466574755384634E+02    0.114394339844288018E+01    0.142776509445481792E+01    0.696270666504864976E-02    0.189019899879632969E+01   -0.251579972444769551E+01   -0.727984982482039883E-01   -0.182449649540161074E+01   -0.655853833526511831E-01   -0.780037118362148091E-01   -0.238238490118429014E+00   -0.155730197342304644E+00   -0.108595622760288069E+01   -0.144694858688355160E+00
    0.138070649393194411E+00   -0.303531806615807120E+02    0.112429426349281458E+01    0.141632647161127023E+01    0.695640580032641422E-02    0.188900756527647884E+01   -0.258033554488823302E+01   -0.637363873058253844E-01   -0.117207335608535068E+01   -0.262982158902460350E+00   -0.506545786295523534E-01   -0.151392687048042041E+00   -0.534596194886039489E-01   -0.107480265914792250E+01   -0.145946975953909680E+00
    0.131863398949309957E+00   -0.308893219857013825E+02    0.111049782574918754E+01    0.146675444140458322E+01    0.707292397973907465E-02    0.188778420161048510E+01   -0.250306475859976096E+01   -0.642074745240242412E-01   -0.106417906694035835E+01   -0.190344155721573205E+00   -0.110332773076017576E-01   -0.108457597152075119E+00   -0.635098678565461788E-01   -0.113478924782710422E+01   -0.137985219644868817E+00
    0.138507257062882611E+00   -0.300947120654905156E+02    0.112492154905124453E+01    0.139125555622932873E+01    0.674661491970759281E-02    0.187606684380620781E+01   -0.262035368356739351E+01   -0.696532374737693222E-01   -0.132502902669781819E+01   -0.201925570187982517E+00   -0.376212078590931337E-01   -0.201357423281791015E+00   -0.998205943082525887E-01   -0.108709962396770021E+01   -0.123067235924011129E+00
    0.132132784160181344E+00   -0.295467734755408280E+02    0.112841427647753001E+01    0.149435415053305620E+01    0.701578204241748958E-02    0.188693134632649961E+01   -0.244799146067205031E+01   -0.756464732131099382E-01   -0.172461097109783057E+01   -0.112547801704351261E+00   -0.981890027600893500E-01   -0.290782928656128647E+00   -0.397876216904813063E-01   -0.107155174132094833E+01   -0.145674954730612927E+00
    0.138234759787220191E+00   -0.297844602057158916E+02    0.111230689027338614E+01    0.137370707678971349E+01    0.715617105894250302E-02    0.189533618750585275E+01   -0.243603394746444657E+01   -0.513385863472697809E-01   -0.193606111682191484E+01   -0.168300528279008460E+00   -0.345617486965006521E-01   -0.139130783941692926E+00   -0.100828349932884129E+00   -0.110824348163221531E+01   -0.145336655644734497E+00
    0.140702149264456927E+00   -0.291621433619786856E+02    0.112611833247808657E+01    0.141290365657440331E+01    0.714557331385044618E-02    0.188496811825991673E+01   -0.248807627316964686E+01   -0.447126042298709378E-01   -0.152985866395932235E+01   -0.147493774494216995E+00   -0.581298400925569364E-01   -0.364954800764099752E+00   -0.154069175338401754E+00   -0.111950982212975103E+01   -0.132576079178837458E+00
    0.132094087421970152E+00   -0.303201941957449712E+02    0.111904902174119658E+01    0.148355810709655178E+01    0.738828668370757145E-02    0.188445416466074200E+01   -0.258241023506020939E+01   -0.702717393470099899E-01   -0.208844415091237767E+01   -0.352096355321001531E+00   -0.356520025039322869E-01   -0.149752689296522301E+00   -0.198907951306599246E+00   -0.111897907500968041E+01   -0.129949700730443263E+00
    0.136192748973861188E+00   -0.291792792764406670E+02    0.112762908480368385E+01    0.138564599205542915E+01    0.735876409008490422E-02    0.188780610740863186E+01   -0.268579086738663131E+01   -0.637074639865469750E-01   -0.145917399918939927E+01   -0.147464516395031553E+00   -0.982745924225676692E-01   -0.182215869192947938E+00   -0.176202264629767180E+00   -0.108742823532405986E+01   -0.132234926256393909E+00
    0.138222362194623583E+00   -0.306073240664267452E+02    0.109424629450827404E+01    0.147691160788905851E+01    0.762519130555660771E-02    0.188173630073808096E+01   -0.258527860926066655E+01   -0.678714076142924727E-01   -0.786221501249281918E+00    0.265908486793267479E-01   -0.445520217469525803E-01   -0.105918478749383052E+00   -0.152254695479013630E+00   -0.113628838046448055E+01   -0.138399362628299522E+00
    0.134531140166433222E+00   -0.302503065953368200E+02    0.112490326095954329E+01    0.141891401841507703E+01    0.699339839311852781E-02    0.188435858390243127E+01   -0.252023220431675465E+01   -0.677799117320849603E-01   -0.183838108880975848E+01   -0.135316969244644369E+00   -0.102760082596322647E+00   -0.229978715208930928E+00   -0.162930040400224407E+00   -0.108811878065857615E+01   -0.132789568906135441E+00
    0.138850005748600347E+00   -0.290810052758355226E+02    0.113433034600373617E+01    0.143066312474779767E+01    0.721617537902013214E-02    0.188816297963798330E+01   -0.249355153025628740E+01   -0.526383683451901313E-01   -0.135807413926306708E+01   -0.130380638698277485E+00   -0.745576767764505322E-01   -0.295560536691035713E+00   -0.651389650446028562E-01   -0.108676581067507549E+01   -0.147755992801863884E+00
    0.136955262834680402E+00   -0.291216019072617129E+02    0.112032827967084092E+01    0.141345271996244004E+01    0.754758775823208359E-02    0.190387178161910242E+01   -0.242115265360943654E+01   -0.802470239001921576E-01   -0.214565407888068105E+01    0.459699062168708594E-02   -0.421667962826360321E-01   -0.236452130273982319E+00   -0.764993614894530771E-01   -0.112560741067311954E+01   -0.148340527554832707E+00
    0.141588493288700684E+00   -0.298081323514484460E+02    0.111598800840087686E+01    0.145383476710375592E+01    0.710508018893063042E-02    0.188003664237297596E+01   -0.244254738597718868E+01   -0.666960453991231605E-01   -0.145103420804691496E+01    0.847485538504925556E-01   -0.710196256609262194E-01   -0.646719704093683123E-01   -0.823219264104559367E-01   -0.107879798633726387E+01   -0.138665773038440659E+00
    0.128525329052867010E+00   -0.305711864558904658E+02    0.108608309213793919E+01    0.144522827384149410E+01    0.645066197205190241E-02    0.187554921027406807E+01   -0.244774941322070871E+01   -0.738287932794266244E-01   -0.188407466326735795E+01   -0.137473804483653483E+00   -0.592613249444463586E-01   -0.166811425806708769E+00   -0.272210063772996974E-01   -0.110396390973577563E+01   -0.137292186101318520E+00
    0.129019013018119605E+00   -0.286916201642038189E+02    0.112350588966027387E+01    0.143557067104762415E+01    0.727047417772659112E-02    0.187723487586718529E+01   -0.251356568432333649E+01   -0.672248780401129148E-01   -0.184295830004679351E+01    0.521819959921655668E-01   -0.483821930685749413E-01   -0.318151680354305855E+00   -0.238509212281305838E+00   -0.111876822954464572E+01   -0.147996134667608331E+00
    0.131275258132474482E+00   -0.299215188516692798E+02    0.109778452604256027E+01    0.143834869686734623E+01    0.734081134130319841E-02    0.188211604649556152E+01   -0.249768630806226311E+01   -0.790893086043910065E-01   -0.165355700237115455E+01   -0.233099121998976311E+00   -0.453463968049187816E-01   -0.130549602699441936E+00   -0.103952969718731122E+00   -0.107804483364098980E+01   -0.135895146308761178E+00
    0.139874560500875017E+00   -0.303041230901531478E+02    0.112571544596169248E+01    0.142159818426020812E+01    0.761589522482404406E-02    0.188659727327635274E+01   -0.253270255098675534E+01   -0.658053756494689501E-01   -0.111510905121445481E+01    0.105808151487846655E+00   -0.574369284937478186E-01   -0.432917245990076249E-01   -0.893691735112058100E-01   -0.113070945525722522E+01   -0.145344028894203142E+00
    0.140803397903446148E+00   -0.293938465721230315E+02    0.113819832769810492E+01    0.146080303230954112E+01    0.708371660194022975E-02    0.187199025783348727E+01   -0.236134870071770653E+01   -0.739061373011359046E-01   -0.177935986994055884E+01    0.338142992013024252E-01   -0.747309020365327231E-01   -0.185691816933070880E+00   -0.148049162551798952E+00   -0.109988741317307359E+01   -0.120396236862411285E+00
    0.130816631279390666E+00   -0.291456693785735794E+02    0.109971611708058048E+01    0.142513321469855136E+01    0.686546648569411836E-02    0.188668398466518816E+01   -0.266505183371638266E+01   -0.528933955615499760E-01   -0.164111468298853191E+01    0.134784167076099970E+00   -0.651945094746943093E-01   -0.149705949362474944E+00   -0.194467015636691498E+00   -0.111745595764571548E+01   -0.139409304884605317E+00
    0.142321708600242569E+00   -0.302490028007454015E+02    0.111506640045000949E+01    0.143008150863448913E+01    0.676955520997613459E-02    0.187813248639516317E+01   -0.250143947483628493E+01   -0.466553332108194871E-01   -0.139738558895776088E+01   -0.304346422046635756E-01   -0.911338278766319898E-01   -0.276669109362463361E+00   -0.148617101825564285E+00   -0.109674412450542680E+01   -0.147157386055814993E+00
    0.139399414472871158E+00   -0.307853300468022795E+02    0.109669544892686277E+01    0.143406008168202548E+01    0.727617153445164061E-02    0.187930485919315693E+01   -0.257422994731438193E+01   -0.791303726083487924E-01   -0.147602867475472421E+01   -0.907337624788325942E-01   -0.786797272603117354E-01   -0.220825934549425368E+00   -0.959017089951961776E-01   -0.113001962945536838E+01   -0.146835951542024945E+00
    0.139046588774666746E+00   -0.297031955933151650E+02    0.114554229584302014E+01    0.148381424773331805E+01    0.687396563209208885E-02    0.188169690113320986E+01   -0.251260411901760161E+01   -0.694945717363586596E-01   -0.186949856311140561E+01    0.185602829018696042E-01   -0.909502111389441231E-01   -0.239533707427674047E+00   -0.288110255243403252E-01   -0.110650109356130333E+01   -0.144123397647523493E+00
    0.138207526845905232E+00   -0.298308834715451461E+02    0.113700936628649041E+01    0.141505602304335620E+01    0.706617334711980797E-02    0.189638935683829146E+01   -0.249740084195321721E+01   -0.575730311839435585E-01   -0.117596216587776592E+01    0.587606370568021369E-01   -0.135730610499114127E-01   -0.358156357539004100E+00   -0.147033164849160181E+00   -0.106285078952076617E+01   -0.141297479991940922E+00
    0.131292169897732403E+00   -0.293591469356517933E+02    0.111867436029707523E+01    0.150154348910200808E+01    0.677827657302938931E-02    0.188002784000524104E+01   -0.251239799356859050E+01   -0.696007094724972741E-01   -0.179544891244474369E+01    0.718901381297575442E-01   -0.872956895743110528E-01   -0.608213320775449207E-01    0.540809711101952750E-02   -0.108342213491974171E+01   -0.146191666486027633E+00
    0.139832318291345847E+00   -0.297412588246888063E+02    0.110952714112637940E+01    0.147140151233431826E+01    0.722867163101269423E-02    0.188389148570692466E+01   -0.251415627156566979E+01   -0.785838101347939716E-01   -0.116844514941788447E+01    0.195500566064195691E+00   -0.846777716713477263E-01   -0.430952187681496457E+00   -0.154508072762659959E+00   -0.110301040928640504E+01   -0.138622299398937027E+00
    0.134238246769610103E+00   -0.303386255320855831E+02    0.114042917508708563E+01    0.143812834136782386E+01    0.690209287628378802E-02    0.189919798462989098E+01   -0.264256267317857407E+01   -0.408884134432967589E-01   -0.182754548649224802E+01   -0.330231110226413660E+00   -0.824286895630531591E-01   -0.202882012439629694E+00   -0.156246577390212638E+00   -0.110171151335183271E+01   -0.149109308001113078E+00
    0.131909673508278896E+00   -0.295462254113119585E+02    0.109431060607756425E+01    0.144084210155765513E+01    0.723774227960548560E-02    0.188708642551648342E+01   -0.256623636259084842E+01   -0.731126439715827497E-01   -0.180489551810401050E+01    0.587648526397287069E-01   -0.484171687778196663E-01   -0.664472162285220935E-01   -0.114855738717404413E+00   -0.109682580987539735E+01   -0.133632648475721455E+00
    0.140018949207422472E+00   -0.297867969033750626E+02    0.113763950122308999E+01    0.144752171621880521E+01    0.739553271608373898E-02    0.188727532432986878E+01   -0.246895026570978082E+01   -0.727247586228594867E-01   -0.114425414174176376E+01   -0.164173331407960810E+00   -0.773122768400114346E-01   -0.383161992720694622E+00   -0.100623463568697336E+00   -0.106770483970740737E+01   -0.139140895484251542E+00
    0.134721751010740798E+00   -0.301634613141629941E+02    0.111533449907623194E+01    0.139310159017920920E+01    0.654654674900640669E-02    0.189615499366257190E+01   -0.251230655877093945E+01   -0.556496106522940542E-01   -0.173451010951385953E+01   -0.397656999473644523E-01   -0.965749395680376710E-01   -0.245060582680463018E+00   -0.202569587244490729E+00   -0.112248461955764900E+01   -0.145311215974682134E+00
    0.132786874962635831E+00   -0.295783953582266470E+02    0.113190328398395934E+01    0.149029785747343668E+01    0.733822700554330118E-02    0.189130569677468130E+01   -0.249866155911088983E+01   -0.718337150351896908E-01    0.485910475996977009E+00   -0.120384977941534618E+00   -0.407120809467169248E-01   -0.224941242304439654E+00   -0.164000588925009017E+00   -0.111641477097133612E+01   -0.127720591681788426E+00
    0.141340385722844714E+00   -0.293411029659260834E+02    0.112756243650231114E+01    0.140373227466256978E+01    0.754949221034888554E-02    0.187766810235996795E+01   -0.270746023503934552E+01   -0.677099106352513636E-01   -0.124945141247707636E+01   -0.211873296523086285E+00   -0.632659892998139878E-01   -0.335354612149051934E+00   -0.845837099525185293E-01   -0.109418636549921455E+01   -0.121672255738168172E+00
