    0.806059374429662218E-01   -0.206304567260731631E+02    0.843770877539066322E+00    0.768106151444041929E+00    0.161020111655649188E-01    0.202876001864622912E+01   -0.143078564459613156E+01   -0.329290896145675790E-01    0.327770150003609606E+01   -0.238292888731432062E+00    0.930688068738567964E-02   -0.201058283664456910E+00   -0.282948193134692050E+00   -0.105485145433953531E+01   -0.115242974417550226E+02
    0.151168378155058264E+00   -0.292249855798849154E+02    0.240886676456637361E+00    0.135963671715894230E+01    0.812490038209756800E-02    0.195181012119011243E+01   -0.169002843422038285E+01   -0.760320251449354001E-01   -0.873850260906291254E+01   -0.354694816423497428E+00   -0.207258921623319159E+00   -0.178801947016585666E+00   -0.130381666984485833E+00   -0.101182782383248648E+01   -0.107920030866350452E+02
    0.118113550870790063E+00   -0.214737472930403825E+02    0.906076955994761235E-03    0.107068090057452303E+01    0.129954528141556849E-01    0.212130124951400134E+01   -0.150885618811823852E+01   -0.111277849701813619E+00   -0.771302211215883382E+00   -0.344262473549146963E+00    0.183172483151360865E+00   -0.172592468880898436E+00   -0.406788951229870466E+00   -0.123048542050389553E+01   -0.102080045427594861E+02
    0.452070625667781445E-01   -0.565967837264069651E+01    0.268270821687897509E+00    0.104278246869727598E+01    0.764332718613257387E-02    0.199261746618243074E+01   -0.172434607427971720E+01   -0.828132383741525119E-01   -0.377904485723191996E+01   -0.317551303547735420E+00    0.918398608801684890E-01   -0.617305118398703279E-02   -0.163265664028301893E+00   -0.103057928259396037E+01   -0.975821140834263367E+01
    0.132874683493250878E+00   -0.132949879748991364E+02   -0.322497958718674704E+00    0.552575137131079419E+00    0.834570124629615065E-02    0.202468355193729854E+01   -0.147881369009725416E+01   -0.186288654480344318E+00   -0.435928828324902540E+01    0.838364107808897696E-02   -0.186327168609121602E+00   -0.102372205632520322E+00   -0.732238909499427354E-01   -0.114636027842781041E+01   -0.970394025530133852E+01
    0.749166203402913955E-01   -0.207592279431065485E+01    0.503217897637437739E+00    0.122764464340371537E+01    0.744622430377538634E-02    0.194173742937436367E+01   -0.959373761724315433E+00   -0.187430952693372399E+00   -0.465314072555185554E+01   -0.408225198027813430E+00   -0.124963472725123120E+00   -0.230388353974697951E+00   -0.145439290537798332E+00   -0.104510467087712833E+01   -0.949695914132254515E+01
    0.912944508021107659E-01   -0.229691605692112262E+02    0.658842547450323224E+00    0.141044155786230885E+01    0.883653603125530290E-02    0.203283241072987408E+01   -0.218677921960208366E+01   -0.837105566121334604E-01   -0.219419193559644077E+01    0.105742211545003989E+00   -0.608087578665375481E-01   -0.675299673392033561E-01   -0.297435593727797709E+00   -0.115106289358872504E+01   -0.936518750871930727E+01
    0.131613186677378757E+00   -0.258036865160958087E+02    0.104940486851702519E+01    0.108873628367324615E+01    0.783382969141628235E-02    0.210114668435282903E+01   -0.193333875328013405E+01   -0.133953502166198557E+00   -0.313187872218150520E+01   -0.578417527887373356E-01   -0.118063629872685205E+00   -0.579381689928081589E+00   -0.239853042651086423E+00   -0.101731804215638677E+01   -0.878401129586356078E+01
    0.168792880962721353E+00   -0.573474648426726219E+01    0.114443330122030873E+01    0.214041061514368192E+00    0.724318643114988010E-02    0.193558915318899549E+01   -0.158092459847943134E+01   -0.249174989059189278E+00   -0.364389875304124811E+01   -0.288538575674812003E+00   -0.174671352175991001E-03   -0.380297937489599780E+00    0.648517923290869991E-02   -0.103143633883990216E+01   -0.860383169991629515E+01
    0.749791423503460702E-01   -0.189216315686279444E+02    0.678767810224385371E+00    0.634212449050149840E+00    0.801806915535262232E-02    0.204456405517608886E+01   -0.168157893147507131E+01   -0.104897970666845086E+00   -0.254851677489650141E+01    0.956863581210662395E-02    0.619918049469995805E-01   -0.143639873378572230E+00   -0.807163683838389989E-01   -0.100954213703679718E+01   -0.860314723423549133E+01
    0.118860873475713266E+00   -0.216236073797279325E+02    0.242687804415621600E+00    0.869649564641981399E+00    0.111073686635638387E-01    0.207484663311749218E+01   -0.100485957514495206E+01   -0.328036071329793275E-01   -0.461810152953522568E+01   -0.113258860293944913E+00   -0.908111589463363178E-03    0.177453813091563162E-01   -0.232623884685298488E+00   -0.107363406238920644E+01   -0.849196733747209898E+01
    0.156914839461518463E+00   -0.214745630087869372E+02    0.142296192151474710E+00    0.106446600130547231E+01    0.885917170548074055E-02    0.200561464451924465E+01   -0.197345474006481614E+01   -0.331150523607876071E-01   -0.742046296078735423E+01   -0.158622237392327087E+00   -0.130042534735749921E+00   -0.162120297468839492E+00   -0.252309274889491009E+00   -0.105504453163027789E+01   -0.848464420863560242E+01
    0.118644476373880634E+00   -0.495483466587864463E+01    0.827445309912337557E+00    0.615789741679527380E+00    0.625243182701714847E-02    0.199797656671420287E+01   -0.112349328475978760E+01   -0.256190407243140628E+00   -0.429403888597455996E+01   -0.292700478933425712E+00    0.153996072915060650E+00   -0.297519326770358084E+00   -0.849182671434258601E-01   -0.102924303296214670E+01   -0.835361099243164062E+01
    0.774666418227149406E-01   -0.154811179711088975E+02    0.879907773784810443E+00    0.114933586709011681E+01    0.146440117252351759E-01    0.211188757698528118E+01   -0.115036302639272270E+01   -0.159119075026869061E+00   -0.262399553162162835E+01   -0.852465177369469557E-01   -0.110394468071831758E+00   -0.318355850951951624E+00   -0.318799628285711956E+00   -0.111398522351035156E+01   -0.834098325456891665E+01
    0.127395441846142599E+00   -0.203266812347563395E+02    0.216072674857909652E+00    0.121612712216364560E+01    0.144284711967308781E-01    0.205562746341103164E+01   -0.158387333894865057E+01   -0.108034547132141778E+00   -0.187405117161826662E+01   -0.178831179624751285E+00    0.996853562554140260E-01    0.191495658011136410E+00   -0.180625203971045173E+00   -0.112411192896616119E+01   -0.814604513985770140E+01
    0.130278677402612786E+00   -0.210878067711303885E+02    0.315005751848572213E+00    0.776175957527231453E+00    0.957684249811953381E-02    0.208175255578106899E+01   -0.219799605968732381E+01   -0.274209691601828343E+00   -0.312675911191527733E+01   -0.229605008991540321E+00    0.158602115855287745E+00   -0.281220044523137647E+00   -0.326846563170477555E-01   -0.119111480311164741E+01   -0.805713980538504515E+01
    0.121828520177866606E+00   -0.422059469685737909E+01    0.667802502761712935E+00    0.118718176054152225E+01    0.138126611328049757E-01    0.197690003676199133E+01   -0.232298551927905716E+01   -0.266756046739314245E+00   -0.690795233064321401E+01   -0.925233956590002099E-01   -0.193307263855355765E+00   -0.280813857516990395E+00   -0.183707819666721506E+00   -0.107464318012623350E+01   -0.802311597551618227E+01
    0.112321084642620028E+00   -0.205170844518406774E+02    0.106644761720151537E+01    0.120522141068838073E+01    0.408611724231660711E-02    0.196237091577230904E+01   -0.200172591413759049E+01   -0.110429995394670688E+00   -0.925428662817576253E+01   -0.114753395188222251E+00    0.689001362495942349E-01   -0.124934973495454960E-01   -0.960823989354500085E-01   -0.101190805643799298E+01   -0.785354777744838195E+01
    0.983326845033379027E-01   -0.173633487150534407E+02    0.410471604362832421E+00    0.670579083353335492E+00    0.689553407331513005E-02    0.200052641607865933E+01   -0.172951997089353648E+01   -0.285946649913053685E+00   -0.305207468104494550E+01   -0.103950124869441662E+00   -0.177648979551020603E+00   -0.497679903337543972E+00   -0.759126199335335983E-01   -0.102534041650921526E+01   -0.781389399937221008E+01
    0.105347672092821185E+00   -0.163563120893924250E+02    0.901801004508797188E+00    0.114785192996690455E+01    0.782379298099790052E-02    0.200006616430451345E+01   -0.125482727248728976E+01   -0.117714108739631257E+00   -0.147696507881172345E+01    0.274247038860521153E-01   -0.209930355751028169E+00   -0.118996355018635216E+00   -0.117217091712674609E+00   -0.101224786824103852E+01   -0.768728910173688629E+01
    0.152542971766553848E+00   -0.151052608491085429E+02    0.963846908947353920E+00    0.985343411506698130E+00    0.905473753564809899E-02    0.194112983695261176E+01   -0.191126032687936287E+01   -0.178691702531828700E+00   -0.252956867279665421E+01   -0.635839799082501406E-01   -0.180133185612171814E+00   -0.237671028602570666E+00   -0.146347778419679525E+00   -0.109283536909105239E+01   -0.768242645263671875E+01
    0.110570828944603600E+00   -0.115391976983848501E+02    0.728454923864360504E+00    0.941863236466574438E+00    0.154846007244717841E-01    0.199874623968731036E+01   -0.202920408749653669E+01   -0.865020455302427799E-01    0.319510276347035660E+00    0.204519761863186350E+00   -0.251598211288805107E+00    0.112407810240270079E-01   -0.236310312622015656E+00   -0.104201009151821333E+01   -0.757368687220982117E+01
    0.112853819672914440E+00   -0.228365717625506086E+02    0.104589468301395105E+01    0.719036071911651975E+00    0.893972110809612697E-02    0.202167621638825645E+01   -0.959150490628801533E+00   -0.668125400115218288E-01   -0.472135695885897988E+01   -0.232881071534322581E+00   -0.188636928827201733E+00   -0.419428050880125747E+00   -0.262602720292275105E+00   -0.102838756872193549E+01   -0.754780796595982117E+01
    0.137391937800975084E+00   -0.611870244855652956E+01    0.263973587462159098E+00    0.108505098867929228E+01    0.143700732178031927E-01    0.201559109924606128E+01   -0.199160356365055513E+01   -0.197429955394711421E+00   -0.107250317726208557E+02   -0.156645052520496708E+00    0.772802233920796833E-01   -0.841320326741410163E-01   -0.132498208836524717E+00   -0.104570647647779724E+01   -0.748916516985212066E+01
    0.814001982406362956E-01   -0.188274758547006158E+02    0.682296068994173055E+00    0.134851689435632816E+01    0.115643649794328254E-01    0.214392961082123756E+01   -0.165600903030506319E+01   -0.232890424347682035E+00   -0.197104021633982862E+01   -0.316499479983602727E+00    0.639460125877777397E-01   -0.261966203286836952E-01    0.632385677193673112E-01   -0.112728211168596393E+01   -0.747409439086914062E+01
    0.100864692729824235E+00   -0.172801996879076327E+02   -0.113524461430811519E+00    0.563732919425841472E+00    0.651941477734649128E-02    0.199781785531561606E+01   -0.109245564968622855E+01   -0.169478521938115162E+00   -0.105626293600123899E+01   -0.158213213858224372E+00   -0.170410778347524439E+00   -0.585326701281132400E+00   -0.191413086637165858E+00   -0.104577320425977804E+01   -0.747393253871372742E+01
    0.132340845879387881E+00   -0.170605608691819697E+02    0.371380868110170792E+00    0.108630877002759707E+01    0.105556933845095419E-01    0.201149116118901983E+01   -0.162843918971712776E+01   -0.138791091266344646E+00    0.108925213559394551E+01    0.121932287208426082E-02   -0.138494625686798184E+00   -0.449062162212380822E-01   -0.277670219677747243E+00   -0.117830952965532298E+01   -0.744189671107700867E+01
    0.127441024842404965E+00   -0.115880938105101912E+02   -0.108369904767088854E+00    0.745741302186086363E+00    0.155763491944497130E-01    0.197161044054841317E+01   -0.154210767157145634E+01   -0.143376827878596430E+00   -0.169999549119247439E+01   -0.370792960113997871E+00    0.494481756312030105E-01    0.223194505086442480E+00   -0.608907219697050056E-01   -0.132060144733729157E+01   -0.726630674089704254E+01
    0.782687325618045132E-01   -0.223060892483290374E+02    0.246888619092064832E+00    0.830505490024246895E+00    0.947526605564746188E-02    0.212777990547626938E+01   -0.874108487698289638E+00   -0.115267754929296112E+00    0.126679923412139539E+01   -0.114688255951408857E+00   -0.175012106299059361E+00   -0.590609091152600740E+00   -0.305778167584307092E+00   -0.101373649162241164E+01   -0.722420283726283508E+01
    0.113257355626890183E+00   -0.118726588385778324E+02    0.637040879445659125E+00    0.677161180591194345E+00    0.730971269902791401E-02    0.194806426617379969E+01   -0.180428463985843934E+01   -0.254350973666537028E+00   -0.341168041515221221E+01   -0.292426279300568082E+00    0.206506885746238905E-02   -0.299734345370124444E+00   -0.244533708655250842E-01   -0.103481136668228602E+01   -0.720106996808733246E+01
    0.638322433534785627E-01   -0.109898363095143843E+02    0.126064916555777495E+01    0.131950531221621703E+01    0.369626609350047746E-02    0.204319374863665004E+01   -0.191147006272289666E+01   -0.262753523940518208E+00   -0.465727916568559319E+01   -0.193972439115272399E+00    0.166355437717380428E+00   -0.227182160230836289E+00   -0.613836039098650393E-01   -0.103812053624010914E+01   -0.717341886247907379E+01
    0.747415277261977845E-01   -0.251388768491372190E+02    0.952022955034534046E+00    0.100615506498044294E+01    0.125887013180075204E-01    0.211169090609258969E+01   -0.120952963451169060E+01   -0.962343991981731428E-01   -0.703858907126506672E-01    0.219003681770588432E-01   -0.274764723402072697E+00   -0.241324471676489738E+00   -0.265353518394075283E+00   -0.102264925987674760E+01   -0.712747246878487761E+01
    0.140894810808065485E+00   -0.216811975375514798E+02    0.636348951994129886E+00    0.170717150230036641E+00    0.708304303875894985E-02    0.203416517625481585E+01   -0.153046944746661429E+01   -0.126302624284648141E+00    0.383769620296433844E+01    0.127731762059525855E-01   -0.146718785779012983E+00   -0.378072500884007012E+00   -0.201292358610302702E+00   -0.101582668699041423E+01   -0.707305908203125000E+01
    0.155166912489947018E+00   -0.223690537639723992E+02    0.740716717870658403E+00    0.605763285292917009E+00    0.601189822975680115E-02    0.197274980068491113E+01   -0.157013536394830089E+01   -0.171126231206574581E+00   -0.559219097149459188E+01   -0.100379633123837908E+00   -0.271073401181849361E+00   -0.376069553121175404E+00   -0.137642068180796467E+00   -0.103267608338634331E+01   -0.704304504394531250E+01
    0.731834337351021658E-01   -0.146813781621344202E+02    0.766139564037405574E+00    0.119753172576391420E+01    0.720719867843639013E-02    0.204117550387669722E+01   -0.118850119406018040E+01   -0.167373195180530676E+00    0.917130762326773041E+00   -0.241364350465092747E+00    0.880501377059028922E-01   -0.221607909229697281E+00   -0.139556905631397471E+00   -0.104136082162621024E+01   -0.701296997070312500E+01
    0.112915920876988402E+00   -0.183358110436822201E+02    0.906920430839666669E+00    0.948430570214903734E+00    0.864845223473808405E-02    0.202754633489352587E+01   -0.196206628641090264E+01   -0.129248163049815123E+00   -0.614245522847209813E+01   -0.252109266001996124E+00   -0.734897244978059555E-01   -0.479131249371481882E+00   -0.267572244186187969E+00   -0.101346318421062964E+01   -0.697899355207170746E+01
    0.855611709975251100E-01   -0.202723625716079709E+02    0.745539943249596604E+00    0.121482006503903084E+01    0.324118663447085873E-02    0.201087990640423353E+01   -0.122456215201711638E+01   -0.152465692064960023E+00   -0.151884277186918459E+01    0.119173727333457075E+00    0.140979521809274366E-02   -0.157407676215000930E+00   -0.964339224155605634E-01   -0.106769479713254389E+01   -0.697308894566127258E+01
    0.889278285516781480E-01   -0.177558479556135076E+02    0.645324373008901664E+00    0.780745410833803888E+00    0.589831249856918004E-02    0.200671148627951945E+01   -0.161850038323048095E+01   -0.195743000008658657E+00   -0.222898318801425930E+02   -0.250272695337589668E+00   -0.118493861634316078E+00   -0.566581306015338626E+00   -0.461887770314912821E-01   -0.102572701405153488E+01   -0.683796800885881684E+01
    0.106648624307504158E+00   -0.257677418223284214E+02    0.597393449135262156E+00    0.115738921258639849E+01    0.776108876553652065E-02    0.201828082061303515E+01   -0.141029325339898315E+01   -0.114212056369079301E+00   -0.608351229849677910E+01   -0.385752169889904462E+00    0.408808916919748758E-01   -0.294030444491507725E+00   -0.185745022264941717E+00   -0.110349083201208553E+01   -0.679232570103236633E+01
    0.115368148400153261E+00   -0.174981866515170132E+02    0.712414768339435178E+00    0.880326954908466575E+00    0.144210171455330625E-01    0.200925675642789514E+01   -0.223113720013315930E+01   -0.212437261716731413E+00   -0.484242413387740545E+01   -0.283293629389608392E+00   -0.385060655585771280E-01   -0.354197341233753904E+00   -0.153447195013310778E+00   -0.122184750124518682E+01   -0.676035090855189758E+01
    0.124783232041031339E+00   -0.292184407906250314E+02    0.365644869938470840E+00    0.903720004544115385E+00    0.151700436214687422E-01    0.205209605419918528E+01   -0.117839169146495371E+01   -0.125016251608361495E+00   -0.258363672366602160E+01   -0.432152811129390968E+00   -0.743533348825909379E-01   -0.363295964803516114E+00   -0.200383414185798248E+00   -0.104676301227927016E+01   -0.674093627929687500E+01
    0.164766047054009102E+00   -0.220426653758422191E+02    0.481304487759764421E+00    0.752428057003313167E+00    0.500227133048287021E-02    0.198818648982870561E+01   -0.176946664986485835E+01   -0.171121286717413612E+00   -0.105242809955709991E+02    0.991745105922962333E-01    0.222552359928777296E-01   -0.233005227307942958E+00   -0.125228773062524112E+00   -0.103732657412598361E+01   -0.672374180385044617E+01
    0.604702059009322793E-01   -0.143166826075913818E+02    0.949986434023200932E+00    0.659498085945051993E+00    0.812781899263045893E-02    0.210169991072959883E+01   -0.139798759128232075E+01   -0.149752371052008310E+00   -0.501714956909295928E+01   -0.605086718203184049E+00    0.380605707855904071E-01   -0.273328465868688308E+00   -0.121796982850782859E+00   -0.107316896171981147E+01   -0.670306505475725434E+01
    0.101666353668876525E+00   -0.903589783712176242E+01    0.841283841934994170E+00    0.999967237852958934E+00    0.753393801695381553E-02    0.199620257769934040E+01   -0.133987568055902040E+01   -0.215999810335636616E+00    0.554843250429092993E+00   -0.181634892235182588E+00    0.103010604566450392E+00   -0.147337664169059079E-01   -0.473991377836316813E-01   -0.103013354553110559E+01   -0.667721448625837066E+01
    0.146476712458457753E+00   -0.127454532645653167E+02    0.964221318708881725E+00    0.144466466644653813E+01    0.130059428770871108E-01    0.202661678494830610E+01   -0.201799140997979354E+01   -0.173922648671208213E+00   -0.663751741953786834E+01   -0.176936406867583496E+00   -0.102587964412324262E+00   -0.180444554910110994E+00   -0.195965513155780868E+00   -0.103915885475535541E+01   -0.667407771519252258E+01
    0.839275866914138691E-01   -0.735720439635767320E+01    0.770976143129241565E+00    0.114202318805501335E+01    0.830220933767637087E-02    0.201748507007957967E+01   -0.166438838836062586E+01   -0.111923376337424607E+00   -0.633478773732877976E+01   -0.248499571430216670E+00   -0.212525655078633108E+00   -0.159798791228790954E+00   -0.225014011642175826E+00   -0.100096607943073024E+01   -0.667077745710100434E+01
    0.108684587588126699E+00   -0.140803760538439455E+02    0.928277286176313332E+00    0.122235611133171540E+01    0.563638261914702933E-02    0.194834257521064691E+01   -0.163602886220465371E+01   -0.185376668859226906E+00   -0.113644295861840323E+02   -0.193698550512457157E+00   -0.866173469230297199E-01   -0.116113551287826466E+00   -0.873115075584155603E-01   -0.101916925868832386E+01   -0.665961619785853820E+01
    0.124432781171565823E+00   -0.314766606624886833E+02    0.442694758188050486E+00    0.500738084683438722E+00    0.604074979215312585E-02    0.203329840446336263E+01   -0.162315407721164306E+01   -0.138983162335017285E+00   -0.196721216689664691E+01   -0.357296001576112465E+00   -0.280644301109703120E+00   -0.380440815707050906E+00   -0.568054234381291795E-01   -0.116806277420429150E+01   -0.665780530657087066E+01
    0.743112259171978262E-01   -0.970453794992234897E+01    0.921698549267746081E+00    0.102641022272109472E+01    0.682476537695595083E-02    0.202174872305452036E+01   -0.114689373745533318E+01   -0.148079394433719563E+00   -0.290578465244699569E+01   -0.156236674606456960E+00   -0.318170212833193619E-01   -0.416536311887240884E-01   -0.107190024173880433E+00   -0.104118536063915346E+01   -0.665036337716238801E+01
    0.538582809807571089E-01   -0.127220898285946724E+02    0.218889538837678421E+00    0.934952722695016170E+00    0.102683091900310358E-01    0.204994658702093657E+01   -0.189997415583319529E+01   -0.104726935342019684E+00    0.130854145658240340E+01    0.171857897457428105E+00   -0.295934497535042196E+00   -0.433423234752634778E+00   -0.249722812069104433E+00   -0.106029832344407104E+01   -0.665023749215262239E+01
    0.139188041936779167E+00   -0.256489488274783639E+02    0.228501646432015260E+00    0.110725537929471241E+01    0.118618118884780653E-01    0.201336304930652155E+01   -0.114011584445232161E+01   -0.208206062032206152E+00   -0.849215190267801123E+00   -0.233493371306228631E+00   -0.751753935549162866E-01   -0.124748904250582007E+00   -0.904624922035268675E-02   -0.120187019139765972E+01   -0.658569771902901824E+01
    0.658100927191668378E-01   -0.118606590014064466E+02    0.717510397344134465E+00    0.130229830865868834E+01    0.752150285508794599E-02    0.205588386582897309E+01   -0.159820857973264818E+01   -0.158716320035586500E+00   -0.817542061784562790E+01   -0.849136474569649469E-01   -0.175304966981444488E+00   -0.935033786993626492E-01   -0.434811660963094065E-01   -0.102392263639358205E+01   -0.658510535103934114E+01
    0.815883959453649471E-01   -0.162498671672332762E+02    0.105701231456007205E+01    0.112154331080914238E+01    0.700869890402998959E-02    0.199447927582887496E+01   -0.177646614692154525E+01   -0.192448148155372034E+00   -0.193707064201617474E+01   -0.174110525425588136E+00   -0.738850171538290579E-01   -0.256561396220138682E+00   -0.954130905985544342E-01   -0.103012984376993399E+01   -0.656847708565848176E+01
    0.856933724837162375E-01   -0.243943039845914882E+02    0.842748803641329980E+00    0.830936898161407700E+00    0.818620486599158995E-02    0.205405805023416743E+01   -0.135623244914873586E+01   -0.166611739789203184E+00   -0.525692186245000670E+01   -0.209089198239187535E+00    0.757912791946109832E-01   -0.738135101588449971E+00   -0.183389341217522484E+00   -0.101081843823416451E+01   -0.656486184256417449E+01
    0.112140417967316330E+00   -0.262750464455596884E+02    0.393056635842241486E+00    0.104766322978584103E+01    0.649051565490043128E-02    0.200909896411873090E+01   -0.179380110104600576E+01   -0.146478583122700012E+00   -0.299137542709899229E+00   -0.638510111084389931E-01   -0.201026255354466415E+00   -0.343327057472144925E+00   -0.157586372690405679E+00   -0.119444999686932340E+01   -0.653517913818359375E+01
    0.112140417967316330E+00   -0.262750464455596884E+02    0.393056635842241486E+00    0.104766322978584103E+01    0.649051565490043128E-02    0.200909896411873090E+01   -0.179380110104600576E+01   -0.146478583122700012E+00   -0.299137542709899229E+00   -0.638510111084389931E-01   -0.201026255354466415E+00   -0.343327057472144925E+00   -0.157586372690405679E+00   -0.119444999686932340E+01   -0.653517913818359375E+01
    0.103536446911463409E+00   -0.179769226764041576E+02    0.947658102044999451E+00    0.884507375385705563E+00    0.329372989792684617E-02    0.199057178124675782E+01   -0.133079327555148241E+01   -0.171487174362412509E+00   -0.297577994229274134E+01   -0.668811599459917111E-01    0.118580687815658559E+00   -0.292897463843590944E+00   -0.595820628915479794E-01   -0.101153525271801414E+01   -0.652475411551339324E+01
    0.123459462126024488E+00   -0.136966983953094807E+02    0.705809739794813540E+00    0.929866994826095694E+00    0.135539109264210620E-01    0.204367656027774025E+01   -0.119006220022544040E+01   -0.170893562604778643E+00    0.402692574745520737E+01   -0.360237526909029659E-03   -0.322673102201818107E+00   -0.294260454058840992E+00   -0.238596206168698144E+00   -0.112846950102010313E+01   -0.649058968680245574E+01
    0.123459462126024488E+00   -0.136966983953094807E+02    0.705809739794813540E+00    0.929866994826095694E+00    0.135539109264210620E-01    0.204367656027774025E+01   -0.119006220022544040E+01   -0.170893562604778643E+00    0.402692574745520737E+01   -0.360237526909029659E-03   -0.322673102201818107E+00   -0.294260454058840992E+00   -0.238596206168698144E+00   -0.112846950102010313E+01   -0.649058968680245574E+01
    0.108425372084315477E+00   -0.163820081735701528E+02    0.711446024729870841E+00    0.844262835697617509E+00    0.895151415557894278E-02    0.204177664783071444E+01   -0.148238332184012189E+01   -0.160091546382913952E+00   -0.394941160557644100E+01   -0.729569134251357443E-01    0.137219808722056968E+00   -0.448621362778442223E+00   -0.123895772292318102E+00   -0.103029361108500495E+01   -0.647174944196428559E+01
    0.912021720637399697E-01   -0.130085241640976825E+02    0.960316541144130342E+00    0.892685611732196072E+00    0.968616320918718604E-02    0.199820238185576904E+01   -0.137773285968257708E+01   -0.221267914293238388E+00   -0.101021842409228260E+02   -0.147598598639024053E+00   -0.978179274881452315E-01   -0.471578437711074105E+00   -0.100165175358382985E+00   -0.103836750974212721E+01   -0.646704918997628386E+01
    0.122693792048359479E+00   -0.247850927924686744E+02    0.601141881836886660E+00    0.962153539625774656E+00    0.229687811468431667E-01    0.211016294323225129E+01   -0.175647887377175094E+01   -0.142997971531642232E+00   -0.193937414534552754E+01   -0.505024610692368703E+00   -0.147044293473705900E+00   -0.489137316105460629E+00   -0.212485859281644041E+00   -0.114006018167463474E+01   -0.646499415806361633E+01
    0.751267353938269572E-01   -0.135559297610245970E+02    0.332206200103291105E+00    0.109289871358236401E+01    0.989165660689775121E-02    0.202434498395921780E+01   -0.218359683238597890E+01   -0.129806975734138297E+00   -0.594805718351112311E+01   -0.249511233910393510E+00   -0.169062820998780450E-03   -0.200419831716709906E+00   -0.121717060369531199E+00   -0.107186382914883938E+01   -0.643686349051339324E+01
    0.209692007843403694E+00   -0.182582187631993627E+02    0.119882860842192684E+01    0.126545636285398100E+01    0.118331361922034001E-01    0.197562945257000289E+01   -0.170811535951279958E+01   -0.120262851969592854E+00   -0.102175393851308662E+02   -0.160599259845541575E+00   -0.139278991671531155E+00    0.466519702600117492E-01   -0.190269651263794387E+00   -0.107663574381526650E+01   -0.636768341064453125E+01
    0.886999103349950385E-01   -0.218552392799019941E+02    0.644589733077508220E+00    0.105016309998050694E+01    0.222689183018876056E-02    0.204308627598303127E+01   -0.108255552371149277E+01   -0.161739923823219139E+00   -0.117468380813106332E+01   -0.204772286922885738E+00   -0.109693293997547542E+00   -0.223860245172955163E-01   -0.660689419437604092E-01   -0.103723635078103205E+01   -0.635295268467494445E+01
    0.550705477758317713E-01   -0.467293284422610000E+01    0.422395327539744847E+00    0.883380414463984187E+00    0.114463387311089047E-01    0.202105842019685600E+01   -0.101300629947865195E+01   -0.142741255860290822E+00   -0.296493411203505142E+01    0.260266079307227005E-01    0.693218411918634647E-01   -0.174213031671336532E+00   -0.144137575381592109E+00   -0.102698388475967528E+01   -0.633671515328543489E+01
    0.707815493451323247E-01   -0.109981033029447364E+02    0.910813834242983456E+00    0.897287882901872447E+00    0.126805565011589225E-01    0.206972764787892149E+01   -0.126109956682948487E+01   -0.142365279816911716E+00   -0.572809129565094999E+01   -0.754310806036080361E-01   -0.122346943110534817E+00   -0.317569854086336756E+00   -0.256458385725346738E+00   -0.114182032577629822E+01   -0.627556065150669617E+01
    0.102978862928936113E+00   -0.135713010908264806E+02    0.275983548006704049E+00    0.113176516964132956E+01    0.148614072947299593E-01    0.204870280121476567E+01   -0.165243824111614113E+01   -0.764542980436706959E-01   -0.898264406640364399E+01   -0.321345360762829269E+00   -0.136627867974483563E+00   -0.176449139107737435E+00   -0.250533282387430389E+00   -0.105177222379098612E+01   -0.625025503976004426E+01
    0.102978862928936113E+00   -0.135713010908264806E+02    0.275983548006704049E+00    0.113176516964132956E+01    0.148614072947299593E-01    0.204870280121476567E+01   -0.165243824111614113E+01   -0.764542980436706959E-01   -0.898264406640364399E+01   -0.321345360762829269E+00   -0.136627867974483563E+00   -0.176449139107737435E+00   -0.250533282387430389E+00   -0.105177222379098612E+01   -0.625025503976004426E+01
    0.942806846971837031E-01   -0.636861863839996722E+01    0.849200353685059417E+00    0.124302340494269181E+01    0.149791366734646769E-01    0.202658419022643166E+01   -0.141302095277635287E+01   -0.187082821330924631E+00   -0.290495726497334905E+01    0.143342025582588267E+00    0.367362052297967243E-01   -0.354715997593090249E-01   -0.116470396641931373E+00   -0.101700134079529625E+01   -0.624245234898158508E+01
    0.904497785016901423E-01   -0.129522997512106208E+02   -0.492961127042877978E-01    0.993186865077383518E+00    0.107330483327194824E-01    0.205562550992606319E+01   -0.120943748051156441E+01   -0.135186340440339059E+00   -0.765946743938398455E+00   -0.210526618855365194E+00   -0.339435649102082723E-01   -0.209115798450044355E+00   -0.279572319316260975E+00   -0.110951908456150772E+01   -0.621307754516601562E+01
    0.188565066387394592E+00   -0.848458383738189958E+01    0.849847775224056745E+00    0.123298209107283796E+01    0.175099350840685480E-01    0.199409586079723833E+01   -0.136861113832278836E+01   -0.213949953964201689E+00   -0.180264529809322838E+01   -0.169299685746378381E+00   -0.213666258074892812E+00    0.547483856080110964E-02   -0.199952161290627789E+00   -0.114989123126460191E+01   -0.610776356288364930E+01
    0.100425919136108238E+00   -0.263761788572501388E+02   -0.701358856033957534E+00    0.135007861742591806E+01    0.574549453746577010E-02    0.208638528070218943E+01   -0.139087386892177034E+01   -0.149119688497803049E+00   -0.170975031084810514E+01    0.158962226595046885E-01   -0.100075754604134037E+00   -0.939201101830575702E-01   -0.193625027445878478E+00   -0.106596282752283100E+01   -0.610400390625000000E+01
    0.709790660293306980E-01   -0.134635123876455971E+02    0.804953144513730123E+00    0.133655205110933317E+01    0.933741814756151173E-02    0.209539597043066017E+01   -0.219446516465200059E+01   -0.187308499185548094E+00   -0.420541020686015354E+01   -0.582730893961083796E+00   -0.344802805586729155E-01   -0.493269311564257684E+00   -0.284282478159724072E+00   -0.115869470455435475E+01   -0.609512438092912934E+01
    0.709790660293306980E-01   -0.134635123876455971E+02    0.804953144513730123E+00    0.133655205110933317E+01    0.933741814756151173E-02    0.209539597043066017E+01   -0.219446516465200059E+01   -0.187308499185548094E+00   -0.420541020686015354E+01   -0.582730893961083796E+00   -0.344802805586729155E-01   -0.493269311564257684E+00   -0.284282478159724072E+00   -0.115869470455435475E+01   -0.609512438092912934E+01
    0.129667742189249868E+00   -0.200541400264988887E+02    0.814966717744273206E+00    0.294345746682934895E+00    0.110942638928803721E-01    0.204059874445683453E+01   -0.115021515182784517E+01   -0.218935953198188787E+00   -0.305080927069252006E+01   -0.320478787403673082E+00   -0.146325366815179464E+00   -0.252362204773354415E+00   -0.167303237464028726E+00   -0.110120092545667014E+01   -0.605986458914620574E+01
    0.129667742189249868E+00   -0.200541400264988887E+02    0.814966717744273206E+00    0.294345746682934895E+00    0.110942638928803721E-01    0.204059874445683453E+01   -0.115021515182784517E+01   -0.218935953198188787E+00   -0.305080927069252006E+01   -0.320478787403673082E+00   -0.146325366815179464E+00   -0.252362204773354415E+00   -0.167303237464028726E+00   -0.110120092545667014E+01   -0.605986458914620574E+01
    0.849074469102748669E-01   -0.166210959420063737E+02    0.324961564058891428E+00    0.914265302033738791E+00    0.634965401381835590E-02    0.200661408729037216E+01   -0.132871578756525754E+01   -0.162901558050825068E+00   -0.653274465807589699E+01   -0.719374967461305498E-01    0.235271842071865273E+00   -0.677977239085127081E+00   -0.163558048125300087E+00   -0.102647757558700103E+01   -0.603841836111886199E+01
    0.849074469102748669E-01   -0.166210959420063737E+02    0.324961564058891428E+00    0.914265302033738791E+00    0.634965401381835590E-02    0.200661408729037216E+01   -0.132871578756525754E+01   -0.162901558050825068E+00   -0.653274465807589699E+01   -0.719374967461305498E-01    0.235271842071865273E+00   -0.677977239085127081E+00   -0.163558048125300087E+00   -0.102647757558700103E+01   -0.603841836111886199E+01
    0.955251319567828744E-01   -0.146460624263175490E+02    0.379744484387616821E+00    0.671967803839199851E+00    0.263821853764673476E-02    0.204726828761549751E+01   -0.965571494707337941E+00   -0.184222772631941034E+00   -0.370910474392354761E+01   -0.187703167721082198E-01    0.830986542766639358E-01   -0.393498433308989148E-01   -0.110976956053701836E+00   -0.101946983678684577E+01   -0.603496442522321441E+01
    0.467912956155802084E-01   -0.983884140770604532E+01    0.790193206964592942E+00    0.868595298104553382E+00    0.127435778461760414E-01    0.210413107999628934E+01   -0.148954841347655420E+01   -0.195703165554784786E+00   -0.679032301598644139E+00   -0.443548593731674656E+00    0.145494364540147997E+00    0.730933459603640701E-01   -0.388584966025377204E-01   -0.112655198878792273E+01   -0.602783475603376129E+01
    0.467912956155802084E-01   -0.983884140770604532E+01    0.790193206964592942E+00    0.868595298104553382E+00    0.127435778461760414E-01    0.210413107999628934E+01   -0.148954841347655420E+01   -0.195703165554784786E+00   -0.679032301598644139E+00   -0.443548593731674656E+00    0.145494364540147997E+00    0.730933459603640701E-01   -0.388584966025377204E-01   -0.112655198878792273E+01   -0.602783475603376129E+01
    0.347367271510444636E-01   -0.747974211328360994E+01    0.631153455150983089E+00    0.804123595362009058E+00    0.909540129142319062E-02    0.203603865736879097E+01   -0.967206533919113376E+00   -0.183453021706087849E+00    0.718022389606448375E+00   -0.131832773674031845E-01   -0.598508980370675292E-02   -0.699290573058411247E+00   -0.136125049928583319E+00   -0.104169663313795247E+01   -0.602724674769810242E+01
    0.107203613477993842E+00   -0.200367818747998356E+02    0.687508063882638187E+00    0.134579348435476009E+01    0.737404493846618037E-02    0.208190648546104384E+01   -0.191588946212817324E+01   -0.293934989639019761E+00   -0.344497698973270960E+01   -0.442444969950767930E-01   -0.131183828853941531E+00   -0.202501444005830977E+00   -0.349669667863928557E-01   -0.102867294441531132E+01   -0.602264186314174133E+01
    0.115344147135214750E+00   -0.251161812123514139E+02    0.582391641405330951E+00    0.954734294687910601E+00    0.991767785219724307E-02    0.206017021432014591E+01   -0.139853212321939901E+01   -0.538672484360561005E-01   -0.520806034007925245E+00   -0.445874030893165935E-01   -0.267487248652962417E+00   -0.645422593795525468E-01   -0.276268844097408262E+00   -0.113095609715438594E+01   -0.597551727294921875E+01
    0.115344147135214750E+00   -0.251161812123514139E+02    0.582391641405330951E+00    0.954734294687910601E+00    0.991767785219724307E-02    0.206017021432014591E+01   -0.139853212321939901E+01   -0.538672484360561005E-01   -0.520806034007925245E+00   -0.445874030893165935E-01   -0.267487248652962417E+00   -0.645422593795525468E-01   -0.276268844097408262E+00   -0.113095609715438594E+01   -0.597551727294921875E+01
    0.927943585022133755E-01   -0.852401847373073984E+01    0.811717463710539988E+00    0.121931472296150312E+01    0.122977091421641559E-01    0.201648917097455715E+01   -0.206698714073513479E+01   -0.245019049576598424E+00   -0.573103015875991328E+00   -0.358718183421028514E+00   -0.107130847449353958E-01    0.748305717653829916E-03    0.898190892183384493E-01   -0.117880530248291771E+01   -0.597513852800641754E+01
    0.100007312732576792E+00   -0.156243752162429370E+02    0.774059750351934195E-01    0.856483630967050935E+00    0.871217804837040241E-02    0.200797373687016423E+01   -0.182879435600652518E+01   -0.127630801837903263E+00   -0.926304066355675815E+01   -0.330353272312023938E+00    0.869646098209421181E-01   -0.274019548815718106E+00   -0.189499001382171961E+00   -0.109852266132316556E+01   -0.593400628226144011E+01
    0.721030667744431142E-01   -0.782209074156767237E+01    0.756056227828391325E+00    0.966550454463878106E+00    0.792164031707378972E-02    0.201142614224844252E+01   -0.184481580536748924E+01   -0.164838857007777839E+00   -0.308379613283605325E+01   -0.470975620397341421E+00   -0.168172621601329508E+00   -0.455025937249000367E+00   -0.211069131106131846E+00   -0.102054790438855103E+01   -0.589056614467075867E+01
    0.721927429381544888E-01   -0.147078896067529037E+02    0.579092957551713861E+00    0.116671704700092693E+01    0.186717798181751729E-02    0.201645450265672155E+01   -0.229774470937032627E+01   -0.233416263914024591E+00   -0.449947578634339784E+01   -0.483853783384650571E+00   -0.676923154294681029E-01   -0.447827362529283624E-01    0.242954176123145460E-01   -0.111464650639660401E+01   -0.586055210658482117E+01
    0.117357687420394222E+00   -0.142219910944748520E+02    0.788726407960829601E+00    0.390081941616075678E+00    0.929434100626309531E-02    0.204375878592245819E+01   -0.112835180096269339E+01   -0.230891901579209718E+00   -0.203904603843923748E+01   -0.280771337380307573E+00   -0.188703369797309534E+00   -0.221012216015314095E+00   -0.894783288170639957E-01   -0.110550181630811761E+01   -0.584580339704241059E+01
    0.699583282524728345E-01   -0.146683405711965023E+02    0.814990510496513387E+00    0.104084646949320669E+01    0.932793482980484936E-02    0.201981693723908995E+01   -0.189058030087184381E+01   -0.240268704099808300E+00   -0.183480212121988551E+01   -0.121703691231920805E+00    0.694296891018937601E-01   -0.196056549546861802E+00   -0.295935995886421749E-01   -0.109869222790932675E+01   -0.581387710571289062E+01
    0.104327833783589327E+00   -0.124713559885073622E+02    0.672194813523100843E+00    0.934175774979328688E+00    0.966263938431529551E-02    0.200020286669069236E+01   -0.159374696583254183E+01   -0.145878419025330497E+00   -0.484183105345738518E+01   -0.700392927758186901E-01   -0.316292278741867550E+00   -0.224929005906661761E+00   -0.188105716573494675E+00   -0.104538579355952121E+01   -0.575758634294782379E+01
    0.104327833783589327E+00   -0.124713559885073622E+02    0.672194813523100843E+00    0.934175774979328688E+00    0.966263938431529551E-02    0.200020286669069236E+01   -0.159374696583254183E+01   -0.145878419025330497E+00   -0.484183105345738518E+01   -0.700392927758186901E-01   -0.316292278741867550E+00   -0.224929005906661761E+00   -0.188105716573494675E+00   -0.104538579355952121E+01   -0.575758634294782379E+01
    0.128259092978024347E+00   -0.132817985147998243E+02    0.106111150439483448E+01    0.122496944477567205E+01    0.116332994154878591E-01    0.201612312282875328E+01   -0.179645019238370907E+01   -0.200076854312095709E+00   -0.315553165314630268E+01   -0.487188458275596703E-01   -0.124966832522255961E+00   -0.243870757920982645E+00   -0.228339649083688839E+00   -0.105062007230601795E+01   -0.575300816127232117E+01
    0.102732356500988525E+00   -0.242150179376221857E+02    0.965196885054900422E+00    0.141293652166677131E+01    0.888623448272802055E-02    0.206943556059684219E+01   -0.169405101205266817E+01   -0.185587046374297904E+00   -0.546045458519949101E+01   -0.647061961575504108E-02   -0.712412235093225210E-01   -0.182075564416217278E+00   -0.748194053217585420E-01   -0.100813025105294241E+01   -0.571183940342494445E+01
    0.102732356500988525E+00   -0.242150179376221857E+02    0.965196885054900422E+00    0.141293652166677131E+01    0.888623448272802055E-02    0.206943556059684219E+01   -0.169405101205266817E+01   -0.185587046374297904E+00   -0.546045458519949101E+01   -0.647061961575504108E-02   -0.712412235093225210E-01   -0.182075564416217278E+00   -0.748194053217585420E-01   -0.100813025105294241E+01   -0.571183940342494445E+01
    0.111963284887894435E+00   -0.195712024026535545E+02    0.746781131182883362E+00    0.107747861204217665E+01    0.116375570679158775E-01    0.204768982523625320E+01   -0.152768516875304994E+01   -0.130317293151718722E+00   -0.430426012630755483E+01   -0.338353257473795188E+00   -0.121268612831046951E+00   -0.455096574695923795E+00   -0.163334463123387397E+00   -0.106831814200309916E+01   -0.570853369576590364E+01
    0.111963284887894435E+00   -0.195712024026535545E+02    0.746781131182883362E+00    0.107747861204217665E+01    0.116375570679158775E-01    0.204768982523625320E+01   -0.152768516875304994E+01   -0.130317293151718722E+00   -0.430426012630755483E+01   -0.338353257473795188E+00   -0.121268612831046951E+00   -0.455096574695923795E+00   -0.163334463123387397E+00   -0.106831814200309916E+01   -0.570853369576590364E+01
    0.466804977295097526E-01   -0.148415977132372561E+02    0.403271320203939687E+00    0.917097069649679630E+00    0.122661719329069593E-01    0.212215083250609915E+01   -0.181817989453232998E+01   -0.210295472286930379E+00   -0.527753727456946731E+01   -0.340843689266862704E+00   -0.947203194160858436E-01   -0.761201137995170529E-01   -0.466612456301369882E-01   -0.110348037228054752E+01   -0.570303562709263367E+01
    0.933154027678182035E-01   -0.158342344073943284E+02    0.438239804300499136E+00    0.701185695538582565E+00    0.108294685265851835E-01    0.207765675898007984E+01   -0.843401428208891524E+00   -0.232188153861515062E+00   -0.449688561211509974E+01    0.138431184458729789E+00    0.152110330817998102E+00   -0.206087001996491603E+00   -0.152167875226721483E+00   -0.104567497656194819E+01   -0.569260569981166320E+01
    0.559417817907749554E-01   -0.210435699679421155E+02   -0.135507018614090091E+00    0.126976060758023879E+01    0.594490775611698774E-02    0.204263685960428099E+01   -0.218201692755069221E+01   -0.195062475671968050E+00   -0.606212116704186776E+01   -0.185681437730258747E+00    0.200981645471849033E-01   -0.102031960436050714E+00   -0.293772721744824938E-01   -0.109466102672153909E+01   -0.568424170357840364E+01
    0.559417817907749554E-01   -0.210435699679421155E+02   -0.135507018614090091E+00    0.126976060758023879E+01    0.594490775611698774E-02    0.204263685960428099E+01   -0.218201692755069221E+01   -0.195062475671968050E+00   -0.606212116704186776E+01   -0.185681437730258747E+00    0.200981645471849033E-01   -0.102031960436050714E+00   -0.293772721744824938E-01   -0.109466102672153909E+01   -0.568424170357840364E+01
    0.115530483447151472E+00   -0.164294802796167865E+02    0.542237648590962462E+00    0.121279436035719934E+01    0.129069144533662822E-01    0.207832822316867905E+01   -0.183484161398341783E+01   -0.109103178823324792E+00   -0.560108661738501556E+01   -0.306177382478323712E+00   -0.336554030506372115E+00   -0.317109438198241167E-01   -0.267077621895049189E+00   -0.107253457955818110E+01   -0.566380528041294617E+01
    0.689624821276593747E-01   -0.803264685235925846E+01    0.455778933213297432E+00    0.837257086515697635E+00    0.143840305371647041E-01    0.202618297830530603E+01   -0.118388411639986502E+01   -0.177634484997586106E+00   -0.174509517858934537E+01   -0.342731097715418209E+00    0.462026565604754455E-01    0.198615420767284112E-01   -0.409101921343983099E-01   -0.102522553046250797E+01   -0.558477728707449739E+01
    0.136692404420244051E+00   -0.119999080726554084E+02    0.892019841199662378E+00    0.111925124089965022E+01    0.120202479627071930E-01    0.200850254853833832E+01   -0.168111221354538820E+01   -0.136689779479892165E+00   -0.840387153089787198E+01   -0.323951718235833130E+00   -0.653372305411886178E-01    0.118309746090215578E+00   -0.107945448420777079E+00   -0.106701053592864037E+01   -0.557235935756138367E+01
    0.896504493668065366E-01   -0.236254564474902367E+02    0.517267869068470887E+00    0.102510467526414573E+01    0.451248584123409464E-02    0.209416493694032990E+01   -0.145078120911765440E+01   -0.207079741551223578E+00   -0.149743739722519820E+01   -0.348529383043170493E+00   -0.130559516740006598E+00   -0.342135920205158928E+00   -0.137215958524379789E+00   -0.106214129450231498E+01   -0.556227711268833680E+01
    0.896504493668065366E-01   -0.236254564474902367E+02    0.517267869068470887E+00    0.102510467526414573E+01    0.451248584123409464E-02    0.209416493694032990E+01   -0.145078120911765440E+01   -0.207079741551223578E+00   -0.149743739722519820E+01   -0.348529383043170493E+00   -0.130559516740006598E+00   -0.342135920205158928E+00   -0.137215958524379789E+00   -0.106214129450231498E+01   -0.556227711268833680E+01
    0.812706582641400388E-01   -0.210859894056616994E+02    0.359215260201365905E+00    0.931485037422454365E+00    0.594806423200016331E-02    0.210054448166811802E+01   -0.172245527769643503E+01   -0.203474750140559657E+00    0.196652288673448750E+01   -0.264262137899845817E+00   -0.167894626806461139E+00   -0.224952774400283578E+00   -0.170389342839002450E+00   -0.112860310582325618E+01   -0.552780914306640625E+01
    0.150288959829389834E+00   -0.253761365363669427E+02    0.103581817495877293E+01    0.119227006766850852E+01    0.823372797320360769E-02    0.203766280433646418E+01   -0.173485255932764248E+01   -0.154829527371209974E+00   -0.318411422779449804E+01   -0.234662207434558401E+00    0.432222576983402815E-01   -0.477603112693594789E-01   -0.158157808054156940E+00   -0.101384743308316483E+01   -0.551195199148995574E+01
    0.109793778022502009E+00   -0.131353830764960122E+02    0.955550004671067432E+00    0.746304069496023237E+00    0.423489603679996773E-02    0.198829876215953472E+01   -0.177450840845423174E+01   -0.180666959647636516E+00   -0.214220653753174073E+01   -0.245911260721685065E+00   -0.440751624893195790E-01   -0.613782796882405113E+00   -0.165757427332233448E+00   -0.100673828809958121E+01   -0.550260489327566926E+01
    0.112818498354511465E+00   -0.238184540017945601E+02   -0.306374044544581836E+00    0.801998933521447244E+00    0.845422697765671471E-02    0.208169687969900208E+01   -0.169054914190895800E+01   -0.174730014460616090E+00   -0.719732730417654842E+01   -0.355408364557766365E+00    0.160750204136954095E+00   -0.346164649344685382E+00   -0.183524179750900962E+00   -0.105720208846061925E+01   -0.549745069231305816E+01
    0.915224022467053117E-01   -0.137792834755478353E+02   -0.473596467456471881E-02    0.902473675271594833E+00    0.755638790804606837E-02    0.200503684125330350E+01   -0.169997337765255896E+01   -0.177247980890490708E+00   -0.747888120958421965E+01   -0.303926809751032589E+00    0.829026523520005609E-01   -0.152918053319171632E+00   -0.472519552951497085E-01   -0.111964535355623318E+01   -0.549504634312221008E+01
    0.971226931273334732E-01   -0.203634819156049041E+02    0.751194276277300621E+00    0.102624371676658876E+01    0.730107518371286152E-02    0.202958000174897268E+01   -0.163480110814034751E+01   -0.133102630482153816E+00   -0.502489855423800069E+01   -0.191553272102947036E+00    0.165999764361378838E+00   -0.319286055923507006E+00   -0.199953442326740394E+00   -0.101943201050230470E+01   -0.549175698416573699E+01
    0.116959931111904614E+00   -0.201297312725271880E+02    0.611793507199303699E+00    0.764046443322327851E+00    0.808572389763742051E-02    0.202873283239923197E+01   -0.138365882179228850E+01   -0.164809852328545337E+00   -0.660859557313301593E+01   -0.163507305342761977E+00   -0.313966322327854236E-02   -0.165501919371690953E+00   -0.576191034522429979E-01   -0.106106143277116716E+01   -0.545795658656528992E+01
    0.116959931111904614E+00   -0.201297312725271880E+02    0.611793507199303699E+00    0.764046443322327851E+00    0.808572389763742051E-02    0.202873283239923197E+01   -0.138365882179228850E+01   -0.164809852328545337E+00   -0.660859557313301593E+01   -0.163507305342761977E+00   -0.313966322327854236E-02   -0.165501919371690953E+00   -0.576191034522429979E-01   -0.106106143277116716E+01   -0.545795658656528992E+01
    0.815612489177304500E-01   -0.138589531064560916E+02    0.396148552593948822E+00    0.529594245663904117E+00    0.113847642531809071E-01    0.205660315693286710E+01   -0.160636282603718183E+01   -0.215767494210972605E+00   -0.197408785300067757E+01   -0.208796825394112817E+00    0.112485189997938467E+00   -0.510559098242046705E+00   -0.240963566987931616E-01   -0.105085892870688458E+01   -0.543298775809151824E+01
    0.815612489177304500E-01   -0.138589531064560916E+02    0.396148552593948822E+00    0.529594245663904117E+00    0.113847642531809071E-01    0.205660315693286710E+01   -0.160636282603718183E+01   -0.215767494210972605E+00   -0.197408785300067757E+01   -0.208796825394112817E+00    0.112485189997938467E+00   -0.510559098242046705E+00   -0.240963566987931616E-01   -0.105085892870688458E+01   -0.543298775809151824E+01
    0.111036817265818030E+00   -0.263199182082375884E+02    0.373061288179985073E+00    0.125596632061863711E+01    0.442992846071531450E-02    0.204752702575053913E+01   -0.168320246675993879E+01   -0.236441004652086340E+00   -0.340594093616688465E+00   -0.118969499806744844E+00   -0.279201777888317237E+00   -0.461526247546449886E+00   -0.136833369249878767E+00   -0.117846891535135145E+01   -0.541822052001953125E+01
    0.822349148416841591E-01   -0.194026643767213471E+02    0.968143666968548033E+00    0.135174016444489009E+00    0.100373108217565662E-01    0.207369898137191111E+01   -0.155326263397974018E+01   -0.220755675531446149E+00    0.562948087858725899E+01    0.298858839511523811E-01   -0.190210593896520730E+00   -0.144135010472288161E+00   -0.319303175787887944E-01   -0.116150365957393631E+01   -0.541576385498046875E+01
    0.116872166360626806E+00   -0.193310379174058724E+02    0.412579551057079497E+00    0.153659081625164440E+01    0.972560583240019393E-02    0.210741538778563342E+01   -0.106072560002526006E+01   -0.281977746575563737E+00   -0.572894352712945221E+01   -0.428369647167537559E+00    0.494675909062700092E-03   -0.210009238501532608E+00   -0.178622704440539709E+00   -0.123738819037201564E+01   -0.539219502040318055E+01
    0.421174726084254103E-01   -0.101683520436342469E+02    0.508401581560082860E+00    0.948614025696701724E+00    0.976597058509754909E-02    0.210299683758788536E+01   -0.154867484463775651E+01   -0.168125493518028524E+00   -0.117972136589084347E+02   -0.323308499359621915E+00   -0.108811007742427648E-01   -0.376186530652599882E+00   -0.189830776879113761E+00   -0.116735807292500016E+01   -0.538064956665039062E+01
    0.755104381424048232E-01   -0.148880745332977718E+02    0.939147874576031105E+00    0.320622335405555514E+00    0.161129964211056582E-01    0.206550637568552897E+01   -0.198739544493630271E+01   -0.196768650828989755E+00    0.451439372392403726E-01   -0.261454473963342815E+00    0.979702704221748211E-01   -0.316098836813808515E+00   -0.593000729273376326E-01   -0.105976461088777674E+01   -0.536063330514090364E+01
    0.817298737014097720E-01   -0.267636629055497153E+02    0.503313162396208158E+00    0.110093488378076443E+01    0.564758899843382546E-02    0.205738977333602291E+01   -0.201384096421756809E+01   -0.106924978450566269E+00   -0.127347862062618162E+02   -0.175862254729997614E-01   -0.352335915211896208E-01   -0.598024102329681950E+00   -0.165040794751003361E+00   -0.109718308471330883E+01   -0.535188838413783508E+01
    0.118823130653960690E+00   -0.147000556112634211E+02    0.671527923976378505E+00    0.946650743777419534E+00    0.777733780191616243E-02    0.201912835114895461E+01   -0.163205071499921761E+01   -0.259007987874659451E+00   -0.163758727987205610E+01   -0.778805584654402028E-01    0.941332368163372984E-02   -0.293334120959492517E+00   -0.107562220495567906E+00   -0.105026694935402221E+01   -0.530618667602539062E+01
    0.196367596509616854E+00   -0.218894167675618725E+02    0.142749274278929761E+01    0.682026102538655032E+00    0.806395477260695923E-02    0.201013727697919364E+01   -0.158926532413410992E+01   -0.160169865570293224E+00   -0.488643673892649222E+01   -0.116347473194789996E-01   -0.158701909777614392E+00   -0.137194544390189799E+00   -0.160996522596152769E+00   -0.111086278715975295E+01   -0.528397478376116059E+01
    0.806882878900454792E-01   -0.267140036645313117E+02    0.538193636240561823E+00    0.946739594384225391E+00    0.390953731642054714E-02    0.204768341538834253E+01   -0.164609372172826873E+01   -0.211876710141156249E+00   -0.484379943137135882E+01   -0.926237909002198267E-01    0.137777953828924909E-01   -0.420431891118796586E+00   -0.375268942044489212E-01   -0.101546093095084333E+01   -0.526012638636997742E+01
    0.102690515233349072E+00   -0.193783242860797067E+02    0.745601260632643537E+00    0.967429585518211788E+00    0.585049722120881133E-02    0.206067603800500532E+01   -0.169675006534936279E+01   -0.228822476716835949E+00    0.278533907499547118E+01   -0.265203698942641730E+00   -0.341571196424981516E-01   -0.719914307474022075E+00   -0.165076258167073997E+00   -0.112318159965271680E+01   -0.525865118844168489E+01
    0.122277274600694152E+00   -0.294297530765412247E+02    0.432316803015252549E+00    0.908124023416566728E+00    0.760965825224861614E-02    0.208862736445504193E+01   -0.108820429779620342E+01   -0.292339482205899226E+00   -0.916675946723888746E+00   -0.309900779839010765E+00   -0.956762171973001008E-01   -0.555727689998637753E+00   -0.501605875967713055E-01   -0.109823757036222713E+01   -0.523664964948381684E+01
    0.878796214541776449E-01   -0.234545643573917459E+02    0.527164016303787841E+00    0.754765331276634033E+00    0.784396507160484147E-02    0.207670305749976336E+01   -0.169280622006418158E+01   -0.120964510028627514E+00    0.412450310317063362E+00   -0.337690259973240925E+00   -0.388405246973901996E+00   -0.427054469776686874E+00   -0.229615731710677978E+00   -0.108083303153681132E+01   -0.523241479056222136E+01
    0.108764762167777765E+00   -0.138019425832517655E+02    0.722421990619706689E+00    0.108465555378793144E+01    0.110405502149011053E-01    0.206602679059000449E+01   -0.125883878999692533E+01   -0.236803444132406060E+00   -0.279666583092891541E+01   -0.159465237353331540E+00   -0.659120234406397471E-01   -0.253440727360989548E+00   -0.134185011921742509E+00   -0.100783320923363640E+01   -0.522713470458984375E+01
    0.102259743457949803E+00   -0.838347039894915369E+01    0.702003883472750556E+00    0.113571953228604117E+01    0.131522580112761536E-01    0.205347800177561712E+01   -0.109976915764450189E+01   -0.191610962968954801E+00   -0.398967112222252673E+01    0.106870537348495581E+00    0.157761749763670633E+00   -0.151866967325614333E+00   -0.175306373124833548E+00   -0.101069859601327394E+01   -0.522408349173409636E+01
    0.115837940639436796E+00   -0.147662042871781534E+02    0.769508447126488360E+00    0.770073793032440501E+00    0.121271276866903224E-01    0.202839300702408920E+01   -0.195304342025366373E+01   -0.149746081685454030E+00   -0.227211085298636117E+01   -0.243235157296759374E+00   -0.559460900376509279E-01   -0.124191212567395140E+00   -0.186081636395086708E+00   -0.106938199131003153E+01   -0.521440669468471008E+01
    0.873570838633344199E-01   -0.263280524226242889E+02    0.228801219064159067E+00    0.109970752274299532E+01    0.190485903317569837E-02    0.202624441085911666E+01   -0.119511560527477867E+01   -0.144326045066003383E+00   -0.572859913811936750E+01    0.162586786000876587E+00    0.952562665373413164E-01   -0.406836110064318190E+00   -0.164577288459806459E+00   -0.108700109143287538E+01   -0.520469665527343750E+01
    0.837661062819012037E-01   -0.105017888952908010E+02    0.867920689977883408E+00    0.109304033245408960E+01    0.104909621943564749E-01    0.203380194452749841E+01   -0.104373237309246791E+01   -0.197288932060104422E+00   -0.869033566769832433E+01   -0.256871806418563442E+00    0.242138960288419622E-01   -0.366433081337782518E+00   -0.599697363449906151E-01   -0.104290857122198832E+01   -0.518459919520786805E+01
    0.694444816334021386E-01   -0.244356238156378929E+02    0.503850311038292142E+00    0.108622036719839477E+01    0.773346063102246274E-02    0.209093609146772463E+01   -0.218637170575163253E+01   -0.182621487863777132E+00   -0.481721228516114497E+01   -0.290009092219918552E+00   -0.123517564375385747E+00   -0.340485597261836581E+00   -0.823911558480796696E-01   -0.100764326358287604E+01   -0.517965098789760070E+01
    0.115542370311642661E+00   -0.162926124675886328E+02    0.605456021039928349E+00    0.127306556428116657E+01    0.123216063794264110E-01    0.204866320325236018E+01   -0.171576948784173045E+01   -0.118008104660308005E+00   -0.117478782428283335E+02   -0.446944525069245535E-02    0.205049732799850032E+00   -0.111106866400002419E+00   -0.181647033958282633E+00   -0.103578281701542085E+01   -0.517928041730608246E+01
    0.122478914757715884E+00   -0.150816818236107117E+02    0.558480485407680138E+00    0.706846717705614802E+00    0.142651236992735464E-01    0.203137788511441686E+01   -0.165818768446402132E+01   -0.148913322240614932E+00   -0.927098026276931186E+01   -0.124460894947347162E+00   -0.182333677950023032E+00   -0.459926358042752337E-01   -0.163839354433194334E+00   -0.104554171551376052E+01   -0.515717043195451996E+01
    0.720681614569220891E-01   -0.802538813925963446E+01    0.100658295529198738E+01    0.496966868625464575E+00    0.694231907092720570E-02    0.203849877461123441E+01   -0.163466693640157024E+01   -0.185078180128895209E+00   -0.643322432077683892E+01   -0.192273432559219554E+00   -0.383785896486287734E-01   -0.236020937038666334E+00   -0.135635707046675158E+00   -0.104574252924978439E+01   -0.514302607945033508E+01
    0.880232417470235701E-01   -0.991561660396045852E+01    0.406642076374647887E+00    0.109987935555859639E+01    0.124634718224140312E-01    0.204406899208235249E+01   -0.153678296229921862E+01   -0.258505909575411530E+00   -0.337037954342275725E+01   -0.336000699751086152E+00    0.110502495200102330E+00   -0.911299509424645521E-01    0.814543361868376725E-01   -0.109573204480935327E+01   -0.513595744541713195E+01
    0.123270062725996624E+00   -0.181703667234468824E+02    0.772562188395869764E+00    0.883552637869625235E+00    0.755566682335210259E-02    0.202266262077283443E+01   -0.124956857271948918E+01   -0.192103851654868873E+00   -0.328009377569242488E+01   -0.194124386954757089E+00    0.101152210789224151E+00   -0.260351009542062473E+00   -0.161484657575915264E+00   -0.100083480308574924E+01   -0.513557325090680816E+01
    0.961634294551999280E-01   -0.134899220703910405E+02    0.600275306015789156E+00    0.952618081169803510E+00    0.101779263029997142E-01    0.201181733520863393E+01   -0.180535250928201574E+01   -0.177818064324702318E+00   -0.427310287484089635E+01   -0.807455644903547487E-01   -0.144286574971036113E+00   -0.200846756491107059E-01   -0.607606584058605625E-01   -0.105993300816445335E+01   -0.513537815638950867E+01
    0.810824258080467264E-01   -0.163582073166997297E+02    0.239698596565580624E+00    0.100129112713358648E+01    0.729707094593620882E-02    0.203213886111057551E+01   -0.108250664341275016E+01   -0.133261488516657117E+00   -0.929567518479425914E+01    0.155825976477015321E+00   -0.320579040446062336E-01   -0.415826021218072550E+00   -0.182163404187041716E+00   -0.106348428361926639E+01   -0.513076618739536805E+01
    0.117184989152924135E+00   -0.240423505788413294E+02    0.900364667860922507E+00    0.140926540442946036E+01    0.675680658017997239E-02    0.202258653625088103E+01   -0.242643208004407196E+01   -0.201970289198330766E+00   -0.585428461868211869E+01   -0.664778140559608016E-01   -0.156819957030214785E+00   -0.276138438345237824E+00   -0.166986164600165243E+00   -0.105484503169391552E+01   -0.510967418125697570E+01
    0.725069461946001026E-01   -0.143152180300586025E+02   -0.693444336586802601E-01    0.667844583032175976E+00    0.119624505690721136E-01    0.206815909012610355E+01   -0.122593926058453073E+01   -0.274652059065900289E+00   -0.354400404695110272E+01    0.144531568250891279E+00    0.296018135800982726E-01   -0.286879334127027708E+00   -0.815343099650121944E-01   -0.104119728063513461E+01   -0.510742623465401824E+01
    0.992839546025104935E-01   -0.253767820909823563E+02    0.572097221170127179E+00    0.109201773724884577E+01    0.256975884646850478E-02    0.206684030214678716E+01   -0.144748878172091833E+01   -0.236869711483122330E+00   -0.842369067895445589E+01   -0.591490275534542753E-01    0.106631664129529374E+00   -0.161835189482642111E+00   -0.836095680924858753E-01   -0.103541578762756248E+01   -0.510448564801897309E+01
    0.780063972413796158E-01   -0.236022270017436853E+02   -0.289074254824909671E+00    0.849369295197489937E+00    0.388962745814543705E-02    0.208330651645975085E+01   -0.127204149982636427E+01   -0.234868466814165594E+00    0.202044425427340313E+01   -0.232741234790186713E+00   -0.273277831713191643E+00   -0.304945799270002482E+00   -0.554680349970576581E-02   -0.107506532887173334E+01   -0.509594181605747742E+01
    0.112473547237204943E+00   -0.234601228847577090E+02    0.674304833094831690E+00    0.743933112070553237E+00    0.127617965738166875E-01    0.208898466775416924E+01   -0.150909695406602196E+01   -0.208452023477528087E+00   -0.722421896556572296E+00   -0.313964496598997611E+00    0.389505693695926317E-01   -0.556597375177700582E+00   -0.161764970015193882E+00   -0.115223549130068137E+01   -0.504485974993024566E+01
    0.118960523853382780E+00   -0.224165734368163037E+02    0.993078939790388304E+00    0.100297459911679288E+01    0.357198211027908059E-02    0.201559422110632891E+01   -0.127350282476481769E+01   -0.165751010840923335E+00   -0.250312146218549048E+01   -0.253284978626747481E+00    0.120043362632052314E+00   -0.205718480811014737E+00   -0.159696631383977744E+00   -0.104617116233958618E+01   -0.502513885498046875E+01
    0.576562514935020087E-01   -0.158315349891658883E+02    0.517298662872186510E+00    0.502506683863797265E+00    0.136636447393968449E-01    0.207682036505246614E+01   -0.131941366390302850E+01   -0.158267914477868560E+00   -0.196541111090279852E+01   -0.285768102046940364E+00   -0.292768500206631865E+00   -0.370021451420707970E+00   -0.121848573220001699E+00   -0.106483247432413020E+01   -0.500592967442103820E+01
    0.729255125507856650E-01   -0.177123060368475080E+02    0.375473387709145012E+00    0.953609423138956025E+00    0.834021610327685334E-02    0.204538344469627464E+01   -0.169610271594246687E+01   -0.147663367478976959E+00   -0.627196493692530055E+01   -0.239132554758406279E+00   -0.500502273840857798E-01   -0.156871404989584018E+00   -0.115381927765853876E+00   -0.109263965673572683E+01   -0.497983442034040191E+01
    0.774941121791223875E-01   -0.194914177084768916E+02    0.610591476238828812E+00    0.735262382503784506E+00    0.158168562084479505E-01    0.207833284859305722E+01   -0.154659031743349695E+01   -0.206590870884005046E+00   -0.332353321297955961E+01   -0.187934634909196985E+00    0.400801658548333370E-01   -0.180741604753322571E+00   -0.780821142631781401E-01   -0.109128381439870070E+01   -0.497495051792689758E+01
    0.102484523889788806E+00   -0.272730204571375623E+02    0.767149695956031441E+00    0.115258176266463397E+01    0.335958631539578102E-02    0.204419884033429655E+01   -0.153488493213554222E+01   -0.116219402194461363E+00   -0.474423943299618944E+01   -0.327959790549327779E+00   -0.432865928902910410E-01   -0.304697809808966213E+00   -0.176003549271365578E+00   -0.104846763546655786E+01   -0.497389875139508941E+01
    0.604205657675007807E-01   -0.150142445176788684E+02    0.730989116691949548E+00    0.116564641623422327E+01    0.100809577331469336E-01    0.209422521219030466E+01   -0.112812494029022714E+01   -0.203443018008515192E+00   -0.268051474593680794E+01   -0.200630937142904836E+00   -0.702344424364861747E-01   -0.130743281663078803E+00   -0.139057087681738883E+00   -0.112396175479332339E+01   -0.496905790056501129E+01
    0.907823792798945761E-01   -0.172479963878605247E+02    0.785083900411396307E+00    0.101916181361482128E+01    0.147828623992617980E-01    0.208836976059420554E+01   -0.130131362844420084E+01   -0.280022447602744640E+00   -0.462336088138427037E+01   -0.123730689496934776E+00   -0.217350923803250884E+00   -0.113078604338262709E+00   -0.106419537058233538E-01   -0.103764625959231060E+01   -0.496839577811104949E+01
    0.843161014451053320E-01   -0.127550560721457575E+02    0.705045418652510136E+00    0.676368879631259023E+00    0.403518197361065617E-02    0.200413421313152629E+01   -0.189107867273369012E+01   -0.239708681766857501E+00   -0.103962714049583820E+02   -0.113766710867292925E+00   -0.104106601055597381E+00   -0.201056302031095896E+00   -0.363802004791089206E-01   -0.108269850226506703E+01   -0.496410151890346008E+01
    0.109088648704177657E+00   -0.256582942776462488E+02    0.688964863271646966E+00    0.122771737827451188E+01    0.100614276825332638E-01    0.208233300549679612E+01   -0.280073209880779483E+01   -0.189796622559985917E+00   -0.650926477845365881E+01   -0.296043975269535631E+00   -0.131464468473831197E+00   -0.224729477055921695E+00   -0.159660076280250918E+00   -0.111125616636958058E+01   -0.495854513985770051E+01
    0.689406052706853512E-01   -0.223459822465383198E+02    0.559115117495677771E+00    0.999057384265999771E+00    0.668300862289626998E-03    0.202791058216094378E+01   -0.144805303675155561E+01   -0.153918860427579296E+00   -0.703352895956387059E+01   -0.241700866201906672E+00    0.402730143089987599E-01   -0.322922961338500125E+00   -0.108330546799438474E+00   -0.111450118699794087E+01   -0.494584219796316926E+01
    0.959384684457454534E-01   -0.172158791432766058E+02    0.425461570361124197E+00    0.447100080801754118E+00    0.444916879867017848E-02    0.205494270033056381E+01   -0.139496963324607504E+01   -0.322400776706879555E+00   -0.469900747512474393E+01   -0.227164496355747397E+00    0.114227646052339982E+00   -0.186406441701501085E+00    0.392101936968184683E-01   -0.101827258611750415E+01   -0.493490764072963195E+01
    0.103915113031905898E+00   -0.231150560992375702E+02    0.410636607218809457E+00    0.988234267999885452E+00    0.954215369863829418E-02    0.205037923363054375E+01   -0.983917582020392700E+00   -0.203384046906750993E+00    0.230924119365849068E+01   -0.165166744040290137E+00    0.210045945828411657E+00   -0.260728599675612294E+00   -0.179864344231210643E+00   -0.106224544828332923E+01   -0.492229461669921875E+01
    0.605230182848245715E-01   -0.996271676163932796E+01    0.640152077568472477E+00    0.906176624377825757E+00    0.111910664978472213E-01    0.207936654471186610E+01   -0.130596510555698520E+01   -0.195834526398863562E+00   -0.288454313665915718E+01   -0.540571866559933722E+00   -0.526163652799877743E-01   -0.586231968269823600E-02   -0.765739839422029805E-01   -0.108576827204192683E+01   -0.489475631713867188E+01
    0.714036839756712616E-01   -0.752963042893588153E+01    0.480371916961306655E+00    0.996406704348203220E+00    0.515393926500885835E-02    0.200592659370299042E+01   -0.157510774213575067E+01   -0.177267616007712514E+00   -0.606276466789771540E+01   -0.127853663267924633E+00    0.903318176054306865E-01    0.426079042760009519E+00   -0.101437627874610137E-01   -0.106173145588739071E+01   -0.489303588867187500E+01
    0.574300015524762258E-01   -0.746730871643044658E+01   -0.546759127802202149E-01    0.506270100355573960E+00    0.194838133781524495E-01    0.209110104104881689E+01   -0.139776823053443744E+01   -0.218381786190688820E+00   -0.312454557046414072E+01    0.546556937080100724E-01   -0.328268866523040992E-01   -0.299513395405611504E+00   -0.124981753758975328E+00   -0.103531721123425324E+01   -0.487950243268694184E+01
    0.874518273051350797E-01   -0.175353156393764351E+02    0.999861959846764625E+00    0.881800217916632878E+00    0.394895834556440763E-02    0.205929177514836725E+01   -0.178489667957415277E+01   -0.229063093544021434E+00   -0.659423889218893411E+01   -0.223237627180796622E+00   -0.156766509012426447E+00   -0.464101242156426896E+00   -0.904789833617686279E-02   -0.100657813767296833E+01   -0.486018262590680816E+01
    0.839272989343486375E-01   -0.177915355390459453E+02    0.988019773316137773E+00    0.117606111228718557E+01    0.523881732821861006E-02    0.205095046621204924E+01   -0.147318230070572698E+01   -0.240101498439458383E+00   -0.582961772560460112E+01    0.859255081503018658E-02   -0.132539285248929217E+00   -0.349072825609938464E-01   -0.696126710124220227E-02   -0.100977521443539264E+01   -0.430935232979910676E+01
    0.852374117194765191E-01   -0.221097229533890065E+02    0.983282758446305527E+00    0.727109457781189961E+00    0.370755330598548580E-02    0.205173595813752829E+01   -0.137987845508321949E+01   -0.209649145179199248E+00   -0.372090363658459911E+01   -0.236181295106435318E+00    0.765795732574308941E-01   -0.114154372993296865E+00   -0.794900436981657577E-01   -0.102914281340968006E+01   -0.434719140189034636E+01
    0.852374117194765191E-01   -0.221097229533890065E+02    0.983282758446305527E+00    0.727109457781189961E+00    0.370755330598548580E-02    0.205173595813752829E+01   -0.137987845508321949E+01   -0.209649145179199248E+00   -0.372090363658459911E+01   -0.236181295106435318E+00    0.765795732574308941E-01   -0.114154372993296865E+00   -0.794900436981657577E-01   -0.102914281340968006E+01   -0.434719140189034636E+01
    0.341726521495873958E-01   -0.797768104670868539E+01    0.290216163432534868E+00    0.596186176012811209E+00    0.735700218669779055E-02    0.206708231021481748E+01   -0.157003385156001340E+01   -0.155982200112907754E+00   -0.328308748931204519E+01   -0.752584152080051916E-01    0.742013140215141975E-02   -0.561647300795977245E+00   -0.143879933998299986E+00   -0.101173011476265695E+01   -0.477145712716238801E+01
    0.598755220377954131E-01   -0.722740249161288695E+01    0.741851757489286667E+00    0.523278453879571281E+00    0.111350988511213014E-01    0.204739609377928566E+01   -0.138706218137359016E+01   -0.234209069747313953E+00   -0.560558729438348635E+01   -0.241662205447312095E+00    0.102320392385819608E+00   -0.770359551965091205E+00   -0.109085296317183944E+00   -0.100819991808003029E+01   -0.479616219656808074E+01
    0.417560956871238231E-01   -0.199686961143470931E+01    0.147193471843088952E+00    0.624705448195021606E+00    0.877914586472769258E-02    0.202949944777494640E+01   -0.814523928820510390E+00   -0.209620242621955166E+00   -0.284695075364239525E+01   -0.293070982913676281E-02    0.114065903479212666E+00   -0.232843253871242384E+00   -0.690955709735388557E-01   -0.104296121792878438E+01   -0.483665793282645051E+01
    0.392113100100193526E-01   -0.127783900452283792E+02    0.797301700170352623E+00    0.830683071422313124E+00    0.259607772837521390E-02    0.206809062509909491E+01   -0.146116798757459820E+01   -0.209364769001478018E+00   -0.216324911590782110E+01   -0.248398780138084946E+00    0.311362964952221100E+00   -0.218032878635311206E+00   -0.118404168732245185E+00   -0.103776647444984627E+01   -0.460476902553013367E+01
    0.130389744330190516E+00   -0.158700088681715670E+02    0.856971535233477466E+00    0.455795783923579445E+00    0.134462536321360675E-01    0.201269380383661023E+01   -0.973787346693306355E+00   -0.265610818331653120E+00   -0.268451243163338749E+01   -0.323821078513897020E+00    0.530505402996827788E-01   -0.284915190577100630E+00   -0.522356686192031183E-01   -0.117200831601702715E+01   -0.439280346461704774E+01
    0.106944864146866006E+00   -0.227377662061757668E+02    0.871989109366445692E+00    0.874453912461914062E+00    0.913788958956360080E-02    0.206877273779953530E+01   -0.122430601315435461E+01   -0.242794287354468979E+00    0.168916843033411501E+01   -0.110800166471484149E+00   -0.138366357399375528E+00   -0.164788591444867238E+00   -0.244953160139395332E-01   -0.106781593803151664E+01   -0.474692153930664062E+01
    0.700327814471175675E-01   -0.226712938035521958E+02    0.731073871639837614E+00    0.113123671742033949E+01    0.337527495183544916E-02    0.205263642868674534E+01   -0.139341783457294000E+01   -0.235918684019711056E+00   -0.504899708120951640E+01   -0.320012468058703425E+00   -0.472597258464197700E-01   -0.101899294018746950E+00   -0.322091701189664015E-02   -0.105639853458777822E+01   -0.425094713483537934E+01
    0.700327814471175675E-01   -0.226712938035521958E+02    0.731073871639837614E+00    0.113123671742033949E+01    0.337527495183544916E-02    0.205263642868674534E+01   -0.139341783457294000E+01   -0.235918684019711056E+00   -0.504899708120951640E+01   -0.320012468058703425E+00   -0.472597258464197700E-01   -0.101899294018746950E+00   -0.322091701189664015E-02   -0.105639853458777822E+01   -0.425094713483537934E+01
    0.990147966790689837E-01   -0.217465050456154678E+02    0.611241084510113053E+00    0.806078645997660104E+00    0.582223264186449742E-02    0.206710384235996347E+01   -0.969889880327650999E+00   -0.214217898065036938E+00    0.229213140827598627E+01   -0.218013516941445329E+00   -0.465765047583518652E-01    0.489235778843105928E-01   -0.118788907930760163E+00   -0.114394604736329297E+01   -0.449193899972098176E+01
    0.129670694580633711E+00   -0.208480612458077381E+02    0.735259115194131452E+00    0.873316995286050668E+00    0.125382225082611709E-01    0.204336233377864396E+01   -0.135918273434315884E+01   -0.219717279455412834E+00   -0.701941547204665106E+01   -0.169029440221462518E+00   -0.113872337984091826E+00   -0.292699443099119216E+00   -0.446173332388209581E-01   -0.103242577139533553E+01   -0.436116491045270660E+01
    0.118522875843587949E+00   -0.316457081783301284E+02    0.604861606200830515E-01    0.129949359954236998E+01    0.660123580379763219E-02    0.205691836667446193E+01   -0.123922893740050499E+01   -0.261809559858103391E+00   -0.424151589698587550E+01   -0.234876889041074566E+00   -0.112232393283156928E+00   -0.385583551539524172E+00   -0.827680837024104693E-01   -0.132060111874988451E+01   -0.477115304129464324E+01
    0.894867311198779686E-01   -0.232288980955571347E+02    0.448712521999217517E+00    0.897031268162772122E+00    0.107894892961007405E-01    0.207624522272536538E+01   -0.112095092224313153E+01   -0.198177747477719796E+00    0.275026676102639689E+01   -0.244292472052897558E+00    0.611974153963376691E-01   -0.245461286295502346E+00   -0.127422336614099546E+00   -0.106601083357677928E+01   -0.476413399832589324E+01
    0.642942012156932780E-01   -0.152066104274363987E+02    0.849600426005642784E+00    0.704777003083089881E+00    0.910881379473501250E-02    0.207219192526364893E+01   -0.913078407550673599E+00   -0.243573127811816864E+00   -0.351494036680710797E+01    0.190175109154743643E+00   -0.789398642543912010E-01   -0.408395969058479524E+00   -0.380397235794402572E-01   -0.104991598977538270E+01   -0.448791285923549133E+01
    0.691692063535452872E-01   -0.128747692034166477E+02    0.446448540717349129E+00    0.934014745803468438E+00    0.111116294120689671E-01    0.205695210342700729E+01   -0.850966679394562608E+00   -0.194081902834503550E+00   -0.413445540599421424E+01    0.662069783321332928E-01    0.968475309728846767E-01   -0.260111504757104928E+00   -0.151343186677590918E+00   -0.107343559689682122E+01   -0.457021250043596527E+01
    0.991086749640412851E-01   -0.195416387716990272E+02    0.361276653856900720E+00    0.899381018873459892E+00    0.745837924808722720E-02    0.205253357997559904E+01   -0.950939521776105301E+00   -0.182151358421121012E+00   -0.559271597186771707E+01   -0.223953212309632416E+00    0.529127759365509084E-01   -0.913049767611853608E-01   -0.153969172106755287E+00   -0.104235608492126097E+01   -0.461932863507951996E+01
    0.942682448761257008E-01   -0.106619418457013069E+02    0.670255235095314150E+00    0.988128413763669444E+00    0.111611345185301074E-01    0.205345195226558719E+01   -0.807395028789500424E+00   -0.265452182846731888E+00   -0.986304778394744908E+01    0.274259992726325341E-01   -0.212514728865465075E+00   -0.364310942359461709E+00   -0.227882582802282352E-01   -0.106888063285956170E+01   -0.454799079895019531E+01
    0.948991807236630458E-01   -0.187802987074172449E+02    0.893901487462576916E+00    0.756896600914230278E+00    0.110407071045439797E-01    0.206937120979807254E+01   -0.171026628143291171E+01   -0.203826153097738022E+00   -0.267422488306808592E+01   -0.931865029738450368E-01    0.189667176817652827E+00   -0.236052673678807445E+00   -0.928371106201797275E-01   -0.102540281523614030E+01   -0.446558407374790711E+01
    0.948991807236630458E-01   -0.187802987074172449E+02    0.893901487462576916E+00    0.756896600914230278E+00    0.110407071045439797E-01    0.206937120979807254E+01   -0.171026628143291171E+01   -0.203826153097738022E+00   -0.267422488306808592E+01   -0.931865029738450368E-01    0.189667176817652827E+00   -0.236052673678807445E+00   -0.928371106201797275E-01   -0.102540281523614030E+01   -0.446558407374790711E+01
    0.114322037661507184E+00   -0.283914162752593953E+02    0.896370846668738119E+00    0.127023270646095532E+01    0.627364636479749160E-02    0.204069772744773426E+01   -0.145584349235422339E+01   -0.203339385423036423E+00   -0.186097878396485261E+01   -0.123121173481064300E+00   -0.163637240868275483E-01   -0.138082298551356036E+00   -0.117892044326702833E+00   -0.109105995924832655E+01   -0.429917417253766754E+01
    0.103526236225385981E+00   -0.166064413530990613E+02    0.643193532019626146E+00    0.790624153344447023E+00    0.659519212456773692E-02    0.202115968766696774E+01   -0.985257797428294557E+00   -0.229306734071641316E+00   -0.334133442000014380E+01   -0.156196212297718573E+00    0.126587453224187713E+00   -0.234619485622518470E+00   -0.418429766228561734E-01   -0.103160278200051936E+01   -0.447374616350446441E+01
    0.334511822275344525E-01   -0.139301582046535160E+02    0.674093801495571965E+00    0.112588266885092203E+01    0.229192825392840124E-02    0.202994990938106801E+01   -0.119024017915116609E+01   -0.199655012443172547E+00   -0.635997911843120356E+01   -0.114492269519546788E+00    0.113252529970117116E+00   -0.501169131310399307E+00   -0.995725561011198967E-01   -0.102118811078200511E+01   -0.468912724086216492E+01
    0.122767668987377940E+00   -0.200778743289577690E+02    0.505557414871889654E+00    0.889851715922779340E+00    0.109643024868885039E-01    0.204725676422053571E+01   -0.131514732439794946E+01   -0.183275813840417856E+00   -0.781122468128214109E+01   -0.575279833458653189E+00   -0.564152234338281891E-01   -0.155694883337458706E+00   -0.763879224299756493E-01   -0.103140385258247935E+01   -0.475573621477399566E+01
    0.835937698704844606E-01   -0.173229622879772833E+02    0.704389847038766392E+00    0.807378699418449530E+00    0.776505587628145352E-02    0.204217380390348424E+01   -0.114668709414980841E+01   -0.195635013103907546E+00   -0.556867400714166738E+01   -0.333809718247004672E+00    0.174591301694630496E+00   -0.706627200699412594E-01   -0.102851493356631393E+00   -0.104442793988957328E+01   -0.431669453212193055E+01
    0.144933881734301079E+00   -0.263455960545122281E+02    0.870404019963918252E+00    0.581588752121657060E+00    0.867944741805340945E-02    0.204436321769418905E+01   -0.152628516506411893E+01   -0.278179229229201574E+00    0.638143251807701706E+00   -0.273380011199817641E+00    0.601598885524772878E-01   -0.149723464317920607E+00    0.533196392956805654E-02   -0.103671876179326716E+01   -0.463051714215959809E+01
    0.910793414968902593E-01   -0.203421260275922933E+02    0.315297186725364609E+00    0.108503708680285804E+01    0.814970296474922321E-02    0.207702116938402614E+01   -0.921948478302723862E+00   -0.248151010973926195E+00   -0.733332883779306766E+01   -0.141126904031608741E+00   -0.101013410833634146E+00   -0.340593415299202062E+00   -0.723908409513305401E-01   -0.111736234826231251E+01   -0.456211962018694184E+01
    0.119208428163963459E+00   -0.295745739092122264E+02    0.167031045056943772E+00    0.111389288528436059E+01    0.565907353564955480E-02    0.204920083162473121E+01   -0.148609518633281223E+01   -0.187397961531883039E+00   -0.650261252537307755E+01   -0.333102227765344705E+00   -0.106543361672185935E-01    0.159855197047841791E-01   -0.132540503459773418E+00   -0.106778428460817687E+01   -0.479665265764508941E+01
    0.112320053000301096E+00   -0.203699633839196181E+02    0.194801450056942715E+00    0.771204813491644492E+00    0.348616146010468416E-02    0.202854713415367005E+01   -0.146008101635619747E+01   -0.218824203358081365E+00   -0.413398080169851401E+01   -0.431581578256669651E+00    0.133936018585116445E+00    0.165963338974110003E+00   -0.654563104903237436E-01   -0.107841793585191636E+01   -0.443218558175223176E+01
    0.645581348685168310E-01   -0.180411468350884121E+02    0.269893663326825128E+00    0.883789116991440249E+00    0.906740093845856930E-02    0.209033104087556421E+01   -0.165743525924152846E+01   -0.176416018517812273E+00   -0.392097989107242961E+01   -0.237439718407009726E+00   -0.126077983846920733E-01   -0.434859831244803208E-01   -0.984384681722038635E-01   -0.101719246380217854E+01   -0.474901689801897309E+01
    0.296581616483835020E-01   -0.742186108826430058E+01    0.101894631405822333E+00    0.106116597002524005E+01    0.736806337212911507E-02    0.205900029151232289E+01   -0.160308681795126384E+01   -0.171156371174160105E+00   -0.629990905932625367E+01   -0.193969457914304200E+00   -0.719744471660105634E-01   -0.225232605773795946E+00   -0.110946310387233127E+00   -0.100470323024123154E+01   -0.461898040771484375E+01
    0.296581616483835020E-01   -0.742186108826430058E+01    0.101894631405822333E+00    0.106116597002524005E+01    0.736806337212911507E-02    0.205900029151232289E+01   -0.160308681795126384E+01   -0.171156371174160105E+00   -0.629990905932625367E+01   -0.193969457914304200E+00   -0.719744471660105634E-01   -0.225232605773795946E+00   -0.110946310387233127E+00   -0.100470323024123154E+01   -0.461898040771484375E+01
    0.992144106822255289E-01   -0.212169649858089961E+02    0.950636104633318380E+00    0.852917362425510084E+00    0.938624320328139070E-02    0.205559971929437912E+01   -0.179001763860399299E+01   -0.154006174681359770E+00   -0.657396071272648896E+01   -0.129574155598608465E+00   -0.199903063466503855E+00   -0.120830590868143642E+00   -0.100771357285365432E+00   -0.109893841552299754E+01   -0.443763378688267274E+01
    0.151090162422271190E+00   -0.250525082650400677E+02    0.112543008865545513E+01    0.824511941506718249E+00    0.775510556210764687E-02    0.200678155610868902E+01   -0.150011266628993556E+01   -0.160794041667150001E+00   -0.426000457757646522E+01   -0.501804414868084581E+00    0.148568526640109361E+00   -0.500638429842670152E+00   -0.144437033642866336E+00   -0.110783168274159105E+01   -0.479701559884207551E+01
    0.612943873473804982E-01   -0.104558685200155512E+02    0.602845101855202126E+00    0.134772865220081561E+01    0.882155610913877390E-02    0.207350064108038978E+01   -0.218569205650762433E+01   -0.218067507012769751E+00   -0.806834887317012672E+01   -0.166987470377230662E+00   -0.123453657326399249E-01   -0.112838893456400080E+00   -0.112008994183659588E+00   -0.108065793632696883E+01   -0.432184709821428559E+01
    0.105633934599771981E+00   -0.246078287370686901E+02    0.906977953345457721E+00    0.111341742562026491E+01    0.584513443148305337E-02    0.205724976300615348E+01   -0.152976222318351374E+01   -0.203771816003265077E+00   -0.495193760343147993E+01   -0.401118571289801662E+00    0.168150855963584561E+00   -0.135532143990895831E+00   -0.172948909274445450E+00   -0.102710338000921331E+01   -0.474464198521205383E+01
    0.127592078930419683E+00   -0.216901938225286379E+02    0.118094631693691765E+01    0.747041595666061875E+00    0.122092333417552074E-01    0.205072343895443154E+01   -0.125175977037059072E+01   -0.137641839878638372E+00   -0.576874298588616519E+01   -0.122205898472419555E+00   -0.112269612771094290E+00    0.142197887989548716E+00   -0.166984675692745610E+00   -0.104104831341525816E+01   -0.462088775634765625E+01
    0.113191098522257103E+00   -0.256663046189056345E+02    0.572362405527091500E+00    0.112889646321684478E+01    0.710043006863880777E-02    0.206530284306998491E+01   -0.175874601266402952E+01   -0.174516164645752231E+00   -0.995742323059842604E+01    0.122493361580011673E-01   -0.178062101129905330E-01   -0.391508712159935435E+00   -0.163213183941022688E+00   -0.104628704297950348E+01   -0.478313882010323699E+01
    0.731122541899791867E-01   -0.113458767311040667E+02    0.601869815458677682E+00    0.624588035604259573E+00    0.109487441291579394E-01    0.205976469213424451E+01   -0.187387995835202514E+01   -0.173341932884866490E+00   -0.121766880777857835E+02   -0.295722475067379087E+00    0.622681488571483963E-01   -0.660097182604326260E+00   -0.139732445047320575E+00   -0.100177939536774896E+01   -0.442812783377511199E+01
    0.731122541899791867E-01   -0.113458767311040667E+02    0.601869815458677682E+00    0.624588035604259573E+00    0.109487441291579394E-01    0.205976469213424451E+01   -0.187387995835202514E+01   -0.173341932884866490E+00   -0.121766880777857835E+02   -0.295722475067379087E+00    0.622681488571483963E-01   -0.660097182604326260E+00   -0.139732445047320575E+00   -0.100177939536774896E+01   -0.442812783377511199E+01
    0.741495265010023996E-01   -0.257122838222945376E+02    0.909946583372536200E-01    0.109316145877253668E+01    0.135947239960035934E-02    0.205619960022507708E+01   -0.175259149320073249E+01   -0.114991978112035556E+00   -0.623818022802054095E+01   -0.166278199045730185E+00    0.509485604570038345E-01   -0.319575087300042804E+00   -0.191672411514839242E+00   -0.106227941694581740E+01   -0.480235290527343750E+01
    0.281852994887696606E-01   -0.177075307300920812E+02    0.842295702813291580E+00    0.144633811220959685E+01    0.325280986497528384E-02    0.203890478666264219E+01   -0.180249605522997136E+01   -0.114417045131101264E+00   -0.103325107794701587E+02   -0.263259348159326223E-01   -0.233190943837814829E+00   -0.506477257836029038E+00   -0.141320602606375190E+00   -0.103107282800137190E+01   -0.458542197091238801E+01
    0.108581435802491910E+00   -0.270084324824126796E+02    0.277602083692363888E+00    0.112093986778453569E+01    0.774039112938783910E-02    0.207953506921671094E+01   -0.155612293969364646E+01   -0.132287939657757841E+00   -0.888421076777478902E+01    0.904067351891417181E-01   -0.310419727218979757E+00   -0.551425568549919753E+00   -0.144577569185449922E+00   -0.111379592611837985E+01   -0.465107291085379426E+01
    0.102047717716754263E+00   -0.238523863462006602E+02    0.115122331354049501E+01    0.116611291715295939E+01    0.572819603778687569E-02    0.205657153182148367E+01   -0.201517275399274531E+01   -0.178885183035675605E+00   -0.113471157824728586E+02   -0.183992944165417616E+00   -0.180381957288228451E+00   -0.345069876770239259E-01   -0.230404874594187514E-01   -0.106035479409509503E+01   -0.481554521833147309E+01
    0.391680900155850151E-01   -0.206622353480263428E+02    0.450228986839507184E+00    0.102464963475082538E+01    0.269079993434099066E-03    0.206958469319984850E+01   -0.123680424686162893E+01   -0.125312304910430744E+00   -0.488997374854344002E+01   -0.125612090608017424E-01   -0.674471953628142384E-01   -0.422085885256299531E+00   -0.142229558633812980E+00   -0.103718521392533458E+01   -0.478680474417550261E+01
    0.128595824912500822E+00   -0.300866952151090885E+02    0.225132793984333890E+00    0.746470994202555138E+00    0.479814415432904678E-02    0.204172911198943563E+01   -0.150326496303744594E+01   -0.127942787578892991E+00   -0.633011965203286486E+01   -0.186930730275182866E+00    0.985723317612476335E-01   -0.572129712860511730E+00   -0.155574218660487429E+00   -0.118549718156832706E+01   -0.462095751081194184E+01
    0.930055143131629375E-01   -0.270335877402738909E+02    0.695911407719450481E+00    0.117612409412141705E+01    0.499221198902936522E-02    0.206550419542810104E+01   -0.167725573145154661E+01   -0.221945383763808901E+00   -0.267515793604046159E+01   -0.291482827509889297E+00   -0.188311054304992731E+00   -0.435033484424438066E+00   -0.900913835019507558E-01   -0.103973228255235406E+01   -0.425593566894531250E+01
    0.930055143131629375E-01   -0.270335877402738909E+02    0.695911407719450481E+00    0.117612409412141705E+01    0.499221198902936522E-02    0.206550419542810104E+01   -0.167725573145154661E+01   -0.221945383763808901E+00   -0.267515793604046159E+01   -0.291482827509889297E+00   -0.188311054304992731E+00   -0.435033484424438066E+00   -0.900913835019507558E-01   -0.103973228255235406E+01   -0.425593566894531250E+01
    0.107028656241614173E+00   -0.273751183681631325E+02    0.101272570711986454E+01    0.831282430811681627E+00    0.793527762002819992E-02    0.205725637114218785E+01   -0.202179775525036254E+01   -0.147606632824531542E+00   -0.621242934583076512E+01   -0.449128926863111455E+00   -0.280038800489740766E-01   -0.338209330404671160E+00   -0.112247309694627012E+00   -0.102310235585565068E+01   -0.469280678885323699E+01
    0.802767633473030207E-01   -0.199618908541033200E+02    0.117713719092665414E+01    0.904679134521489847E+00    0.325372563888904308E-02    0.205309007949353006E+01   -0.146233267319687221E+01   -0.263852820878747063E+00   -0.532673929758199982E+01   -0.574466177735688310E+00    0.632194601905891607E-01   -0.277963434242336160E+00   -0.227990569455299164E-01   -0.101777778397294494E+01   -0.471942520141601562E+01
    0.534724820156435438E-01   -0.753981459604767501E+01    0.475373813561579650E+00    0.844524835743591828E+00    0.115929641204626406E-02    0.201316091209180703E+01   -0.197777711636174303E+01   -0.223792250469083021E+00   -0.108156710010755646E+02    0.643380572609515977E-01   -0.236122320678426693E-01   -0.230248385062998023E+00   -0.273773027447406642E-01   -0.108747856360127759E+01   -0.422271347045898438E+01
    0.125619865329419184E+00   -0.169560520416063838E+02    0.110316633115983787E+01    0.644848743705604077E+00    0.545728458034530454E-02    0.202079169148530502E+01   -0.168427197763505765E+01   -0.268577628784820055E+00   -0.282977047080135247E+01   -0.348453388635176387E+00    0.221823015412660890E-02   -0.342903662940415299E-01   -0.721256793665608908E-01   -0.110800426864359491E+01   -0.439657374790736633E+01
    0.103983539218454851E+00   -0.152014253603036309E+02    0.971548029553580994E+00    0.607653937238265329E+00    0.904062442563268939E-02    0.202765152050788711E+01   -0.149336802578988093E+01   -0.132533237448782398E+00   -0.124427707429918009E+02   -0.306038534600589052E+00    0.129970085568538313E+00   -0.141036362735455723E+00   -0.108107048680581477E+00   -0.105292530067089385E+01   -0.449132755824497742E+01
