    0.586645101050311743E-01   -0.151896929913102809E+02    0.753166671137696309E+00    0.127737418140232339E+01    0.134079943943837075E-01    0.151897400553304895E+01   -0.239787620392073153E+01   -0.888787784406089298E-01   -0.422404577456920061E+00   -0.537134628177191459E-01   -0.812439656978878044E-01   -0.173606921772884476E+00    0.115831108385421044E+00   -0.108142068311634754E+01   -0.470501748564448541E+00
    0.599375825996990297E-01   -0.166290736337874634E+02    0.727662726431533402E+00    0.131126420462744586E+01    0.130255763403293971E-01    0.150893561483406513E+01   -0.241013521062525138E+01   -0.595801028838324198E-01   -0.477640475340023296E+00   -0.765342083000819795E-01    0.299761671833163740E-01   -0.146891812509336667E+00    0.155684325551985386E+00   -0.103994575480984963E+01   -0.350876663633585550E+00
    0.599375825996990297E-01   -0.166290736337874634E+02    0.727662726431533402E+00    0.131126420462744586E+01    0.130255763403293971E-01    0.150893561483406513E+01   -0.241013521062525138E+01   -0.595801028838324198E-01   -0.477640475340023296E+00   -0.765342083000819795E-01    0.299761671833163740E-01   -0.146891812509336667E+00    0.155684325551985386E+00   -0.103994575480984963E+01   -0.350876663633585550E+00
    0.752935451676677858E-01   -0.193584778423021397E+02    0.735058465691778684E+00    0.123656314846091209E+01    0.134864322884364219E-01    0.148784608309637978E+01   -0.243335958292125554E+01   -0.948214915218490162E-01   -0.116589840800488131E+01   -0.552060631930155823E-01    0.436819658072831463E-01   -0.120180619113565063E+00    0.545045468723742363E-01   -0.105945662246763406E+01   -0.339914665109762704E+00
    0.752935451676677858E-01   -0.193584778423021397E+02    0.735058465691778684E+00    0.123656314846091209E+01    0.134864322884364219E-01    0.148784608309637978E+01   -0.243335958292125554E+01   -0.948214915218490162E-01   -0.116589840800488131E+01   -0.552060631930155823E-01    0.436819658072831463E-01   -0.120180619113565063E+00    0.545045468723742363E-01   -0.105945662246763406E+01   -0.339914665109762704E+00
    0.566381726047648776E-01   -0.167213485065603749E+02    0.723431215133537253E+00    0.123563612859585903E+01    0.137434126473868906E-01    0.148170219693607819E+01   -0.250739888751221818E+01   -0.716180031052069399E-01   -0.184233068732741678E+01   -0.686687347918619739E-01   -0.904220089749224742E-01   -0.145792310248600898E+00    0.955103984451874943E-01   -0.107909089801679858E+01   -0.339873503641160701E+00
    0.664389856163687953E-01   -0.185453699798343123E+02    0.810706372504555350E+00    0.124737602800228720E+01    0.133978905017055425E-01    0.149675565139214295E+01   -0.244669353108975773E+01   -0.866812883948844537E-01   -0.129034973654030827E+01   -0.563382709665889714E-01   -0.126817911951911000E+00   -0.153729793434592921E+00    0.519452207580580472E-01   -0.107277624576824993E+01   -0.278111467504374099E+00
    0.664389856163687953E-01   -0.185453699798343123E+02    0.810706372504555350E+00    0.124737602800228720E+01    0.133978905017055425E-01    0.149675565139214295E+01   -0.244669353108975773E+01   -0.866812883948844537E-01   -0.129034973654030827E+01   -0.563382709665889714E-01   -0.126817911951911000E+00   -0.153729793434592921E+00    0.519452207580580472E-01   -0.107277624576824993E+01   -0.278111467504374099E+00
    0.594944001443418469E-01   -0.187035181953554641E+02    0.714074073844873425E+00    0.128494870881035639E+01    0.131983773469558623E-01    0.148020595046142134E+01   -0.245578365899702877E+01   -0.944948882115491801E-01   -0.141825557360926258E+01   -0.851570093624366142E-01   -0.233408428889506914E+00   -0.131736820012232581E+00    0.100657492786008607E+00   -0.106943904846615911E+01   -0.270491807942297213E+00
    0.594944001443418469E-01   -0.187035181953554641E+02    0.714074073844873425E+00    0.128494870881035639E+01    0.131983773469558623E-01    0.148020595046142134E+01   -0.245578365899702877E+01   -0.944948882115491801E-01   -0.141825557360926258E+01   -0.851570093624366142E-01   -0.233408428889506914E+00   -0.131736820012232581E+00    0.100657492786008607E+00   -0.106943904846615911E+01   -0.270491807942297213E+00
    0.629486595341026828E-01   -0.167021501223355955E+02    0.749505030486389834E+00    0.133192109810117265E+01    0.125922265516368106E-01    0.150542731389540752E+01   -0.237320722593705113E+01   -0.865927388684755855E-01   -0.906148675607890253E+00   -0.724204807887160740E-01   -0.107064637701091203E+00   -0.301941508638726153E+00    0.255813718853097408E-01   -0.108623437165999226E+01   -0.268570540116817025E+00
    0.629486595341026828E-01   -0.167021501223355955E+02    0.749505030486389834E+00    0.133192109810117265E+01    0.125922265516368106E-01    0.150542731389540752E+01   -0.237320722593705113E+01   -0.865927388684755855E-01   -0.906148675607890253E+00   -0.724204807887160740E-01   -0.107064637701091203E+00   -0.301941508638726153E+00    0.255813718853097408E-01   -0.108623437165999226E+01   -0.268570540116817025E+00
    0.587032076977471173E-01   -0.187585315427819133E+02    0.742041455489098833E+00    0.128335290676478087E+01    0.127211334558980579E-01    0.147625579825349029E+01   -0.243491290569982199E+01   -0.938826475209792455E-01   -0.164850555101729457E+01   -0.529638241395111314E-01   -0.130061106860457798E+00   -0.228934378730294791E+00    0.614539111951770411E-01   -0.105543260120116678E+01   -0.262848735475342932E+00
    0.635268184288489274E-01   -0.164187275640484387E+02    0.739610837408224087E+00    0.124159886857139123E+01    0.131664989937077086E-01    0.151795999453008079E+01   -0.250189661294480592E+01   -0.723628465456819248E-01   -0.111489924732319001E+01   -0.697768868764596234E-01   -0.285490256995057368E+00   -0.192733943461132984E+00    0.124794476662627718E+00   -0.106377645723814185E+01   -0.258551855463975300E+00
    0.559532126937029445E-01   -0.164942270140263112E+02    0.774618318968560482E+00    0.129394288077427566E+01    0.131308549269345438E-01    0.149893573858911444E+01   -0.245213691171625214E+01   -0.807864776329168394E-01   -0.507423205585425752E+00   -0.622409628397879860E-01    0.388737688245070490E-01   -0.234030141089342447E+00    0.856067402402098665E-01   -0.107665750804019988E+01   -0.249018782168565489E+00
    0.559532126937029445E-01   -0.164942270140263112E+02    0.774618318968560482E+00    0.129394288077427566E+01    0.131308549269345438E-01    0.149893573858911444E+01   -0.245213691171625214E+01   -0.807864776329168394E-01   -0.507423205585425752E+00   -0.622409628397879860E-01    0.388737688245070490E-01   -0.234030141089342447E+00    0.856067402402098665E-01   -0.107665750804019988E+01   -0.249018782168565489E+00
    0.645274670263123601E-01   -0.165408932807688736E+02    0.767874785512419833E+00    0.130428916321835842E+01    0.129108969763013833E-01    0.151426653874590733E+01   -0.244897490672686491E+01   -0.569348991826027356E-01   -0.305917827990383495E+01   -0.586693920208309974E-01   -0.254638704138480998E+00   -0.200573949659198059E+00    0.622267948097733892E-01   -0.110313702207334385E+01   -0.248117486131728793E+00
    0.698869586274778465E-01   -0.168552727585253734E+02    0.710309597624997568E+00    0.131110898147604105E+01    0.129622637687241155E-01    0.150265259516073968E+01   -0.249198171055226769E+01   -0.849953967278874178E-01   -0.189760533396311493E+01   -0.469174381553982903E-01   -0.222340979924903315E+00   -0.119767269348057703E+00    0.756936240204675731E-01   -0.107013881795130561E+01   -0.234540775829944703E+00
    0.698869586274778465E-01   -0.168552727585253734E+02    0.710309597624997568E+00    0.131110898147604105E+01    0.129622637687241155E-01    0.150265259516073968E+01   -0.249198171055226769E+01   -0.849953967278874178E-01   -0.189760533396311493E+01   -0.469174381553982903E-01   -0.222340979924903315E+00   -0.119767269348057703E+00    0.756936240204675731E-01   -0.107013881795130561E+01   -0.234540775829944703E+00
    0.727129884609873933E-01   -0.163993913513633203E+02    0.735102361779421121E+00    0.127925542708108941E+01    0.132033741744442580E-01    0.150388693499774928E+01   -0.250307227626658291E+01   -0.727813427819911513E-01   -0.891539881986973648E+00   -0.525675360161561300E-01   -0.155470531711416282E+00   -0.198266295227759709E+00    0.716111343036985315E-01   -0.109686043995152782E+01   -0.234042383702008000E+00
    0.727129884609873933E-01   -0.163993913513633203E+02    0.735102361779421121E+00    0.127925542708108941E+01    0.132033741744442580E-01    0.150388693499774928E+01   -0.250307227626658291E+01   -0.727813427819911513E-01   -0.891539881986973648E+00   -0.525675360161561300E-01   -0.155470531711416282E+00   -0.198266295227759709E+00    0.716111343036985315E-01   -0.109686043995152782E+01   -0.234042383702008000E+00
    0.651668667958300307E-01   -0.165565752229917997E+02    0.733276094509579868E+00    0.127998282997216162E+01    0.124500944641643494E-01    0.149123363653418783E+01   -0.251958950410450999E+01   -0.368164249430175464E-01   -0.578318767793052024E+00   -0.969037854882108113E-01   -0.679567825607519382E-01   -0.160541248982187662E+00    0.962706701894167072E-01   -0.106311350034558760E+01   -0.233382000589900190E+00
    0.651668667958300307E-01   -0.165565752229917997E+02    0.733276094509579868E+00    0.127998282997216162E+01    0.124500944641643494E-01    0.149123363653418783E+01   -0.251958950410450999E+01   -0.368164249430175464E-01   -0.578318767793052024E+00   -0.969037854882108113E-01   -0.679567825607519382E-01   -0.160541248982187662E+00    0.962706701894167072E-01   -0.106311350034558760E+01   -0.233382000589900190E+00
    0.541132223207866636E-01   -0.164074169262819503E+02    0.791573162026556809E+00    0.125759383389172763E+01    0.127361774925979585E-01    0.150990655516329730E+01   -0.249299326683164368E+01   -0.566669762075335953E-01   -0.752181746833423759E+00   -0.722087868991544979E-01   -0.104200196512464996E+00   -0.948989239366465342E-01    0.689335538686962901E-01   -0.108154687055922127E+01   -0.231680978301147478E+00
    0.590179224978660405E-01   -0.171672084815480162E+02    0.799192945723830372E+00    0.119711945121371888E+01    0.126250444982549306E-01    0.150651088233524111E+01   -0.247228868972927129E+01   -0.707066178201138790E-01    0.494360510109786322E+00   -0.767100762428458566E-01   -0.217883585837258087E+00   -0.196583108318682254E+00    0.512688165437839224E-01   -0.105948195468626571E+01   -0.231399167669358308E+00
    0.600180101516260209E-01   -0.167438085902394889E+02    0.793160241141838251E+00    0.128088728295560972E+01    0.138767952009345805E-01    0.148441706420072883E+01   -0.250019203041608895E+01   -0.109019415969835248E+00    0.442542450275888122E+00   -0.802700042687063409E-01   -0.105323025723372404E+00   -0.193894408028141729E+00    0.671266901574576885E-01   -0.108747417397697199E+01   -0.226176018396469808E+00
    0.600180101516260209E-01   -0.167438085902394889E+02    0.793160241141838251E+00    0.128088728295560972E+01    0.138767952009345805E-01    0.148441706420072883E+01   -0.250019203041608895E+01   -0.109019415969835248E+00    0.442542450275888122E+00   -0.802700042687063409E-01   -0.105323025723372404E+00   -0.193894408028141729E+00    0.671266901574576885E-01   -0.108747417397697199E+01   -0.226176018396469808E+00
    0.629355314258331217E-01   -0.171562083429888368E+02    0.723744696094741014E+00    0.124937518659369973E+01    0.130977686630709775E-01    0.151291103396624438E+01   -0.240529398853836085E+01   -0.524751624661833893E-01    0.369197090414923990E+00   -0.692132466911806604E-01   -0.167292073378818962E+00   -0.137276567656679199E+00    0.909842539960116770E-01   -0.106799584421049509E+01   -0.214889812257213181E+00
    0.661939741840709833E-01   -0.163528889468380747E+02    0.770628328248943895E+00    0.124948334731419664E+01    0.140418840563718353E-01    0.150199339450596914E+01   -0.257074199446172935E+01   -0.105313244030575626E+00   -0.401981573718615981E+00   -0.953987458393283083E-01   -0.137040327885646074E-01   -0.128788598262449372E+00    0.339737556309075567E-01   -0.108090076300095062E+01   -0.214604089159435490E+00
    0.629173986913075661E-01   -0.164588704677368867E+02    0.812467212771159852E+00    0.128038947756618726E+01    0.133832487485503939E-01    0.151144214530612286E+01   -0.240997478719662306E+01   -0.677793828575739277E-01   -0.108737690812095034E+01   -0.790112936870089599E-01   -0.183497046314698542E+00   -0.184050128586444539E+00    0.414510253626463043E-01   -0.107035818742300770E+01   -0.211581127906637939E+00
    0.629173986913075661E-01   -0.164588704677368867E+02    0.812467212771159852E+00    0.128038947756618726E+01    0.133832487485503939E-01    0.151144214530612286E+01   -0.240997478719662306E+01   -0.677793828575739277E-01   -0.108737690812095034E+01   -0.790112936870089599E-01   -0.183497046314698542E+00   -0.184050128586444539E+00    0.414510253626463043E-01   -0.107035818742300770E+01   -0.211581127906637939E+00
    0.608358246058428934E-01   -0.180148584544816970E+02    0.756219784657719996E+00    0.126112717107892847E+01    0.128023889151234974E-01    0.148413141881581967E+01   -0.247860483897128736E+01   -0.793237636071173896E-01   -0.177445366367046109E+01   -0.751942136688823204E-01   -0.169052939400379382E-01   -0.213976177637996534E+00    0.143560539554137889E+00   -0.107909854420307783E+01   -0.210639695598941218E+00
    0.608358246058428934E-01   -0.180148584544816970E+02    0.756219784657719996E+00    0.126112717107892847E+01    0.128023889151234974E-01    0.148413141881581967E+01   -0.247860483897128736E+01   -0.793237636071173896E-01   -0.177445366367046109E+01   -0.751942136688823204E-01   -0.169052939400379382E-01   -0.213976177637996534E+00    0.143560539554137889E+00   -0.107909854420307783E+01   -0.210639695598941218E+00
    0.694405874778609017E-01   -0.165908430470825152E+02    0.800626915918224547E+00    0.129526803637901011E+01    0.130393114687468083E-01    0.151228789094211136E+01   -0.251489549115112698E+01   -0.956296655441457172E-01   -0.205725527795535879E+01   -0.665117340969579585E-01   -0.126037445042307406E+00   -0.169619845127472579E+00    0.992546020507367177E-01   -0.108031957883801821E+01   -0.210334882282404073E+00
    0.694405874778609017E-01   -0.165908430470825152E+02    0.800626915918224547E+00    0.129526803637901011E+01    0.130393114687468083E-01    0.151228789094211136E+01   -0.251489549115112698E+01   -0.956296655441457172E-01   -0.205725527795535879E+01   -0.665117340969579585E-01   -0.126037445042307406E+00   -0.169619845127472579E+00    0.992546020507367177E-01   -0.108031957883801821E+01   -0.210334882282404073E+00
    0.609632376008169136E-01   -0.166131776688169204E+02    0.797888840706262426E+00    0.126045750865658923E+01    0.133092794812108527E-01    0.150513767586191283E+01   -0.250863319048927025E+01   -0.993035256538216393E-01   -0.267714453319376311E+01   -0.446531572854069470E-01   -0.302750168420466426E+00   -0.208548905216265845E+00    0.815366197791522612E-01   -0.105530414285279472E+01   -0.208989078193038108E+00
    0.609632376008169136E-01   -0.166131776688169204E+02    0.797888840706262426E+00    0.126045750865658923E+01    0.133092794812108527E-01    0.150513767586191283E+01   -0.250863319048927025E+01   -0.993035256538216393E-01   -0.267714453319376311E+01   -0.446531572854069470E-01   -0.302750168420466426E+00   -0.208548905216265845E+00    0.815366197791522612E-01   -0.105530414285279472E+01   -0.208989078193038108E+00
    0.569920663593400725E-01   -0.168604261432476363E+02    0.764568866266207903E+00    0.128671432167143496E+01    0.131740866296771314E-01    0.148819353312966518E+01   -0.253600387723971421E+01   -0.665554580552287223E-01   -0.208107493501222507E+01   -0.692603867010126995E-01    0.667063888538392546E-02   -0.209108762231850653E+00    0.380573048084347845E-01   -0.108453705060734507E+01   -0.206820914321553362E+00
    0.569920663593400725E-01   -0.168604261432476363E+02    0.764568866266207903E+00    0.128671432167143496E+01    0.131740866296771314E-01    0.148819353312966518E+01   -0.253600387723971421E+01   -0.665554580552287223E-01   -0.208107493501222507E+01   -0.692603867010126995E-01    0.667063888538392546E-02   -0.209108762231850653E+00    0.380573048084347845E-01   -0.108453705060734507E+01   -0.206820914321553362E+00
    0.605330228900984660E-01   -0.170744019682496315E+02    0.785262819872195261E+00    0.129666432651855801E+01    0.139048384121141372E-01    0.150390187230872008E+01   -0.250754814731039355E+01   -0.786714596085836826E-01   -0.138612931527908212E+00   -0.462228254126450799E-01   -0.137618753335102512E+00   -0.221006830961091111E+00    0.127550183963966834E+00   -0.107504632638761644E+01   -0.206004549674370790E+00
    0.583143069831227670E-01   -0.171586429373361327E+02    0.757370057920251805E+00    0.125962561508589888E+01    0.134253548658696768E-01    0.152300688991077959E+01   -0.247808080569108791E+01   -0.737652025638562969E-01   -0.131339576030423766E+01   -0.476689850611559454E-01   -0.137478682345546943E+00   -0.185551793006352245E+00    0.445457030869091733E-01   -0.109267758524731029E+01   -0.204900055384121454E+00
    0.623180933504947215E-01   -0.168232180742419608E+02    0.794037464820004479E+00    0.132581651146922574E+01    0.133015961846962814E-01    0.150671570668119514E+01   -0.247332282332831532E+01   -0.827323232749457016E-01   -0.204047961062388428E+01   -0.906595354686876159E-01   -0.997979112885657299E-01   -0.141204270108545193E+00    0.113596810651950750E+00   -0.108573108014938313E+01   -0.204643921683612812E+00
    0.599710345239708106E-01   -0.173103938779988731E+02    0.768866156906672593E+00    0.129392255550152169E+01    0.135416275246049676E-01    0.148276972162237075E+01   -0.249451394741529997E+01   -0.818719569661082308E-01   -0.125475286384885631E+01   -0.380906648434477108E-01   -0.482329464818557138E-01   -0.106580664453597554E+00    0.661122812647161884E-01   -0.106739647484611999E+01   -0.202856964476809065E+00
    0.599710345239708106E-01   -0.173103938779988731E+02    0.768866156906672593E+00    0.129392255550152169E+01    0.135416275246049676E-01    0.148276972162237075E+01   -0.249451394741529997E+01   -0.818719569661082308E-01   -0.125475286384885631E+01   -0.380906648434477108E-01   -0.482329464818557138E-01   -0.106580664453597554E+00    0.661122812647161884E-01   -0.106739647484611999E+01   -0.202856964476809065E+00
    0.656085416917544517E-01   -0.173512415419330388E+02    0.783762450896587359E+00    0.125967867852823723E+01    0.137468044452600923E-01    0.148725635346118912E+01   -0.248663346791124606E+01   -0.816787050991606284E-01   -0.161251867136790406E+01   -0.531542314852552211E-01   -0.115386323707054012E+00   -0.202436062551304308E+00    0.562496522675732316E-01   -0.106677213057036435E+01   -0.202829534542369988E+00
    0.597033843043907470E-01   -0.177795529479425234E+02    0.754879796235252809E+00    0.127539718440780270E+01    0.135070317049334268E-01    0.152511219423329569E+01   -0.241780306661796596E+01   -0.947559321910523833E-01   -0.118703403542985697E+00   -0.670689379332693181E-01   -0.121071724793763866E+00   -0.127057789088627276E+00    0.109702535726252784E+00   -0.106293116951510180E+01   -0.199807291681880883E+00
    0.620350329920250701E-01   -0.178878311818628255E+02    0.753577310482751339E+00    0.126908462033275682E+01    0.131088083791451211E-01    0.148993694828620304E+01   -0.242981910997893014E+01   -0.691403923580888591E-01   -0.317008943578930280E+00   -0.717502890015485756E-01   -0.406902102061437246E-01   -0.140895370423343574E+00    0.930345673280608410E-01   -0.106628510529286724E+01   -0.196378543994656152E+00
    0.615705098096215320E-01   -0.171850014339573036E+02    0.788986132362374581E+00    0.126987375961383164E+01    0.136862734092866953E-01    0.150654716226011209E+01   -0.250293484182865544E+01   -0.120748176878962027E+00   -0.165031401562076629E+01   -0.292703028591092332E-01   -0.499756516977325690E-01   -0.131298146121399645E+00    0.603879403779028212E-01   -0.106737799050215032E+01   -0.195787373886549043E+00
    0.668885816219038226E-01   -0.179008390853371537E+02    0.762151751381143883E+00    0.121082626591861464E+01    0.128587891547110363E-01    0.151259367538258904E+01   -0.243837476404940912E+01   -0.560826653034142419E-01   -0.346298009557192699E+00   -0.495087246649306006E-01   -0.126733043968042469E+00   -0.140355625928912875E+00    0.111070708998423584E+00   -0.106800893875761038E+01   -0.194490468857185156E+00
    0.668885816219038226E-01   -0.179008390853371537E+02    0.762151751381143883E+00    0.121082626591861464E+01    0.128587891547110363E-01    0.151259367538258904E+01   -0.243837476404940912E+01   -0.560826653034142419E-01   -0.346298009557192699E+00   -0.495087246649306006E-01   -0.126733043968042469E+00   -0.140355625928912875E+00    0.111070708998423584E+00   -0.106800893875761038E+01   -0.194490468857185156E+00
    0.635215788512386026E-01   -0.172277740084315170E+02    0.768709069339884699E+00    0.125672381199523309E+01    0.135880554645522109E-01    0.150184185926655966E+01   -0.243383961140766658E+01   -0.773437141070389134E-01   -0.192135372082066436E+01   -0.786062052605854683E-01   -0.216367719201722236E+00   -0.198020224398815392E+00    0.959101737602411492E-01   -0.108027704219226894E+01   -0.193167110947146142E+00
    0.705894447618006793E-01   -0.190004276681886459E+02    0.785187612748303065E+00    0.131405276507592261E+01    0.129304232792199665E-01    0.147739578353529066E+01   -0.248605081707619879E+01   -0.888014134209340195E-01   -0.407398396801915252E+00   -0.746367989746581501E-01   -0.719711590514351823E-01   -0.167184973685144095E+00    0.126725539237828921E+00   -0.107817321681987832E+01   -0.192835416689185080E+00
    0.601791791778026053E-01   -0.171123846136893185E+02    0.751387347419739116E+00    0.126279632730057001E+01    0.129650273060379975E-01    0.151982812642483278E+01   -0.249810877950418364E+01   -0.820881173082615434E-01   -0.981691165660082299E+00   -0.671551654799305009E-01   -0.108116634250426891E+00   -0.172130024963549177E+00    0.775571580509088615E-01   -0.109891444604846678E+01   -0.192092234814184665E+00
    0.719372793441918068E-01   -0.168918029117897035E+02    0.761531615890144176E+00    0.127662556812498340E+01    0.128356428741642631E-01    0.151647952407546560E+01   -0.251699859966795714E+01   -0.785254017589792908E-01   -0.214355582584610760E+01   -0.792138784727949713E-01   -0.176059926649996479E+00   -0.111007397991156720E+00    0.312172064952132705E-01   -0.108742443839097636E+01   -0.191053587944064684E+00
    0.610243271997938444E-01   -0.176364125574288195E+02    0.759347112040966721E+00    0.129111452078018152E+01    0.133307707360329313E-01    0.149000658128937924E+01   -0.246029558439369200E+01   -0.752577911081081935E-01   -0.691659494316961831E-01   -0.722441753080718674E-01   -0.267357013663087340E-01   -0.165943528379624894E+00    0.988911287575028053E-01   -0.107171878754773497E+01   -0.190046117095474226E+00
    0.640989161126951645E-01   -0.174257969147544785E+02    0.741966631280687516E+00    0.133395985049483445E+01    0.129095019280028537E-01    0.150674161845929655E+01   -0.244018381845003862E+01   -0.117477205354465014E+00   -0.149929578800711227E+00   -0.800181984322275303E-01   -0.185304505899238581E+00   -0.195308372908949202E+00    0.116701298127214359E+00   -0.106886871548428375E+01   -0.189412985813509765E+00
    0.567646050937234622E-01   -0.169710425022866076E+02    0.783031416201524499E+00    0.132603251823398582E+01    0.128571631484796986E-01    0.149916828344492514E+01   -0.253031321535411147E+01   -0.622470533410328167E-01   -0.151550775494227885E+01   -0.626788266950358552E-01   -0.252272720930945660E+00   -0.188579875456798662E+00    0.794456281783097878E-01   -0.109034072485702693E+01   -0.188240828587113163E+00
    0.618677606406945330E-01   -0.172945735013342059E+02    0.748865244431318522E+00    0.123890154486098858E+01    0.130417244625035973E-01    0.150564819673999395E+01   -0.246302277351442189E+01   -0.747641190261515154E-01   -0.107657279713708598E+01   -0.590858660284663481E-01   -0.178156177033218649E-01   -0.171169049152013197E+00    0.454649040163159560E-01   -0.106022276871617938E+01   -0.186169564029166928E+00
    0.642463964891510780E-01   -0.167322712438670642E+02    0.786511578998606575E+00    0.128675336572625354E+01    0.133033508565848640E-01    0.149876810215926382E+01   -0.248053470728871028E+01   -0.686315045555558612E-01   -0.900465160629451145E+00   -0.622705160068307145E-01   -0.170782597874551301E+00   -0.151311519471440503E+00    0.115457791072074295E+00   -0.107268937497676209E+01   -0.185850275553500727E+00
    0.639541241904305752E-01   -0.181083157137030391E+02    0.763698547209482825E+00    0.125459913810766932E+01    0.131931502600885295E-01    0.150822542635321044E+01   -0.240630207974372423E+01   -0.804308835434059399E-01   -0.260192017247816754E+01   -0.846677320914240722E-01   -0.893005649767270177E-01   -0.254852441611519154E+00    0.767000500245443306E-01   -0.106404197355003882E+01   -0.184907282979020149E+00
    0.668375357927433605E-01   -0.166816322023000438E+02    0.782962175650084080E+00    0.124892989458743653E+01    0.135147658634958805E-01    0.148797618988115743E+01   -0.251608941835814415E+01   -0.879740476590678555E-01   -0.121370759066528944E+01   -0.657250358817391550E-01   -0.697374250503405846E-01   -0.151723336063878333E+00    0.928573601719334535E-01   -0.108822838968193647E+01   -0.184700793329260787E+00
    0.595696860888931118E-01   -0.176184936492501016E+02    0.778710255832034015E+00    0.129478994161754946E+01    0.133116991385416293E-01    0.149165021140325593E+01   -0.249387903174058456E+01   -0.637465680253185979E-01   -0.959230371350150657E+00   -0.647878728780025975E-01   -0.197253892231125216E+00   -0.135038398050606578E+00    0.885281821932299567E-01   -0.107243988808602020E+01   -0.184406310324317591E+00
    0.652083671105367219E-01   -0.177917551966537282E+02    0.792993456701259980E+00    0.130611596747576697E+01    0.138309463238944098E-01    0.150563816630028025E+01   -0.250313757877188836E+01   -0.602791858559073856E-01   -0.129975708008698865E+01   -0.784270311717241292E-01   -0.797155604974073007E-02   -0.686695457566772749E-01    0.117835970112669164E+00   -0.106554478912843709E+01   -0.179989253917029413E+00
    0.625289563025046152E-01   -0.168902792933238892E+02    0.823637906337761461E+00    0.127585825150183796E+01    0.130528976239820786E-01    0.149257737512315192E+01   -0.246807641189725713E+01   -0.881311506889108920E-01   -0.220042413733466335E+00   -0.766348236375298808E-01   -0.106498669097934706E-02   -0.185811898691923522E+00    0.518494045090657218E-01   -0.105167958870745215E+01   -0.179491365028005140E+00
    0.649378807259950730E-01   -0.169224966000845534E+02    0.772924976315888523E+00    0.127113252313063807E+01    0.124261592139936049E-01    0.150339431005828184E+01   -0.242372285580124913E+01   -0.752889903566375251E-01   -0.177235435184317947E+01   -0.500841077953541186E-01   -0.151319594824763592E+00   -0.139730243646233154E+00    0.154311321801673063E+00   -0.108893621182433376E+01   -0.177675604299968842E+00
    0.625233190331235394E-01   -0.174932043578186729E+02    0.778063907582217218E+00    0.129691609707850874E+01    0.131661745862304957E-01    0.151901127653407908E+01   -0.249382680598731721E+01   -0.787651997231959555E-01   -0.217680141755610901E+00   -0.586584989039421537E-01    0.637983947197280354E-01    0.217901715414370589E-01    0.104931885662365804E+00   -0.107762571772814075E+01   -0.175078346232416859E+00
    0.620547888061700748E-01   -0.170198759748417388E+02    0.761513490310559260E+00    0.129348622812703051E+01    0.129592851794187482E-01    0.149427090639685733E+01   -0.243787693636854597E+01   -0.863893064426308616E-01   -0.299966599191312522E+01   -0.625538054029382423E-01   -0.128345766280207219E+00   -0.163767137505379329E+00    0.878113018136928020E-01   -0.108976947733190865E+01   -0.174456541172479856E+00
    0.631516727071429057E-01   -0.181105384730022578E+02    0.756931753389781470E+00    0.129519788110500378E+01    0.135143372344648655E-01    0.150670625571405248E+01   -0.240843003114507459E+01   -0.107031801372073312E+00   -0.624621178332115390E+00   -0.765280129965602574E-01   -0.136721837932253371E-01   -0.225801685416503140E+00    0.700833179870406636E-01   -0.107538677140688610E+01   -0.173178930487368765E+00
    0.696051891728644984E-01   -0.177157460142805512E+02    0.800203180583561879E+00    0.128174180128445792E+01    0.136468076230352991E-01    0.148752621250122408E+01   -0.248901993583061021E+01   -0.102844178228581148E+00   -0.328441023168153379E+00   -0.780516353285502368E-01   -0.849722607433816834E-01   -0.596169421237668640E-01    0.101087440138465129E+00   -0.106710117517665282E+01   -0.173137175107222346E+00
    0.675574260313383107E-01   -0.173807721682395453E+02    0.758234248309452075E+00    0.126315726693455366E+01    0.134395204053154877E-01    0.151707641439251373E+01   -0.252300804706432080E+01   -0.591637636967346711E-01    0.669532852472888962E+00   -0.552523508558435683E-01   -0.281081804195541629E+00   -0.159947401643168452E+00    0.165314412165428054E+00   -0.107546049672047461E+01   -0.173103045554999058E+00
    0.632173335421492150E-01   -0.170095929470973601E+02    0.768726326552319206E+00    0.128767763690112957E+01    0.127426139330630520E-01    0.148356248673414970E+01   -0.235817537841256497E+01   -0.105553032296469451E+00   -0.170156420648562379E+01   -0.674189006322941653E-01   -0.124426895651776864E+00   -0.896570857561967416E-01    0.108198305517261770E+00   -0.108496672478875777E+01   -0.172217378134534277E+00
    0.612895688277152878E-01   -0.172586293448244525E+02    0.781827550043738939E+00    0.131919679299013093E+01    0.129803764846621612E-01    0.150732057182365242E+01   -0.256828564108598778E+01   -0.107273154543935739E+00   -0.110816461521082688E+01   -0.641946659050876833E-01   -0.487404055178643908E-01   -0.209346459947696045E+00    0.967967683987455418E-01   -0.108132394083647410E+01   -0.171282583598988236E+00
    0.628735129589371583E-01   -0.172119918429123615E+02    0.756566566247988792E+00    0.130928999270039914E+01    0.130160624036508698E-01    0.150116127507904107E+01   -0.246991309116585311E+01   -0.824306306330302579E-01   -0.949085028379167195E+00   -0.666418920822337696E-01   -0.129331313968491068E+00   -0.182954916260768208E+00    0.807084857527174127E-01   -0.108214753432774424E+01   -0.168795470852680235E+00
    0.682444881539817361E-01   -0.169149035361619475E+02    0.815873503108830223E+00    0.131317996965590855E+01    0.125695868929832366E-01    0.149513417988719066E+01   -0.244120143545595525E+01   -0.959839586710587306E-01   -0.189171681147681059E+01   -0.885635210820960445E-01   -0.137664424108536215E+00   -0.178613769046999937E+00    0.716702912996139557E-01   -0.107445030506075234E+01   -0.167479376778100264E+00
    0.680613548920101369E-01   -0.180390363872854138E+02    0.752539676064989171E+00    0.129207957420168706E+01    0.127208177121974613E-01    0.148221817016356505E+01   -0.244874673028046486E+01   -0.606830810312241412E-01   -0.130551834102181608E+01   -0.492130365556987734E-01   -0.204738518358242194E+00   -0.104261735615775147E+00    0.855343155017256190E-01   -0.105437455771124622E+01   -0.131801978649076640E+00
    0.654678452322793591E-01   -0.176714258745656956E+02    0.716410523152919199E+00    0.132453847476834929E+01    0.123808128310267662E-01    0.150208080035401159E+01   -0.245182162887032540E+01   -0.110385352983111168E+00   -0.147848247023602730E+01   -0.505280800928403911E-01   -0.209253527647115523E-01   -0.104683134168361863E+00    0.914793022637734599E-01   -0.107833175217864952E+01   -0.161456303323616490E+00
    0.658847904315825600E-01   -0.176925594825149020E+02    0.760925773717139431E+00    0.130212574965718852E+01    0.124342774628281878E-01    0.148599263931304071E+01   -0.249981272341325811E+01   -0.103889234000454286E+00   -0.150906130052779863E+01   -0.468569087226761438E-01   -0.123604224762963871E-01   -0.643442410013841948E-01    0.599219054727583855E-01   -0.105470186702474766E+01   -0.118471816237591523E+00
    0.628714767849874873E-01   -0.176573027603123691E+02    0.770121256120308462E+00    0.127995764323887418E+01    0.125753581787892525E-01    0.149362595376260798E+01   -0.243908493746129551E+01   -0.131386543898677044E+00   -0.137607632628225796E+01   -0.600095801445770655E-01   -0.528169546651147473E-01   -0.185019100919744661E+00    0.105738010911873140E+00   -0.105062245495895068E+01   -0.153071701622255363E+00
    0.643587689292074022E-01   -0.179226521184874876E+02    0.751641182072163239E+00    0.128495490207467089E+01    0.128187696795199549E-01    0.151405539656642052E+01   -0.242914674456287916E+01   -0.113722047276082996E+00   -0.162994459895538668E+01   -0.609694432966988858E-01    0.181735527966425670E-02   -0.185993705319956903E+00    0.317684190211247816E-01   -0.109325744805499347E+01   -0.137580124592308672E+00
    0.638917258724742421E-01   -0.174418552643291491E+02    0.765534272018838391E+00    0.126767609074994780E+01    0.124307033753511577E-01    0.148569553269218546E+01   -0.246905841138668558E+01   -0.769607079550117534E-01   -0.195973986814934054E+01   -0.577523465750126169E-01   -0.389969413389870331E-01   -0.139425453368768659E+00    0.150754923075878011E+00   -0.106927725282753361E+01   -0.154458118978044318E+00
    0.715311009786832736E-01   -0.173239815206857415E+02    0.733909621059154804E+00    0.126353541485585708E+01    0.126296431824494231E-01    0.148539609672095985E+01   -0.248755282659490939E+01   -0.775765439095335574E-01    0.603030140248476565E+00   -0.352862296337357884E-01   -0.641042864767912834E-02   -0.757326944559347792E-01    0.822747384803476783E-01   -0.106717948642428628E+01   -0.134702971979926756E+00
    0.637859360481947829E-01   -0.182730410087220356E+02    0.723240231763523145E+00    0.130206420208343210E+01    0.126462195060978617E-01    0.150468093308083573E+01   -0.251879009919361474E+01   -0.806217089764499628E-01   -0.305386546354810484E+01   -0.419548760004259114E-01    0.308417589245396639E-01   -0.161574451173908368E+00    0.801997121248340106E-01   -0.105898785627078951E+01   -0.130837073921260733E+00
    0.615116118475681137E-01   -0.173827206298526136E+02    0.763418677002228319E+00    0.130391703598388764E+01    0.124595902691932037E-01    0.149431992822251281E+01   -0.253986244403126538E+01   -0.917496344183302559E-01   -0.142168780993834654E+01   -0.420813675774218479E-01   -0.114308425589856627E+00   -0.126544224480084400E+00    0.595224491858762569E-01   -0.105688527520021558E+01   -0.144509571663255371E+00
    0.626346384085823965E-01   -0.174163424323566041E+02    0.713808877314458523E+00    0.127542692556350645E+01    0.125576828430888077E-01    0.150116664569065472E+01   -0.249926038046242294E+01   -0.879191833415403634E-01   -0.224515479381839755E+01   -0.761647853219881432E-01   -0.913172853930616507E-01   -0.150506377110870920E+00    0.584465541563957414E-01   -0.107296650498610968E+01   -0.164932771710637832E+00
    0.619597579987811869E-01   -0.174445473736423970E+02    0.745929159869615721E+00    0.128077553977124370E+01    0.125917576765262693E-01    0.148755184355082259E+01   -0.242930544049154129E+01   -0.103130061695096434E+00   -0.168103892031267321E+01   -0.467590800295532225E-01   -0.267372210536441779E-01   -0.161223929155563661E+00    0.594566377971275997E-01   -0.107119346436718965E+01   -0.155743384007756142E+00
    0.617946029431973229E-01   -0.172059934720840779E+02    0.752838611601667429E+00    0.129466532686831948E+01    0.126104932027685749E-01    0.147568780168854397E+01   -0.247907114346230273E+01   -0.788732402085676187E-01   -0.220963400106424990E+01   -0.620409028350846908E-01   -0.487107987321242983E-01   -0.138958418184889909E+00    0.109287820021995968E+00   -0.107459626424754018E+01   -0.162905829761970072E+00
    0.750848050946065770E-01   -0.183826587706835340E+02    0.767697435673068918E+00    0.127722785693283902E+01    0.121379753404563355E-01    0.150643275333656357E+01   -0.245689607046183056E+01   -0.106391025703329520E+00   -0.143413694512959200E+01   -0.747323023454681129E-01   -0.880330154791792302E-01   -0.937747520470244844E-01    0.108992108391079118E+00   -0.106816502997768525E+01   -0.110584301198488874E+00
    0.685916675132914461E-01   -0.177839317725804555E+02    0.734757275886822048E+00    0.126806708294641535E+01    0.128571963765762715E-01    0.150832465875275323E+01   -0.240837803418056184E+01   -0.781094308723926656E-01   -0.161392459729497650E+01   -0.568663467139704989E-01   -0.355422584015104986E-01   -0.140672809150160616E+00    0.677179503760012569E-01   -0.109070227094487104E+01   -0.133115137819656504E+00
    0.721403065783581821E-01   -0.170350835731722796E+02    0.777425230655778621E+00    0.128499883343878318E+01    0.133019797371878110E-01    0.149493435611176406E+01   -0.247802628025890792E+01   -0.819831578242435355E-01   -0.649093737424706663E+00   -0.622949349655692666E-01   -0.124086755853669378E+00   -0.194655367484787872E+00    0.927560324727667029E-01   -0.107429217211444161E+01   -0.143701784547436706E+00
    0.691944430422598983E-01   -0.176704057025524435E+02    0.793688060434588949E+00    0.131085163621193002E+01    0.133844340799188759E-01    0.147273135705255553E+01   -0.242795203796035297E+01   -0.104876265940582469E+00   -0.360039475738317294E+00   -0.786412968399716195E-01   -0.146533865676273495E+00   -0.202981662257905399E+00    0.105178504081851101E+00   -0.108364964867036795E+01   -0.152794541338704820E+00
    0.691427668478634544E-01   -0.173256831309672599E+02    0.752285363196457557E+00    0.127781018022182380E+01    0.134336431590771736E-01    0.150283425229944068E+01   -0.246106690911246195E+01   -0.100940064054004519E+00   -0.153065301822431055E+01   -0.627223580729373287E-01   -0.926367861423789268E-01   -0.210924120591093167E+00    0.124330721349875731E+00   -0.106647229757130058E+01   -0.158689160050875466E+00
    0.674144211036213775E-01   -0.188678403571696442E+02    0.765029074625575789E+00    0.132188997995825464E+01    0.125623156963815957E-01    0.147957971388422105E+01   -0.242188953573741950E+01   -0.843411058000192032E-01   -0.206863281445320624E+01   -0.622357749619814049E-01   -0.149121453248221320E+00   -0.242517835576814028E+00    0.155100847069199105E+00   -0.108854970071585844E+01   -0.154709220147660476E+00
    0.710341938972473830E-01   -0.180643889186789579E+02    0.804449705485815847E+00    0.130411324180647337E+01    0.127877501310142347E-01    0.148490627062657476E+01   -0.249003556483620470E+01   -0.830167291571120985E-01   -0.455398222512278461E+00   -0.851088121714618923E-01    0.515215851541717118E-02   -0.133136741770397998E+00    0.786417379409807826E-01   -0.107715074203110195E+01   -0.128280449145640463E+00
    0.716832108736067813E-01   -0.189569588559871534E+02    0.767820292385402947E+00    0.132347045722494983E+01    0.133461534496862166E-01    0.150526020232694480E+01   -0.247613409698299280E+01   -0.958655762446779802E-01   -0.587688078240108158E+00   -0.703724729400841270E-01   -0.161270612157669441E-01   -0.165974029040376975E+00    0.167119605098009771E-01   -0.109459865480233409E+01   -0.150666836961382916E+00
    0.679259511288958923E-01   -0.173593885032801154E+02    0.748267099232659438E+00    0.129919601752248792E+01    0.134495263403767856E-01    0.150045543388892155E+01   -0.245129737516097368E+01   -0.890362147144056620E-01   -0.460507442480822315E+00   -0.789453389455629928E-01   -0.782428351834156960E-01   -0.140327670654103343E+00    0.814964974462781544E-01   -0.107107813876390456E+01   -0.156724657906211429E+00
    0.696947393206213822E-01   -0.176081866902864590E+02    0.770967875213194542E+00    0.133727741540496692E+01    0.135854574252173375E-01    0.149564733673124461E+01   -0.249432389874278382E+01   -0.927011366518942920E-01   -0.176207946094076462E+01   -0.715569418313152378E-01    0.537878110534424081E-01   -0.183740877192132168E+00    0.823189863837580776E-01   -0.107414470881373592E+01   -0.147272447450597088E+00
    0.728730395324284491E-01   -0.178049973328667228E+02    0.759115129474433936E+00    0.127621544494537287E+01    0.136467637198385058E-01    0.148473575076545372E+01   -0.245234099101483505E+01   -0.761886484643587436E-01   -0.163303774438709404E+01   -0.539778633217907547E-01   -0.181656103794235718E+00   -0.195986640260072675E+00    0.339928100456357851E-01   -0.108244220441856998E+01   -0.149724686026404458E+00
    0.692802695495785409E-01   -0.183216324955376422E+02    0.742389015088273929E+00    0.125818050805638149E+01    0.127668183267030232E-01    0.149215335604055133E+01   -0.245334860493880269E+01   -0.913864374942112839E-01   -0.900715774128784119E+00   -0.759110719779903381E-01   -0.106164953176839882E+00   -0.165162384349922448E+00    0.127234427528179539E+00   -0.107442868671755010E+01   -0.151857026089289221E+00
    0.694532369199149929E-01   -0.177463803032060916E+02    0.764777670313900870E+00    0.132089522154379968E+01    0.129391780672182353E-01    0.150278932776680496E+01   -0.247273786602926915E+01   -0.858628371348400532E-01   -0.269836228838337711E+01   -0.711188109122515427E-01   -0.114561766324004971E+00   -0.238815908357881773E+00    0.104921660031148778E+00   -0.107893384151157079E+01   -0.138768181620771619E+00
    0.731924897140232705E-01   -0.173392533459823888E+02    0.730916964835912730E+00    0.130536831453207980E+01    0.131958494442550815E-01    0.150530584673597390E+01   -0.246874386079890407E+01   -0.881821237041385819E-01   -0.190091942751405840E+01   -0.648308996882961813E-01   -0.542471236552759181E-01   -0.210966961027041988E+00    0.268518956447556800E-01   -0.107804694502625509E+01   -0.153608807951120696E+00
    0.764253484172788405E-01   -0.177639347111439676E+02    0.731487096551024396E+00    0.126361118595604438E+01    0.133909275466625004E-01    0.148480599561194304E+01   -0.245856461993116371E+01   -0.919655128376863362E-01   -0.108641757617023393E+01   -0.635650410928584736E-01   -0.906784480803817100E-01   -0.523674213575386210E-01    0.567201898961070261E-01   -0.107851976848726583E+01   -0.125866581821540008E+00
    0.681674513868330834E-01   -0.170169257599670019E+02    0.793063433407857454E+00    0.129874577811086311E+01    0.133549077890310411E-01    0.149780189680650300E+01   -0.250704081508903087E+01   -0.763763465236600436E-01   -0.754188271047943282E+00   -0.663056755619239602E-01   -0.954782322920924992E-01   -0.117346383477334226E+00    0.479044682423719059E-01   -0.105558028715130936E+01   -0.153991906662065137E+00
    0.636971163959017400E-01   -0.179611615072491730E+02    0.783043068001663456E+00    0.132953391047978475E+01    0.125970595070512940E-01    0.150802480356703206E+01   -0.247967877758835531E+01   -0.669359088542582081E-01   -0.216380780265582162E+00   -0.627366509405901523E-01   -0.225218228206583632E+00   -0.142725152779727277E+00    0.682590712699357310E-01   -0.107448017340519408E+01   -0.147949514382455849E+00
    0.600172262284961386E-01   -0.177377328115451398E+02    0.754163263973258724E+00    0.128807105276008604E+01    0.127429558073299497E-01    0.148928582809855925E+01   -0.249506871282435672E+01   -0.665324932087804355E-01    0.661342991501655986E+00   -0.731005078531420244E-01   -0.153493098610821055E+00   -0.149267591805258559E+00    0.865926392511894710E-01   -0.108997928694224178E+01   -0.158677543023256901E+00
    0.645746729141927212E-01   -0.172056827210356253E+02    0.753389673535771576E+00    0.127639445634362070E+01    0.130603240059241569E-01    0.149398803930073032E+01   -0.244476193686538767E+01   -0.499727981651544931E-01   -0.164051262061435343E+01   -0.775355249920003931E-01   -0.120274087510393743E+00   -0.232250338303754023E+00    0.535201687225336370E-01   -0.107489819101956252E+01   -0.163971840121537732E+00
    0.644124669860588472E-01   -0.168722536993995362E+02    0.776188159895859098E+00    0.130594418677857615E+01    0.131866328760640913E-01    0.147660003885000890E+01   -0.247421123108688468E+01   -0.864547905656255083E-01   -0.128578675029650413E+01   -0.863303704374929898E-01   -0.188920272477017537E+00   -0.168550323016326942E+00    0.933237588970236842E-01   -0.108220062928691618E+01   -0.164906230902092749E+00
    0.609664827796594089E-01   -0.180174767135842515E+02    0.776143612006619521E+00    0.130442638622204066E+01    0.127211967410626355E-01    0.149310603332387704E+01   -0.248415621033323442E+01   -0.692019914998889679E-01   -0.687848463103213570E+00   -0.458710787082224070E-01   -0.109703459659489036E+00   -0.158141736698247243E+00    0.922113997916565037E-01   -0.107908761159909505E+01   -0.147223169379697844E+00
    0.612815290437896676E-01   -0.178177527468118910E+02    0.728143422167532584E+00    0.134570003411894690E+01    0.131536946452924068E-01    0.150538638504255240E+01   -0.248862345004379115E+01   -0.747436663761103653E-01   -0.405839857301882545E+00   -0.792524308213932438E-01   -0.206546963099343894E+00   -0.171670345902886184E+00    0.529166391550318360E-01   -0.108265698691114931E+01   -0.157532202612225142E+00
    0.668467364370147893E-01   -0.179282499812730052E+02    0.783942587245929579E+00    0.129163721183981650E+01    0.126358145224925479E-01    0.149904113828260210E+01   -0.239888983977307291E+01   -0.727651356745305788E-01   -0.105025176192234415E+01   -0.834511949644559936E-01   -0.199256534364397414E+00   -0.844735291311125430E-01    0.947650391180535623E-01   -0.107814267916952744E+01   -0.134304897852309951E+00
