    0.681031117487287535E-01   -0.285499595212523758E+02    0.893939682800835800E+00    0.936228393007143223E+00    0.975087918806220345E-02    0.225148695088932449E+01   -0.274516934737468299E+01   -0.112902858545866625E+00   -0.561413710594290549E+01   -0.148344257366943705E+00    0.178614611971100595E-01   -0.232098826293313826E+00   -0.258581678651290808E-01   -0.111804879973427718E+01   -0.617855643296895174E+01
    0.702440076669846036E-01   -0.281975707436401883E+02    0.910225153796398012E+00    0.810782476612095238E+00    0.999017383057406762E-02    0.225635226145782264E+01   -0.275716207179770834E+01   -0.123185803935081634E+00   -0.961339742094201455E+01   -0.144316645692741163E+00   -0.956942737323900061E-01   -0.225684766758389943E+00   -0.154536074579385646E+00   -0.109159851296574617E+01   -0.613914822941814720E+01
    0.702440076669846036E-01   -0.281975707436401883E+02    0.910225153796398012E+00    0.810782476612095238E+00    0.999017383057406762E-02    0.225635226145782264E+01   -0.275716207179770834E+01   -0.123185803935081634E+00   -0.961339742094201455E+01   -0.144316645692741163E+00   -0.956942737323900061E-01   -0.225684766758389943E+00   -0.154536074579385646E+00   -0.109159851296574617E+01   -0.613914822941814720E+01
    0.713754196662636231E-01   -0.282459055528641869E+02    0.898999836044641398E+00    0.924795564959467908E+00    0.101739143866403248E-01    0.224955366905739940E+01   -0.274319437880420836E+01   -0.107662528672585883E+00   -0.566491735385013939E+01   -0.134970166450185752E+00   -0.174892905178599206E+00   -0.340238848832638940E+00    0.118880455064877266E-01   -0.114212540094733095E+01   -0.613701936696890904E+01
    0.693490460408099640E-01   -0.281691711500137743E+02    0.896855856246358774E+00    0.972825840527776320E+00    0.969808216239008078E-02    0.224915486180129109E+01   -0.269283364308216200E+01   -0.114989190415767717E+00   -0.559380785748084364E+01   -0.140105850038187818E+00   -0.120223383996444777E+00   -0.321135078002419583E+00   -0.112881467017185197E+00   -0.113997621644605251E+01   -0.613234438264350956E+01
    0.705815027284574792E-01   -0.281956647054268963E+02    0.907332297964343559E+00    0.948109869656355353E+00    0.924875129560863256E-02    0.224738847372793327E+01   -0.272110281413608313E+01   -0.138196106359950249E+00   -0.529740434872979726E+01   -0.178798377146927895E+00   -0.300729385399447421E-01   -0.385598820795861552E+00   -0.121523487233992242E+00   -0.113006113902315364E+01   -0.609373750415232518E+01
    0.705815027284574792E-01   -0.281956647054268963E+02    0.907332297964343559E+00    0.948109869656355353E+00    0.924875129560863256E-02    0.224738847372793327E+01   -0.272110281413608313E+01   -0.138196106359950249E+00   -0.529740434872979726E+01   -0.178798377146927895E+00   -0.300729385399447421E-01   -0.385598820795861552E+00   -0.121523487233992242E+00   -0.113006113902315364E+01   -0.609373750415232518E+01
    0.705179366128027424E-01   -0.285565112224059838E+02    0.901849465115818760E+00    0.895616233430519992E+00    0.891455546141510166E-02    0.225233377870907336E+01   -0.273464464850411337E+01   -0.116206044140257189E+00   -0.439462328011108561E+01   -0.127207223744478404E+00   -0.830392142984980874E-01   -0.417420022346002006E+00   -0.119108528258779267E+00   -0.109740959372303526E+01   -0.608351559873460790E+01
    0.692866109843389144E-01   -0.281139422061139221E+02    0.907215478263611264E+00    0.866986053655305011E+00    0.954273378091919332E-02    0.224709715844687308E+01   -0.272611354665483496E+01   -0.118655995106086237E+00   -0.668967168239945220E+01   -0.145385998994614796E+00   -0.131796036654360377E+00   -0.542621054618296572E+00   -0.101520128346516400E+00   -0.111404585366784015E+01   -0.607521984132510973E+01
    0.692866109843389144E-01   -0.281139422061139221E+02    0.907215478263611264E+00    0.866986053655305011E+00    0.954273378091919332E-02    0.224709715844687308E+01   -0.272611354665483496E+01   -0.118655995106086237E+00   -0.668967168239945220E+01   -0.145385998994614796E+00   -0.131796036654360377E+00   -0.542621054618296572E+00   -0.101520128346516400E+00   -0.111404585366784015E+01   -0.607521984132510973E+01
    0.717914793962983605E-01   -0.284018184355624399E+02    0.894901527828264709E+00    0.860635971518640908E+00    0.838393651494519915E-02    0.225430310487060481E+01   -0.271725895976404841E+01   -0.120686877305460016E+00   -0.650503986378587840E+01   -0.152775178042046073E+00    0.540252836600851466E-01   -0.308403708568906032E+00   -0.964497524503400705E-01   -0.116252591748735390E+01   -0.606238071374471854E+01
    0.714267734390298947E-01   -0.280367139275747270E+02    0.877361762272714008E+00    0.939695450018973921E+00    0.803229853346173334E-02    0.225466352959271754E+01   -0.274534907891510827E+01   -0.116248470737558285E+00   -0.724475946217885358E+01   -0.141339831800881027E+00   -0.103181858690411035E+00   -0.381188308048150626E+00   -0.116326392792969996E+00   -0.112995552630633878E+01   -0.603478627945839197E+01
    0.714267734390298947E-01   -0.280367139275747270E+02    0.877361762272714008E+00    0.939695450018973921E+00    0.803229853346173334E-02    0.225466352959271754E+01   -0.274534907891510827E+01   -0.116248470737558285E+00   -0.724475946217885358E+01   -0.141339831800881027E+00   -0.103181858690411035E+00   -0.381188308048150626E+00   -0.116326392792969996E+00   -0.112995552630633878E+01   -0.603478627945839197E+01
    0.687476874203114541E-01   -0.287500120352516753E+02    0.888858803834826738E+00    0.893420644940220443E+00    0.937029194977396715E-02    0.225436344309216308E+01   -0.272373305789326725E+01   -0.103185549901691084E+00   -0.905421460123700861E+01   -0.102748543100496650E+00   -0.821846376793600175E-02   -0.251220383332466601E+00   -0.941211213984277373E-01   -0.112540213033467706E+01   -0.603042352409546556E+01
    0.679487136617390741E-01   -0.283453993494621592E+02    0.886448887581160472E+00    0.872114713913999307E+00    0.102529761148371732E-01    0.225033008425252845E+01   -0.275318251991585372E+01   -0.131618536146180076E+00   -0.584196433184226649E+01   -0.162920828189041439E+00    0.537229470015754135E-01   -0.438916021368528253E+00   -0.606450817508970424E-01   -0.112979666867785467E+01   -0.602512590287550864E+01
    0.679487136617390741E-01   -0.283453993494621592E+02    0.886448887581160472E+00    0.872114713913999307E+00    0.102529761148371732E-01    0.225033008425252845E+01   -0.275318251991585372E+01   -0.131618536146180076E+00   -0.584196433184226649E+01   -0.162920828189041439E+00    0.537229470015754135E-01   -0.438916021368528253E+00   -0.606450817508970424E-01   -0.112979666867785467E+01   -0.602512590287550864E+01
    0.709619404812201204E-01   -0.285311377609838779E+02    0.894695205738760935E+00    0.945655306643107707E+00    0.903954323349478485E-02    0.225012968887851406E+01   -0.270111918532240480E+01   -0.120708236589515877E+00   -0.354215612154585191E+01   -0.115204124679474051E+00   -0.484924812324992183E-01   -0.293597439262027748E+00   -0.824678014879602628E-01   -0.113465114909371012E+01   -0.601541552736082430E+01
    0.709619404812201204E-01   -0.285311377609838779E+02    0.894695205738760935E+00    0.945655306643107707E+00    0.903954323349478485E-02    0.225012968887851406E+01   -0.270111918532240480E+01   -0.120708236589515877E+00   -0.354215612154585191E+01   -0.115204124679474051E+00   -0.484924812324992183E-01   -0.293597439262027748E+00   -0.824678014879602628E-01   -0.113465114909371012E+01   -0.601541552736082430E+01
    0.689596804749864484E-01   -0.283275379657460462E+02    0.892054732918496351E+00    0.881074679120370186E+00    0.990011675725943792E-02    0.225012302446751500E+01   -0.270683058633714912E+01   -0.133549621730043228E+00   -0.457561515681060627E+01   -0.132291547145582444E+00    0.337858611712674173E-01   -0.851117760383558741E-01   -0.122261466810163949E+00   -0.112939968956717318E+01   -0.600926019241919374E+01
    0.681885446728839606E-01   -0.281639730617814479E+02    0.894571072082173679E+00    0.841533419825455042E+00    0.948439325468186656E-02    0.224628774951886667E+01   -0.278109208992372947E+01   -0.142889554055206786E+00   -0.504492454900906573E+01   -0.127444177829003580E+00   -0.752241380324459863E-01   -0.170785177555614870E+00   -0.132370788413656570E+00   -0.113236771136087833E+01   -0.600492523404372047E+01
    0.722363918256049148E-01   -0.280586247133947566E+02    0.905312533082814230E+00    0.880112917997696087E+00    0.104107791769218715E-01    0.225414887172245093E+01   -0.279841505389755074E+01   -0.144615250342350593E+00   -0.817188030026824208E+01   -0.168793678741771647E+00   -0.251960916468136759E-01   -0.239675370396839171E+00   -0.139146425655342354E+00   -0.111348482563849482E+01   -0.600122577965282122E+01
    0.722363918256049148E-01   -0.280586247133947566E+02    0.905312533082814230E+00    0.880112917997696087E+00    0.104107791769218715E-01    0.225414887172245093E+01   -0.279841505389755074E+01   -0.144615250342350593E+00   -0.817188030026824208E+01   -0.168793678741771647E+00   -0.251960916468136759E-01   -0.239675370396839171E+00   -0.139146425655342354E+00   -0.111348482563849482E+01   -0.600122577965282122E+01
    0.695979911239421184E-01   -0.281276730170960718E+02    0.889959075873000716E+00    0.920728403088420966E+00    0.932653979635149691E-02    0.224718506748406854E+01   -0.274522049405127389E+01   -0.116547377664964383E+00   -0.357047146528929416E+01   -0.155876819555594986E+00   -0.547063984360829994E-01   -0.245968001109974244E+00   -0.176805916734741553E+00   -0.112486332384140297E+01   -0.599869728673787783E+01
    0.695979911239421184E-01   -0.281276730170960718E+02    0.889959075873000716E+00    0.920728403088420966E+00    0.932653979635149691E-02    0.224718506748406854E+01   -0.274522049405127389E+01   -0.116547377664964383E+00   -0.357047146528929416E+01   -0.155876819555594986E+00   -0.547063984360829994E-01   -0.245968001109974244E+00   -0.176805916734741553E+00   -0.112486332384140297E+01   -0.599869728673787783E+01
    0.706854221024023621E-01   -0.283274044422322646E+02    0.892684055569309187E+00    0.933923002369253741E+00    0.963322918926762077E-02    0.224863327895637433E+01   -0.275590039984266388E+01   -0.143257473375713984E+00   -0.548191669554433147E+01   -0.118072123140948393E+00   -0.883442602376301456E-01   -0.270872110154204537E+00   -0.104615153990759671E+00   -0.112432572838303990E+01   -0.599769246302443282E+01
    0.706854221024023621E-01   -0.283274044422322646E+02    0.892684055569309187E+00    0.933923002369253741E+00    0.963322918926762077E-02    0.224863327895637433E+01   -0.275590039984266388E+01   -0.143257473375713984E+00   -0.548191669554433147E+01   -0.118072123140948393E+00   -0.883442602376301456E-01   -0.270872110154204537E+00   -0.104615153990759671E+00   -0.112432572838303990E+01   -0.599769246302443282E+01
    0.682483216270258902E-01   -0.279638612213876350E+02    0.895994038981738572E+00    0.915370915276701447E+00    0.921990099936179607E-02    0.225138466037459750E+01   -0.273314303905326117E+01   -0.140921095582891676E+00   -0.286749661334662731E+01   -0.106146119730632732E+00   -0.122788707755558696E+00   -0.214967889018526342E+00   -0.149682828065110712E+00   -0.113025006471370792E+01   -0.597566717988984575E+01
    0.682483216270258902E-01   -0.279638612213876350E+02    0.895994038981738572E+00    0.915370915276701447E+00    0.921990099936179607E-02    0.225138466037459750E+01   -0.273314303905326117E+01   -0.140921095582891676E+00   -0.286749661334662731E+01   -0.106146119730632732E+00   -0.122788707755558696E+00   -0.214967889018526342E+00   -0.149682828065110712E+00   -0.113025006471370792E+01   -0.597566717988984575E+01
    0.726095486601656265E-01   -0.284049101771450729E+02    0.892180023329046445E+00    0.857859158768969676E+00    0.939004594245399990E-02    0.225358329001048530E+01   -0.277806264126002134E+01   -0.131110714292338670E+00   -0.684356501815075280E+01   -0.159393650190656017E+00    0.134735100761645965E-02   -0.155801792166798403E+00   -0.125075127233596317E+00   -0.111842246384191757E+01   -0.597393133341788207E+01
    0.726095486601656265E-01   -0.284049101771450729E+02    0.892180023329046445E+00    0.857859158768969676E+00    0.939004594245399990E-02    0.225358329001048530E+01   -0.277806264126002134E+01   -0.131110714292338670E+00   -0.684356501815075280E+01   -0.159393650190656017E+00    0.134735100761645965E-02   -0.155801792166798403E+00   -0.125075127233596317E+00   -0.111842246384191757E+01   -0.597393133341788207E+01
    0.708055214117446069E-01   -0.280527068763075960E+02    0.902078703428510820E+00    0.920448306040672515E+00    0.944689107241976703E-02    0.225014851104125091E+01   -0.271200619933957610E+01   -0.125119071410637467E+00   -0.497452151736624248E+01   -0.105501807249288676E+00    0.189947848322832291E-01   -0.222920570467278617E+00   -0.109169393189929131E+00   -0.112125452278152382E+01   -0.596831029300300475E+01
    0.708055214117446069E-01   -0.280527068763075960E+02    0.902078703428510820E+00    0.920448306040672515E+00    0.944689107241976703E-02    0.225014851104125091E+01   -0.271200619933957610E+01   -0.125119071410637467E+00   -0.497452151736624248E+01   -0.105501807249288676E+00    0.189947848322832291E-01   -0.222920570467278617E+00   -0.109169393189929131E+00   -0.112125452278152382E+01   -0.596831029300300475E+01
    0.701260362601787840E-01   -0.280783544402617942E+02    0.900825276714177225E+00    0.960834058814462488E+00    0.915881898902611187E-02    0.225240774219000395E+01   -0.271780723003128433E+01   -0.114254469913980528E+00   -0.817159240217092631E+01   -0.133592866247578684E+00   -0.141564110309695956E+00   -0.223189925293934333E+00   -0.609786307417108028E-01   -0.111863779839610378E+01   -0.596815892940540671E+01
    0.691411175152815832E-01   -0.279973832222627692E+02    0.900846463027326405E+00    0.900125970995661939E+00    0.944653083681141863E-02    0.224944319031976248E+01   -0.279010170319692863E+01   -0.129978744853352091E+00   -0.493355742182498958E+01   -0.166740380931074017E+00   -0.102583903319692915E-01   -0.768725949166970957E-01   -0.716996804415801214E-01   -0.112362448260161396E+01   -0.596672002601163598E+01
    0.717643576518067761E-01   -0.279815722266978284E+02    0.886079096336841010E+00    0.924000921235851203E+00    0.777978940818568453E-02    0.224688340099564510E+01   -0.285128871208698831E+01   -0.129401603288019890E+00   -0.602440134235380764E+01   -0.134753364046449525E+00   -0.591530241550970726E-02   -0.227945904554423873E+00   -0.109939123843977790E+00   -0.114202472343664807E+01   -0.596285463200126209E+01
    0.698840180183501053E-01   -0.280480892604800047E+02    0.878142786852925905E+00    0.838162181105397308E+00    0.882444867154797037E-02    0.225200433124516408E+01   -0.272454466686209607E+01   -0.116105793871089699E+00   -0.117835650460852648E+01   -0.618292945553131634E-01    0.827671429334528308E-03   -0.240507660173276905E+00   -0.133242631187172889E+00   -0.113861127645806537E+01   -0.596060421700893261E+01
    0.694138382353518824E-01   -0.281317329565040737E+02    0.894095999101396255E+00    0.899859876468143249E+00    0.985330783078216567E-02    0.225220109749184694E+01   -0.272939575850004479E+01   -0.127376630155075082E+00   -0.595424024892965242E+01   -0.152426725600302432E+00   -0.308340456934396295E-01   -0.146296641251359189E+00   -0.145136827805096569E+00   -0.112408331778904036E+01   -0.596018006205801587E+01
    0.699067474915880671E-01   -0.283023163568379026E+02    0.894630098921792793E+00    0.922608444566184405E+00    0.979065245721339079E-02    0.225400044742300576E+01   -0.272870799135737485E+01   -0.125882030207106144E+00   -0.489836234762468159E+01   -0.479429135835889031E-01   -0.113772430836628524E+00   -0.365758070502065658E+00   -0.117090847897253547E+00   -0.113957363555528612E+01   -0.595579631987591629E+01
    0.689137288809030801E-01   -0.281499995248333903E+02    0.891118615320502294E+00    0.979815019025901290E+00    0.907898062042791429E-02    0.225185065404951024E+01   -0.270086010687432365E+01   -0.129441248924773572E+00   -0.514850485902806376E+01   -0.138114884046077829E+00   -0.969784451503358236E-01   -0.251356349423638714E+00   -0.955555492784994631E-01   -0.111494065110784035E+01   -0.595421623838220349E+01
    0.716533345430706986E-01   -0.283131930391117272E+02    0.894374981645157940E+00    0.923905488221815285E+00    0.903686911711977341E-02    0.225651335953836751E+01   -0.271857714930034478E+01   -0.127544907824733572E+00   -0.356039613596259041E+01   -0.110830568221385053E+00   -0.115730544914210615E+00   -0.830117089205162917E-01   -0.108180951526063052E+00   -0.112723400781489413E+01   -0.595356283563553479E+01
    0.684482646124309757E-01   -0.281137776805425048E+02    0.888129138411683838E+00    0.865974358754690532E+00    0.877765321660895978E-02    0.224491961751104174E+01   -0.277645553896309671E+01   -0.120846605891621273E+00   -0.940550096020119497E+01   -0.105341164066588194E+00   -0.119421202556917294E+00   -0.457426663482817908E+00   -0.117272354356745642E+00   -0.113071527475181655E+01   -0.595242604642031647E+01
    0.713562093451895613E-01   -0.280011901004746981E+02    0.878631270013603749E+00    0.955858575160677959E+00    0.964293700839454447E-02    0.224875583224565423E+01   -0.272845245468656161E+01   -0.119020796981092122E+00   -0.469818248267679994E+01   -0.147982869578313858E+00   -0.628690790902819430E-01   -0.339306318374091753E+00   -0.156199854103307140E+00   -0.111381316738107516E+01   -0.595162790500635630E+01
    0.677000669228823848E-01   -0.281772413769285741E+02    0.885125799425801163E+00    0.918300076564311563E+00    0.953650014629438270E-02    0.225206563146087202E+01   -0.273385510676431887E+01   -0.108351156469351062E+00   -0.508554963756730505E+01   -0.128308159918179676E+00   -0.142218069982712580E+00   -0.252329264284614108E+00   -0.112093046262404308E+00   -0.113141558607031101E+01   -0.595111331953946188E+01
    0.716340443121991494E-01   -0.275064106566990567E+02    0.894988179212988566E+00    0.913775557514388659E+00    0.969815662213307193E-02    0.224861129175460350E+01   -0.276805143413841392E+01   -0.121530612770730628E+00   -0.601980559556013350E+01   -0.120736450310567997E+00    0.457235835850963307E-01   -0.312407109583200115E+00   -0.844230426260339090E-01   -0.112635331801307803E+01   -0.594629067917598331E+01
    0.695010643423360636E-01   -0.284633154529296704E+02    0.892258978034385475E+00    0.939769134580851651E+00    0.873843814442650316E-02    0.225117118034828900E+01   -0.274765309810376790E+01   -0.127333844175855804E+00   -0.585767753886576958E+01   -0.113995668619630161E+00   -0.649063635377574999E-01   -0.286981959358881877E+00   -0.116115589452694859E+00   -0.110975664400085239E+01   -0.594556692427133981E+01
    0.690034642923781222E-01   -0.283813069327777363E+02    0.892332799574547031E+00    0.921308229502545206E+00    0.954644743972359912E-02    0.225673067721158427E+01   -0.274684321966658329E+01   -0.132066304446664173E+00   -0.541202358631608860E+01   -0.119578387686644930E+00   -0.647347797879644360E-01   -0.297383034774160948E+00   -0.143320104956624922E+00   -0.111878626623569288E+01   -0.594357590137822367E+01
    0.704478683052071480E-01   -0.280744454033996291E+02    0.902719209459940886E+00    0.873890330228491385E+00    0.904094851863089348E-02    0.225326729769886569E+01   -0.278811426560841813E+01   -0.131218424076685963E+00   -0.845085837503134840E+01   -0.118765757918620485E+00   -0.122559304782344225E+00   -0.205772305206591732E+00   -0.927853779023952996E-01   -0.111975225116512345E+01   -0.594201091021570704E+01
    0.687988344242530109E-01   -0.280140851113124718E+02    0.886719460595078002E+00    0.856084278115675779E+00    0.105759874964265546E-01    0.225220762976460165E+01   -0.269663490166501418E+01   -0.130427269412050795E+00   -0.749762164757002481E+01   -0.137660723082974945E+00   -0.243969652467138642E+00   -0.320434815249568350E+00   -0.737824520285954993E-01   -0.112408941531881412E+01   -0.594181000424439443E+01
    0.696842358077387480E-01   -0.282500216757478562E+02    0.895633864235199084E+00    0.873142440448183454E+00    0.965364047350766689E-02    0.225500684159482478E+01   -0.279517779439416092E+01   -0.115722403038547417E+00   -0.584778954798135775E+01   -0.171828255625849802E+00    0.220019240523889603E-01   -0.688055061307880911E-01   -0.804140625245497453E-02   -0.112573418261288993E+01   -0.594022166322693135E+01
    0.694718497876167240E-01   -0.280588553473472651E+02    0.885569332118381181E+00    0.962543876450602021E+00    0.996224448796197842E-02    0.225554514315881427E+01   -0.274584936224589482E+01   -0.135890104688755925E+00   -0.481583880129228081E+01   -0.142888781210513072E+00   -0.494119963666315581E-01   -0.334436974705704826E+00   -0.115724131568897423E+00   -0.113002966656229153E+01   -0.593651820325133706E+01
    0.687426332434824539E-01   -0.280120729676145075E+02    0.903410711474032069E+00    0.863645438991880066E+00    0.906715844606313139E-02    0.225034321298940032E+01   -0.278962390237378566E+01   -0.135465670131150906E+00   -0.658695507242054124E+01   -0.898665591621705256E-01   -0.116004734020356756E+00   -0.213634739027232512E+00   -0.783210554890761829E-01   -0.112918106243783822E+01   -0.593634670509847950E+01
    0.697056626487624620E-01   -0.279691058133023844E+02    0.895816941871888206E+00    0.935867016092497783E+00    0.919092555872935354E-02    0.225517403886074641E+01   -0.270177146333602503E+01   -0.109048516081508146E+00   -0.406161394328372349E+01   -0.148843302434980840E+00   -0.138631894781383880E+00   -0.453264313869055413E+00   -0.725529004122348886E-01   -0.114786709067892057E+01   -0.593566546552004848E+01
    0.690308249673543955E-01   -0.280528027667381572E+02    0.899135620608767505E+00    0.903369102416810676E+00    0.829181999104881481E-02    0.225138723132941498E+01   -0.281319580024155025E+01   -0.120878404102619547E+00   -0.220243204019249328E+01   -0.120154221797693944E+00   -0.438395885710741035E-01   -0.248526366296654755E+00   -0.950350791780947002E-01   -0.113086750054024354E+01   -0.593228260512840055E+01
    0.731535612813329211E-01   -0.280853316969469198E+02    0.887092702151442869E+00    0.931602535340465665E+00    0.872607109378883451E-02    0.225191892782359293E+01   -0.272974243966382657E+01   -0.120476342314666640E+00   -0.525795105507805172E+01   -0.626868089130742379E-01    0.669970126703027524E-02   -0.446410496138655466E+00   -0.703824840029060317E-01   -0.113555450799278912E+01   -0.593035750947902951E+01
    0.700063976257057352E-01   -0.284078391062765583E+02    0.890938480952582434E+00    0.896326797726184066E+00    0.869301131369174321E-02    0.224994212490041612E+01   -0.271880829439288751E+01   -0.123866410564956231E+00   -0.502628120910059550E+01   -0.148414146795283641E+00   -0.131651445705208398E+00   -0.250373912877425886E+00   -0.986162888453274572E-01   -0.112452643765003213E+01   -0.592980859173022168E+01
    0.709361772014665687E-01   -0.282718522092430682E+02    0.888206643872875623E+00    0.892801923972062150E+00    0.102514450837060817E-01    0.225268880310604391E+01   -0.274974978540637593E+01   -0.124599021352803610E+00   -0.628439698829048154E+01   -0.148523714699726389E+00   -0.100644056009481911E+00   -0.242758071923467406E+00   -0.170380385659539779E+00   -0.113647400917749519E+01   -0.592959247967091407E+01
    0.729341887058263250E-01   -0.280172039538329791E+02    0.899684005149070432E+00    0.830652192932181621E+00    0.104482550320304478E-01    0.225187054259679797E+01   -0.276739903627004358E+01   -0.119651048916973798E+00   -0.564090765348122147E+01   -0.143999263684370077E+00   -0.147056069751180712E+00   -0.329258086846020814E+00   -0.117310499409593566E+00   -0.113312720144202594E+01   -0.592906126354141882E+01
    0.709117043141020420E-01   -0.282108616476560101E+02    0.892147978536855568E+00    0.978324571372998220E+00    0.964848403540508395E-02    0.225535309434552200E+01   -0.278398315409445463E+01   -0.106651450850580781E+00   -0.377196374295343118E+01   -0.150552094116548657E+00   -0.264296141776778404E+00   -0.326416076307128378E+00   -0.137339639427593835E+00   -0.113307180394628104E+01   -0.592697244826431735E+01
    0.728154464956484448E-01   -0.282320062371700402E+02    0.893507505917098377E+00    0.949753550384297984E+00    0.885670934475303075E-02    0.225421213044286128E+01   -0.280346801397927070E+01   -0.117843774451579147E+00   -0.641978610625594648E+01   -0.165594672712154528E+00   -0.180734972650665793E+00   -0.359843116681923536E+00   -0.988949941241176189E-01   -0.110640083506303699E+01   -0.592527922549889929E+01
    0.707388865836021674E-01   -0.284722099456809694E+02    0.875989374489437145E+00    0.992626173022905678E+00    0.891482129266544208E-02    0.225108121282848828E+01   -0.270276663395274941E+01   -0.134925997745333009E+00   -0.236903320009763441E+01   -0.145362658853491256E+00   -0.239951602037581868E+00   -0.295723157845703577E+00   -0.957927605005235300E-01   -0.110947249850650720E+01   -0.592437035186082017E+01
    0.692100918598391734E-01   -0.282013356765192711E+02    0.878169057235058004E+00    0.939224416844899546E+00    0.100809981709566020E-01    0.225371884418122637E+01   -0.275431843574439306E+01   -0.122859826675099579E+00   -0.497316937385334690E+01   -0.123964040960563640E+00    0.306182952170787753E-01   -0.234571807178296121E+00   -0.963644436079253153E-01   -0.114635754807648649E+01   -0.592366538793012953E+01
    0.701183642684171243E-01   -0.281176329190355681E+02    0.873761797122471595E+00    0.909597122694790761E+00    0.865394946350247704E-02    0.225411108994920140E+01   -0.273279173077927640E+01   -0.114374600659606904E+00   -0.681453010692703032E+01   -0.940624553209545161E-01   -0.270890417826104068E+00   -0.404632165059276017E+00   -0.107353498576397755E+00   -0.112736735431428348E+01   -0.591928822460263415E+01
    0.714912965177354892E-01   -0.283242672144183167E+02    0.877444094434634225E+00    0.966101615395375646E+00    0.935712193500971498E-02    0.224805451012594082E+01   -0.274498112851342979E+01   -0.138039104347595309E+00   -0.554497547884806430E+01   -0.160382008143582611E+00    0.275880214792863232E-01   -0.382047510917260635E+00   -0.989373375422834128E-01   -0.111948728666730069E+01   -0.591348851722293478E+01
    0.717049837250094968E-01   -0.281548827388315530E+02    0.892969219937445824E+00    0.867579994606074822E+00    0.971829933506076354E-02    0.225048312083244095E+01   -0.274314329088654052E+01   -0.116899966878174402E+00   -0.830533523242707794E+01   -0.123978891069020894E+00   -0.127923133587134266E-01   -0.354092329360106983E+00   -0.114074408910589870E+00   -0.111630451213080328E+01   -0.591174016135349145E+01
    0.704416593463381702E-01   -0.280064087810537394E+02    0.885083012280577286E+00    0.866717673468320848E+00    0.912228693318672436E-02    0.225155299987815560E+01   -0.273678861038707666E+01   -0.118645165318910978E+00   -0.357770012007470761E+01   -0.167809845653925344E+00    0.467211207716860255E-01   -0.187010732264378199E+00   -0.909546770755903927E-01   -0.111941148569414617E+01   -0.591129252788228232E+01
    0.695049288384722852E-01   -0.283495178663222340E+02    0.884911727331076370E+00    0.895864670900844429E+00    0.986688300313118619E-02    0.225287317220994732E+01   -0.276988139840342606E+01   -0.125069730657626277E+00   -0.686256655347347788E+01   -0.131385309637579578E+00   -0.138078642273428032E+00   -0.317519901911823943E+00   -0.109166958079287293E+00   -0.109832920157530523E+01   -0.591103695856870726E+01
    0.697407590688166462E-01   -0.281260368383954500E+02    0.888028558701607129E+00    0.919166672601758994E+00    0.888902987730371894E-02    0.225160730641576601E+01   -0.271965427720479180E+01   -0.117954086209068304E+00   -0.448093992293523158E+01   -0.765430841164095599E-01    0.217007548155793567E-01   -0.365220871471036435E+00   -0.173421697411052789E+00   -0.113179020547586417E+01   -0.590576429166711137E+01
    0.703817108938247504E-01   -0.283640790258543909E+02    0.877095653307497725E+00    0.861130805677152056E+00    0.919845827332503065E-02    0.225110092976757636E+01   -0.279570579130211083E+01   -0.134107466790863938E+00   -0.632970896513548453E+01   -0.120097754321552216E+00   -0.147230601399684136E+00   -0.424607092573304090E+00   -0.758587088516205904E-01   -0.112331817655217159E+01   -0.586112387975619686E+01
    0.712683349852676340E-01   -0.281403266128005995E+02    0.892216029024274881E+00    0.892284415230296002E+00    0.949932647227043001E-02    0.224914399507080409E+01   -0.275038289252735302E+01   -0.119417268468752918E+00   -0.569907443916266487E+01   -0.141263272932962730E+00   -0.536862295029981451E-01   -0.284227198447456253E+00   -0.919975260182855914E-01   -0.111707556359591087E+01   -0.590835664797156301E+01
    0.710193570531180568E-01   -0.279191142550654057E+02    0.885389409774380076E+00    0.916755159471696168E+00    0.940086729704573375E-02    0.225262386832051398E+01   -0.267124950116003212E+01   -0.147076324795447411E+00   -0.643860874893960666E+01   -0.144814822440061719E+00   -0.166528248037336402E+00   -0.330339584189520585E+00   -0.695393416338297848E-01   -0.111406196342438779E+01   -0.587544043587701026E+01
    0.700041627229392033E-01   -0.278443579962837973E+02    0.889086790610468691E+00    0.914198443135729399E+00    0.965642282555350187E-02    0.225533128198755639E+01   -0.279732836798218365E+01   -0.127594372161217218E+00   -0.431437673058400506E+01   -0.136083009994285742E+00    0.627047700535717373E-01   -0.363329037498634877E+00   -0.157638889388805131E+00   -0.112529825202667966E+01   -0.589536324602169604E+01
    0.715372322458427967E-01   -0.278903822648515209E+02    0.885202356982434435E+00    0.965062918229482092E+00    0.936635733009673517E-02    0.225246500878828337E+01   -0.275287984116932627E+01   -0.114499590403123463E+00   -0.362521915329506816E+01   -0.103131832207565166E+00    0.660282049863480797E-01   -0.234619706992278909E+00   -0.113340803135816556E+00   -0.114320267225750105E+01   -0.587663720855926819E+01
    0.711412732336319242E-01   -0.279099482470561746E+02    0.894989846017474777E+00    0.929238918076487397E+00    0.935060892137231509E-02    0.225625659123466127E+01   -0.271259112620763698E+01   -0.123891872012932336E+00   -0.744699404152666133E+01   -0.122597825680337502E+00   -0.356475045266545151E-01   -0.232062791790520973E+00   -0.818864184565544356E-01   -0.112842252550117128E+01   -0.589695627852155546E+01
    0.702873511045320892E-01   -0.280870607440610165E+02    0.885695875069482108E+00    0.903847169663936634E+00    0.102936950795932281E-01    0.225395283410378156E+01   -0.279992943015525730E+01   -0.113207542314144108E+00   -0.720383348238600441E+01   -0.148289163868839696E+00    0.651856763125730626E-01   -0.267352830016208631E+00   -0.108319618551261404E+00   -0.113193010378947045E+01   -0.588585703949589867E+01
    0.702466626787692783E-01   -0.281492671746918184E+02    0.877335611306869101E+00    0.921663578131744154E+00    0.924207631552789038E-02    0.224965021794392728E+01   -0.269331748547369898E+01   -0.119983771633153685E+00   -0.578063199451228993E+01   -0.152980172881784393E+00   -0.372077134795850625E-01   -0.246893721767479174E+00   -0.112156255458025697E+00   -0.112548953192122836E+01   -0.589251879510136778E+01
    0.710986440423472393E-01   -0.277213888401832662E+02    0.889885519499059030E+00    0.882422735597488961E+00    0.997513749193984847E-02    0.225065887517503116E+01   -0.278458636117821889E+01   -0.136545096094397217E+00   -0.549053080145432570E+01   -0.137630239060453047E+00   -0.130108653936232610E+00   -0.221367187584670416E+00   -0.107789431529945953E+00   -0.111977438955041353E+01   -0.589703215925926916E+01
    0.693173246637044244E-01   -0.282334130074870622E+02    0.876660256659412496E+00    0.876312103666109676E+00    0.883613189281317289E-02    0.224937387031769154E+01   -0.269486379851974567E+01   -0.134931345305845718E+00   -0.466580073280142305E+01   -0.118122342576656519E+00   -0.203985292196656232E+00   -0.454618315636599546E+00   -0.926847310170503258E-01   -0.112739679300617990E+01   -0.589476423514017256E+01
    0.715778877085973819E-01   -0.283411235631789999E+02    0.872845782325676112E+00    0.893690126432223675E+00    0.925720470890182244E-02    0.225371327310487413E+01   -0.270974145800228383E+01   -0.117902137342532853E+00   -0.315792274524203487E+01   -0.159384497981757273E+00    0.178708506565474629E-01   -0.255504226656879996E+00   -0.105424483603080807E+00   -0.114023940806997293E+01   -0.588734817530790533E+01
    0.708871750269446238E-01   -0.282115953871498668E+02    0.883634240749317623E+00    0.898579327486878521E+00    0.923837909874999051E-02    0.225377287149783356E+01   -0.275548276820791482E+01   -0.138402928754532584E+00   -0.368969434710557653E+01   -0.836455453650009062E-01   -0.121553066989320085E+00   -0.209523237983489735E+00   -0.100843714828720829E+00   -0.111969061581268381E+01   -0.587101288307453739E+01
    0.703808468361549894E-01   -0.282807161053767189E+02    0.887035550564297726E+00    0.938888360441256342E+00    0.951262976890370621E-02    0.225238002174776542E+01   -0.274735214821326856E+01   -0.123452217788544330E+00   -0.729886756787671676E+01   -0.133567407601464350E+00   -0.105684430596127324E+00   -0.756834620857052276E-01   -0.672390503279412383E-01   -0.112097310120418503E+01   -0.589171170168345792E+01
    0.686175049267903070E-01   -0.278869892180124843E+02    0.884737611905568544E+00    0.874886095482160897E+00    0.968544289345112629E-02    0.225595177793875434E+01   -0.272266918581798301E+01   -0.131311909895376222E+00   -0.712842997969488934E+01   -0.150258647872034884E+00   -0.109485874770107239E+00   -0.311033485716869562E+00   -0.102827324488791269E+00   -0.113435513820451517E+01   -0.588786862322789695E+01
    0.726482199208357549E-01   -0.279599253762441933E+02    0.880439194480264864E+00    0.876043992195876475E+00    0.969620082752366448E-02    0.225027921868379366E+01   -0.277703066777785690E+01   -0.148059943974567315E+00   -0.442316900513090161E+01   -0.916717320334509006E-01   -0.472325720547736444E-01   -0.388522791557920411E+00   -0.462072038228808490E-01   -0.110382652258635572E+01   -0.587457886217321512E+01
    0.715358951912043045E-01   -0.282573360379372076E+02    0.880087828126522309E+00    0.904828593083216726E+00    0.867813846536790584E-02    0.224847125141889492E+01   -0.275013348821310233E+01   -0.127681100509041523E+00   -0.399986667795478112E+01   -0.164740814701171995E+00   -0.154742139779374052E-01   -0.251220924191248696E+00   -0.853072833747052089E-01   -0.111428485667358501E+01   -0.590669535274059943E+01
    0.707095444316180322E-01   -0.284772804616518371E+02    0.877600614938117252E+00    0.937407447434079666E+00    0.988351034600702845E-02    0.225752542957687963E+01   -0.273494629925421995E+01   -0.118931006750914489E+00   -0.952739212205151453E+01   -0.149379274444036675E+00   -0.113667069661957831E+00   -0.186041445108561410E+00   -0.131436314383261699E+00   -0.112880934566402868E+01   -0.587445327550476559E+01
    0.734517520398675766E-01   -0.279975871519377790E+02    0.878060854845226668E+00    0.956654663741496325E+00    0.921304750066447541E-02    0.224660147767589402E+01   -0.272371222345170860E+01   -0.103829487601907730E+00   -0.762089666274762312E+01   -0.170866346897691812E+00   -0.142803133692187445E+00   -0.394442604032856359E+00   -0.126351665674349356E+00   -0.112736970402031833E+01   -0.590777369040853895E+01
    0.693273870661235414E-01   -0.282102298002842780E+02    0.893578479591375818E+00    0.960321412408921771E+00    0.898472102084979171E-02    0.225534509287330254E+01   -0.273396234725925957E+01   -0.128799697632082960E+00   -0.676519802441812779E+01   -0.144649733412427123E+00   -0.981674427075465150E-01   -0.368454238433769787E+00   -0.758238665939545142E-01   -0.114952397963689834E+01   -0.589064066533425379E+01
    0.695839695470265723E-01   -0.282306234854270492E+02    0.891304143293737527E+00    0.947222073277837362E+00    0.906337290929251638E-02    0.225758823250529828E+01   -0.271965199614702957E+01   -0.118631166203587907E+00   -0.672171140141279722E+01   -0.177180718651510916E+00   -0.131960679365788924E+00   -0.343806974612365590E+00   -0.103624457352345059E+00   -0.111097601624140441E+01   -0.590575903304856809E+01
    0.709233404029848691E-01   -0.280257229698755950E+02    0.883195253158727489E+00    0.100320812478719712E+01    0.909576642192767675E-02    0.225136275659983953E+01   -0.269313843597051683E+01   -0.120278216168604096E+00   -0.789093437030526346E+01   -0.135109470012172939E+00   -0.227490021676016063E+00   -0.357574435144430658E+00   -0.775655111892492310E-01   -0.116038288284961499E+01   -0.588668344354871742E+01
    0.694726062202142697E-01   -0.281508765798914595E+02    0.886559123902068147E+00    0.947570277097901315E+00    0.931006593020659509E-02    0.225499210555781104E+01   -0.271471977985350810E+01   -0.980414452681484666E-01   -0.483943567709263789E+01   -0.114212832714525439E+00    0.158003454212341521E-01   -0.316730767649950451E+00   -0.154339131288487807E+00   -0.112185102832375883E+01   -0.590963462044799659E+01
    0.733858381880896221E-01   -0.282839710851968711E+02    0.888592929927802144E+00    0.909778068196694045E+00    0.102548940171784640E-01    0.225412177613185971E+01   -0.271730329048296415E+01   -0.128804955822417411E+00   -0.571131681291446291E+01   -0.114421388809113622E+00    0.502813781430715145E-01   -0.303046933169469124E+00   -0.987306348450853744E-01   -0.111592385813477302E+01   -0.589290765172629705E+01
    0.698698279652253812E-01   -0.282224748390227518E+02    0.888574036737259876E+00    0.930149116754610428E+00    0.908338600631564304E-02    0.225137518860581975E+01   -0.275549450701471876E+01   -0.138343081489682801E+00   -0.588840159151517106E+01   -0.120662397861150655E+00   -0.681531838233278703E-01   -0.268068912904641021E+00   -0.124255166962767560E+00   -0.114681617705230021E+01   -0.588120089987810779E+01
    0.703678908602025505E-01   -0.281748215820270396E+02    0.870922988054747327E+00    0.899607006893206163E+00    0.953661727742114405E-02    0.225461258951924792E+01   -0.279603063036197419E+01   -0.125649161607871013E+00   -0.402099779879065444E+01   -0.145779301202394629E+00    0.254996193944632576E+00   -0.391066323755367262E+00   -0.857652849312671994E-01   -0.112543229469204720E+01   -0.586383166771981390E+01
    0.708897997532911134E-01   -0.282035995655902205E+02    0.869021614036470491E+00    0.921261156526873015E+00    0.997460257724183154E-02    0.225115279903597232E+01   -0.276790769465146802E+01   -0.120629569278015256E+00   -0.782741947177542396E+01   -0.109775067350157365E+00   -0.167084112622463199E+00   -0.427193005447431218E+00   -0.155812957824474713E+00   -0.115491296823345557E+01   -0.587659709714107503E+01
    0.709855886794474311E-01   -0.279145583559564727E+02    0.891767994558190780E+00    0.937327819904923421E+00    0.856034877654402934E-02    0.225053486972064842E+01   -0.278125855311013970E+01   -0.121949084038337999E+00   -0.572533479953667879E+01   -0.129849074522966873E+00   -0.942578133947084840E-02   -0.346812198701546726E+00   -0.133913897538095461E+00   -0.111949145215213686E+01   -0.590152598324232525E+01
    0.701010448463676022E-01   -0.281815404029796248E+02    0.887389542435802814E+00    0.961741536621362858E+00    0.910490810068750704E-02    0.225640471430321732E+01   -0.270108627850043215E+01   -0.116681742517753581E+00   -0.699125717589583040E+01   -0.123675453636345051E+00   -0.130823416819993987E+00   -0.293313496528185613E+00   -0.108722488664974942E+00   -0.113441282384831399E+01   -0.587203677578047500E+01
    0.712345035855149328E-01   -0.281957444903282557E+02    0.882659677194698733E+00    0.948251129656177527E+00    0.930225440725499474E-02    0.225551866749782093E+01   -0.274734432957609132E+01   -0.134705576659051557E+00   -0.821598512184065477E+01   -0.136031331314004245E+00   -0.537554209154921941E-01   -0.314265911458194602E+00   -0.125432912800090585E+00   -0.109187019221562465E+01   -0.587174128997586031E+01
    0.697998790857591866E-01   -0.283396329430180565E+02    0.879060843594525743E+00    0.845226935746975605E+00    0.948241514942761883E-02    0.225335435782906313E+01   -0.273149303109371955E+01   -0.119581482667312514E+00   -0.102701710960342911E+02   -0.125167303165469673E+00   -0.233796182739735237E+00   -0.247619271788578704E+00   -0.788762289319954180E-01   -0.111160005152728703E+01   -0.589305831109941547E+01
