    0.516900059452986976E-01   -0.129007122125924827E+02    0.516814766557418648E+00    0.145088613785276976E+01    0.893171722683379701E-02    0.246910691868043131E+01   -0.262066072974160669E+01   -0.194326114667179278E+00   -0.384327758713464718E+01   -0.186923125269366414E+00   -0.296045429288650450E-01   -0.226838190484645486E+00   -0.383136482492162159E-01   -0.111523807019394106E+01   -0.230039391586356379E+01
    0.516900059452986976E-01   -0.129007122125924827E+02    0.516814766557418648E+00    0.145088613785276976E+01    0.893171722683379701E-02    0.246910691868043131E+01   -0.262066072974160669E+01   -0.194326114667179278E+00   -0.384327758713464718E+01   -0.186923125269366414E+00   -0.296045429288650450E-01   -0.226838190484645486E+00   -0.383136482492162159E-01   -0.111523807019394106E+01   -0.230039391586356379E+01
    0.518266648808003855E-01   -0.137700896173249490E+02    0.470064691016837177E+00    0.146148610202128171E+01    0.903173405678807557E-02    0.246662521478798702E+01   -0.265320635734582089E+01   -0.190745287433913474E+00   -0.332689051002725256E+01   -0.156955364208953313E+00   -0.937350179251570659E-01   -0.239966728272827473E+00   -0.384679844003855548E-01   -0.112220834730409469E+01   -0.229919318127333527E+01
    0.520407554183627968E-01   -0.142025722907892842E+02    0.440870469614920213E+00    0.145343599506570187E+01    0.895247176392257281E-02    0.246854786013867322E+01   -0.265078055067479834E+01   -0.194286760235973438E+00   -0.630797124975214452E+01   -0.116962429304132143E+00   -0.699025247702612373E-01   -0.172530979683541336E+00   -0.377856458717323526E-01   -0.110568624761302914E+01   -0.228744479035600445E+01
    0.520407554183627968E-01   -0.142025722907892842E+02    0.440870469614920213E+00    0.145343599506570187E+01    0.895247176392257281E-02    0.246854786013867322E+01   -0.265078055067479834E+01   -0.194286760235973438E+00   -0.630797124975214452E+01   -0.116962429304132143E+00   -0.699025247702612373E-01   -0.172530979683541336E+00   -0.377856458717323526E-01   -0.110568624761302914E+01   -0.228744479035600445E+01
    0.519425566289367230E-01   -0.133097832575742068E+02    0.409913930223193113E+00    0.145976155711574718E+01    0.906519991875343045E-02    0.246553603885337491E+01   -0.265175150785043190E+01   -0.192892659696887209E+00   -0.553690121156779114E+01   -0.117375421440182592E+00   -0.872993376168692409E-01   -0.207202682858540654E+00   -0.388553319668326971E-01   -0.111184473771295056E+01   -0.228356839532856482E+01
    0.519425566289367230E-01   -0.133097832575742068E+02    0.409913930223193113E+00    0.145976155711574718E+01    0.906519991875343045E-02    0.246553603885337491E+01   -0.265175150785043190E+01   -0.192892659696887209E+00   -0.553690121156779114E+01   -0.117375421440182592E+00   -0.872993376168692409E-01   -0.207202682858540654E+00   -0.388553319668326971E-01   -0.111184473771295056E+01   -0.228356839532856482E+01
    0.522399425823725991E-01   -0.138249753011550318E+02    0.396943188688368087E+00    0.145666990835161614E+01    0.895722153739342622E-02    0.247131234576333059E+01   -0.265736458996902281E+01   -0.187737609644427733E+00   -0.624233659782709971E+01   -0.113196243903813318E+00   -0.883217331125693006E-01   -0.238250136885726244E+00   -0.383555045152435062E-01   -0.111257799742903529E+01   -0.228150519125861440E+01
    0.516441154529794014E-01   -0.134289467860351355E+02    0.429978243179460762E+00    0.146552550940933224E+01    0.898721767615480796E-02    0.246621566006617421E+01   -0.264533666362099718E+01   -0.194526867495878053E+00   -0.427753492378656563E+01   -0.110807596151184518E+00   -0.821492254179555653E-01   -0.214561334399660103E+00   -0.335753971197011100E-01   -0.111815145134532035E+01   -0.226848568721941524E+01
    0.516441154529794014E-01   -0.134289467860351355E+02    0.429978243179460762E+00    0.146552550940933224E+01    0.898721767615480796E-02    0.246621566006617421E+01   -0.264533666362099718E+01   -0.194526867495878053E+00   -0.427753492378656563E+01   -0.110807596151184518E+00   -0.821492254179555653E-01   -0.214561334399660103E+00   -0.335753971197011100E-01   -0.111815145134532035E+01   -0.226848568721941524E+01
    0.519601415577881087E-01   -0.123328159610012804E+02    0.472997312602829734E+00    0.145328191729566458E+01    0.895899537151544946E-02    0.246779582172370526E+01   -0.262132338639570062E+01   -0.190411274558875743E+00   -0.722209413973837755E+01   -0.140548228082038956E+00   -0.603407351236279338E-01   -0.242758660898164114E+00   -0.369384753858048170E-01   -0.109838236427207780E+01   -0.225856382105206199E+01
    0.519601415577881087E-01   -0.123328159610012804E+02    0.472997312602829734E+00    0.145328191729566458E+01    0.895899537151544946E-02    0.246779582172370526E+01   -0.262132338639570062E+01   -0.190411274558875743E+00   -0.722209413973837755E+01   -0.140548228082038956E+00   -0.603407351236279338E-01   -0.242758660898164114E+00   -0.369384753858048170E-01   -0.109838236427207780E+01   -0.225856382105206199E+01
    0.510077222303298092E-01   -0.134896539842127225E+02    0.441474341877744092E+00    0.145645292172274932E+01    0.906611910709598928E-02    0.246763675654144654E+01   -0.265677959289889909E+01   -0.190068426813868457E+00   -0.460334243184897218E+01   -0.159453035828281464E+00   -0.654542256742795814E-01   -0.250713176483961242E+00   -0.375836232054440680E-01   -0.111108155072655812E+01   -0.225791736428486001E+01
    0.516576359897036666E-01   -0.138589011269204647E+02    0.421236243767752983E+00    0.145371796421250443E+01    0.900208903501122440E-02    0.246810523947821148E+01   -0.263663268280456542E+01   -0.193014871414188743E+00   -0.628045388287459172E+01   -0.197280949257687854E+00   -0.132569591871369241E+00   -0.231669113830352186E+00   -0.347451707306384028E-01   -0.110630532957591821E+01   -0.224942692819316248E+01
    0.510722899122831170E-01   -0.134131076666768045E+02    0.408987140869179255E+00    0.145785384341763002E+01    0.899869869116192399E-02    0.246663301734852958E+01   -0.263437128499044348E+01   -0.193083253671241906E+00   -0.445579341223543146E+01   -0.665285074902383922E-01   -0.263868412943450877E-01   -0.212746235375271597E+00   -0.337002279235739111E-01   -0.110228778784283321E+01   -0.224668652990700446E+01
    0.510722899122831170E-01   -0.134131076666768045E+02    0.408987140869179255E+00    0.145785384341763002E+01    0.899869869116192399E-02    0.246663301734852958E+01   -0.263437128499044348E+01   -0.193083253671241906E+00   -0.445579341223543146E+01   -0.665285074902383922E-01   -0.263868412943450877E-01   -0.212746235375271597E+00   -0.337002279235739111E-01   -0.110228778784283321E+01   -0.224668652990700446E+01
    0.512103109833466213E-01   -0.136013845785365781E+02    0.517658754131480658E+00    0.146102435944074149E+01    0.896682825612492990E-02    0.246722968533462428E+01   -0.264476200852610699E+01   -0.188078907798882478E+00   -0.388457173659793442E+01   -0.145666810088593529E+00   -0.448884858405252871E-01   -0.219811086825835444E+00   -0.357612039790489028E-01   -0.110892374514762548E+01   -0.224333983910278700E+01
    0.512103109833466213E-01   -0.136013845785365781E+02    0.517658754131480658E+00    0.146102435944074149E+01    0.896682825612492990E-02    0.246722968533462428E+01   -0.264476200852610699E+01   -0.188078907798882478E+00   -0.388457173659793442E+01   -0.145666810088593529E+00   -0.448884858405252871E-01   -0.219811086825835444E+00   -0.357612039790489028E-01   -0.110892374514762548E+01   -0.224333983910278700E+01
    0.512719713738861993E-01   -0.131209851264477457E+02    0.400241494535475861E+00    0.145713292756966295E+01    0.898399034187612709E-02    0.246580983769175255E+01   -0.265593333566184331E+01   -0.190862053692112649E+00   -0.419818177253824398E+01   -0.151367245139969575E+00   -0.886997597917769248E-01   -0.218181503185881698E+00   -0.388114858620058345E-01   -0.111711769484740486E+01   -0.223470375559815171E+01
    0.521698037999754546E-01   -0.132772111387695446E+02    0.416666013275134473E+00    0.145354350589829107E+01    0.899920444264963246E-02    0.246840662337104533E+01   -0.262843549388062092E+01   -0.194596654286506382E+00   -0.461517049475825747E+01   -0.902236501364976767E-01   -0.326284950036765317E-01   -0.215653948062726447E+00   -0.379275931713661599E-01   -0.111091737276738778E+01   -0.222987361116138993E+01
    0.522076781490875136E-01   -0.134877573670928648E+02    0.401344314377916733E+00    0.145611290027169971E+01    0.898843634811155763E-02    0.246863353232037586E+01   -0.264376925771943183E+01   -0.189996612861889319E+00   -0.392513284731039969E+01   -0.150549340186878600E+00   -0.255316195897481203E-01   -0.204352522919259094E+00   -0.320835389062687285E-01   -0.111587744884712659E+01   -0.222551288452405638E+01
    0.516298214780075426E-01   -0.134628293690076610E+02    0.472793979765569305E+00    0.145765548132779066E+01    0.892241089399478660E-02    0.246938552111604182E+01   -0.265563522323754730E+01   -0.190589479388849597E+00   -0.276886523760929482E+01   -0.171197940254850828E+00   -0.286359089191699362E-01   -0.233631009648670535E+00   -0.388566036644968360E-01   -0.110119924214289666E+01   -0.222440970707230345E+01
    0.522021160756182892E-01   -0.127974651124328300E+02    0.436920419110383429E+00    0.145621850768534267E+01    0.894405348778739076E-02    0.246796318945684234E+01   -0.266475658684996564E+01   -0.195874161710189648E+00   -0.385647652090087911E+01   -0.636715956272148331E-01   -0.584825456690332632E-01   -0.200845839665564185E+00   -0.405459364210913817E-01   -0.111479289893766187E+01   -0.222145941936704805E+01
    0.522111391070495187E-01   -0.135383319358323693E+02    0.458820579762346414E+00    0.145574773082640752E+01    0.896766632905481899E-02    0.246739311749417478E+01   -0.264647341302208838E+01   -0.189854242244284988E+00   -0.525016169760272167E+01   -0.121071149508162251E+00   -0.280186556350258895E-01   -0.219962844252974299E+00   -0.381000473484688143E-01   -0.110285277098549650E+01   -0.222053810833621856E+01
    0.516041892859237517E-01   -0.130290532135597150E+02    0.504372187190112342E+00    0.145818213083926862E+01    0.891475588663679687E-02    0.246621316002012536E+01   -0.263732706304904818E+01   -0.190117323661844334E+00   -0.270043066513045638E+01   -0.144955303325052465E+00   -0.545142138452763408E-01   -0.233897176718532551E+00   -0.397070240205542671E-01   -0.111226769656162383E+01   -0.221927963901673886E+01
    0.516041892859237517E-01   -0.130290532135597150E+02    0.504372187190112342E+00    0.145818213083926862E+01    0.891475588663679687E-02    0.246621316002012536E+01   -0.263732706304904818E+01   -0.190117323661844334E+00   -0.270043066513045638E+01   -0.144955303325052465E+00   -0.545142138452763408E-01   -0.233897176718532551E+00   -0.397070240205542671E-01   -0.111226769656162383E+01   -0.221927963901673886E+01
    0.514937271370417074E-01   -0.136968693730328930E+02    0.435289257503676363E+00    0.145722537351465786E+01    0.896007916186727059E-02    0.246998318260086602E+01   -0.265557854184651054E+01   -0.193860814314719299E+00   -0.357098018031530895E+01   -0.183646641401743332E+00   -0.294247032382982769E-01   -0.178217675413125221E+00   -0.390138045208368381E-01   -0.111765786977834747E+01   -0.221728714284801187E+01
    0.514937271370417074E-01   -0.136968693730328930E+02    0.435289257503676363E+00    0.145722537351465786E+01    0.896007916186727059E-02    0.246998318260086602E+01   -0.265557854184651054E+01   -0.193860814314719299E+00   -0.357098018031530895E+01   -0.183646641401743332E+00   -0.294247032382982769E-01   -0.178217675413125221E+00   -0.390138045208368381E-01   -0.111765786977834747E+01   -0.221728714284801187E+01
    0.516774469642057449E-01   -0.133248297068799406E+02    0.463863951215758519E+00    0.145603780614480627E+01    0.900823046930085934E-02    0.246628224108405103E+01   -0.264486977096485454E+01   -0.191940728765329222E+00   -0.537955110232037903E+01   -0.964358078190658691E-01   -0.673252008625331716E-01   -0.221339307160114712E+00   -0.428871887713252672E-01   -0.111102613818964158E+01   -0.221661099113380189E+01
    0.521236827770287306E-01   -0.132449877060088781E+02    0.476311587061706343E+00    0.145433316925618383E+01    0.897120424977846699E-02    0.246801848644394672E+01   -0.262846131856115006E+01   -0.189369396131099710E+00   -0.530456998861210316E+01   -0.117714852791510505E+00   -0.535477907831115596E-01   -0.202700264550740139E+00   -0.372392310131314380E-01   -0.111492431132856740E+01   -0.221486415508775458E+01
    0.521236827770287306E-01   -0.132449877060088781E+02    0.476311587061706343E+00    0.145433316925618383E+01    0.897120424977846699E-02    0.246801848644394672E+01   -0.262846131856115006E+01   -0.189369396131099710E+00   -0.530456998861210316E+01   -0.117714852791510505E+00   -0.535477907831115596E-01   -0.202700264550740139E+00   -0.372392310131314380E-01   -0.111492431132856740E+01   -0.221486415508775458E+01
    0.512467886226998307E-01   -0.136195142543661767E+02    0.403471128480731356E+00    0.145983134758009547E+01    0.897488093457688568E-02    0.246858150698089140E+01   -0.264176916952797880E+01   -0.190973414794856078E+00   -0.541792075583405008E+01   -0.682095823533422213E-01   -0.103222868529686707E+00   -0.215495972040323919E+00   -0.364408468846295214E-01   -0.112208395495585167E+01   -0.221455327875189800E+01
    0.521081279996516364E-01   -0.134681911317598910E+02    0.476410350955103701E+00    0.145608138838365453E+01    0.895637860425855213E-02    0.246778060825964518E+01   -0.265910781638578886E+01   -0.193648979137295674E+00   -0.454655066124850826E+01   -0.133921801189684136E+00   -0.359512627874219101E-01   -0.249652059062012655E+00   -0.343296546235690725E-01   -0.111513206372409601E+01   -0.221386404706675988E+01
    0.516393213132399220E-01   -0.129644499936947515E+02    0.503261719287037113E+00    0.146176846968642771E+01    0.900746597483153416E-02    0.246629227962461473E+01   -0.261130842969306043E+01   -0.191734208243539123E+00   -0.150114220234389695E+01   -0.823117893517210930E-01   -0.516362513002162002E-01   -0.220953276277606608E+00   -0.388305909584111195E-01   -0.111802322965083856E+01   -0.221358862202746787E+01
    0.513168695639107733E-01   -0.131579656874833422E+02    0.432015805993379187E+00    0.145424582244073131E+01    0.897358692551214303E-02    0.246782342838528290E+01   -0.262664106065904424E+01   -0.193986738280472443E+00   -0.587774070444850771E+01   -0.139575253434616464E+00   -0.534122687369184834E-01   -0.194249338336850624E+00   -0.379164863686606707E-01   -0.110723206758405746E+01   -0.221333200651657425E+01
    0.513168695639107733E-01   -0.131579656874833422E+02    0.432015805993379187E+00    0.145424582244073131E+01    0.897358692551214303E-02    0.246782342838528290E+01   -0.262664106065904424E+01   -0.193986738280472443E+00   -0.587774070444850771E+01   -0.139575253434616464E+00   -0.534122687369184834E-01   -0.194249338336850624E+00   -0.379164863686606707E-01   -0.110723206758405746E+01   -0.221333200651657425E+01
    0.518555365260139414E-01   -0.134054164262111239E+02    0.483831151288488859E+00    0.145451623386615259E+01    0.905319621931298564E-02    0.246765910801659816E+01   -0.262988015290927946E+01   -0.192464815966676195E+00   -0.253247810851768396E+01   -0.164074776129799482E+00   -0.407679946701380858E-01   -0.218418028510354217E+00   -0.346114010911589276E-01   -0.111591719128024525E+01   -0.221183401118724277E+01
    0.518555365260139414E-01   -0.134054164262111239E+02    0.483831151288488859E+00    0.145451623386615259E+01    0.905319621931298564E-02    0.246765910801659816E+01   -0.262988015290927946E+01   -0.192464815966676195E+00   -0.253247810851768396E+01   -0.164074776129799482E+00   -0.407679946701380858E-01   -0.218418028510354217E+00   -0.346114010911589276E-01   -0.111591719128024525E+01   -0.221183401118724277E+01
    0.518278587856767017E-01   -0.128235851339603766E+02    0.452377922981379854E+00    0.145548916994868516E+01    0.897961770464559585E-02    0.246593664471576535E+01   -0.264563255748874937E+01   -0.189792096829671464E+00   -0.388515418994451434E+01   -0.864820643152959673E-01   -0.637135652193868696E-01   -0.219459539754868427E+00   -0.373262647550126198E-01   -0.111164433849728694E+01   -0.221131025307962847E+01
    0.515863091816003219E-01   -0.129123908829766805E+02    0.478308536700251030E+00    0.145640968501062207E+01    0.891193195976244107E-02    0.246851023706552342E+01   -0.265253406863867047E+01   -0.195199145198952956E+00   -0.360207160799969905E+01   -0.142841552255995957E+00   -0.473869135730718566E-01   -0.214385407959451241E+00   -0.407295352481496648E-01   -0.110854432663983316E+01   -0.221087828910179018E+01
    0.515976155153300489E-01   -0.132436850465964184E+02    0.497946395091133531E+00    0.145385095666566744E+01    0.897894723487967748E-02    0.246928114486129857E+01   -0.262938160443363600E+01   -0.189071899772080304E+00   -0.445596837425634984E+01   -0.127568564359329895E+00   -0.989384656238718324E-02   -0.221633217480547678E+00   -0.403469797586899978E-01   -0.112530883887113475E+01   -0.221048826477581573E+01
    0.517608374225036194E-01   -0.131638825817388483E+02    0.511769196101739765E+00    0.145374469030550335E+01    0.897217278792376664E-02    0.246816698144649838E+01   -0.264066717335771761E+01   -0.194579341147917750E+00   -0.466574232752614115E+01   -0.157255199462239148E+00   -0.771764991244018594E-01   -0.197108935929828949E+00   -0.340892677751166370E-01   -0.110902080397243652E+01   -0.221006763768212844E+01
    0.523471843763068934E-01   -0.134826041114703443E+02    0.454519816080970473E+00    0.145947426639712274E+01    0.892180563503918757E-02    0.246771188806024488E+01   -0.262021728531619003E+01   -0.188998319271823173E+00   -0.467224642521373568E+01   -0.121346196951832783E+00   -0.470701256317511071E-01   -0.204015075634247617E+00   -0.368398698778652639E-01   -0.111422749399341359E+01   -0.220973257550206847E+01
    0.518990814314888860E-01   -0.136945244046343166E+02    0.402063032984882884E+00    0.145963850565124575E+01    0.898002994559597353E-02    0.246921216476452221E+01   -0.266533249184270504E+01   -0.194366490011398912E+00   -0.520237019321818384E+01   -0.114993833605127743E+00   -0.694937493424442609E-01   -0.204826630836403456E+00   -0.356587394090700019E-01   -0.111270545117915454E+01   -0.220712241084341398E+01
    0.514411581689660502E-01   -0.129440473076471729E+02    0.379125469924464276E+00    0.146109370094772983E+01    0.906059889193821730E-02    0.246828268539521867E+01   -0.263611739251122534E+01   -0.190248349056382021E+00   -0.644097763313930383E+01   -0.850274047591424720E-01   -0.318805199340664036E-01   -0.186788133418350100E+00   -0.396950636268070603E-01   -0.111592931007303542E+01   -0.220566729803512951E+01
    0.517668789182090111E-01   -0.133619071440883843E+02    0.461581411133944408E+00    0.146122077360053759E+01    0.898648750133909310E-02    0.246886302623715981E+01   -0.264133137509391425E+01   -0.194273129268827671E+00   -0.323261650094743080E+01   -0.148126325769825568E+00    0.245884496118254497E-02   -0.170404577532405649E+00   -0.416656572847881740E-01   -0.110759158130421587E+01   -0.220545026502623953E+01
    0.518262550181873630E-01   -0.134914402162176579E+02    0.445648141282728172E+00    0.146246748785203118E+01    0.897555915448804316E-02    0.246731199308976290E+01   -0.265854367843984951E+01   -0.194549835512937030E+00   -0.550013623299562582E+01   -0.153226982728755456E+00   -0.834961758169703305E-01   -0.225862009076937764E+00   -0.371227109324397259E-01   -0.111475041005812137E+01   -0.220524622726417840E+01
    0.520550037334386387E-01   -0.126719079853598444E+02    0.422366566122066578E+00    0.145676401227874286E+01    0.897020696887754383E-02    0.246646738198196802E+01   -0.266225186677967107E+01   -0.192930035081699230E+00   -0.437216573704389067E+01   -0.130547772961164488E+00   -0.730187699914940647E-01   -0.221201900060907286E+00   -0.384524829579784636E-01   -0.111642915685521005E+01   -0.220328352773571323E+01
    0.522335388102633455E-01   -0.131853201990973012E+02    0.505955908491201645E+00    0.145836658745496917E+01    0.906186471926071629E-02    0.246680074932330129E+01   -0.263540455410948349E+01   -0.189413221542731380E+00   -0.444315106503202095E+01   -0.109406144802449756E+00   -0.340979114558474378E-01   -0.189709871382157613E+00   -0.389183394373902036E-01   -0.110545802421965322E+01   -0.220253107728025244E+01
    0.520139830266168196E-01   -0.132911620539565654E+02    0.416927589434570478E+00    0.145744065304543713E+01    0.906381246167209907E-02    0.246948156641515437E+01   -0.262155146497968650E+01   -0.191344447927042666E+00   -0.327671696120885958E+01   -0.116872176189856347E+00   -0.770711790063936114E-01   -0.220087640826681613E+00   -0.390488037130242230E-01   -0.111021982946029341E+01   -0.220033890136554655E+01
    0.522126675077796351E-01   -0.131841833652493587E+02    0.492244007645340820E+00    0.145603475196142096E+01    0.900825104827082494E-02    0.246723277951826692E+01   -0.266022301475938239E+01   -0.192710355185899851E+00   -0.230085582907651265E+01   -0.157171188152953112E+00   -0.523388588079614150E-01   -0.218708183909930659E+00   -0.378107327269403964E-01   -0.110276763785801668E+01   -0.220020449381759153E+01
    0.519000171606171928E-01   -0.134083995663308233E+02    0.522992786021941769E+00    0.146017328631563714E+01    0.898057216844117163E-02    0.246790980081560596E+01   -0.263997926674256789E+01   -0.192112693842186905E+00   -0.425696914012025118E+01   -0.136883053949790806E+00   -0.400382835847230001E-01   -0.245310037622996302E+00   -0.355706932950214869E-01   -0.111508186814944610E+01   -0.219901871089912726E+01
    0.521509907006900211E-01   -0.128749032362972358E+02    0.523185665746702111E+00    0.145625327346774536E+01    0.898926247712384871E-02    0.246948590442384708E+01   -0.264752476841592443E+01   -0.192638527631135148E+00   -0.346791279303078692E+01   -0.148855361702440209E+00   -0.454785534261911567E-01   -0.200651342657862830E+00   -0.393439454602219560E-01   -0.111814657586923705E+01   -0.219873591935681389E+01
    0.521611395991277704E-01   -0.131628816714548922E+02    0.427149844481065744E+00    0.145697563415599829E+01    0.906486729325383864E-02    0.246806065531697172E+01   -0.263936805930266649E+01   -0.191914448028732476E+00   -0.709651377875662881E+01   -0.896637839695015454E-01   -0.410765703952113218E-01   -0.193051078936118614E+00   -0.388267540974583242E-01   -0.111807072817921660E+01   -0.219473308987741067E+01
    0.518121116606329035E-01   -0.125811380780607251E+02    0.543802385935899135E+00    0.145812326445843565E+01    0.897795164801418015E-02    0.246977801544819231E+01   -0.264013816389132971E+01   -0.194388803674278493E+00   -0.514744329862973604E+01   -0.156862276295140102E+00   -0.551784062292642180E-01   -0.219547097327631141E+00   -0.404398983263734302E-01   -0.111808708670980606E+01   -0.219369196412753231E+01
    0.518153789881660373E-01   -0.126576792003208229E+02    0.426356137878341035E+00    0.145658751152059152E+01    0.903670499940136158E-02    0.246711449838686203E+01   -0.262351294185169115E+01   -0.191066945981283681E+00   -0.229249612272525161E+01   -0.173298617571015501E+00   -0.176097103374827507E-01   -0.227450532721215654E+00   -0.366966627496019965E-01   -0.111846779091086268E+01   -0.219356044655583604E+01
    0.519138806833157745E-01   -0.128658694345799649E+02    0.446381396819112042E+00    0.145794087602410838E+01    0.894442317207687874E-02    0.246601241610643296E+01   -0.263846070926097509E+01   -0.192084783349942223E+00   -0.412603243786306795E+01   -0.173383143405180074E+00   -0.668621701656791634E-01   -0.185041578831693088E+00   -0.362951048254374770E-01   -0.113136724490336626E+01   -0.219312654977019639E+01
    0.520012497119051384E-01   -0.127625352160053662E+02    0.427350895763628336E+00    0.145717787548198996E+01    0.897663346674112440E-02    0.246824449136581192E+01   -0.264382391214084045E+01   -0.193118925469628500E+00   -0.685226170137979551E+01   -0.107402017147439049E+00   -0.561438175414730595E-01   -0.203060186999078046E+00   -0.347501303153766941E-01   -0.110922384650758432E+01   -0.219245865299175158E+01
    0.515476565158553557E-01   -0.130526574637736381E+02    0.468264801195124036E+00    0.145635107402381192E+01    0.896994056078503910E-02    0.246651880532437495E+01   -0.264340976862437316E+01   -0.191669217452897195E+00   -0.465818279752760844E+01   -0.149885976192214720E+00   -0.596763110973087194E-01   -0.202392959854015647E+00   -0.384765824241647680E-01   -0.111264771235681259E+01   -0.219231797568309572E+01
    0.520808080125080078E-01   -0.132917968646072087E+02    0.443851854964304071E+00    0.145718431135917204E+01    0.903152741963391369E-02    0.246869125876787843E+01   -0.264251924068148503E+01   -0.195934005537150568E+00   -0.462337935231465202E+01   -0.123207899594743445E+00   -0.301623103200615444E-01   -0.202172839197549470E+00   -0.376176357608810907E-01   -0.111068315954310415E+01   -0.219014918231131617E+01
    0.513189013636695321E-01   -0.128453306309758837E+02    0.467446215947273369E+00    0.145441756761717689E+01    0.900898946315717777E-02    0.246753290768714484E+01   -0.262482723741149515E+01   -0.190176595300058399E+00   -0.469139614696647023E+01   -0.196933447858622962E+00   -0.471785368709282116E-01   -0.221288603425728869E+00   -0.337113521166056487E-01   -0.110338119675537905E+01   -0.219008818735973554E+01
    0.519526662272191131E-01   -0.129882602319273790E+02    0.509156722074676549E+00    0.145886427401195506E+01    0.899170274032697579E-02    0.246983181387978679E+01   -0.265247229811261231E+01   -0.192593296319024804E+00   -0.208809708795614446E+01   -0.915255290958613688E-01   -0.533983182307371934E-01   -0.231408721226231295E+00   -0.369487930371761933E-01   -0.110107705647737375E+01   -0.218983248509923323E+01
    0.515009892049478404E-01   -0.123428844926806143E+02    0.486368855462755323E+00    0.145444522247474928E+01    0.897673855248988344E-02    0.246736876080356859E+01   -0.264186541477394998E+01   -0.196169308450217295E+00   -0.458947010166677138E+01   -0.382065677141715521E-01   -0.807318661875470051E-01   -0.198513549828102653E+00   -0.430666554405567115E-01   -0.110654609893377343E+01   -0.218956514504540944E+01
    0.517370589343758916E-01   -0.130309671013292725E+02    0.424091903382059709E+00    0.145829395449689891E+01    0.902351148489880656E-02    0.246736215885051768E+01   -0.265217808422751888E+01   -0.190795430011029749E+00   -0.524888687569851253E+01   -0.148773096382528586E+00   -0.232602643282415374E-01   -0.195736284785078513E+00   -0.418408555341202443E-01   -0.111838049191869793E+01   -0.218943529894639211E+01
    0.515847856795470933E-01   -0.132797522795118770E+02    0.448227775956516972E+00    0.146372364259249910E+01    0.906208513161912803E-02    0.246948049860391583E+01   -0.263191241466086101E+01   -0.193429533773273848E+00   -0.282654030807140977E+01   -0.121918470120664438E+00   -0.669968337131963410E-01   -0.205945821583810335E+00   -0.375111883963133996E-01   -0.111464365091767004E+01   -0.218870027593035488E+01
    0.517295943025718880E-01   -0.125308501645298289E+02    0.485328387167463016E+00    0.145745371677968216E+01    0.896274736555866154E-02    0.246955902331692378E+01   -0.265841883485844033E+01   -0.191825885051671807E+00   -0.326608921995889956E+01   -0.981300032990750082E-01   -0.251325702757965452E-01   -0.207483566929346358E+00   -0.378956194554628187E-01   -0.111746627123273079E+01   -0.218803248386835536E+01
    0.519427113410148023E-01   -0.131089639583008282E+02    0.498641637076289113E+00    0.145544144157944633E+01    0.901781205105405340E-02    0.246727928870016511E+01   -0.261385046942764721E+01   -0.191404878959368363E+00   -0.523975035037593884E+01   -0.872129728775489499E-01   -0.323969073830995824E-01   -0.202443942563316714E+00   -0.369201242259331180E-01   -0.111856362663614672E+01   -0.218791223678403179E+01
    0.520693953157334299E-01   -0.129470894967241303E+02    0.477178772284105435E+00    0.145749436383039743E+01    0.901091166981175806E-02    0.246742544328799740E+01   -0.263012021525055228E+01   -0.192636463080439857E+00   -0.274574562160995539E+01   -0.758475095353323553E-01   -0.124039866066665075E-01   -0.205597919158475195E+00   -0.398675438733670853E-01   -0.112143928647041036E+01   -0.217187034029809833E+01
    0.515924169427646809E-01   -0.129791519506026258E+02    0.418718465981414378E+00    0.146222995240678100E+01    0.892933104143110723E-02    0.246796934955263048E+01   -0.265058738075458367E+01   -0.191119813239092884E+00   -0.624234162670651926E+01   -0.171813820044353610E+00   -0.584471485374673666E-01   -0.226609980171787323E+00   -0.417645753411950774E-01   -0.111647696171586608E+01   -0.217027875303539641E+01
    0.521880737096473840E-01   -0.130803157055908343E+02    0.465119473330729782E+00    0.145856606400784461E+01    0.899992544516048029E-02    0.246766286449253647E+01   -0.265843236285654516E+01   -0.191942212591195760E+00   -0.482100872488967269E+01   -0.132372377618621223E+00   -0.769934650776128021E-01   -0.186465743309391668E+00   -0.344523487344222806E-01   -0.111619640158538380E+01   -0.217016583261952833E+01
    0.521862750485691390E-01   -0.124888063518693588E+02    0.491082650166588364E+00    0.145772442125975865E+01    0.902123900782797992E-02    0.246854073624673420E+01   -0.266483999580750242E+01   -0.190221687958041064E+00   -0.379999766865047617E+01   -0.153330931545969745E+00   -0.648241056304251217E-01   -0.216769275902001513E+00   -0.392681843464117025E-01   -0.111823255583476788E+01   -0.216240398106609577E+01
    0.519824020727119723E-01   -0.126323228652909147E+02    0.446568143733495293E+00    0.145762043800753371E+01    0.902631453839194617E-02    0.246819015684659204E+01   -0.263910282898070436E+01   -0.194077189642481579E+00   -0.363477888121304016E+01   -0.146420853658875361E+00   -0.905554438862626043E-01   -0.204807339979282771E+00   -0.348101033100223084E-01   -0.111208848351793299E+01   -0.216272035565308673E+01
    0.519060512762844414E-01   -0.125891263797417921E+02    0.455546765122970321E+00    0.146062239662220539E+01    0.898690421763425305E-02    0.246996302194926676E+01   -0.263975610303272701E+01   -0.195859609566546716E+00   -0.462299506965743134E+01   -0.100909749306051982E+00   -0.554580885258313325E-01   -0.204272972871836767E+00   -0.362578135383371664E-01   -0.112360060145448037E+01   -0.214879861126228322E+01
    0.514510058059815603E-01   -0.130903357637109785E+02    0.435568725396565326E+00    0.146062714166622754E+01    0.898596391459508502E-02    0.247077440562233530E+01   -0.263685787409763561E+01   -0.193122491029633220E+00   -0.156605481737067587E+01   -0.158938014376807601E+00   -0.185296954312194513E-01   -0.235157358076342554E+00   -0.420285737818733782E-01   -0.111568467289786866E+01   -0.217429407465573954E+01
    0.519214315142636218E-01   -0.127597558554012327E+02    0.530052895193118712E+00    0.146204725092222021E+01    0.895280999046321919E-02    0.246688847685503898E+01   -0.264611348276407732E+01   -0.193253328344392267E+00   -0.559591072372984577E+01   -0.123739819467085801E+00   -0.477541921997432228E-01   -0.190505258493476604E+00   -0.381294007728659595E-01   -0.111726103992624437E+01   -0.216770128198903889E+01
    0.516461324159151816E-01   -0.128388596987028176E+02    0.395412901074152168E+00    0.145744392210418883E+01    0.902946362502404787E-02    0.246895732003027435E+01   -0.265959036824316364E+01   -0.194754239132399115E+00   -0.611432150547990183E+01   -0.871088056988264525E-01   -0.342710212753312149E-01   -0.217137338692774601E+00   -0.385648188109307469E-01   -0.111112506059683946E+01   -0.217818207229611271E+01
    0.517770979937157913E-01   -0.130846107665008695E+02    0.451610828960603006E+00    0.145649271654809076E+01    0.899632707315879514E-02    0.246918759286603695E+01   -0.264380454684258570E+01   -0.191320172138376987E+00   -0.409458335976554100E+01   -0.135341528756131119E+00   -0.759977500587075139E-01   -0.195434214703414766E+00   -0.391762617326834456E-01   -0.110641323727902208E+01   -0.218416802781502684E+01
    0.513655310287954581E-01   -0.129529287267084534E+02    0.505456114009805835E+00    0.145955769686146941E+01    0.899427844901195227E-02    0.246715865357096620E+01   -0.264391252959304124E+01   -0.195791269116129762E+00   -0.556584578156440024E+01   -0.996887738751700836E-01   -0.104804693852413894E+00   -0.203711071624069262E+00   -0.368331089014705126E-01   -0.111519919906119469E+01   -0.217170162370206610E+01
    0.516795715436362824E-01   -0.127929493670295660E+02    0.518076870378521681E+00    0.145964146289006536E+01    0.899401540950880984E-02    0.246809113890902365E+01   -0.263599307052716059E+01   -0.188186649840795167E+00   -0.419760649873309610E+01   -0.774504269680594826E-01   -0.728119071012975211E-01   -0.216326772774897425E+00   -0.371614340748656694E-01   -0.110525385151157929E+01   -0.217618274449960802E+01
    0.517824860127312978E-01   -0.134927123404688896E+02    0.471079788539873368E+00    0.146100302333375054E+01    0.902296369431353738E-02    0.246924893986621408E+01   -0.263612719751572300E+01   -0.191651214075912762E+00   -0.456518349099914733E+01   -0.140438483445025825E+00   -0.371915101051744287E-01   -0.230564790460897034E+00   -0.431123894554260867E-01   -0.110906682189572514E+01   -0.218444085223680995E+01
    0.518542716896504066E-01   -0.129990935120981899E+02    0.459613398459120193E+00    0.145847673671860245E+01    0.894518688604688944E-02    0.246846806907273431E+01   -0.265960923519131365E+01   -0.193808830309548624E+00   -0.448353391161023840E+01   -0.118543005631781384E+00   -0.534624228982691976E-01   -0.208923297928908430E+00   -0.369381430866257826E-01   -0.110651936614825486E+01   -0.218110778750987633E+01
    0.519110199017661506E-01   -0.127636307647956464E+02    0.453999866763821536E+00    0.145789540456762290E+01    0.904104411223512032E-02    0.246858767503727039E+01   -0.265625294657810596E+01   -0.189532673734855966E+00   -0.376750262773871247E+01   -0.163796587170172120E+00   -0.479834033779135555E-01   -0.201939768046052653E+00   -0.361105686519817490E-01   -0.111054377352514022E+01   -0.215767749959872956E+01
    0.512504478828744586E-01   -0.127570095596191759E+02    0.509334032689429783E+00    0.145491573463103840E+01    0.901045649427143110E-02    0.246713006582244532E+01   -0.263816456905111441E+01   -0.195269262583699532E+00   -0.705826978850894982E+01   -0.135503192624380486E+00   -0.391233899764080323E-01   -0.246851620571217123E+00   -0.373247556434583433E-01   -0.111325808968639328E+01   -0.217492988840482671E+01
    0.515382864034364049E-01   -0.129390104004004680E+02    0.503066813675499436E+00    0.146037126653719640E+01    0.896892266632231920E-02    0.246828302503802854E+01   -0.263936036010430142E+01   -0.191229108211597304E+00   -0.370716696261735468E+01   -0.101846514145049014E+00   -0.818727177372406689E-01   -0.200192669308400212E+00   -0.382283898099009534E-01   -0.111304533836457220E+01   -0.215787754322728720E+01
    0.512083719757288960E-01   -0.131697421564878425E+02    0.498383251853822151E+00    0.145684322175227399E+01    0.902466228190142855E-02    0.246878632135699316E+01   -0.264630962518641644E+01   -0.191520321318734810E+00   -0.559709622938517448E+01   -0.229657785991906060E-01   -0.343356506552034840E-01   -0.216240974370053601E+00   -0.410325775559609585E-01   -0.111873997027860450E+01   -0.217103773145347656E+01
    0.516174525315968094E-01   -0.129499941943756802E+02    0.472020335575317140E+00    0.145526597135558666E+01    0.905277565596687879E-02    0.246782823443359378E+01   -0.263708334381828413E+01   -0.190549820658557967E+00   -0.164436892807172308E+01   -0.835481254322659184E-01    0.225868345127785419E-01   -0.233574743682634284E+00   -0.446623469738425330E-01   -0.110799844149239579E+01   -0.218640099453829473E+01
    0.515861546121120090E-01   -0.130528225634566990E+02    0.437719339898383908E+00    0.145627127803648171E+01    0.897467537790580354E-02    0.246839490139649342E+01   -0.264915336109554556E+01   -0.191525532833555279E+00   -0.478253882915940753E+01   -0.663995272758235860E-01   -0.940576831821704207E-01   -0.175563855692315807E+00   -0.368193068735877954E-01   -0.112860531456724789E+01   -0.218376477008169712E+01
    0.517732127729548242E-01   -0.133696090106818293E+02    0.481803918496626293E+00    0.146070204649108670E+01    0.900609415615943355E-02    0.246897983458934345E+01   -0.264207870387354848E+01   -0.190934647771470095E+00   -0.307407607836433217E+01   -0.122616992150610976E+00   -0.197502000210637851E-02   -0.246521693121758617E+00   -0.420811145864986302E-01   -0.110463389113758859E+01   -0.218642173251215155E+01
    0.518110151782383704E-01   -0.130571317129953091E+02    0.535706330149855581E+00    0.145787898883832123E+01    0.902567958260730441E-02    0.246794358902691657E+01   -0.265061510754255325E+01   -0.189463779839309204E+00   -0.507792162116345924E+01   -0.146962246544997427E+00   -0.356293168232635349E-01   -0.227909612126211969E+00   -0.406560846464391265E-01   -0.111712688510098301E+01   -0.218377607998973255E+01
    0.518876172699342178E-01   -0.137120012697363194E+02    0.476898814004725669E+00    0.146054329561866170E+01    0.904065547366540018E-02    0.247107530582066115E+01   -0.263764292834183545E+01   -0.191643610991230257E+00   -0.288326309186698460E+01   -0.924880839278025835E-01    0.867515680236725234E-02   -0.209188066774097237E+00   -0.361901349401848108E-01   -0.111770795230673170E+01   -0.218761369142430295E+01
    0.524562650842581926E-01   -0.128147646446252690E+02    0.395183534936934810E+00    0.145922347219386728E+01    0.901384032729573605E-02    0.246866093958094890E+01   -0.266555346724160902E+01   -0.189978785531538158E+00   -0.372056338223323602E+01   -0.109847238392535448E+00   -0.422250995194179135E-01   -0.192771637308824684E+00   -0.364834297808919183E-01   -0.111655411907835300E+01   -0.218718070966947620E+01
    0.514993210368474633E-01   -0.128700824769739750E+02    0.503774601064836736E+00    0.145953196985531553E+01    0.903149787100654584E-02    0.246767573424136755E+01   -0.265074292981182147E+01   -0.192503749053658135E+00   -0.546988687282498454E+01   -0.731454199338843203E-01   -0.429670741977201884E-01   -0.163630275193877572E+00   -0.427600019826232525E-01   -0.111753073111039680E+01   -0.218480996174638253E+01
    0.516123498406506620E-01   -0.127699086809705555E+02    0.474669008812225235E+00    0.146013392354438420E+01    0.900048544374402147E-02    0.246816786419358047E+01   -0.262316672534094719E+01   -0.192346669968934347E+00   -0.233413855002067772E+01   -0.125417706131387613E+00   -0.261872261089234268E-01   -0.206916836743654270E+00   -0.360046351873302209E-01   -0.111394612014082850E+01   -0.215306785206289186E+01
    0.516381913393836878E-01   -0.123400486393596651E+02    0.454313453803223688E+00    0.145900885320208173E+01    0.900609143566507946E-02    0.246845521160793657E+01   -0.265617117247654821E+01   -0.193526998359330682E+00   -0.528062848904485804E+01   -0.393847556640055801E-01    0.194882710773998241E-01   -0.195698695425705060E+00   -0.366628559623704137E-01   -0.112037627761617586E+01   -0.215116363654652876E+01
    0.517794201355670156E-01   -0.132303145020065926E+02    0.498454247003002282E+00    0.145770483377589954E+01    0.903072908971731467E-02    0.246901104797066839E+01   -0.266472577184629644E+01   -0.193765563916331512E+00   -0.192003367455997642E+01   -0.137009388276333272E+00   -0.430133094622499948E-01   -0.255994602161806695E+00   -0.392242352257558755E-01   -0.112115811306486468E+01   -0.218536677368314969E+01
    0.521706561575588784E-01   -0.127001942953925901E+02    0.468530626178027598E+00    0.146219345875949891E+01    0.892571839402069023E-02    0.246621165945875775E+01   -0.266166472203735260E+01   -0.190355293677299503E+00   -0.407419450457310539E+01   -0.126338847674365623E+00   -0.366177917649194024E-01   -0.225647888037641964E+00   -0.347953103536946876E-01   -0.110740603411602412E+01   -0.218189536787380023E+01
    0.517879323281315238E-01   -0.128906733214385412E+02    0.436219074189752365E+00    0.145935080458420541E+01    0.895066841497731309E-02    0.246799089715409892E+01   -0.265152649842915844E+01   -0.192961571969957085E+00   -0.516020763367008506E+01   -0.145738216789606356E+00   -0.578120792376920281E-01   -0.206856298821910256E+00   -0.398264618826211225E-01   -0.111659332414121271E+01   -0.217436616747993394E+01
    0.522263456099693879E-01   -0.127809277739976572E+02    0.496285394775756949E+00    0.145665445608423583E+01    0.901158357187687754E-02    0.246754623172857102E+01   -0.264540646039659277E+01   -0.192994539265639836E+00   -0.396530032268187327E+01   -0.184264635785785280E+00   -0.639242894288158947E-01   -0.214704797935876324E+00   -0.378665978679049164E-01   -0.110222434040650374E+01   -0.217641562871996186E+01
    0.518864773258762291E-01   -0.126344120841487939E+02    0.456877588505891663E+00    0.145575069791521305E+01    0.899739510071389387E-02    0.246763320859235158E+01   -0.262493858026420446E+01   -0.191748770077789871E+00   -0.445067320112481912E+01   -0.179288784243536670E+00   -0.195200199428984776E-01   -0.211409574835583453E+00   -0.409382346891895080E-01   -0.110977082750095168E+01   -0.218329054011741208E+01
    0.516647670853559518E-01   -0.131225951010636432E+02    0.450678222096795145E+00    0.145579587277842459E+01    0.901353848440342512E-02    0.246772818382221937E+01   -0.267102738959440078E+01   -0.194549854182988452E+00   -0.448971896285261529E+01   -0.111014435842207729E+00   -0.485582269392614285E-01   -0.220664435637061562E+00   -0.352067936644468588E-01   -0.111246018618586584E+01   -0.218253289400331596E+01
