    0.243029079147834226E+00   -0.214058338750759383E+02    0.164715511507793155E+01    0.135902157425351899E+01    0.109265498930601439E-01    0.212971197510605670E+01   -0.280760422908030272E+01   -0.654005706282588667E-01   -0.384407888271210973E+01    0.208754639680746590E-01   -0.250043866770749586E-01   -0.287944947859220701E+00   -0.145533094939096774E+00   -0.114132830687681497E+01   -0.171340349512462153E+01
    0.243029079147834226E+00   -0.214058338750759383E+02    0.164715511507793155E+01    0.135902157425351899E+01    0.109265498930601439E-01    0.212971197510605670E+01   -0.280760422908030272E+01   -0.654005706282588667E-01   -0.384407888271210973E+01    0.208754639680746590E-01   -0.250043866770749586E-01   -0.287944947859220701E+00   -0.145533094939096774E+00   -0.114132830687681497E+01   -0.171340349512462153E+01
    0.244551833190247370E+00   -0.205338701932610093E+02    0.164742501415480613E+01    0.135985798610188668E+01    0.106038335248705342E-01    0.212038213627355931E+01   -0.281060250398036171E+01   -0.570549687179941617E-01   -0.515855740889436110E+01   -0.162077315747504100E-01   -0.100316316039351892E-01   -0.309284793511662603E+00   -0.231325088787312227E+00   -0.114980797416989522E+01   -0.159009108700558843E+01
    0.244551833190247370E+00   -0.205338701932610093E+02    0.164742501415480613E+01    0.135985798610188668E+01    0.106038335248705342E-01    0.212038213627355931E+01   -0.281060250398036171E+01   -0.570549687179941617E-01   -0.515855740889436110E+01   -0.162077315747504100E-01   -0.100316316039351892E-01   -0.309284793511662603E+00   -0.231325088787312227E+00   -0.114980797416989522E+01   -0.159009108700558843E+01
    0.243563483413323206E+00   -0.211571166260127299E+02    0.164564332386717549E+01    0.135612611886027290E+01    0.105484363338230226E-01    0.212084348106754783E+01   -0.283551656750836489E+01   -0.754368727590381122E-01   -0.436718827452295510E+01   -0.111217172398639808E-02   -0.527537162277937066E-01   -0.285876589845535989E+00   -0.172659574649535408E+00   -0.112866974748882321E+01   -0.158776035625794876E+01
    0.243563483413323206E+00   -0.211571166260127299E+02    0.164564332386717549E+01    0.135612611886027290E+01    0.105484363338230226E-01    0.212084348106754783E+01   -0.283551656750836489E+01   -0.754368727590381122E-01   -0.436718827452295510E+01   -0.111217172398639808E-02   -0.527537162277937066E-01   -0.285876589845535989E+00   -0.172659574649535408E+00   -0.112866974748882321E+01   -0.158776035625794876E+01
    0.242432461144365147E+00   -0.205670121902967615E+02    0.164389013060068256E+01    0.136544850534793372E+01    0.110461673741256653E-01    0.212496758393539587E+01   -0.281705540610572447E+01   -0.633358991942560567E-01   -0.537774633539383640E+01    0.868719602790245238E-02   -0.642090479362753541E-01   -0.263648831673245765E+00   -0.116451126893239637E+00   -0.115585198088208729E+01   -0.157495300366919611E+01
    0.242958062083798887E+00   -0.206078436313743332E+02    0.164399562753338846E+01    0.136387141114940458E+01    0.108381105858802694E-01    0.211684152114230528E+01   -0.281373352389103504E+01   -0.569359214283884155E-01   -0.337481876784619272E+01    0.112587685025271091E-01   -0.497577043741659203E-01   -0.261124112971818478E+00   -0.113625333406988910E+00   -0.115056364368054820E+01   -0.156890173501890118E+01
    0.242958062083798887E+00   -0.206078436313743332E+02    0.164399562753338846E+01    0.136387141114940458E+01    0.108381105858802694E-01    0.211684152114230528E+01   -0.281373352389103504E+01   -0.569359214283884155E-01   -0.337481876784619272E+01    0.112587685025271091E-01   -0.497577043741659203E-01   -0.261124112971818478E+00   -0.113625333406988910E+00   -0.115056364368054820E+01   -0.156890173501890118E+01
    0.241911297832604899E+00   -0.207709906791936945E+02    0.164428649621306300E+01    0.136379154130502633E+01    0.101638286371803638E-01    0.212682797272499435E+01   -0.274981737988041708E+01   -0.648892675598961022E-01   -0.379607007784315398E+01   -0.859744352343646753E-02   -0.375246808098482557E-01   -0.346389542379398840E+00   -0.140979394450675866E+00   -0.113492917261694304E+01   -0.155969601968402349E+01
    0.244087245335897152E+00   -0.205135386691841823E+02    0.164431343782852468E+01    0.134905596936586658E+01    0.106894359228518789E-01    0.212012886852739690E+01   -0.282598424689580163E+01   -0.605790274662265163E-01   -0.356173569674570745E+01   -0.205105393941971623E-01   -0.286983759904305413E-01   -0.298726170968497740E+00   -0.156663635594744083E+00   -0.114341008773391861E+01   -0.155084166199096596E+01
    0.244087245335897152E+00   -0.205135386691841823E+02    0.164431343782852468E+01    0.134905596936586658E+01    0.106894359228518789E-01    0.212012886852739690E+01   -0.282598424689580163E+01   -0.605790274662265163E-01   -0.356173569674570745E+01   -0.205105393941971623E-01   -0.286983759904305413E-01   -0.298726170968497740E+00   -0.156663635594744083E+00   -0.114341008773391861E+01   -0.155084166199096596E+01
    0.243786522112926146E+00   -0.206496150839904047E+02    0.164205765580685736E+01    0.136503372476115592E+01    0.100484590577802815E-01    0.212940923462659004E+01   -0.279960087654312773E+01   -0.794362746394162017E-01   -0.580135634946800671E+01   -0.287762653519633704E-01   -0.349844640790778205E-01   -0.255467745626110299E+00   -0.167259089417652856E+00   -0.113721585817519988E+01   -0.154573100007960762E+01
    0.243786522112926146E+00   -0.206496150839904047E+02    0.164205765580685736E+01    0.136503372476115592E+01    0.100484590577802815E-01    0.212940923462659004E+01   -0.279960087654312773E+01   -0.794362746394162017E-01   -0.580135634946800671E+01   -0.287762653519633704E-01   -0.349844640790778205E-01   -0.255467745626110299E+00   -0.167259089417652856E+00   -0.113721585817519988E+01   -0.154573100007960762E+01
    0.242154539873703556E+00   -0.210201535966486333E+02    0.164223890126327210E+01    0.135904877241006883E+01    0.106966076926766629E-01    0.212510018638204112E+01   -0.279448348316012884E+01   -0.741294234481875841E-01   -0.425636571131213604E+01   -0.204422076347641297E-02   -0.442434820495567205E-01   -0.296822466164817167E+00   -0.256705114896864872E+00   -0.113362091902896922E+01   -0.154127365590387910E+01
    0.242154539873703556E+00   -0.210201535966486333E+02    0.164223890126327210E+01    0.135904877241006883E+01    0.106966076926766629E-01    0.212510018638204112E+01   -0.279448348316012884E+01   -0.741294234481875841E-01   -0.425636571131213604E+01   -0.204422076347641297E-02   -0.442434820495567205E-01   -0.296822466164817167E+00   -0.256705114896864872E+00   -0.113362091902896922E+01   -0.154127365590387910E+01
    0.241833487958839882E+00   -0.207765884092563518E+02    0.164579761124302415E+01    0.138586744540576201E+01    0.106164223540284441E-01    0.213212792462203504E+01   -0.277782944901917439E+01   -0.588821343807386169E-01   -0.449617695885815749E+01   -0.258622351291836645E-01   -0.500327578782064908E-01   -0.325992526730014220E+00   -0.150911080482230814E+00   -0.115996973482233456E+01   -0.154113001990333154E+01
    0.241833487958839882E+00   -0.207765884092563518E+02    0.164579761124302415E+01    0.138586744540576201E+01    0.106164223540284441E-01    0.213212792462203504E+01   -0.277782944901917439E+01   -0.588821343807386169E-01   -0.449617695885815749E+01   -0.258622351291836645E-01   -0.500327578782064908E-01   -0.325992526730014220E+00   -0.150911080482230814E+00   -0.115996973482233456E+01   -0.154113001990333154E+01
    0.243653835139638064E+00   -0.205241038382554457E+02    0.164246131703146658E+01    0.137522934785691842E+01    0.109561530471239451E-01    0.211917248151656423E+01   -0.284074454628740680E+01   -0.683266416586812836E-01   -0.243882558791822790E+01   -0.101876105838655806E-01   -0.224847417117478993E-01   -0.235493519178811755E+00   -0.181467494238683053E+00   -0.112570333958733726E+01   -0.153938117723328638E+01
    0.243699102348356983E+00   -0.211411251167130949E+02    0.164307780433800787E+01    0.137944027880021047E+01    0.108350129274825246E-01    0.212976823861561870E+01   -0.284240756901434422E+01   -0.806178973885849914E-01   -0.534157895864032373E+01   -0.100919137597314211E-01   -0.450953100543986796E-01   -0.256857527457053536E+00   -0.113141324618512618E+00   -0.114310862897357302E+01   -0.153469732877050347E+01
    0.243699102348356983E+00   -0.211411251167130949E+02    0.164307780433800787E+01    0.137944027880021047E+01    0.108350129274825246E-01    0.212976823861561870E+01   -0.284240756901434422E+01   -0.806178973885849914E-01   -0.534157895864032373E+01   -0.100919137597314211E-01   -0.450953100543986796E-01   -0.256857527457053536E+00   -0.113141324618512618E+00   -0.114310862897357302E+01   -0.153469732877050347E+01
    0.244071004462713681E+00   -0.198196817752611061E+02    0.164250395022640716E+01    0.134255590041159700E+01    0.105642011020078679E-01    0.212996923777534963E+01   -0.280250107271656601E+01   -0.611764522095763277E-01   -0.256395286103800624E+01   -0.474288911607683491E-02   -0.516707396814795814E-01   -0.359509944278611659E+00   -0.149211128301264373E+00   -0.112953065473288006E+01   -0.153279136096948720E+01
    0.244071004462713681E+00   -0.198196817752611061E+02    0.164250395022640716E+01    0.134255590041159700E+01    0.105642011020078679E-01    0.212996923777534963E+01   -0.280250107271656601E+01   -0.611764522095763277E-01   -0.256395286103800624E+01   -0.474288911607683491E-02   -0.516707396814795814E-01   -0.359509944278611659E+00   -0.149211128301264373E+00   -0.112953065473288006E+01   -0.153279136096948720E+01
    0.244104057930336543E+00   -0.203941891652295055E+02    0.164203058555517534E+01    0.135102337783537441E+01    0.101957536433137062E-01    0.212460620668709321E+01   -0.285191602807504552E+01   -0.717649925238259823E-01   -0.491489220492717127E+01   -0.600151105625304319E-02   -0.641636684143404579E-01   -0.355700518297443313E+00   -0.142922731670722308E+00   -0.114842300709554967E+01   -0.152823251923182823E+01
    0.244104057930336543E+00   -0.203941891652295055E+02    0.164203058555517534E+01    0.135102337783537441E+01    0.101957536433137062E-01    0.212460620668709321E+01   -0.285191602807504552E+01   -0.717649925238259823E-01   -0.491489220492717127E+01   -0.600151105625304319E-02   -0.641636684143404579E-01   -0.355700518297443313E+00   -0.142922731670722308E+00   -0.114842300709554967E+01   -0.152823251923182823E+01
    0.242761534637940229E+00   -0.205670302144697708E+02    0.164091896612958288E+01    0.135633102655358417E+01    0.102059572429985257E-01    0.212551427762315148E+01   -0.278242403539401195E+01   -0.597173471695647967E-01   -0.387200487897170031E+01   -0.172986114079412209E-01   -0.693673199651870798E-01   -0.226946898166663191E+00   -0.167881403099776144E+00   -0.114779814917422374E+01   -0.152712048323189653E+01
    0.241202797511501393E+00   -0.201924066944595992E+02    0.163964695124588045E+01    0.136295107539105564E+01    0.102902892798047239E-01    0.212804079091279741E+01   -0.277107140141532460E+01   -0.570764936055756164E-01   -0.576813814402545866E+01   -0.196700216567679900E-01   -0.375212557341251876E-01   -0.219702318890335813E+00   -0.172789302434739583E+00   -0.115330002504212725E+01   -0.152609219178819600E+01
    0.241202797511501393E+00   -0.201924066944595992E+02    0.163964695124588045E+01    0.136295107539105564E+01    0.102902892798047239E-01    0.212804079091279741E+01   -0.277107140141532460E+01   -0.570764936055756164E-01   -0.576813814402545866E+01   -0.196700216567679900E-01   -0.375212557341251876E-01   -0.219702318890335813E+00   -0.172789302434739583E+00   -0.115330002504212725E+01   -0.152609219178819600E+01
    0.242244934047724653E+00   -0.211540436320939129E+02    0.163922244825950925E+01    0.135064081100860767E+01    0.107576215727577165E-01    0.211658316450951434E+01   -0.286850062746175904E+01   -0.712811966053533974E-01   -0.473659166574125834E+01   -0.391762896217989973E-01   -0.203189779045997998E-01   -0.281120824800978386E+00   -0.185644397294346258E+00   -0.115278459223150054E+01   -0.152317073885998155E+01
    0.242759813451313977E+00   -0.200842832760484491E+02    0.164008720089268700E+01    0.135801784788460234E+01    0.103578577079890335E-01    0.212369888238794680E+01   -0.271629477996928292E+01   -0.711425694383863993E-01   -0.392475133832102419E+01   -0.253493364218130811E-01   -0.240651669211945363E-01   -0.285957137072157141E+00   -0.152587437064230974E+00   -0.113886786667236994E+01   -0.152084235400970758E+01
    0.242759813451313977E+00   -0.200842832760484491E+02    0.164008720089268700E+01    0.135801784788460234E+01    0.103578577079890335E-01    0.212369888238794680E+01   -0.271629477996928292E+01   -0.711425694383863993E-01   -0.392475133832102419E+01   -0.253493364218130811E-01   -0.240651669211945363E-01   -0.285957137072157141E+00   -0.152587437064230974E+00   -0.113886786667236994E+01   -0.152084235400970758E+01
    0.242243649595473981E+00   -0.200429975586851157E+02    0.164313224212798414E+01    0.136581454484692855E+01    0.104056667908472376E-01    0.211755464754417577E+01   -0.277442094470552947E+01   -0.698803790671389258E-01   -0.332916785996278053E+01   -0.156679341889196383E-01   -0.335614478285988713E-01   -0.270959099084379818E+00   -0.170122802581975402E+00   -0.113599907990072979E+01   -0.151842279051494478E+01
    0.243049459496268827E+00   -0.207791853413255865E+02    0.163988496403139594E+01    0.133683442651731244E+01    0.104263932188533772E-01    0.212352293930470903E+01   -0.287124666994630928E+01   -0.713743068092888011E-01   -0.219213647446405391E+01   -0.207052598008100747E-01   -0.162810536264007683E-01   -0.253899387902901785E+00   -0.160866224373654054E+00   -0.114610447342165589E+01   -0.151784517012920439E+01
    0.243295211325543964E+00   -0.207605020137268426E+02    0.164352429482664752E+01    0.136152679980423374E+01    0.105629881834651690E-01    0.212386824010452102E+01   -0.281373652062833690E+01   -0.858418163576789711E-01   -0.494552527463639713E+01   -0.207095914422360666E-01   -0.122184172408912294E-01   -0.248179828249631834E+00   -0.173283232983605762E+00   -0.114122747630598131E+01   -0.151687869396940944E+01
    0.243740741870755506E+00   -0.204630363080401558E+02    0.164303688438486506E+01    0.135764724212895849E+01    0.106756048666400219E-01    0.213004206216246272E+01   -0.278696845048650754E+01   -0.754790710371617685E-01   -0.634227536011964510E+01   -0.113841183167875878E-01   -0.152620233740346084E-01   -0.288508668699862081E+00   -0.119125193844050820E+00   -0.113146055693738679E+01   -0.151652702392044114E+01
    0.243494621368827907E+00   -0.208193209219299611E+02    0.164283609151680543E+01    0.136364153148838407E+01    0.107163422350261550E-01    0.212542382340260971E+01   -0.287966085769290503E+01   -0.645584739560780413E-01   -0.435537619712995738E+01   -0.376412213419377098E-01   -0.678544936474579780E-01   -0.199345892400318525E+00   -0.205180769421614950E+00   -0.112947608117131937E+01   -0.151651602728381607E+01
    0.241488429709198371E+00   -0.202096337651321534E+02    0.164026900020264743E+01    0.135595097272801812E+01    0.104171506063050808E-01    0.212661506885416474E+01   -0.277693939380457788E+01   -0.641520298375513054E-01   -0.671879277861625024E+01   -0.121479530645771903E-01   -0.308819280149882219E-01   -0.301728725215892890E+00   -0.189954481573533812E+00   -0.114218957411228716E+01   -0.151607664944977594E+01
    0.241488429709198371E+00   -0.202096337651321534E+02    0.164026900020264743E+01    0.135595097272801812E+01    0.104171506063050808E-01    0.212661506885416474E+01   -0.277693939380457788E+01   -0.641520298375513054E-01   -0.671879277861625024E+01   -0.121479530645771903E-01   -0.308819280149882219E-01   -0.301728725215892890E+00   -0.189954481573533812E+00   -0.114218957411228716E+01   -0.151607664944977594E+01
    0.243402801882079717E+00   -0.212207512954253943E+02    0.164114744075357022E+01    0.136881615195045026E+01    0.106863401550765322E-01    0.212267819823038639E+01   -0.276623538834014093E+01   -0.674470729819647979E-01   -0.449482307368471456E+01   -0.164109517137936214E-01   -0.490114945396124060E-01   -0.278825584851067676E+00   -0.205329575994375207E+00   -0.115480641935136941E+01   -0.151505313488983795E+01
    0.243402801882079717E+00   -0.212207512954253943E+02    0.164114744075357022E+01    0.136881615195045026E+01    0.106863401550765322E-01    0.212267819823038639E+01   -0.276623538834014093E+01   -0.674470729819647979E-01   -0.449482307368471456E+01   -0.164109517137936214E-01   -0.490114945396124060E-01   -0.278825584851067676E+00   -0.205329575994375207E+00   -0.115480641935136941E+01   -0.151505313488983795E+01
    0.242625918116151751E+00   -0.209603763982542546E+02    0.164210732708726215E+01    0.136059340114445848E+01    0.104817746334385647E-01    0.212360052709597547E+01   -0.281067829752338394E+01   -0.718093403429249100E-01   -0.553420876079144541E+01   -0.346267529315158959E-01   -0.745367068999938237E-01   -0.265416576467971232E+00   -0.210142727232590587E+00   -0.113816133631501626E+01   -0.151374383575715799E+01
    0.242363179528146733E+00   -0.205815061331097588E+02    0.164214962628819694E+01    0.137203797737353539E+01    0.101512966207806168E-01    0.212247878526334421E+01   -0.280524710823253409E+01   -0.746068150385147677E-01   -0.386030210530836371E+01   -0.479049971748714363E-02   -0.618000883070455864E-01   -0.260864296373928550E+00   -0.186237751440345434E+00   -0.113469482405974165E+01   -0.151354974837772227E+01
    0.242816399220491919E+00   -0.206119863277329856E+02    0.164306716364243099E+01    0.135879466009307537E+01    0.105215004624612269E-01    0.212483707641327735E+01   -0.277329459373676279E+01   -0.735571555927971021E-01   -0.405616845668179060E+01    0.176545769377141198E-01   -0.480425143035923610E-01   -0.326734615149499585E+00   -0.146561893867373561E+00   -0.114535829931319411E+01   -0.151262906727645485E+01
    0.242816399220491919E+00   -0.206119863277329856E+02    0.164306716364243099E+01    0.135879466009307537E+01    0.105215004624612269E-01    0.212483707641327735E+01   -0.277329459373676279E+01   -0.735571555927971021E-01   -0.405616845668179060E+01    0.176545769377141198E-01   -0.480425143035923610E-01   -0.326734615149499585E+00   -0.146561893867373561E+00   -0.114535829931319411E+01   -0.151262906727645485E+01
    0.241854744217135903E+00   -0.206003219027277531E+02    0.164026412572270042E+01    0.135325138595098537E+01    0.110119966804798231E-01    0.212578501273950016E+01   -0.282828594061776739E+01   -0.701504975325640268E-01   -0.350042464623389415E+01    0.748569575146882694E-02   -0.276200668779440495E-01   -0.238006717250310751E+00   -0.175814140749935094E+00   -0.114246317475037662E+01   -0.151075423891909133E+01
    0.243885557565380440E+00   -0.203868278795140192E+02    0.164473892434794577E+01    0.137984983929287597E+01    0.106742340891356653E-01    0.212464327509702144E+01   -0.279355674412822408E+01   -0.573575061370911882E-01   -0.499435995011403921E+01   -0.225046611493779185E-01   -0.504024132406579797E-01   -0.197732803075249874E+00   -0.160755745040079612E+00   -0.113787439846143346E+01   -0.151008384963171083E+01
    0.242908563269045530E+00   -0.202148146186627820E+02    0.164189759733883500E+01    0.135866378131794763E+01    0.106252879733700414E-01    0.212821713745577723E+01   -0.278572105618857568E+01   -0.537525288284606481E-01   -0.454209452059886853E+01   -0.809122554541203895E-02   -0.224435066106135790E-01   -0.338770346289954560E+00   -0.200176226663394990E+00   -0.112458583672355972E+01   -0.150980214362464715E+01
    0.243417384676586190E+00   -0.204217881936158960E+02    0.164227070607919434E+01    0.135828966810358454E+01    0.107762689489014057E-01    0.211996218484129573E+01   -0.280671021010756627E+01   -0.702002424748048443E-01   -0.548633645873080322E+01   -0.547390450462559124E-02   -0.428341712576069400E-01   -0.342931256769256843E+00   -0.139949199079440256E+00   -0.114775081592506289E+01   -0.150966247969526113E+01
    0.242721421624773448E+00   -0.210549584155737932E+02    0.164299836276578826E+01    0.136622512905385896E+01    0.102734140683113390E-01    0.212347181711694954E+01   -0.284167664654695651E+01   -0.723475724047073082E-01   -0.418436667065951173E+01    0.253685142633216891E-01   -0.304418591458081866E-01   -0.284361549101001754E+00   -0.159896018348966856E+00   -0.115123379920122648E+01   -0.150691238515095982E+01
    0.243514220133415255E+00   -0.199722817601821205E+02    0.164067784772133218E+01    0.137825451031651847E+01    0.101560578776194680E-01    0.211878472622460468E+01   -0.283841660610981927E+01   -0.527705478177713030E-01   -0.612440417561544503E+01   -0.101689158604180239E-01   -0.421143912991003011E-01   -0.288416563899051348E+00   -0.160511640502676939E+00   -0.113448970191841547E+01   -0.150288333595053580E+01
    0.242553853339980086E+00   -0.205113287379839022E+02    0.164174959856769842E+01    0.137141198855440072E+01    0.107227595224974534E-01    0.211691536100827893E+01   -0.284023800232384893E+01   -0.781709934295833908E-01   -0.433004338858235638E+01   -0.182404065288905293E-01   -0.480344198638703729E-01   -0.258360174586082181E+00   -0.167637663018881056E+00   -0.114981744906842920E+01   -0.150244321445297091E+01
    0.243430476093856568E+00   -0.201378096261330874E+02    0.163975069349420721E+01    0.138195901038011271E+01    0.101253812837906083E-01    0.212652333413022365E+01   -0.278916032947661741E+01   -0.933325160664086884E-01   -0.365284605745439084E+01    0.128963860245639751E-01   -0.415474625918817592E-01   -0.371835193428372957E+00   -0.141442550014202639E+00   -0.112965998190039407E+01   -0.150133185796410884E+01
    0.243048719228925014E+00   -0.205327930897205846E+02    0.164063509449199540E+01    0.136313960846435589E+01    0.109288038228499435E-01    0.211938337895459261E+01   -0.285041659230645372E+01   -0.704988093759031792E-01   -0.491160910532167883E+01    0.126562699357925419E-01   -0.134963219613806612E-01   -0.251481458823011261E+00   -0.147935009010443680E+00   -0.114955091133683696E+01   -0.149939295516353299E+01
    0.241581372284098400E+00   -0.206455586221203582E+02    0.164283251312185419E+01    0.137659861359682067E+01    0.102719139096756843E-01    0.212339677313230712E+01   -0.283738957026394090E+01   -0.681429833154984926E-01   -0.562612208900941724E+01    0.207278292532475546E-01   -0.408521504219562098E-01   -0.294556126585077016E+00   -0.181471340978336587E+00   -0.114494835602333334E+01   -0.149912226676224458E+01
    0.244354683697387109E+00   -0.204739032655144442E+02    0.164182388693174053E+01    0.135535784202117893E+01    0.106068613488281751E-01    0.212878412192131439E+01   -0.278737648908245950E+01   -0.614840810170944052E-01   -0.137400235812408722E+01   -0.121670987015110033E-01   -0.378708339646845749E-01   -0.260908198972863548E+00   -0.181526613017619021E+00   -0.115383050253846697E+01   -0.149884547556280046E+01
    0.241363413798627663E+00   -0.206917193864534319E+02    0.163683713570576206E+01    0.135790985204800374E+01    0.105005263834712145E-01    0.211582382937185720E+01   -0.281896637543365269E+01   -0.808088502421290267E-01   -0.499370396919106607E+01    0.278496054152094566E-02   -0.620624744534985576E-01   -0.250045685569580733E+00   -0.201208303366342489E+00   -0.114491435152887733E+01   -0.149420133173640335E+01
    0.243484972605962774E+00   -0.198701259342587448E+02    0.164076132883557091E+01    0.136630632732207302E+01    0.104990574183352874E-01    0.213776547527913063E+01   -0.282987772247554270E+01   -0.782687352872566827E-01   -0.379045970651859765E+01   -0.627909927358599740E-02   -0.727853236075470950E-01   -0.274419772242578519E+00   -0.140851171494705274E+00   -0.114922682698619738E+01   -0.149395507648702641E+01
    0.243148690540584050E+00   -0.205201960047488505E+02    0.164049544055894048E+01    0.135108242051608807E+01    0.106348657358586000E-01    0.212633746754169728E+01   -0.272441629985185152E+01   -0.721485196789739824E-01   -0.566580252015027952E+01   -0.369933621713930579E-02   -0.707930679930439677E-01   -0.246673306664189018E+00   -0.149716799434436665E+00   -0.115066374039738406E+01   -0.149394132749613640E+01
    0.243462744823680438E+00   -0.199964429207898036E+02    0.164021534946425596E+01    0.135067930167126682E+01    0.110150094072932938E-01    0.211812610831361248E+01   -0.284703389721949263E+01   -0.690623089115470629E-01   -0.657893955679183406E+01   -0.795155961654514173E-02   -0.446850463134417716E-01   -0.316185277003217635E+00   -0.215648245114524906E+00   -0.113358197802018457E+01   -0.149272661075368340E+01
    0.241979782610378558E+00   -0.205754578637368226E+02    0.163822490537046161E+01    0.134812928219189643E+01    0.106294943681462997E-01    0.212247212954574760E+01   -0.277771614241488196E+01   -0.581659801598905929E-01   -0.702085134668138977E+01    0.293231187398100279E-01   -0.302489497835409134E-01   -0.352297837614035547E+00   -0.102180488695739341E+00   -0.114206667168666298E+01   -0.149266257443736738E+01
    0.242597208768309119E+00   -0.206490690941294410E+02    0.164000869033171059E+01    0.136257298577223995E+01    0.108439893876476172E-01    0.212781702633323055E+01   -0.275534129890032364E+01   -0.534738340444467358E-01   -0.600477541260199033E+01   -0.262829375196850859E-02   -0.366654353601480187E-01   -0.270647131708688371E+00   -0.136329411234494019E+00   -0.114868374044249832E+01   -0.149013581835257769E+01
    0.243644651849151517E+00   -0.202461247862610421E+02    0.164015864384857335E+01    0.134567164318840726E+01    0.106170831674906613E-01    0.212728936415284053E+01   -0.278909760376881755E+01   -0.962978382115723675E-01   -0.598211661445000331E+01   -0.253328772096182292E-01   -0.196422912769391410E-01   -0.284410876649712763E+00   -0.132010652956570856E+00   -0.113633217678480980E+01   -0.148972156948193990E+01
    0.243128053861465604E+00   -0.207735866503007465E+02    0.164170738921216097E+01    0.137267076770683349E+01    0.104990977607148789E-01    0.212311277863236869E+01   -0.275113126557886867E+01   -0.671665299893761253E-01   -0.347906236615553066E+01   -0.105949617751650536E-01   -0.641734271272767151E-02   -0.288836638083368236E+00   -0.204235387326970746E+00   -0.115575501350986509E+01   -0.148959825253859202E+01
    0.242333546736330868E+00   -0.203551221870112329E+02    0.164241551820271359E+01    0.137340900976971003E+01    0.105610453581879583E-01    0.212365121301070925E+01   -0.279336287561881180E+01   -0.779715784782933768E-01   -0.502774428606055146E+01   -0.142592009377465797E-01   -0.465272740465643153E-01   -0.272056532697292630E+00   -0.160004118084913327E+00   -0.112820277212933351E+01   -0.148816718697018358E+01
    0.241804733036419778E+00   -0.209083778864054004E+02    0.164060082478192704E+01    0.137190413886275975E+01    0.105819825958733457E-01    0.212561384878291149E+01   -0.277949750362349279E+01   -0.608487269396088409E-01   -0.352399019218304632E+01   -0.551187073914417673E-02   -0.532820108740533760E-01   -0.259857734482266289E+00   -0.126417971203222790E+00   -0.114186873307442016E+01   -0.148813300043572361E+01
    0.242036728013570485E+00   -0.201448055865184976E+02    0.163960764114656454E+01    0.137187791402861325E+01    0.107637235599390424E-01    0.211592835972678150E+01   -0.280971472426186830E+01   -0.459472351896148962E-01   -0.679982615059183537E+01    0.155428602461957985E-01   -0.500574251689442501E-01   -0.269759784252397827E+00   -0.150146330910823883E+00   -0.114459092686165831E+01   -0.148813150823634799E+01
    0.244420801592922454E+00   -0.202541354429970788E+02    0.164302035809446489E+01    0.136941839404798160E+01    0.104248463451982673E-01    0.212710304966585051E+01   -0.279964316640600153E+01   -0.546429890901835580E-01   -0.368254523915128873E+01    0.277693597307621109E-02   -0.232441763837290608E-01   -0.198193460673089100E+00   -0.171049322249282487E+00   -0.113770453306834729E+01   -0.148791515935791074E+01
    0.243337677325244084E+00   -0.211370024001995063E+02    0.164441848063619256E+01    0.139736539699625339E+01    0.102811806336098668E-01    0.212466685193356364E+01   -0.280533033620072203E+01   -0.748055984495443749E-01   -0.778170886436304698E+01    0.134865319270586967E-01   -0.472897199110815236E-01   -0.293240570635577180E+00   -0.178588342572144260E+00   -0.114239064373792165E+01   -0.148712334451084760E+01
    0.242210724444076486E+00   -0.211890819437956992E+02    0.163950860343316029E+01    0.137974337581817985E+01    0.102303847454733882E-01    0.212441130104029519E+01   -0.279696691512448226E+01   -0.772367702181605414E-01   -0.322671323513092112E+01    0.839988976041177240E-02   -0.772859342275164854E-02   -0.331450198670038498E+00   -0.199217565217310294E+00   -0.112530609011218408E+01   -0.148670330600369272E+01
    0.242398481790718073E+00   -0.199469215734353575E+02    0.164029135394850356E+01    0.136724751096440778E+01    0.104164292279833957E-01    0.212557748282298542E+01   -0.284659445735194616E+01   -0.407428283968318955E-01   -0.477564268346452536E+01   -0.479848256996256821E-02   -0.564577839281153876E-01   -0.260209685886325481E+00   -0.177842625220004130E+00   -0.113876956358756010E+01   -0.148638371127740698E+01
    0.243942162073495089E+00   -0.201238050588844040E+02    0.164189321140822631E+01    0.137085255519850446E+01    0.106867575682074046E-01    0.212057069622204386E+01   -0.275772610700891363E+01   -0.582823942570007275E-01   -0.502321431102962723E+01   -0.781665072772490255E-03   -0.547559798785503815E-01   -0.264910638639527074E+00   -0.182435151895420533E+00   -0.113177475650891157E+01   -0.148460557657049708E+01
    0.242826577641229557E+00   -0.203939050455072675E+02    0.164117842081366883E+01    0.137504958505866082E+01    0.105448622987520842E-01    0.212007586362099643E+01   -0.283603008627952979E+01   -0.671822911244921578E-01   -0.607237500051155799E+01   -0.327784973976666394E-01   -0.651774676822641230E-01   -0.278306587093622049E+00   -0.152921591646017041E+00   -0.111723854141180956E+01   -0.147967899438550954E+01
    0.242810170602852454E+00   -0.204639431153989406E+02    0.164005168340935681E+01    0.138691987336763844E+01    0.107362499429683785E-01    0.212886101151835749E+01   -0.287525737796809766E+01   -0.786227266350301573E-01   -0.310518551188885983E+01    0.959816817116690077E-02   -0.508619501799332518E-01   -0.278167519386155804E+00   -0.157864554141053381E+00   -0.113958452176403058E+01   -0.142931086398895268E+01
    0.244074547078159926E+00   -0.204953365124393336E+02    0.164188944472479670E+01    0.136770069916424575E+01    0.104820048833293954E-01    0.212664693554537187E+01   -0.283714461812359886E+01   -0.856356610979339822E-01   -0.320012267641956250E+01    0.207761366326743684E-01   -0.610112660754435487E-01   -0.258950173224798963E+00   -0.259434646950157444E+00   -0.112362674986118560E+01   -0.148340843301983338E+01
    0.245049432610980500E+00   -0.191907405169216965E+02    0.164532699419732187E+01    0.136923283734988055E+01    0.106958953157458517E-01    0.212734080283144644E+01   -0.283108146452136600E+01   -0.687281207783398268E-01   -0.406039287519443981E+01    0.354149069984471473E-01   -0.239338858638090332E-01   -0.260823194665381008E+00   -0.186620014455518513E+00   -0.112207140355587986E+01   -0.147540584574470302E+01
    0.242551788952632352E+00   -0.204807790867834285E+02    0.163901818738463279E+01    0.138626715375101939E+01    0.105850806864315767E-01    0.212216628841076016E+01   -0.286033149402736475E+01   -0.790235674593627591E-01   -0.353872560176287809E+01   -0.573958078887708539E-02   -0.402685320552905526E-01   -0.279109310055166260E+00   -0.233060815184583381E+00   -0.114135535952850931E+01   -0.143800140877047355E+01
    0.244390679727117505E+00   -0.210086372252403670E+02    0.164049807303760664E+01    0.136580704881709547E+01    0.105223987495752271E-01    0.212468246230682567E+01   -0.281002467716473125E+01   -0.718758439260780424E-01   -0.520251484280217102E+01   -0.565054494918543551E-02   -0.443351294625787956E-01   -0.286882444966378880E+00   -0.156139181063990024E+00   -0.114175368248376419E+01   -0.147736574933895359E+01
    0.242364646970418290E+00   -0.200939737718734150E+02    0.164097491422040509E+01    0.137273816131276072E+01    0.103569162037190077E-01    0.212521477079970067E+01   -0.283386990541920669E+01   -0.685614567213966020E-01   -0.359079047077347768E+01   -0.109129869509081052E-01   -0.732312972897338349E-01   -0.302644742315555215E+00   -0.201606030896121696E+00   -0.114108785548699765E+01   -0.148268961853175330E+01
    0.243438226611934455E+00   -0.207830432599763313E+02    0.163997714632952940E+01    0.137369270656106246E+01    0.106883523890379979E-01    0.211729664077615221E+01   -0.282603451716108101E+01   -0.732417021400367796E-01   -0.698679702702192706E+01    0.339884878692447989E-01   -0.633023628435030669E-02   -0.251320624771765588E+00   -0.118345847306765686E+00   -0.113130180314661666E+01   -0.147875668112682446E+01
    0.242905993951544191E+00   -0.198262125191795917E+02    0.164517917296638072E+01    0.138829193596567535E+01    0.105471459943685484E-01    0.212972203950521699E+01   -0.281750991186313371E+01   -0.762943242594208565E-01   -0.345786708990504765E+01    0.693737079636808952E-02   -0.429885011453767160E-01   -0.247727791713948098E+00   -0.165741250214575808E+00   -0.113544254104272913E+01   -0.147225592794518301E+01
    0.243115636296305171E+00   -0.201414679774892349E+02    0.164207340046998485E+01    0.136811791180826470E+01    0.104923192577944489E-01    0.212474351120677074E+01   -0.283661235776546228E+01   -0.942394674967420576E-01   -0.604178973980094280E+01    0.201527884577619651E-01   -0.468183987010934929E-01   -0.272781417825563866E+00   -0.171210101545625243E+00   -0.113617914426061617E+01   -0.146903670631799033E+01
    0.243975853642577900E+00   -0.208851561307135647E+02    0.164020330643397694E+01    0.137906000068883139E+01    0.105796788175940969E-01    0.212304920608503966E+01   -0.278869617228284072E+01   -0.637740371141247153E-01   -0.297768213306350304E+01   -0.153687625816081464E-01   -0.480356712819698800E-01   -0.252517728992417589E+00   -0.210602806128036557E+00   -0.114462504057129411E+01   -0.146285036318886563E+01
    0.242718829348611553E+00   -0.203906207842379565E+02    0.164088565674161857E+01    0.137477862023755582E+01    0.105220135733251965E-01    0.212928809469735025E+01   -0.280713209662274021E+01   -0.518997682397814367E-01   -0.350208802019360466E+01    0.127357487488518363E-01   -0.222976130177563597E-02   -0.266255264237655387E+00   -0.144157420852252249E+00   -0.114136354182131328E+01   -0.146781279396847242E+01
    0.242293051105656909E+00   -0.208424021636056231E+02    0.163964905196254351E+01    0.137301213859841287E+01    0.103907543692099806E-01    0.212290501823979794E+01   -0.284762114735572913E+01   -0.512529193180577408E-01   -0.544037404070729202E+01   -0.194969768233753150E-01   -0.270227029878660208E-01   -0.261778768116087412E+00   -0.145595974742923018E+00   -0.115242159972753266E+01   -0.147069309917519564E+01
    0.243721282467154632E+00   -0.205953720187124745E+02    0.164110865627270219E+01    0.138521134693877634E+01    0.102875429926547503E-01    0.212155321555343646E+01   -0.282747045851900403E+01   -0.639591745907006903E-01   -0.427480632305521535E+01   -0.607603766797891465E-02   -0.376862438895062477E-01   -0.250683645706265668E+00   -0.152781301885238530E+00   -0.114865208466535251E+01   -0.145683611700980475E+01
    0.243019727407245395E+00   -0.201697535316693397E+02    0.163764163067905466E+01    0.137170172388790235E+01    0.105922293011401492E-01    0.212107125445753875E+01   -0.282990842850027757E+01   -0.827288506580174110E-01   -0.477595130110814647E+01   -0.154908500091912021E-01   -0.444539212875880788E-01   -0.284871890904226877E+00   -0.161406384672528463E+00   -0.114229391959038584E+01   -0.143627483080561591E+01
    0.243338641295899438E+00   -0.200367913139942218E+02    0.164156951285153596E+01    0.136908731228185809E+01    0.105122123907913437E-01    0.212777018580275401E+01   -0.278284103420527451E+01   -0.689996013639580241E-01   -0.431095413506285929E+01    0.857790007189239596E-02   -0.590266983340552720E-01   -0.320973735370493674E+00   -0.162169490635594465E+00   -0.114082655987283577E+01   -0.147227645129772666E+01
    0.243255344884438285E+00   -0.208470739138381944E+02    0.164117967508519724E+01    0.137199155773015069E+01    0.104655045798928859E-01    0.212719055198377260E+01   -0.283112635028535431E+01   -0.519659284419858106E-01   -0.502024193367932270E+01   -0.315228292647669762E-02   -0.264704270587107632E-01   -0.276286176989583021E+00   -0.111451702322272486E+00   -0.114188621336579565E+01   -0.147901752439923628E+01
    0.243280137400465502E+00   -0.209398942264953156E+02    0.163705670481140975E+01    0.135901199938865580E+01    0.109687647542775976E-01    0.212672705779088922E+01   -0.281028386263777685E+01   -0.802490983616731823E-01   -0.459650585203698903E+01   -0.207542240379333552E-02   -0.542778550188349196E-01   -0.322774468725048391E+00   -0.158058125827935853E+00   -0.113452032896039157E+01   -0.146209884435879767E+01
    0.243506764567670286E+00   -0.200158135666217980E+02    0.163977532796834957E+01    0.136157567244193589E+01    0.105424550038757826E-01    0.212067194741341591E+01   -0.280484797228882554E+01   -0.855724477134407746E-01   -0.396898240193695928E+01    0.440487606629986692E-02   -0.328930927204232337E-01   -0.219866317057446636E+00   -0.147643639109300256E+00   -0.114719566454534516E+01   -0.145653171238589119E+01
    0.242640782287251389E+00   -0.205557587945971072E+02    0.163708979709136493E+01    0.136518457776536128E+01    0.104556587171257057E-01    0.212354667396329644E+01   -0.281016619348068541E+01   -0.774983577491782233E-01   -0.441854964333096767E+01   -0.160658233038112122E-01   -0.965528849648865373E-03   -0.220603756527977285E+00   -0.171183350557619990E+00   -0.113681253635680357E+01   -0.145952755262906098E+01
    0.243194189853613407E+00   -0.210817457129318910E+02    0.164139620439495904E+01    0.137994688496302742E+01    0.105635610900948473E-01    0.213228746892476950E+01   -0.282580614344192993E+01   -0.662476257463380791E-01   -0.489457436547017100E+01   -0.251100096287915180E-01   -0.384133762332922180E-02   -0.285236778343014530E+00   -0.116050366384214509E+00   -0.113403058000588675E+01   -0.148296041437775394E+01
    0.243256618382424183E+00   -0.205356593203112361E+02    0.164126389012533469E+01    0.136446404129367416E+01    0.106612581903767611E-01    0.212522336417314950E+01   -0.283112844323041379E+01   -0.566366555277486722E-01   -0.574358904019245564E+01   -0.220765625480744097E-01    0.781084208776325339E-02   -0.268619089713151904E+00   -0.165773218916111242E+00   -0.114279778969165569E+01   -0.148087861503262630E+01
    0.244188699280634747E+00   -0.200518727454766612E+02    0.164055658843707097E+01    0.137804462105978542E+01    0.102174316772104413E-01    0.212279103241360145E+01   -0.283191633023045863E+01   -0.917929001289689017E-01   -0.355675199650906482E+01   -0.146357600340403515E-01   -0.296598731752140271E-01   -0.291924663326823319E+00   -0.144495956834141903E+00   -0.114175518952262767E+01   -0.147233984284803610E+01
    0.243405736337580225E+00   -0.202766200080816290E+02    0.163867973497893282E+01    0.136946606833095075E+01    0.104009160734749150E-01    0.213181203407490072E+01   -0.284383941212399094E+01   -0.882094405829639272E-01   -0.364225008977480602E+01   -0.321891618678319114E-01   -0.460679754684462928E-01   -0.272908088992883768E+00   -0.136185273785948552E+00   -0.114420749752890782E+01   -0.146721204397265059E+01
    0.240777012286197301E+00   -0.207268308770543754E+02    0.163609976487693398E+01    0.137629422764307519E+01    0.107423444792401519E-01    0.212473435415128487E+01   -0.279474580050293664E+01   -0.699212122052574048E-01   -0.323178995783132095E+01   -0.136831516878669346E-01   -0.536506454521117754E-02   -0.374792935409017591E+00   -0.166495105999731857E+00   -0.113771252410405288E+01   -0.146095734404145916E+01
    0.242195228553594766E+00   -0.203329621529594426E+02    0.163750261276377596E+01    0.136063507620299573E+01    0.107699741111448328E-01    0.212093618654709370E+01   -0.275971872641362248E+01   -0.824480089729516391E-01   -0.446017870924605564E+01   -0.123533695802574353E-01   -0.388155845188701276E-01   -0.324874319750151852E+00   -0.206202960710395705E+00   -0.113518166387145070E+01   -0.147034029427193924E+01
    0.244658578955791711E+00   -0.207425629690469364E+02    0.163838709392695003E+01    0.135913221245999405E+01    0.106962540755233416E-01    0.212692307155854898E+01   -0.280766193976572254E+01   -0.732510875586875887E-01   -0.465578164171135178E+01   -0.245313711186544540E-01   -0.449776902134217532E-01   -0.274618836068727279E+00   -0.151849336043774236E+00   -0.114051345248664493E+01   -0.145520425517665619E+01
    0.243085552361328616E+00   -0.201110231017840704E+02    0.164031607418451220E+01    0.137523716375460658E+01    0.105911118142930517E-01    0.212495528743740802E+01   -0.275126564423311670E+01   -0.691471450158143430E-01   -0.397556559916706798E+01   -0.712804608360432818E-02   -0.201618737109952387E-01   -0.301794856485212537E+00   -0.174316777080499419E+00   -0.114693758682456881E+01   -0.145672600568773403E+01
    0.242962078131068626E+00   -0.207107459525009041E+02    0.164091575119225275E+01    0.136738154380583210E+01    0.104695004359115704E-01    0.213076011782933206E+01   -0.277789038263913834E+01   -0.852840720396944307E-01   -0.447352024963599604E+01   -0.968947374939875886E-02   -0.462737212109619392E-01   -0.301653323059860368E+00   -0.177608650458450035E+00   -0.114747572911656226E+01   -0.148368894147377417E+01
