    0.259527337889000863E-01   -0.491336627686650029E+01    0.127749753891702150E+00    0.726442759713716968E+00    0.109731254422686785E-01    0.122719592453438486E+01   -0.190789662141909933E+01   -0.291872728829391977E-01   -0.109753746612184444E+01   -0.213301818050666586E+00    0.213688259628797478E+00   -0.474465902957859620E+00    0.421597035555062311E-01   -0.105106223410489918E+01   -0.483430085681776376E+02
    0.308661115135023013E-01   -0.524606033352602541E+01    0.150473810958058063E+00    0.512589199229614989E+00    0.549978655156644833E-02    0.127191206475629448E+01   -0.161489398978287846E+01    0.149429198428337670E-01   -0.126361277159309537E+01   -0.295335711811051227E+00   -0.529788335453076215E-01   -0.866470741023947499E-02   -0.998556863092706776E-02   -0.107021728720746490E+01   -0.477429366342271351E+02
    0.719048203568311423E-03   -0.524550021191475935E+01    0.271314396101039190E+00    0.739232638958881694E+00    0.165694539202686265E-01    0.121976593237049813E+01   -0.112853578872708482E+01   -0.937038548239248897E-01   -0.881222543363569089E+00   -0.264879482655977994E+00   -0.155271431890570244E+00   -0.111851355360265872E+00   -0.185600362122666333E-01   -0.108554595832963940E+01   -0.476451361397774136E+02
    0.189999558655891965E-01   -0.498387467584952581E+01    0.126965021128762900E+00    0.643499061200764944E+00    0.121931633722696890E-01    0.115637096957145036E+01   -0.143762508522052013E+01   -0.497520470938382156E-01   -0.525549205680246767E+00   -0.196610307788605693E+00    0.825153044191292290E-01   -0.439138069732458891E+00   -0.893842389562667095E-01   -0.108375208809040946E+01   -0.475413642946756099E+02
    0.457699017647447276E-01   -0.487000313214775904E+01    0.213864156284408524E+00    0.716109986224473527E+00    0.638654741233794180E-02    0.117328537886479678E+01   -0.198454178786654900E+01   -0.813955816022878670E-02   -0.882024376967771140E+00   -0.267953892898467327E+00    0.693503479846078186E-01   -0.222602780568761816E+00    0.436835971867370609E-01   -0.109836051340894802E+01   -0.474887012303377105E+02
    0.407471273854303484E-01   -0.549673770788565630E+01    0.122643568878734538E+00    0.652245004930123717E+00    0.154455337561326504E-01    0.121702315912180192E+01   -0.170500704684862958E+01   -0.154920500160697500E-01   -0.896495885958476624E+00   -0.201826968913241783E+00    0.101919204663380711E+00   -0.367483188323038668E+00    0.289105171810194982E-01   -0.107249666503605035E+01   -0.474210116483208850E+02
    0.177504218403164993E-01   -0.514542319978433405E+01    0.176005334599834473E+00    0.631558312108401188E+00    0.780892680209190060E-02    0.116321039882766497E+01   -0.154063829033712962E+01   -0.912127629102520293E-01   -0.979028022243062068E+00   -0.304639917206830368E+00    0.153951153131500918E-01   -0.284798581188171807E+00   -0.390996367374582265E-01   -0.108009056592568453E+01   -0.473621426482614609E+02
    0.488723039873241449E-01   -0.497214658029567413E+01    0.252976052791211770E+00    0.756542119562117366E+00    0.827409205733234399E-02    0.121583367504139450E+01   -0.125098021354503142E+01   -0.493042232877998129E-01   -0.143408399091758931E+01   -0.348146756901210774E+00    0.605145595104334202E-01   -0.319138414251949498E+00   -0.241416918363253838E-01   -0.110901362743232523E+01   -0.472499916768520407E+02
    0.283623682262462741E-01   -0.502986282908731752E+01    0.243489088763145456E+00    0.808780169117984560E+00    0.266748726203777480E-02    0.117679023343734812E+01   -0.181793409049616317E+01   -0.685926863746850052E-01   -0.110967995804439101E+01   -0.160112414889299060E+00    0.923510562376525651E-01   -0.261755261754520574E+00    0.665187447978183785E-02   -0.107510971387293530E+01   -0.471051952392631463E+02
    0.334221682864784195E-01   -0.529471047825755381E+01    0.224652447641472575E+00    0.600917724904040496E+00    0.121183316793992951E-01    0.116973917047820564E+01   -0.195991736170953690E+01   -0.709084728552649007E-01   -0.102519787858844147E+01   -0.230287178006608889E+00    0.122039963964532591E-01   -0.757572140596523558E-01   -0.167548300029988981E-01   -0.108804952396376464E+01   -0.470960019536783108E+02
    0.251633048163896166E-01   -0.510965927050783542E+01    0.187406808404832509E+00    0.628593780390986012E+00    0.162650767210123608E-01    0.119179872536675391E+01   -0.183161145762900501E+01   -0.735898604249972665E-01   -0.130837436398555940E+01   -0.350271111651786482E+00    0.190490720120617928E-02   -0.291788362368170517E+00   -0.535603314195206154E-01   -0.105914319188940320E+01   -0.470689948613281643E+02
    0.254330791090389696E-01   -0.532183187163575511E+01    0.660211967700302937E-01    0.663627069374771783E+00    0.724858979515477855E-02    0.118740933223109546E+01   -0.160235827674194420E+01   -0.187275183274718954E-01   -0.100937111871240859E+01   -0.225641078302799170E+00    0.177853325627053888E+00   -0.181373879054989223E+00    0.282203140997045430E-02   -0.106126536087734991E+01   -0.470665182289530364E+02
    0.254330791090389696E-01   -0.532183187163575511E+01    0.660211967700302937E-01    0.663627069374771783E+00    0.724858979515477855E-02    0.118740933223109546E+01   -0.160235827674194420E+01   -0.187275183274718954E-01   -0.100937111871240859E+01   -0.225641078302799170E+00    0.177853325627053888E+00   -0.181373879054989223E+00    0.282203140997045430E-02   -0.106126536087734991E+01   -0.470665182289530364E+02
    0.210303850265606204E-01   -0.510386101164920358E+01    0.164936459163484317E+00    0.753511953523591016E+00    0.967993717881157796E-02    0.115770989733917240E+01   -0.143864031502367373E+01   -0.534538654802694385E-01   -0.159106725261512483E+01   -0.191071459354221929E+00   -0.157517974374163199E-02   -0.466894371533129793E+00   -0.785740502931703000E-01   -0.107048963080585113E+01   -0.470368133961044208E+02
    0.210303850265606204E-01   -0.510386101164920358E+01    0.164936459163484317E+00    0.753511953523591016E+00    0.967993717881157796E-02    0.115770989733917240E+01   -0.143864031502367373E+01   -0.534538654802694385E-01   -0.159106725261512483E+01   -0.191071459354221929E+00   -0.157517974374163199E-02   -0.466894371533129793E+00   -0.785740502931703000E-01   -0.107048963080585113E+01   -0.470368133961044208E+02
    0.227832800423781179E-01   -0.542318081104939154E+01    0.171582639042245050E+00    0.667449438478322721E+00    0.122879266297193455E-01    0.118713814519853389E+01   -0.142506011511117081E+01   -0.752055762928843935E-01   -0.120037471741136681E+01   -0.238887980911697162E+00    0.706233275061749349E-01   -0.586000904632563158E+00   -0.890815977707366813E-01   -0.109719956652057959E+01   -0.470318834628696223E+02
    0.227832800423781179E-01   -0.542318081104939154E+01    0.171582639042245050E+00    0.667449438478322721E+00    0.122879266297193455E-01    0.118713814519853389E+01   -0.142506011511117081E+01   -0.752055762928843935E-01   -0.120037471741136681E+01   -0.238887980911697162E+00    0.706233275061749349E-01   -0.586000904632563158E+00   -0.890815977707366813E-01   -0.109719956652057959E+01   -0.470318834628696223E+02
    0.478800570146267548E-01   -0.488874567869049237E+01    0.141223163642615918E+00    0.634789601078613264E+00    0.137241527785535687E-01    0.120361259943339793E+01   -0.212756237551397387E+01   -0.284014678361670450E-01   -0.157242063268146826E+01   -0.339528792325188178E+00   -0.234856290823022562E-01   -0.278303427549925375E+00    0.139504513426352839E-01   -0.104323136717268494E+01   -0.470111870853640994E+02
    0.478800570146267548E-01   -0.488874567869049237E+01    0.141223163642615918E+00    0.634789601078613264E+00    0.137241527785535687E-01    0.120361259943339793E+01   -0.212756237551397387E+01   -0.284014678361670450E-01   -0.157242063268146826E+01   -0.339528792325188178E+00   -0.234856290823022562E-01   -0.278303427549925375E+00    0.139504513426352839E-01   -0.104323136717268494E+01   -0.470111870853640994E+02
    0.180853731001596914E-01   -0.522296357823071311E+01    0.122072669998917305E+00    0.572838173179779808E+00    0.543015776608931581E-02    0.116467292029689129E+01   -0.166410751424139169E+01   -0.427293695336455961E-01   -0.112983516498311376E+01   -0.208295720892732322E+00    0.328231794945028285E-01   -0.294888159912595427E+00    0.140377979912349425E-01   -0.104294416642506671E+01   -0.470015428599404785E+02
    0.180853731001596914E-01   -0.522296357823071311E+01    0.122072669998917305E+00    0.572838173179779808E+00    0.543015776608931581E-02    0.116467292029689129E+01   -0.166410751424139169E+01   -0.427293695336455961E-01   -0.112983516498311376E+01   -0.208295720892732322E+00    0.328231794945028285E-01   -0.294888159912595427E+00    0.140377979912349425E-01   -0.104294416642506671E+01   -0.470015428599404785E+02
    0.275869362936936313E-01   -0.529422942081916137E+01    0.172890232271354305E+00    0.787394460469837743E+00    0.809216028225726546E-02    0.123927468151179343E+01   -0.162649202261080972E+01   -0.405866244417806832E-01   -0.220788259529590136E+00   -0.411339178434452335E+00   -0.763330137702208783E-01   -0.445069019095388207E-01   -0.118376948425685420E-01   -0.111084363360614224E+01   -0.469808668085674199E+02
    0.275869362936936313E-01   -0.529422942081916137E+01    0.172890232271354305E+00    0.787394460469837743E+00    0.809216028225726546E-02    0.123927468151179343E+01   -0.162649202261080972E+01   -0.405866244417806832E-01   -0.220788259529590136E+00   -0.411339178434452335E+00   -0.763330137702208783E-01   -0.445069019095388207E-01   -0.118376948425685420E-01   -0.111084363360614224E+01   -0.469808668085674199E+02
    0.331207288187515547E-01   -0.511269919274383078E+01    0.635677071528852472E-01    0.721302148521975606E+00    0.763211536141868846E-02    0.121955491960531104E+01   -0.122055407765450408E+01   -0.529014795634013338E-01   -0.122153348798325601E+01   -0.852408263047793047E-01   -0.217860806790376935E-01   -0.344726738352904627E+00   -0.939295169472172675E-01   -0.109729454903500079E+01   -0.469479537931016466E+02
    0.228927751016942960E-01   -0.522564840903700389E+01    0.115263325522970667E+00    0.769245342257862896E+00    0.110787422962910671E-01    0.117132101754467177E+01   -0.133116849880544064E+01   -0.945000737422208859E-01   -0.923257283440389820E+00   -0.262514761820564657E+00   -0.140714768748864683E+00   -0.672990289273321107E-01   -0.459073745411288196E-02   -0.108276260555096404E+01   -0.469387611284786317E+02
    0.936596104995783899E-02   -0.572373704466554756E+01    0.215442311343766041E+00    0.665933655972385297E+00    0.587109891624541975E-02    0.119799689991618585E+01   -0.159036179074246165E+01   -0.544528317526923461E-01   -0.856545580372490178E+00   -0.245922785224225837E+00   -0.656194318083370975E-01   -0.165532921359216073E+00   -0.221398093912887999E-01   -0.110660956350965201E+01   -0.469297464677965905E+02
    0.412468275515078947E-01   -0.480899289447014766E+01    0.886174415704070739E-01    0.710750251644651554E+00    0.799993407197861599E-02    0.117583160181820645E+01   -0.178601118893190258E+01   -0.462252769950185147E-01   -0.101570425083319238E+01   -0.145591991256105502E+00    0.665278197266106278E-02   -0.420860460155015881E+00   -0.695914378422004265E-01   -0.103889431600407023E+01   -0.469274501108805353E+02
    0.336890375394146221E-01   -0.521256893168348334E+01    0.171700817546408285E+00    0.671447822173285358E+00    0.168709392948106773E-01    0.116916849829167258E+01   -0.113456351146783052E+01   -0.641944804809276570E-01   -0.117050236345686121E+01   -0.943075838917395992E-01   -0.750004122263244061E-01    0.524013420162078858E-01    0.396264050913949367E-01   -0.107718597632737501E+01   -0.468800298529294324E+02
    0.308128650944484543E-01   -0.546185200428528361E+01    0.180997772978841065E+00    0.651685840827239016E+00    0.118915760013681010E-01    0.118761330321976644E+01   -0.165212757594300985E+01   -0.123712315230833578E-01   -0.112305881342446212E+01   -0.263257063722367346E+00   -0.130126743326010930E+00   -0.679074900323262676E-01    0.743037584574063673E-02   -0.108515406129345804E+01   -0.468761217863407182E+02
    0.308128650944484543E-01   -0.546185200428528361E+01    0.180997772978841065E+00    0.651685840827239016E+00    0.118915760013681010E-01    0.118761330321976644E+01   -0.165212757594300985E+01   -0.123712315230833578E-01   -0.112305881342446212E+01   -0.263257063722367346E+00   -0.130126743326010930E+00   -0.679074900323262676E-01    0.743037584574063673E-02   -0.108515406129345804E+01   -0.468761217863407182E+02
    0.261045617234024960E-01   -0.524486407360981666E+01    0.160123717198180165E+00    0.628673662364284347E+00    0.292572739334191843E-02    0.116915366879414173E+01   -0.138688945676085051E+01   -0.680426426293992831E-01   -0.818808305755888810E+00   -0.210437247334747501E+00   -0.102944281997333673E+00   -0.236848490134570017E+00   -0.100780155972491920E-01   -0.104397243397990902E+01   -0.468691414866538167E+02
    0.261045617234024960E-01   -0.524486407360981666E+01    0.160123717198180165E+00    0.628673662364284347E+00    0.292572739334191843E-02    0.116915366879414173E+01   -0.138688945676085051E+01   -0.680426426293992831E-01   -0.818808305755888810E+00   -0.210437247334747501E+00   -0.102944281997333673E+00   -0.236848490134570017E+00   -0.100780155972491920E-01   -0.104397243397990902E+01   -0.468691414866538167E+02
    0.322576484789152546E-01   -0.498429473671245304E+01    0.196038054325742783E+00    0.601743428185748441E+00    0.144947052549721407E-01    0.118537840228089619E+01   -0.165324249412391477E+01   -0.712360999733228223E-01   -0.138099950540063188E+01   -0.241019225193141090E+00    0.556352117289993786E-01    0.766477277271865876E-01   -0.251939487275556831E-01   -0.107653753390170515E+01   -0.468665185260814283E+02
    0.269867986344523580E-01   -0.541977503863145227E+01    0.203464910182520387E+00    0.667265853591026081E+00    0.156163324469241298E-01    0.120811167868578684E+01   -0.192671703109844339E+01   -0.452066999987875140E-01   -0.144118662668763342E+01   -0.159421927036564187E+00   -0.197810302953027844E+00   -0.395227504067556967E+00    0.110363468817020402E-02   -0.105797509173697368E+01   -0.468591749363207128E+02
    0.247477539553450400E-01   -0.495115923299796634E+01    0.105490409594546017E+00    0.716932336494792488E+00    0.116724497208344075E-01    0.120171593051257686E+01   -0.171766637558076352E+01   -0.596400078191308552E-01   -0.643522056634240558E+00   -0.148885436107804914E+00    0.107702645473867917E+00   -0.462481104549918254E+00    0.149260730889626617E-01   -0.103021758683650644E+01   -0.468588984220917837E+02
    0.374593391025832625E-01   -0.486088290406744683E+01    0.107959424493220213E+00    0.682367097506557663E+00    0.370960972476400141E-02    0.117748157659888864E+01   -0.168298946696997742E+01   -0.837875616585365551E-01   -0.136081065334980900E+01   -0.142578214831479338E+00    0.794013593892212849E-04   -0.672159450730567543E-01   -0.214963070827545108E-01   -0.109656934661306016E+01   -0.468502683080368669E+02
    0.304865698202370639E-01   -0.488216525502665899E+01    0.569205314676287655E-01    0.526259724572048171E+00    0.117238348946776660E-01    0.120342468154419024E+01   -0.139940812346267895E+01   -0.587302969439299355E-01   -0.893071148617221811E+00   -0.150690241229698346E+00   -0.111597736937292774E+00   -0.358966671687601546E+00    0.569808509334373409E-02   -0.107249565330002850E+01   -0.468430584390303650E+02
    0.304865698202370639E-01   -0.488216525502665899E+01    0.569205314676287655E-01    0.526259724572048171E+00    0.117238348946776660E-01    0.120342468154419024E+01   -0.139940812346267895E+01   -0.587302969439299355E-01   -0.893071148617221811E+00   -0.150690241229698346E+00   -0.111597736937292774E+00   -0.358966671687601546E+00    0.569808509334373409E-02   -0.107249565330002850E+01   -0.468430584390303650E+02
    0.337385425508138839E-01   -0.485392000462788431E+01    0.122694500923575450E+00    0.760350409298281349E+00    0.136938943537896277E-01    0.113255757401340618E+01   -0.188376437542635489E+01   -0.829883160478798593E-01   -0.138295686077912983E+01   -0.125482006753426245E+00    0.405550564250535123E-01   -0.190636201617263440E+00    0.318595313562928389E-01   -0.112064677791378231E+01   -0.468272687871215751E+02
    0.337385425508138839E-01   -0.485392000462788431E+01    0.122694500923575450E+00    0.760350409298281349E+00    0.136938943537896277E-01    0.113255757401340618E+01   -0.188376437542635489E+01   -0.829883160478798593E-01   -0.138295686077912983E+01   -0.125482006753426245E+00    0.405550564250535123E-01   -0.190636201617263440E+00    0.318595313562928389E-01   -0.112064677791378231E+01   -0.468272687871215751E+02
    0.300308534209639613E-01   -0.501216626416668021E+01    0.140689333436519209E+00    0.642370451827141475E+00    0.140078835135667712E-01    0.117986002863402972E+01   -0.173003464893094283E+01   -0.463696657977568649E-01   -0.586084781882448946E+00   -0.211065296871770558E+00   -0.703892227139735344E-01   -0.419972446568226354E+00   -0.501902972830382960E-01   -0.107997230622755302E+01   -0.468226725452591452E+02
    0.192343470431235661E-01   -0.519732066999155595E+01    0.244122884991830769E+00    0.684393803564890990E+00    0.112221041153660710E-01    0.118139090143140701E+01   -0.136732199694955048E+01   -0.441918368853048554E-01   -0.116444564587866317E+01   -0.340122963304062886E+00    0.267109923463942495E-01   -0.144288773186913577E-01   -0.606388035299337269E-01   -0.108095843178514062E+01   -0.468198268961311328E+02
    0.123191584975321060E-01   -0.518931366837551256E+01    0.810866141365301080E-01    0.835843658943689061E+00    0.150606099088155636E-01    0.117218227237259454E+01   -0.164394245691548013E+01   -0.466843228259122764E-01   -0.161649422549596133E+01   -0.299269567034561368E+00   -0.800019657556769008E-02   -0.415049862409773596E+00   -0.480729603913384318E-01   -0.111151232201466788E+01   -0.468122136627259025E+02
    0.123191584975321060E-01   -0.518931366837551256E+01    0.810866141365301080E-01    0.835843658943689061E+00    0.150606099088155636E-01    0.117218227237259454E+01   -0.164394245691548013E+01   -0.466843228259122764E-01   -0.161649422549596133E+01   -0.299269567034561368E+00   -0.800019657556769008E-02   -0.415049862409773596E+00   -0.480729603913384318E-01   -0.111151232201466788E+01   -0.468122136627259025E+02
    0.376748442579455736E-01   -0.503676854413319042E+01    0.160912082394493838E+00    0.813431967812341283E+00    0.119674183661739961E-01    0.120742967710827509E+01   -0.183327492627758182E+01   -0.576420159568023088E-01   -0.109205731053433652E+01   -0.240040431873982801E+00   -0.143762890709316138E+00   -0.212444756661363254E+00   -0.492516594629720528E-01   -0.105600121658138946E+01   -0.468081760617991947E+02
    0.448821200751810812E-01   -0.495752345972397990E+01    0.123735026476543608E+00    0.729886311989421666E+00    0.105598161468023494E-01    0.117598890823761004E+01   -0.182038253691906382E+01   -0.798384547318499171E-01   -0.973893684437545870E+00   -0.809760202152327302E-01    0.465795681763728139E-01   -0.110851024762141884E+00   -0.273137518909699097E-01   -0.106309247088524139E+01   -0.468051442441846888E+02
    0.376520601744861350E-01   -0.520848334774435262E+01    0.232554518883166750E+00    0.759366620017687621E+00    0.124750424932049252E-01    0.116276722414405631E+01   -0.194858789639172669E+01   -0.511199780974483653E-01   -0.183076831295037890E+01   -0.239157916980784674E+00   -0.236979793070585323E-01   -0.732376183902375133E-02    0.175833747413096375E-01   -0.108041262857518383E+01   -0.467879224283116173E+02
    0.250884788556822551E-01   -0.523342457679276762E+01    0.214014583927946200E+00    0.660551157633624042E+00    0.118472830080048018E-01    0.118592500123920619E+01   -0.155855971723030473E+01    0.107480381378869394E-01   -0.125482498763359906E+01   -0.225352699557467756E+00   -0.609768653506928549E-02    0.392417804423611516E-01   -0.373697856225984060E-01   -0.109602756893403686E+01   -0.467873167548821129E+02
    0.236087538401181830E-01   -0.524870479865455586E+01    0.215400263627489097E+00    0.642601834707601571E+00    0.114604511930685819E-01    0.118785136683138504E+01   -0.172747109910690799E+01   -0.615782298259530472E-01   -0.150150451771574800E+01   -0.930591005321524944E-01    0.283411881618688341E-01   -0.382056861899606193E+00    0.420115105300084835E-01   -0.110018829568018472E+01   -0.467832205002527743E+02
    0.401620367054468658E-01   -0.475240201171339027E+01    0.323440186778707339E-01    0.639181341081948240E+00    0.849581827916206546E-02    0.119627125604808282E+01   -0.117008181651558929E+01   -0.240720912364242833E-01   -0.894755886295985903E+00   -0.164898871324614532E+00   -0.111952502617801597E+00   -0.227209819186371231E+00   -0.332821121820572191E-01   -0.105687920199885510E+01   -0.467713599639433468E+02
    0.158859122297787779E-01   -0.550430715399361503E+01    0.108560222777248541E+00    0.702742282899412873E+00    0.119896515935571588E-01    0.121541663885519213E+01   -0.175838179953769669E+01   -0.620264775317836831E-01   -0.152119406194114681E+01   -0.530982403712546291E-01   -0.184473190454423168E-02   -0.263327531469015885E-01    0.315255266805584827E-01   -0.108300264569768601E+01   -0.467501740269395398E+02
    0.116197833334365681E-01   -0.485298860925965592E+01    0.712085626364306057E-01    0.707163319211810193E+00    0.690262644098471861E-02    0.118354920538174824E+01   -0.202858497926067383E+01   -0.824734246221252298E-01   -0.110076123608805210E+01   -0.182165195321514317E+00    0.164473169010834787E-01   -0.199115415219211583E+00    0.127131895455690550E-01   -0.112254176910580195E+01   -0.467453256017307126E+02
    0.294483061714255062E-01   -0.536929901195868986E+01    0.200490395919824038E+00    0.738398715923745175E+00    0.863973938178534684E-02    0.115710281692812988E+01   -0.185150134104094688E+01   -0.539883855594910228E-01   -0.897074950088391554E+00   -0.330879476583946008E+00   -0.112048580615956558E+00   -0.436353108165199344E+00   -0.148557973309833107E-01   -0.105544913150263664E+01   -0.467418502775001912E+02
    0.195498730855221334E-01   -0.525482545272224399E+01    0.155807016244894653E+00    0.709139130451374000E+00    0.940421777528758357E-02    0.117613933432595630E+01   -0.178889153309000970E+01   -0.667306663908421582E-01   -0.110200133055309601E+01   -0.149623324401521485E+00   -0.910034620378362830E-01   -0.385653175873121312E+00   -0.161576519234861923E-01   -0.107571190336712474E+01   -0.467384559607069860E+02
    0.195498730855221334E-01   -0.525482545272224399E+01    0.155807016244894653E+00    0.709139130451374000E+00    0.940421777528758357E-02    0.117613933432595630E+01   -0.178889153309000970E+01   -0.667306663908421582E-01   -0.110200133055309601E+01   -0.149623324401521485E+00   -0.910034620378362830E-01   -0.385653175873121312E+00   -0.161576519234861923E-01   -0.107571190336712474E+01   -0.467384559607069860E+02
    0.419262406610193122E-01   -0.481912207968627193E+01    0.196670465658665000E+00    0.718724360442835053E+00    0.116143566764573946E-01    0.119587563327340218E+01   -0.160710876663590230E+01   -0.681874480854562370E-01   -0.126481311951610564E+01   -0.285545835434774853E+00    0.168218124945171604E+00   -0.394365281702754034E-01    0.342101000162795404E-01   -0.110286873950303366E+01   -0.467362003267113479E+02
    0.419262406610193122E-01   -0.481912207968627193E+01    0.196670465658665000E+00    0.718724360442835053E+00    0.116143566764573946E-01    0.119587563327340218E+01   -0.160710876663590230E+01   -0.681874480854562370E-01   -0.126481311951610564E+01   -0.285545835434774853E+00    0.168218124945171604E+00   -0.394365281702754034E-01    0.342101000162795404E-01   -0.110286873950303366E+01   -0.467362003267113479E+02
    0.122326205266388415E-01   -0.509106289373068677E+01    0.154410569288909172E+00    0.658257214025672166E+00    0.129355428114724252E-01    0.124773140692372242E+01   -0.164600087460458777E+01   -0.528661420148670014E-01   -0.788205599209252927E+00   -0.703097166083296587E-01    0.198101862389672145E+00   -0.432009469973385740E+00   -0.446278041329494085E-01   -0.108024410898710532E+01   -0.467358033924808396E+02
    0.295818296732437910E-01   -0.502771484887109210E+01    0.163864768546006845E+00    0.638147420233172946E+00    0.739814720911099316E-02    0.126613587837625508E+01   -0.151879554580153364E+01   -0.600627345787517267E-01   -0.947663438810224745E+00   -0.252316110903415991E+00   -0.536814077672237433E-01    0.104128497396328401E+00   -0.218965368899998875E-01   -0.109585128663438858E+01   -0.467352803970047717E+02
    0.426163149008531722E-01   -0.531812694463169056E+01    0.133723752662835760E+00    0.661294433053316810E+00    0.244478393660983555E-02    0.121956908642875850E+01   -0.162829973515354909E+01   -0.419834160149720123E-01   -0.639831131293084887E+00   -0.252677073058901969E+00   -0.701146107947444273E-02   -0.602311855733723700E+00   -0.451554231164655595E-01   -0.110944944089432185E+01   -0.467322143654725366E+02
    0.242938864312315997E-01   -0.540372933819679790E+01    0.150640655574439314E+00    0.786141582003276551E+00    0.126964084173653898E-01    0.114214137204630384E+01   -0.138453109383515316E+01   -0.510789492077639504E-01   -0.127067324993027242E+01   -0.262581179994644254E+00    0.234578352359477056E-01    0.364578372900036807E-01    0.428240191428738148E-01   -0.105861648714098955E+01   -0.467231251231375069E+02
    0.534461465448008918E-02   -0.508111850672083776E+01    0.148853433563108373E+00    0.761560944426080355E+00    0.120019820485772026E-01    0.119910832940585088E+01   -0.147462773879486142E+01   -0.147916540593336782E-02   -0.741570461084866683E+00   -0.963573464446540878E-01    0.146141198545471120E-01   -0.578841704656585798E+00    0.154139189003215694E-01   -0.104017190052104658E+01   -0.467229113541896268E+02
    0.515488951684906632E-02   -0.544732784218030464E+01    0.203522282289010287E+00    0.743287551378374434E+00    0.141921139880860376E-01    0.117973959112410309E+01   -0.139762681944848688E+01   -0.734677496694761678E-01   -0.914734011782825540E+00   -0.402533856623992603E+00    0.855568993113271364E-01   -0.217906178030003811E+00    0.162263967194326841E-01   -0.110293341688392377E+01   -0.467222526471701514E+02
    0.167182034238612942E-01   -0.533417834479325847E+01    0.144938471650722850E+00    0.705946062236100347E+00    0.935987306893296990E-02    0.119374245454170436E+01   -0.155532788303677205E+01   -0.694734264017164704E-01   -0.879313728215174839E+00   -0.201519123180566861E-01   -0.583169521501957500E-01   -0.180413915911578016E+00    0.539916479227268292E-01   -0.111620335749390143E+01   -0.467191905478317011E+02
    0.192403246420566713E-01   -0.540580613987746972E+01    0.172962453029840785E+00    0.750772841625552134E+00    0.138304560088195073E-01    0.119185548273907149E+01   -0.136511961063980647E+01   -0.901186008262897797E-01   -0.162397414099042159E+01   -0.321362599757361533E+00   -0.935845648509263522E-01   -0.287770431704140295E+00    0.382772535647455947E-01   -0.106722414582153058E+01   -0.467164219294902168E+02
    0.445664721133766512E-01   -0.499531470210121231E+01    0.107292126886087649E+00    0.634436873645178867E+00    0.669573001048277307E-02    0.116746700160873540E+01   -0.175659877989632318E+01   -0.591853247328007481E-01   -0.130132963042627914E+01   -0.175738578118265876E+00   -0.105689085197105959E+00   -0.222895658200582908E+00    0.194748834819413359E-01   -0.108298213156053924E+01   -0.467155681311999089E+02
    0.219639703672127942E-01   -0.505551686737281347E+01    0.954049449440188824E-01    0.761404192948841430E+00    0.841399114107926373E-02    0.118203476400031438E+01   -0.148996720338232547E+01   -0.642437665315041678E-01   -0.152472194266898908E+01   -0.510163035734076120E-01   -0.312717642961675563E-01   -0.210608192986500187E+00   -0.306398571259804374E-01   -0.110253796722536546E+01   -0.467073403583601348E+02
    0.192597100678287662E-01   -0.484892600317814360E+01    0.211826650531691474E+00    0.696163001759461664E+00    0.901952034395027934E-02    0.117632207215284801E+01   -0.168043931635660138E+01   -0.348771510224423140E-01   -0.115922203545230840E+01   -0.120596180130771932E+00   -0.678035031094273294E-01   -0.116308452976354046E+00   -0.357682067309022106E-01   -0.109997506592301542E+01   -0.467007622503996984E+02
    0.380483405300825195E-01   -0.533483762133733297E+01    0.111743446355760209E+00    0.630947224860659683E+00    0.129823226341720197E-01    0.117820789213718746E+01   -0.158632294653746575E+01   -0.506982794599405359E-01   -0.123075462141203129E+01   -0.106722442091236228E+00    0.741874772367645818E-01   -0.343927734106442395E+00   -0.120959966176455956E-01   -0.108975149386611481E+01   -0.467006677414116993E+02
    0.333940917428144635E-01   -0.535648457395657474E+01    0.248055724839335745E+00    0.809151947844855224E+00    0.153972003705648182E-01    0.118666473970003827E+01   -0.133185412950462090E+01   -0.328559568581416328E-01   -0.115750196818316975E+01   -0.400999087974393931E+00    0.390767758014764419E-01   -0.458457080251886973E-01   -0.221253492373471583E-02   -0.104543632883070270E+01   -0.466997553407819481E+02
    0.103565313192676006E-01   -0.525347344919145165E+01    0.194576248093205062E+00    0.727012034447287125E+00    0.123215294296728714E-01    0.118037579485901500E+01   -0.197520801651892386E+01   -0.551080785911991500E-01   -0.123459136593113894E+01   -0.206945126487260683E+00   -0.899680063632855853E-03   -0.210694370521499780E+00   -0.347571366313499594E-01   -0.106736074513188051E+01   -0.466968203676990328E+02
    0.290112935987357559E-01   -0.536072871868845358E+01    0.188852197293673030E+00    0.784638390759924476E+00    0.716536549951355545E-02    0.117030927085981484E+01   -0.108929294982277947E+01   -0.454588735149394560E-01   -0.126097016282432817E+01   -0.974109063956068166E-01   -0.948794501490285574E-01   -0.328494214034012910E+00   -0.907438418397820031E-02   -0.107375394137401292E+01   -0.466809055063886120E+02
    0.210897955398315559E-01   -0.490328454313079476E+01    0.122815415863622851E+00    0.738638899271561455E+00    0.131410234727306723E-01    0.122715647195886568E+01   -0.165042805235688328E+01   -0.836799874635701935E-01   -0.147848370542206364E+01   -0.314901408957295736E+00   -0.949336844398469826E-01    0.338873680372261121E-01    0.335276740503431397E-01   -0.109000662223138933E+01   -0.466794948588259828E+02
    0.385579471948227642E-01   -0.502092757452710714E+01    0.217191289854956143E+00    0.706616182604675624E+00    0.857138507667990629E-02    0.117811107565589746E+01   -0.148802884794617851E+01   -0.918975890946844703E-01   -0.167368143126136726E+01   -0.140689085649629592E+00    0.714328357496454708E-01   -0.456222807391283181E+00   -0.357132865659510190E-01   -0.102523999549583000E+01   -0.466758050682896979E+02
    0.387071028610109502E-01   -0.489678207039921798E+01    0.330684685836378722E+00    0.683675030143323759E+00    0.143559355522438550E-01    0.121566563918213344E+01   -0.145948471924165468E+01   -0.226809827818639648E-01   -0.121927940852281780E+01   -0.244725204961303483E+00    0.245166758236232546E-01   -0.532446578545224924E+00   -0.876525120938550090E-01   -0.104421501976577180E+01   -0.466740367050720835E+02
    0.380716673146030485E-01   -0.498657383480585636E+01    0.159364596986331847E+00    0.653704579783996320E+00    0.155159472784982422E-01    0.116738241699805489E+01   -0.132822624802067102E+01   -0.605899398223543745E-01   -0.166607620279695468E+01   -0.138912617864929588E+00   -0.476156428899006529E-01   -0.225026400775679647E+00    0.437122849783347645E-01   -0.111572017752146668E+01   -0.466707792467388316E+02
    0.289292027290061239E-01   -0.529366622411926713E+01    0.152543155884561660E+00    0.748658401819297548E+00    0.859129268536166016E-02    0.116314033497863223E+01   -0.149458117858964101E+01   -0.710114095738663409E-02   -0.921117535109676644E+00   -0.166761948499345114E+00    0.130529009541108902E-01   -0.286210570785409901E+00   -0.239411626722520893E-01   -0.111498366308106833E+01   -0.466670444277421197E+02
    0.276155188011242281E-01   -0.501221017044253792E+01    0.167298371025826148E+00    0.751127958495078851E+00    0.821459960571596474E-02    0.119604763511220979E+01   -0.165390448217896258E+01   -0.436705659285548525E-01   -0.979662924019993442E+00   -0.263604485806484767E+00    0.108936958319670152E+00   -0.110487222880358810E+00    0.128515165795993619E-01   -0.109171412461152251E+01   -0.466651031914836949E+02
    0.155605141945427076E-01   -0.503290029815883244E+01    0.154319230266514312E+00    0.766698806201859484E+00    0.119687203859580385E-01    0.120467720699180414E+01   -0.172665774034835229E+01   -0.866329082115861737E-01   -0.889755301281031308E+00   -0.274820968826990752E+00   -0.374809834717663437E-01   -0.683541405461487450E-01   -0.309794534980663908E-01   -0.109090416610825658E+01   -0.466642547239019763E+02
    0.917259178347565665E-02   -0.489553193699973122E+01    0.104429334535827451E+00    0.617424104918209427E+00    0.818704224265952817E-02    0.123290924325699192E+01   -0.156640781374398963E+01   -0.456875563752388789E-01   -0.119541032586809992E+01   -0.368699189411580697E-01   -0.229947258462001453E-01   -0.282498426210117892E+00   -0.365289234958168368E-01   -0.107906079351140738E+01   -0.466635367861292849E+02
    0.951967770908338298E-02   -0.503952721102215317E+01    0.124623482379289580E+00    0.704790460467534796E+00    0.103918744983406332E-01    0.119244719526935761E+01   -0.175166588394274125E+01   -0.598860920985091055E-01   -0.147806262135836386E+01   -0.398802370062072420E-01    0.111786260232398689E-01   -0.265419666332787796E+00   -0.139720773259326067E-01   -0.108670095050609539E+01   -0.466473638908874406E+02
    0.322697234953887094E-01   -0.517984406248550577E+01    0.993060319522058449E-01    0.686934658031341794E+00    0.538821485311790412E-02    0.117622828082968889E+01   -0.170428298635016451E+01   -0.345532572803776139E-01   -0.837498323097903397E+00   -0.199598478526714446E+00    0.106352501924812853E+00   -0.465906929806001513E+00   -0.721601827091336058E-02   -0.109188010981677541E+01   -0.466399417690452722E+02
    0.150569081551855995E-01   -0.480838932560162924E+01    0.155334923142337045E+00    0.673467899783241175E+00    0.726055064166747019E-02    0.117536697917554056E+01   -0.139576889023476114E+01   -0.574789075970975824E-01   -0.121329577891693918E+01   -0.195680802927040071E+00    0.125876627238437538E+00   -0.260858405636921753E+00    0.411357876716183513E-01   -0.108516585571978008E+01   -0.466393368830683173E+02
    0.443168320348496098E-01   -0.532610918273810974E+01    0.186349624336468955E+00    0.716797625502893054E+00    0.115642430401292316E-01    0.120500407699893630E+01   -0.149262219573613120E+01   -0.455587397683618334E-01   -0.129650075726840974E+01   -0.229664297385825000E+00    0.309907619670042878E-01   -0.176434332760296436E+00   -0.243917395688725627E-01   -0.110509666975173459E+01   -0.466387442785155955E+02
    0.375904439258729489E-01   -0.495521758644455534E+01    0.245784487136927354E+00    0.701141342265235834E+00    0.137945932438528936E-01    0.123263332765278055E+01   -0.154541070097967848E+01   -0.207155309585474214E-01   -0.106835043214153358E+01   -0.331810302230801046E+00   -0.233650668200692177E-01   -0.271001410892522610E+00   -0.206258475337545710E-01   -0.108824799329101185E+01   -0.466339159768253140E+02
    0.271333591437389159E-01   -0.498244134245937964E+01    0.208476071858703260E+00    0.642955801126809723E+00    0.119574106151166849E-01    0.117517521262732072E+01   -0.161093118014589187E+01   -0.326569149643761783E-01   -0.152721323878906534E+01   -0.262056911240021950E+00    0.242658822307088989E-01    0.612039453536274980E-01    0.102592487638816718E-01   -0.107981515833774244E+01   -0.466246859647138550E+02
    0.278941223123681595E-01   -0.535840643186862486E+01    0.156158706958191951E+00    0.662452907742299035E+00    0.108166518370528437E-01    0.120504915604021190E+01   -0.189947653584146114E+01   -0.803702230148116703E-01   -0.973836720526173427E+00   -0.248376338150775394E+00    0.198009804167180517E-01   -0.380693481480351315E+00   -0.105770560718384480E-01   -0.111808030531357971E+01   -0.464267281425670220E+02
    0.223304747102726284E-01   -0.519834541747137102E+01    0.167254032969112537E+00    0.728772929157067373E+00    0.130709683756624079E-01    0.119593934856392026E+01   -0.187837216576264532E+01   -0.323126869499288094E-01   -0.100506062834090426E+01   -0.219582275797300913E+00   -0.975476585067062835E-01   -0.370128526408920522E+00   -0.175615941222264996E-01   -0.110232803430576176E+01   -0.463238959148603726E+02
    0.334407890271168004E-01   -0.528641920555268197E+01    0.139861807403771854E+00    0.764248830613421415E+00    0.144118772712910695E-01    0.119612909980393889E+01   -0.165126526338060309E+01   -0.568396892916279012E-01   -0.124975762364905751E+01   -0.251232503832719500E+00    0.922634527161390328E-01   -0.427874276828480560E+00   -0.356908798103061226E-01   -0.111376259467840644E+01   -0.464649487717196976E+02
    0.276878635257235758E-01   -0.499902161720979343E+01    0.213348955378590083E+00    0.701285626523560635E+00    0.142072841602781733E-01    0.118625347283077054E+01   -0.146734927224599954E+01   -0.907470696036206254E-02   -0.798520838419553458E+00   -0.259472419287768596E+00   -0.972118408888606247E-03   -0.140045217257843857E+00   -0.198516380695777928E-01   -0.111511211973604452E+01   -0.463935149627442840E+02
    0.288959207500717637E-01   -0.507624463536256165E+01    0.218782637898965626E+00    0.697457369175013442E+00    0.126778469494104890E-01    0.119442838032503329E+01   -0.156993929017865796E+01   -0.664082217009831360E-01   -0.987568279821231632E+00   -0.196401930178837808E+00   -0.745885593882851389E-01   -0.260085318632221285E+00   -0.163937710322823102E-01   -0.112020885813152216E+01   -0.465194449394437655E+02
    0.298551856309782829E-01   -0.509407592255956754E+01    0.168486020307399703E+00    0.665795654409331750E+00    0.770496005300762028E-02    0.116879698385053943E+01   -0.141919701763451656E+01   -0.801739617102721486E-01   -0.104620807558384099E+01   -0.295299409681752612E+00    0.910309417619536813E-02   -0.287134001250495652E+00   -0.119312619725919743E-01   -0.108662150120841416E+01   -0.466083322543006631E+02
    0.202407936527757397E-01   -0.518776397269989875E+01    0.152703970247359683E+00    0.831705119847450325E+00    0.139343776220669895E-01    0.116285240595079875E+01   -0.138670586385014261E+01   -0.522181722774598539E-01   -0.115366154132526777E+01   -0.218558492232867357E+00    0.711424493467062019E-01   -0.263586704667831961E+00   -0.279026179997759784E-01   -0.109993664887119058E+01   -0.464143009758959906E+02
    0.332428445943635728E-01   -0.501537108558694733E+01    0.192149766601486000E+00    0.654646847728884373E+00    0.990908190416654733E-02    0.121690228498441022E+01   -0.173589115488498025E+01   -0.884204884295295840E-01   -0.130952668986202592E+01   -0.344934568637645378E+00    0.181738539405385341E+00   -0.167248484007838288E+00   -0.518220652330609460E-01   -0.109461770785712309E+01   -0.463611427497630828E+02
    0.306384241517558067E-01   -0.539227780393960376E+01    0.158547412142371918E+00    0.675653916064991700E+00    0.888884513437364875E-02    0.123293634595977775E+01   -0.136645502376456918E+01   -0.612203973437920462E-01   -0.687306199644777571E+00   -0.167652306075347590E+00   -0.255891764336171716E-02   -0.362629573162075891E+00   -0.273466837348882337E-01   -0.111252646359687613E+01   -0.464068496692034955E+02
    0.376088035256871914E-01   -0.521189550671648050E+01    0.248539638160965859E+00    0.720674926841535446E+00    0.151025135195624466E-01    0.123874151299726520E+01   -0.235774316898175895E+01   -0.455934676812455933E-01   -0.118510149047516555E+01   -0.244531647428129550E+00    0.885345396739669749E-01   -0.779035027102640554E-01   -0.657734115055680080E-01   -0.108073534466135524E+01   -0.464739061024429247E+02
    0.360075703768386185E-01   -0.521595081073620648E+01    0.177046307352913601E+00    0.687650688442218772E+00    0.118893627834318425E-01    0.116954961959468529E+01   -0.145030713317468196E+01   -0.773823735714042338E-01   -0.116554058573531294E+01   -0.312978295611902269E+00   -0.771712142453120920E-01   -0.323531684126937613E+00    0.470390194694809277E-01   -0.105944178004564415E+01   -0.465583567874590614E+02
    0.282722545021075536E-01   -0.529981366016387767E+01    0.206990379107201278E+00    0.553317026544235535E+00    0.953782654462905465E-02    0.121668070955078789E+01   -0.146689276732195495E+01   -0.247242933799904641E-01   -0.122442334635213657E+01   -0.243305643971883173E+00    0.102446263561867049E+00   -0.422751238130134155E+00   -0.199616656482121263E-01   -0.106057251097230609E+01   -0.466089845240162930E+02
    0.299325308932733222E-01   -0.550709812444945879E+01    0.173308503083318577E+00    0.786696092200011687E+00    0.120003866259592636E-01    0.121302417620263725E+01   -0.203453810917672762E+01   -0.512650138683163406E-01   -0.949559715936382664E+00   -0.168392288206374863E+00    0.590944005702127365E-01    0.203004853222850834E+00    0.395652709942978000E-02   -0.108813939838541551E+01   -0.465311085740215944E+02
    0.343154324828115059E-01   -0.513249203038183843E+01    0.261743453492781053E+00    0.779408795601275073E+00    0.195140234338882917E-01    0.116481116123578143E+01   -0.147117126982010626E+01   -0.291965907698034655E-01   -0.991703075927554134E+00   -0.208486560793500308E+00   -0.553307346833768060E-01   -0.220581640296027393E+00   -0.632774669500377890E-03   -0.111222749977582835E+01   -0.465051292700436179E+02
    0.232082599502127784E-01   -0.535606323783943683E+01    0.170057092044958946E+00    0.637546478904275182E+00    0.771904817427061275E-02    0.117963219423267707E+01   -0.141968942126655873E+01   -0.560674541469176752E-01   -0.109242255640910058E+01   -0.268686707193983132E+00    0.437285327717283068E-01   -0.236911343690073162E+00   -0.302947603849163839E-02   -0.106634257643062069E+01   -0.466115775021741783E+02
    0.213756844779934251E-01   -0.562107393311777415E+01    0.150660227331564367E+00    0.742798733730605121E+00    0.125241510415386934E-01    0.121935607706044502E+01   -0.191145168499708018E+01   -0.801212817179958875E-01   -0.826500814083048874E+00   -0.247606283140187844E+00    0.288904871050283795E-02   -0.195850960671989677E+00   -0.422961166261601185E-03   -0.107482610723343419E+01   -0.464235546521461586E+02
    0.342964054576738037E-01   -0.515005640128446451E+01    0.171084892571634506E+00    0.669834664252478618E+00    0.109285772183849040E-01    0.120435128048980977E+01   -0.144537864445192188E+01   -0.758618016421494651E-01   -0.140776142004307991E+01   -0.173718095448741755E+00    0.619156887865680503E-01   -0.361818325876279712E+00    0.157186790158045757E-01   -0.109617802632743300E+01   -0.463545344829418795E+02
    0.152914018326526652E-01   -0.512112551023252038E+01    0.137992813586669177E+00    0.761115954843480269E+00    0.956020727927941148E-02    0.120031186247350630E+01   -0.175338192890000655E+01   -0.534891899777320337E-01   -0.110287829428207895E+01   -0.230838617052204209E+00   -0.499497458623347594E-02   -0.338202825618895031E+00   -0.307809235880278850E-01   -0.111248635320951439E+01   -0.463375756348624535E+02
    0.245791495188188089E-01   -0.542065772089093656E+01    0.151701692013045342E+00    0.727326903672733449E+00    0.849978065789045931E-02    0.122639058494485775E+01   -0.152922997874737820E+01   -0.587533567665795703E-01   -0.536377086819773252E+00   -0.263292115097641499E+00    0.196366274539000549E-02   -0.762867356679398090E-01   -0.303512547907912288E-01   -0.111005033596291547E+01   -0.464003821392178892E+02
    0.155820987351692579E-01   -0.504046549821935486E+01    0.142276114745468446E+00    0.724160477070084574E+00    0.967605757130989182E-02    0.118854844806094651E+01   -0.169420434627395533E+01   -0.667071673055353032E-01   -0.113254192982909196E+01   -0.243118252904559795E+00    0.198347011027137435E-01   -0.458047156693173196E-01   -0.233953875683847734E-01   -0.107708622185459912E+01   -0.464774230714923178E+02
    0.162168354388732318E-01   -0.496908962441773472E+01    0.105535984446766248E+00    0.667814615833793757E+00    0.558226028334733639E-02    0.118237872534707633E+01   -0.158528216841192604E+01   -0.447168310712138042E-01   -0.176239159164251058E+01   -0.179398268998416349E+00    0.112005870066896468E+00   -0.282353246901179966E+00    0.182410790109606494E-01   -0.109475533163342620E+01   -0.466095015261757410E+02
    0.246080344732582876E-01   -0.503502551311765245E+01    0.105990601119126657E+00    0.672618224313784929E+00    0.123463108584401914E-01    0.122326086520632971E+01   -0.197104628637786150E+01   -0.652851257711100502E-01   -0.681731867685771542E+00   -0.234411364961182117E+00   -0.463130969489821687E-01   -0.239179686338856445E+00    0.116230985406538569E-01   -0.106790145459540065E+01   -0.465247265537597556E+02
    0.258126011294347486E-01   -0.502422192103791332E+01    0.163720686909615443E+00    0.689703455285416767E+00    0.871228303950551640E-02    0.120643671619821169E+01   -0.178199490563283547E+01   -0.131740012513459764E-01   -0.139574979917579767E+01   -0.177821645702594150E+00   -0.716065923887676675E-01   -0.285340963240567458E+00   -0.451885703940346356E-01   -0.105786432109967143E+01   -0.464859840420572965E+02
    0.483248621119014218E-01   -0.494676292446175481E+01    0.203731995258777887E+00    0.601714633289568424E+00    0.763104062254354662E-02    0.119303115382234060E+01   -0.167775803418333913E+01    0.164949569072151553E-02   -0.990201267589871703E+00   -0.298089787074575785E-01   -0.867026893908548063E-01   -0.244313219098932832E+00    0.114642551712081792E-02   -0.107352216130481537E+01   -0.465061462647509103E+02
    0.359110672049783586E-01   -0.487955663453386546E+01    0.186861888745180726E+00    0.675353382247530165E+00    0.538311644391641780E-02    0.117381490552225531E+01   -0.162781961435257738E+01   -0.580686279596192567E-01   -0.105284648306856510E+01   -0.240448630383475387E+00    0.476697794201119199E-01   -0.420966958831177074E-01   -0.185911529099949922E-01   -0.106223345987737594E+01   -0.464702020427977232E+02
    0.244237627783887197E-01   -0.505836083919267843E+01    0.125195666529826000E+00    0.691923280951625141E+00    0.102472215964767507E-01    0.116587952557464170E+01   -0.170688028173570094E+01   -0.406716361603072368E-01   -0.120858075129383313E+01   -0.821192809728036044E-01   -0.264872489867292241E-01   -0.761873266155190798E-01    0.755668838601237375E-02   -0.108527080988066893E+01   -0.465724317163891186E+02
    0.151699984126601618E-01   -0.528904085673513435E+01    0.216186442138825513E+00    0.668946669732841115E+00    0.628119462695382602E-02    0.119411138995641553E+01   -0.179595779908542186E+01   -0.241490760632417957E-01   -0.125070195195450351E+01   -0.926543034077398908E-01   -0.516764544648166194E-01   -0.233003855680318117E+00    0.231930080362804623E-01   -0.107826402746252459E+01   -0.465648772432349460E+02
    0.196224158449986343E-01   -0.495514446813192500E+01    0.191478354334844031E+00    0.712525183914108240E+00    0.100793205697951218E-01    0.117411630806522660E+01   -0.139397595297692090E+01   -0.237291170983365482E-01   -0.852631582649961861E+00   -0.175999344800384566E+00    0.757757268520958260E-01   -0.778385563750124132E-01    0.158536302808841324E-01   -0.111918310434561885E+01   -0.465246993831141111E+02
    0.234581481624206653E-01   -0.512782948161634433E+01    0.158556934734486232E+00    0.652478673211610571E+00    0.715369528731081908E-02    0.121869056900852923E+01   -0.177405880931020810E+01   -0.166955846958581969E-01   -0.868750467821863825E+00   -0.134896597682726549E+00   -0.153477957879958587E-01   -0.901615455121140136E-01   -0.225549835768048823E-01   -0.112791909114818378E+01   -0.463072238446599727E+02
    0.193385223366977846E-01   -0.525237129541581726E+01    0.822198876134613565E-01    0.655876906431467566E+00    0.676917246837173935E-02    0.120674630116479120E+01   -0.106595164915412255E+01   -0.554513470194280267E-01   -0.890831637882751659E+00   -0.253929989607691309E+00    0.573564167132467814E-01   -0.340514475899242330E+00   -0.330615025723191985E-01   -0.106923461148912402E+01   -0.464472014542054694E+02
    0.288204894716421328E-01   -0.507121200717694354E+01    0.152073533048608989E+00    0.688609606355453541E+00    0.114434695596086558E-01    0.120666249966479633E+01   -0.158818532825639736E+01   -0.144008208491941542E-01   -0.115863772999928250E+01   -0.271661491646339348E+00   -0.327105022595024393E-02    0.597347809247704142E-01    0.112938516469532277E-01   -0.110843705076898269E+01   -0.465533724762754559E+02
    0.201161942367556953E-01   -0.513329699112368854E+01    0.185007868400667630E+00    0.794040795445891345E+00    0.124039622716433824E-01    0.120139014870272876E+01   -0.176823860957161916E+01   -0.241008618830519904E-01   -0.101698667038734003E+01   -0.269697994483758863E+00   -0.482476669530262012E-01   -0.793705885651714016E-01   -0.184605317080555088E-01   -0.107851996487279411E+01   -0.463472055189336842E+02
    0.828648974306809075E-02   -0.517737306335042291E+01    0.184720100104482921E+00    0.776163487765735960E+00    0.102495398703360916E-01    0.120925961941115334E+01   -0.156200094195923467E+01   -0.422622741254207179E-01   -0.108570032221756874E+01   -0.339134525003199183E+00    0.115803744744871553E+00   -0.106988618057288015E+00   -0.393548003849198760E-01   -0.106357078471523137E+01   -0.463378591775866298E+02
    0.208662089068386812E-01   -0.516071009817191229E+01    0.140204858164972718E+00    0.722541963774473994E+00    0.876403816308121870E-02    0.120149030024000325E+01   -0.182310475615893419E+01   -0.186294904795341575E-01   -0.588058582623623871E+00   -0.154940873098104975E+00   -0.113866293862734582E-01   -0.116788078049250191E+00   -0.748030992157141666E-01   -0.104960164882123408E+01   -0.464412279395620118E+02
    0.175333299171491208E-01   -0.513581583384858664E+01    0.149316629739354889E+00    0.680022642797282861E+00    0.316069556171221996E-02    0.118433154296202581E+01   -0.150027625558018052E+01   -0.214316668557656617E-01   -0.957526129566382278E+00   -0.157686233976247342E+00    0.119882618648076714E+00   -0.396842008363193499E+00   -0.382840254805814212E-01   -0.109245221614244681E+01   -0.463977816003410339E+02
    0.296959130950459581E-01   -0.497902119470414384E+01    0.131267132620195709E+00    0.681354558183533077E+00    0.811533288348914236E-02    0.118836482333463733E+01   -0.153245444535739028E+01   -0.363083109316296795E-01   -0.833931480544981674E+00   -0.231052748223246229E+00    0.907582321097796102E-02   -0.203333835373884775E+00   -0.152748843462749626E-01   -0.110286657528774978E+01   -0.464125592275919843E+02
