    0.109580469879580367E+00   -0.225865054920080119E+02    0.573287843263557750E+00    0.173510334828764412E+01    0.123255377959451129E-01    0.149146210193558071E+01   -0.191793976328747351E+01   -0.227908727154807478E-03   -0.508255143887138439E+00   -0.910367112998765327E-01    0.642457644844182801E-01   -0.288310348465505184E+00   -0.175219657676834450E+00   -0.107425625736437547E+01   -0.565615685664282664E+00
    0.109580469879580367E+00   -0.225865054920080119E+02    0.573287843263557750E+00    0.173510334828764412E+01    0.123255377959451129E-01    0.149146210193558071E+01   -0.191793976328747351E+01   -0.227908727154807478E-03   -0.508255143887138439E+00   -0.910367112998765327E-01    0.642457644844182801E-01   -0.288310348465505184E+00   -0.175219657676834450E+00   -0.107425625736437547E+01   -0.565615685664282664E+00
    0.117276976847641920E+00   -0.218900475065118592E+02    0.565694625196050294E+00    0.181445677052478960E+01    0.123410172959998211E-01    0.132567883349507065E+01   -0.196875390607660905E+01   -0.753825584278156741E-02    0.163476664840775388E+00   -0.133750876499679150E+00    0.674761335266955697E-01   -0.466598446920610699E+00   -0.936313275302834980E-01   -0.108384344300034785E+01   -0.525971625758608785E+00
    0.117276976847641920E+00   -0.218900475065118592E+02    0.565694625196050294E+00    0.181445677052478960E+01    0.123410172959998211E-01    0.132567883349507065E+01   -0.196875390607660905E+01   -0.753825584278156741E-02    0.163476664840775388E+00   -0.133750876499679150E+00    0.674761335266955697E-01   -0.466598446920610699E+00   -0.936313275302834980E-01   -0.108384344300034785E+01   -0.525971625758608785E+00
    0.103425244992184764E+00   -0.222230720480933748E+02    0.582580602682196469E+00    0.173577590463219655E+01    0.123010838063064322E-01    0.142774388259816742E+01   -0.214401029818452793E+01   -0.577654673922415873E-01   -0.266868066347141930E+01   -0.129522449735895301E-01    0.602745577384231207E-01   -0.412720593640240718E+00   -0.188718258887116130E-01   -0.107896287997271956E+01   -0.512118311226024248E+00
    0.103425244992184764E+00   -0.222230720480933748E+02    0.582580602682196469E+00    0.173577590463219655E+01    0.123010838063064322E-01    0.142774388259816742E+01   -0.214401029818452793E+01   -0.577654673922415873E-01   -0.266868066347141930E+01   -0.129522449735895301E-01    0.602745577384231207E-01   -0.412720593640240718E+00   -0.188718258887116130E-01   -0.107896287997271956E+01   -0.512118311226024248E+00
    0.112712094772982357E+00   -0.219048686043943448E+02    0.561926378446880204E+00    0.174926266208087666E+01    0.123991161829248037E-01    0.143951555149318122E+01   -0.199317920221136324E+01   -0.266099912804548533E-01   -0.580780370977119320E+00   -0.700989013999108179E-01    0.807889959358112364E-01   -0.346750774865816291E+00   -0.156116169239053193E+00   -0.109117844499980809E+01   -0.504066994556490067E+00
    0.112712094772982357E+00   -0.219048686043943448E+02    0.561926378446880204E+00    0.174926266208087666E+01    0.123991161829248037E-01    0.143951555149318122E+01   -0.199317920221136324E+01   -0.266099912804548533E-01   -0.580780370977119320E+00   -0.700989013999108179E-01    0.807889959358112364E-01   -0.346750774865816291E+00   -0.156116169239053193E+00   -0.109117844499980809E+01   -0.504066994556490067E+00
    0.115892960518946805E+00   -0.219731207712032237E+02    0.604742064789732581E+00    0.187288510584747536E+01    0.122666785046456357E-01    0.126631412359986761E+01   -0.191332680353861861E+01   -0.145425242598279797E-01   -0.172312100674067159E+00   -0.146440421589978165E+00    0.842608050401311148E-01   -0.201066440352755449E+00   -0.774154344604305322E-01   -0.108505301158607081E+01   -0.500766530058496029E+00
    0.115892960518946805E+00   -0.219731207712032237E+02    0.604742064789732581E+00    0.187288510584747536E+01    0.122666785046456357E-01    0.126631412359986761E+01   -0.191332680353861861E+01   -0.145425242598279797E-01   -0.172312100674067159E+00   -0.146440421589978165E+00    0.842608050401311148E-01   -0.201066440352755449E+00   -0.774154344604305322E-01   -0.108505301158607081E+01   -0.500766530058496029E+00
    0.118339030147889782E+00   -0.216379732631700534E+02    0.609060275284607711E+00    0.174072733214799857E+01    0.124195595310465333E-01    0.144130830235982188E+01   -0.180144264134305154E+01   -0.412937963725351215E-01    0.974809278086841258E+00    0.384462081901307262E-02    0.166852866639169706E-01   -0.176873477477167584E+00   -0.174187967603240124E+00   -0.107372917325869777E+01   -0.498798401140715053E+00
    0.110771974268166609E+00   -0.217447706252055042E+02    0.611796073185012612E+00    0.176325993432809991E+01    0.122195519642684276E-01    0.129325775994676984E+01   -0.134629753540742980E+01    0.246675671210416329E-01   -0.117307687875661859E+01   -0.348349954823603189E-01    0.918981732375407506E-01   -0.403510851588360198E+00   -0.145583241046793432E+00   -0.108852564504301252E+01   -0.487183104659253574E+00
    0.110771974268166609E+00   -0.217447706252055042E+02    0.611796073185012612E+00    0.176325993432809991E+01    0.122195519642684276E-01    0.129325775994676984E+01   -0.134629753540742980E+01    0.246675671210416329E-01   -0.117307687875661859E+01   -0.348349954823603189E-01    0.918981732375407506E-01   -0.403510851588360198E+00   -0.145583241046793432E+00   -0.108852564504301252E+01   -0.487183104659253574E+00
    0.108456623915311079E+00   -0.223062955572713122E+02    0.585752427622300287E+00    0.166713514010729669E+01    0.122749101164177990E-01    0.144807650969236024E+01   -0.181740789560743465E+01    0.204147532246086623E-01    0.397062269479065755E+00   -0.143534229127660395E+00    0.309122661868380354E-01   -0.427129364020041202E+00   -0.138676207330384910E+00   -0.108376701095980432E+01   -0.481942834181407598E+00
    0.108456623915311079E+00   -0.223062955572713122E+02    0.585752427622300287E+00    0.166713514010729669E+01    0.122749101164177990E-01    0.144807650969236024E+01   -0.181740789560743465E+01    0.204147532246086623E-01    0.397062269479065755E+00   -0.143534229127660395E+00    0.309122661868380354E-01   -0.427129364020041202E+00   -0.138676207330384910E+00   -0.108376701095980432E+01   -0.481942834181407598E+00
    0.109579097450304475E+00   -0.222977001115558622E+02    0.561989401618953055E+00    0.172171805223142238E+01    0.123261134170613088E-01    0.138071840300771642E+01   -0.170474142728790423E+01   -0.394673365746598809E-01   -0.110686849469513726E+01   -0.165673430638333452E+00    0.318136567890570723E-01   -0.395957097240493994E+00   -0.101599374857693242E+00   -0.108546191521342994E+01   -0.480881223870108676E+00
    0.107430985898836331E+00   -0.225536160227092353E+02    0.635484897257073689E+00    0.182813020710254470E+01    0.121820965515034990E-01    0.136134751841664636E+01   -0.156875191005757708E+01    0.266183558198513949E-01   -0.155786478882433937E+00   -0.717409518679084507E-01    0.501433993029574906E-01   -0.394326456116047441E+00   -0.100632597900873311E+00   -0.109231242088854730E+01   -0.480248585396959193E+00
    0.107430985898836331E+00   -0.225536160227092353E+02    0.635484897257073689E+00    0.182813020710254470E+01    0.121820965515034990E-01    0.136134751841664636E+01   -0.156875191005757708E+01    0.266183558198513949E-01   -0.155786478882433937E+00   -0.717409518679084507E-01    0.501433993029574906E-01   -0.394326456116047441E+00   -0.100632597900873311E+00   -0.109231242088854730E+01   -0.480248585396959193E+00
    0.104422699286960741E+00   -0.225489667578892536E+02    0.601720575887709108E+00    0.174898729406170284E+01    0.124045597520763447E-01    0.132676949070135941E+01   -0.215047297646143409E+01    0.338449462810105628E-01    0.195907121484711144E+01    0.208906730589157458E-01    0.486737638959664903E-01   -0.374766577666660883E+00   -0.123533763225729343E+00   -0.107648115198377936E+01   -0.470962039287330270E+00
    0.104422699286960741E+00   -0.225489667578892536E+02    0.601720575887709108E+00    0.174898729406170284E+01    0.124045597520763447E-01    0.132676949070135941E+01   -0.215047297646143409E+01    0.338449462810105628E-01    0.195907121484711144E+01    0.208906730589157458E-01    0.486737638959664903E-01   -0.374766577666660883E+00   -0.123533763225729343E+00   -0.107648115198377936E+01   -0.470962039287330270E+00
    0.111612256679948535E+00   -0.219989623257158868E+02    0.695913780653902858E+00    0.174365362553410019E+01    0.123542326439962883E-01    0.145868322445272369E+01   -0.149076244255018597E+01   -0.446384356302976515E-01   -0.161016140954744857E+01   -0.104936273949134379E+00    0.368658700041098186E-01   -0.288371771899287532E+00   -0.153088737665052738E+00   -0.108116146471337338E+01   -0.469292860276398938E+00
    0.107778155765047026E+00   -0.221052366535208940E+02    0.593843139214825566E+00    0.179109960269531143E+01    0.123125378206727087E-01    0.133273246673784307E+01   -0.190116606607553118E+01   -0.680741161627023833E-01   -0.201022228605688591E+01    0.245233029736270647E-02    0.680699922260290941E-01   -0.404201856529200598E+00   -0.108073041304939055E+00   -0.108349989387343126E+01   -0.464689755480865441E+00
    0.116155979179030505E+00   -0.221493694901209643E+02    0.596854395207888855E+00    0.185111142563735642E+01    0.123728572322256165E-01    0.133314692657648171E+01   -0.115231065157196721E+01   -0.241788559206417390E-01   -0.145536614064897885E+01   -0.679396430280250763E-01    0.651380553061151751E-01   -0.271906746224892970E+00   -0.154012325412206386E+00   -0.106883166944392261E+01   -0.462359506426990363E+00
    0.116155979179030505E+00   -0.221493694901209643E+02    0.596854395207888855E+00    0.185111142563735642E+01    0.123728572322256165E-01    0.133314692657648171E+01   -0.115231065157196721E+01   -0.241788559206417390E-01   -0.145536614064897885E+01   -0.679396430280250763E-01    0.651380553061151751E-01   -0.271906746224892970E+00   -0.154012325412206386E+00   -0.106883166944392261E+01   -0.462359506426990363E+00
    0.115292657696757908E+00   -0.219635998059597490E+02    0.589627755360545569E+00    0.175780596382906262E+01    0.124308349726202846E-01    0.141156691065234985E+01   -0.173155771965943650E+01    0.121106901242198951E-01    0.444280539660778850E+00   -0.388599465116033771E-02    0.239897785550868894E-01   -0.353461419837844182E+00   -0.203580600299145986E+00   -0.107271130349511945E+01   -0.461384812245266784E+00
    0.108880093879252668E+00   -0.218996944545164176E+02    0.558810662200328268E+00    0.178592743820151179E+01    0.124386212643120362E-01    0.139379462134772414E+01   -0.182505109406976640E+01    0.676135092553459965E-02   -0.237125103508798674E+01   -0.793199068446141797E-01    0.106537742183283150E-01   -0.464160908042629883E+00   -0.141411142410183127E+00   -0.108737139171051789E+01   -0.458712743110716803E+00
    0.113577935846846237E+00   -0.226137768942470174E+02    0.640478876606147662E+00    0.168867821644621219E+01    0.123237772197026113E-01    0.144344205009002802E+01   -0.184899165887728989E+01    0.161973190497768406E-01   -0.167891929676248042E+01    0.442184831772787779E-02    0.472655153138672179E-01   -0.412660872351551911E+00   -0.115936238104717690E+00   -0.107928892252275221E+01   -0.458126296548939271E+00
    0.110937788766092144E+00   -0.224809244139495732E+02    0.602645547060518094E+00    0.174047298926688709E+01    0.124041624399906635E-01    0.138699005506906836E+01   -0.155019551934679889E+01    0.567812953281349037E-01    0.873029741683085558E+00    0.494558719320043888E-01    0.351693510554970459E-01   -0.552756066531230994E+00   -0.150027464711901565E+00   -0.108494381780026705E+01   -0.456286941285834080E+00
    0.112637028013596929E+00   -0.221862508141379529E+02    0.628583803348895187E+00    0.182113998404214406E+01    0.122818558104330709E-01    0.136987365357880453E+01   -0.161961143624906390E+01   -0.564457508176154921E-01   -0.240432782787323884E+00   -0.877530896259241799E-01    0.263620733306654219E-01   -0.221610444526789796E+00   -0.844328059168237277E-01   -0.107783948675069396E+01   -0.454200836869317115E+00
    0.111503711847786902E+00   -0.220154631923796913E+02    0.586819347069588160E+00    0.173275966593537700E+01    0.122646846730938598E-01    0.134485111113336653E+01   -0.197706517903163959E+01    0.191798421770273501E-01   -0.281638324415084851E+01   -0.176576301290149590E+00    0.363524321766610509E-01   -0.295697127742800936E+00   -0.770147453246926572E-01   -0.107828260909176232E+01   -0.453001671778873238E+00
    0.111503711847786902E+00   -0.220154631923796913E+02    0.586819347069588160E+00    0.173275966593537700E+01    0.122646846730938598E-01    0.134485111113336653E+01   -0.197706517903163959E+01    0.191798421770273501E-01   -0.281638324415084851E+01   -0.176576301290149590E+00    0.363524321766610509E-01   -0.295697127742800936E+00   -0.770147453246926572E-01   -0.107828260909176232E+01   -0.453001671778873238E+00
    0.108848727510705942E+00   -0.222766563534999875E+02    0.646451517963192890E+00    0.178572583841893251E+01    0.122595956315493006E-01    0.143738825152285932E+01   -0.206352286962877152E+01   -0.536843372976815725E-01   -0.972960160064243573E+00   -0.353031303871129687E-01    0.483251079622399257E-01   -0.367660645708946576E+00   -0.137679972882551682E+00   -0.108715739188523330E+01   -0.452834130530010481E+00
    0.108848727510705942E+00   -0.222766563534999875E+02    0.646451517963192890E+00    0.178572583841893251E+01    0.122595956315493006E-01    0.143738825152285932E+01   -0.206352286962877152E+01   -0.536843372976815725E-01   -0.972960160064243573E+00   -0.353031303871129687E-01    0.483251079622399257E-01   -0.367660645708946576E+00   -0.137679972882551682E+00   -0.108715739188523330E+01   -0.452834130530010481E+00
    0.118558536185655303E+00   -0.214898224212798326E+02    0.562739196664305719E+00    0.173228265623789723E+01    0.124153051252198932E-01    0.128013247897754678E+01   -0.131543030695541519E+01   -0.454048535339205209E-01    0.542129078661910957E+00   -0.139375063415152212E-02    0.343321430619397197E-01   -0.356998729646243684E+00   -0.862524134947492971E-01   -0.107931214311720147E+01   -0.449148679744835522E+00
    0.107392652099504576E+00   -0.220452642949619815E+02    0.623445721702247768E+00    0.173730410376293687E+01    0.123489181542331943E-01    0.139450777280452765E+01   -0.141030414141781968E+01    0.647163274631524024E-02   -0.165531512783635115E+01   -0.427732592848247065E-01    0.613363907083873117E-01   -0.234684414718219714E+00    0.163754473627158864E-01   -0.108035963110832589E+01   -0.448163430987370603E+00
    0.107392652099504576E+00   -0.220452642949619815E+02    0.623445721702247768E+00    0.173730410376293687E+01    0.123489181542331943E-01    0.139450777280452765E+01   -0.141030414141781968E+01    0.647163274631524024E-02   -0.165531512783635115E+01   -0.427732592848247065E-01    0.613363907083873117E-01   -0.234684414718219714E+00    0.163754473627158864E-01   -0.108035963110832589E+01   -0.448163430987370603E+00
    0.112190511491008713E+00   -0.222442370981435005E+02    0.645937005950382725E+00    0.182183274174629983E+01    0.122734219676370708E-01    0.138442549792031322E+01   -0.191545851198169581E+01   -0.812794689311280294E-01   -0.932597069473438900E+00   -0.157444478237640739E+00   -0.211217399379806658E-03   -0.448968489901195644E+00   -0.213659982289263584E+00   -0.107376055607213305E+01   -0.446468392765613120E+00
    0.109996554563116772E+00   -0.226520442221475555E+02    0.648162622478899442E+00    0.176418845401845448E+01    0.122572589553439620E-01    0.132327440181576317E+01   -0.213904186066902868E+01   -0.615924885585056661E-02    0.591452464248165222E+00   -0.321101520961305856E-01    0.136501981416674301E-02   -0.392187677380301469E+00   -0.116368912342792660E+00   -0.109128751445676109E+01   -0.445536560285419547E+00
    0.112178336300705672E+00   -0.221625307345336537E+02    0.591190036058010349E+00    0.178191730918277913E+01    0.124073217711125963E-01    0.132082567613529123E+01   -0.183740993634993499E+01   -0.431338031058872556E-01   -0.635235698153884809E-01   -0.135360996020901292E+00    0.452091255177676440E-01   -0.399542781491069698E+00   -0.614101385715779338E-01   -0.106620758288267736E+01   -0.445284276843916416E+00
    0.105085108574079863E+00   -0.220587185198882629E+02    0.628857299063266373E+00    0.179962696372818542E+01    0.123801071461647916E-01    0.133440801010606092E+01   -0.171187795345951765E+01   -0.653769603080556067E-01    0.294958593025748450E+00   -0.551475372923195262E-01    0.389023610582862056E-01   -0.201802321007571783E+00   -0.118272053678396050E+00   -0.108551378126517628E+01   -0.444439195659786068E+00
    0.113252915922857383E+00   -0.218788805317627428E+02    0.604842013643281939E+00    0.177290223608022401E+01    0.123856644371323679E-01    0.134733381866798396E+01   -0.235325410358974763E+01   -0.663247036958946878E-01    0.250432064131202337E+00   -0.178716190619835846E+00   -0.680086340105811593E-01   -0.276642904527154398E+00   -0.149500766160951926E+00   -0.108189724824459721E+01   -0.442205283077650613E+00
    0.111125258742069091E+00   -0.224815023491966990E+02    0.653378696037352213E+00    0.176505925981708378E+01    0.122942437033136450E-01    0.137947879910494464E+01   -0.136737894776378144E+01   -0.115485173705295596E-01   -0.707337522819452280E-01   -0.805272631932979904E-01    0.308178344711034086E-01   -0.264123045311962179E+00   -0.438084762196060129E-01   -0.109024386292942621E+01   -0.441774482297543847E+00
    0.104940398515374969E+00   -0.222964896819476017E+02    0.606925930980385386E+00    0.174439915944039670E+01    0.123297690512838842E-01    0.131946922957351820E+01   -0.196757660985811089E+01   -0.279367197784652355E-01   -0.229517421499295615E+01   -0.107561858661829449E+00    0.183379999677057461E-01   -0.444211974902457452E+00   -0.304348930798131190E+00   -0.108002855410535692E+01   -0.441706477208816062E+00
    0.106865867222667638E+00   -0.224449029706469396E+02    0.645163871348365392E+00    0.181022895701452580E+01    0.124172726649270943E-01    0.138783992253037769E+01   -0.183457152253470057E+01   -0.220283264339449052E-01   -0.118824704785742785E+01   -0.761555602361357054E-01    0.552981640819107528E-01   -0.376949264635388637E+00   -0.992690568267024370E-01   -0.107794927542154961E+01   -0.440503237590396612E+00
    0.112520775918198521E+00   -0.219691444477750579E+02    0.653142250364501686E+00    0.181728249464906289E+01    0.123089400045515423E-01    0.134035485760663242E+01   -0.151539376564993900E+01    0.378419494381642685E-01   -0.135352154073913522E+01   -0.423048470565493065E-01    0.172095612907791247E-01   -0.354167921358505000E+00   -0.294846064646417799E-01   -0.106877618631483839E+01   -0.440346565896058695E+00
    0.114353747480614235E+00   -0.218586531656541858E+02    0.623988165794642891E+00    0.176167146735849878E+01    0.123438294499149739E-01    0.130678848192526686E+01   -0.149534104801889423E+01    0.662142864255194086E-02   -0.119610305141801732E+01    0.703418169723114828E-02    0.798311652636958524E-02   -0.490920756916324197E+00   -0.262511999654338357E+00   -0.107183410542981061E+01   -0.440304659558401312E+00
    0.107669436554452491E+00   -0.224955394630657359E+02    0.649126802083901722E+00    0.182479258113148779E+01    0.123913224371409222E-01    0.129083884376687186E+01   -0.181636931437475080E+01   -0.159482250838501802E-01    0.806211716707329829E+00   -0.752939559803371822E-01    0.287416374429007929E-01   -0.556454845718323265E+00   -0.195134262247644852E+00   -0.107825542262712681E+01   -0.438647196077456836E+00
    0.111723472736686036E+00   -0.223097617512841033E+02    0.654214851058918523E+00    0.178791917030329506E+01    0.122879842443472057E-01    0.131196177862338903E+01   -0.127705416316449183E+01   -0.604584641251074140E-01   -0.300843571635940332E-01   -0.147769307546863349E-02    0.475081736526336562E-02   -0.594235526861481178E+00   -0.106251349994380448E+00   -0.108358135364861718E+01   -0.438211426714468555E+00
    0.110464986841902771E+00   -0.216859127771730194E+02    0.572079446520367796E+00    0.178042108023045764E+01    0.124718741139621843E-01    0.127818257512471045E+01   -0.158116794628549484E+01   -0.347255712071172090E-01   -0.236478966400884005E+00   -0.733828352881303603E-01    0.120467736977063651E-01   -0.475091690468599170E+00   -0.120118393525358594E+00   -0.109378897790809892E+01   -0.436034406630573912E+00
    0.108274265908839165E+00   -0.218554522635553674E+02    0.651662773930806294E+00    0.178974469997635532E+01    0.123596799166382533E-01    0.133317372599385697E+01   -0.202426036972818446E+01   -0.302952416329638104E-01    0.399742606066531891E+00   -0.740407512475563245E-01    0.492194600264408005E-01   -0.426882696873411016E+00   -0.151346668452609856E+00   -0.108762563807394907E+01   -0.432830756477000367E+00
    0.113531467910089154E+00   -0.225229281757733730E+02    0.669948080247576683E+00    0.181156860062312841E+01    0.122818057687194386E-01    0.135922794837005334E+01   -0.240604680921207326E+01    0.186076080658644054E-01   -0.187006083585438621E+01   -0.512244076509767304E-01    0.349382366762639937E-01   -0.371391223808172466E+00   -0.210491437519597174E+00   -0.108007913244448894E+01   -0.431158691446277997E+00
    0.114227552404728511E+00   -0.224379250437930864E+02    0.637687668962411580E+00    0.175149878063749176E+01    0.123232718812059990E-01    0.135308847435514168E+01   -0.164965448980797103E+01   -0.362401147493714992E-01   -0.191551265325773407E+00   -0.203677949445493361E-01    0.199749527369436249E-01   -0.310201735794272571E+00   -0.139474785710978932E+00   -0.107598429395675477E+01   -0.430001942350112742E+00
    0.111683097358399513E+00   -0.225324153389302566E+02    0.717029460706321009E+00    0.175158436444801358E+01    0.122338448517526240E-01    0.132435128678087355E+01   -0.205641072427118221E+01   -0.775224204225147262E-02   -0.225512468739817207E+01   -0.451375282333997332E-01    0.404626577775514251E-01   -0.497337712782007779E+00   -0.212567583602459836E+00   -0.108383097844222687E+01   -0.429238451940514187E+00
    0.114447057715175229E+00   -0.224123101755940155E+02    0.620514150160539346E+00    0.176761265627137742E+01    0.123786383242521815E-01    0.129350517388583786E+01   -0.200047231797201919E+01   -0.115017064832739213E-01   -0.560897590802405199E+00   -0.285150416045482219E-01    0.638151033099635667E-01   -0.246162375193220428E+00   -0.147841232336118539E+00   -0.108122186457841529E+01   -0.428174369155382095E+00
    0.113640110148428564E+00   -0.225770228607510219E+02    0.630751263235450388E+00    0.176669673088789625E+01    0.124464945127760081E-01    0.141578275802178033E+01   -0.184740411180865527E+01   -0.326851607952723180E-01   -0.256108929800097673E+01   -0.145056875885671288E+00    0.922230794028087997E-01   -0.341175167084430242E+00   -0.858916572942722834E-01   -0.107965604060385378E+01   -0.426599217210408777E+00
    0.111715949259632338E+00   -0.220954738884212603E+02    0.666561917766035461E+00    0.184066464320487810E+01    0.123339492948331270E-01    0.139938803547386437E+01   -0.204841220663438595E+01   -0.331270372625703663E-01   -0.229434593221579153E+01   -0.227057496239602141E+00   -0.654458781558718561E-02   -0.326603342670179209E+00   -0.184113471780024240E+00   -0.108614886039502245E+01   -0.426598821985857912E+00
    0.109785269497922111E+00   -0.220027035871022854E+02    0.664362246335857276E+00    0.188486496516852187E+01    0.123640606086084879E-01    0.133199055484923656E+01   -0.127482105430357229E+01   -0.372581097962721916E-01   -0.734974423731222237E-01   -0.121966147779224016E-01    0.763448560310910351E-01   -0.432645001174833843E+00   -0.189638379346517338E+00   -0.109217317290144278E+01   -0.425019513892217982E+00
    0.111128629973474072E+00   -0.226706967145011902E+02    0.659982722612218908E+00    0.181441084727475599E+01    0.123707871559224306E-01    0.132025792641178041E+01   -0.120336835669691444E+01   -0.666943292547138439E-01    0.511675890218190044E-01   -0.220419832524667347E+00    0.142990358385965445E-01   -0.234747593125199994E+00   -0.652659235779800284E-01   -0.110037294783663175E+01   -0.424965423852354529E+00
    0.106872311629980718E+00   -0.218495878433663151E+02    0.624492875193686681E+00    0.179690810886438723E+01    0.124319981795291516E-01    0.131400064761815316E+01   -0.213945837829993390E+01   -0.510899068077613483E-01   -0.134301610272658634E+01   -0.892960419419750323E-01    0.215017964798821549E-01   -0.392158975031030532E+00   -0.999119953510757414E-01   -0.108336134453944299E+01   -0.424034701766017430E+00
    0.108291351586524642E+00   -0.219199213077666819E+02    0.593241705479252368E+00    0.178897050819964054E+01    0.124853499565836922E-01    0.130637346488349526E+01   -0.154027122555249285E+01    0.247142749179976341E-01    0.753920218248560370E+00   -0.101178920494727348E+00    0.747424412684809802E-01   -0.337831799430680368E+00   -0.171707027972744702E+00   -0.108352060243657733E+01   -0.423865898544286523E+00
    0.114667601858810572E+00   -0.221883717324351259E+02    0.653346212973686669E+00    0.180732330655655282E+01    0.123465659764629056E-01    0.137379705301473165E+01   -0.200161450362447946E+01    0.102067298190939085E-02   -0.703412710192580670E+00   -0.155849664637259133E+00    0.460693823935326846E-01   -0.352205254309393478E+00   -0.232045772820735074E+00   -0.107886665565179496E+01   -0.423157028042729644E+00
    0.105438225128310636E+00   -0.224995232788383142E+02    0.660908534590662233E+00    0.170951543128021410E+01    0.123621970864435382E-01    0.136038673569648427E+01   -0.153882915971086742E+01    0.966321185174146349E-02   -0.337541412575987410E+00   -0.142309479744167411E+00    0.460719284505705581E-01   -0.231683432842741399E+00   -0.204388102466451227E+00   -0.107870037465822755E+01   -0.422359600045164540E+00
    0.111383591194133810E+00   -0.224094538368175087E+02    0.654370117121765738E+00    0.182034456929414512E+01    0.123560991742905253E-01    0.141960259419600643E+01   -0.143104055226563420E+01    0.333885735745039630E-01   -0.698379387157934350E+00   -0.135948837173127501E+00   -0.721861286469391988E-02   -0.240879637569330729E+00    0.415260728673639140E-01   -0.107820890861388574E+01   -0.422187020821449932E+00
    0.109759291663525174E+00   -0.218068254673596869E+02    0.634554942103092157E+00    0.186586893834199663E+01    0.124037295015850119E-01    0.136003508760232861E+01   -0.194554064432888030E+01    0.195693924241311414E-01   -0.442958738022831366E+00   -0.920127603693092488E-02    0.565535210171348307E-01   -0.341475670754830651E+00   -0.128722404976017474E+00   -0.108068219235294705E+01   -0.420512957331028170E+00
    0.109949528441233735E+00   -0.217387869221518102E+02    0.649440202947468292E+00    0.177912690110379645E+01    0.124025412121798739E-01    0.133755882045727370E+01   -0.228670514121759183E+01   -0.817055576644848229E-02   -0.159359271056002516E+01   -0.186287145387720454E+00    0.618281454015919829E-01   -0.317086765617138389E+00   -0.197713479332282227E+00   -0.108732146326299128E+01   -0.420095612397323293E+00
    0.110308808310149692E+00   -0.225619665576212576E+02    0.608632182395590249E+00    0.174160366541202172E+01    0.124223885974278844E-01    0.131055174692678689E+01   -0.185486212383678550E+01    0.183642468119055956E-01    0.880844140203579373E-01    0.481984577025527522E-01    0.319979819587384515E-01   -0.316679413680180710E+00   -0.119739737961802165E+00   -0.108713254683416127E+01   -0.419496670846235209E+00
    0.108674981502383763E+00   -0.221530156783576437E+02    0.637826353093525644E+00    0.179215547407808184E+01    0.124451389619473479E-01    0.136301503858325868E+01   -0.165752520693154404E+01    0.532956582064123691E-03   -0.239500215624819424E+01    0.176941175123638550E-01    0.305949525654719418E-01   -0.314946914074673456E+00   -0.158812804771865462E+00   -0.108018032761086347E+01   -0.416688913929683769E+00
    0.107293539025594298E+00   -0.217834059707652870E+02    0.614903481980175415E+00    0.172657332901013172E+01    0.123723187118444621E-01    0.129011873639942620E+01   -0.193063763364725771E+01    0.165355228538528291E-01   -0.191544718161452865E+01    0.603730884670812123E-01   -0.118600607608224939E-01   -0.370899883128490315E+00   -0.235843134571605273E+00   -0.107458834294534777E+01   -0.366672651513692938E+00
    0.109153870586666632E+00   -0.219631385298587709E+02    0.701679201402149566E+00    0.165731769450313560E+01    0.122578777245578134E-01    0.132290343941290711E+01   -0.179714320511209080E+01   -0.285851959617165093E-01   -0.216233216044175958E+01   -0.476337275391393519E-01   -0.105266615129684868E-01   -0.388255339509763375E+00   -0.132107452136466963E+00   -0.107343487517634961E+01   -0.300743597455176148E+00
    0.113161150873321875E+00   -0.226315784180757689E+02    0.636831698318004236E+00    0.170383431012314990E+01    0.122425925523365099E-01    0.131900529916121045E+01   -0.169416705374043830E+01    0.125883278131591995E-01   -0.875485967957959188E+00   -0.318385239800942077E+00   -0.668937212651794788E-02   -0.285699352892776259E+00   -0.480245959263657790E-01   -0.107185737928916169E+01   -0.356958971227866517E+00
    0.121799422849520306E+00   -0.217972729426123486E+02    0.645149692165516764E+00    0.172114918320191301E+01    0.123227717164848018E-01    0.129683272846319930E+01   -0.144523678693717605E+01   -0.373405828625360814E-01   -0.117832110508708565E+01    0.128084744356058849E-01    0.200817079022193416E-01   -0.469656057919159764E+00   -0.297841879998390902E-01   -0.108409525823979713E+01   -0.397088871662557963E+00
    0.112554161538305303E+00   -0.219173866313757060E+02    0.644170224164015703E+00    0.170147542710558874E+01    0.122883891075169401E-01    0.135383774890822606E+01   -0.184951764190168166E+01   -0.420822516449790504E-01   -0.105722394846091428E+01   -0.161332710320760186E+00    0.203696308795486281E-01   -0.274741177576578399E+00   -0.627873409517324399E-01   -0.108077757951041620E+01   -0.371922554181235709E+00
    0.114372661435543949E+00   -0.221274489346980445E+02    0.567211528889093208E+00    0.170284603756443564E+01    0.123710097241483720E-01    0.132437190837041241E+01   -0.170108710243639227E+01    0.549632157384849357E-01    0.605409586767236996E+00   -0.162808659395097255E+00    0.726731644520863251E-01   -0.412652838635762409E+00   -0.127928613102943844E+00   -0.107342308715579104E+01   -0.401298816847469875E+00
    0.111432003343458111E+00   -0.222873695357597583E+02    0.639945845705317540E+00    0.172760125494905648E+01    0.122322058643163662E-01    0.130839128564329910E+01   -0.156032891149233621E+01   -0.105314740648682695E-01    0.458026950388256138E+00   -0.140527727014247178E+00   -0.278380368216206986E-01   -0.445819664306774277E+00   -0.586757629157388869E-01   -0.107857458037226106E+01   -0.384686524396301410E+00
    0.115549486771957463E+00   -0.215784418720717142E+02    0.648260093418602246E+00    0.171707780267113375E+01    0.123191888804725230E-01    0.130864459710942582E+01   -0.191129269926828571E+01   -0.491481400861182305E-01   -0.907113941551756398E+00   -0.146782669733583032E+00    0.421376638459646236E-01   -0.185658514197187707E+00   -0.171677187584636126E+00   -0.106762500608331523E+01   -0.371860069518356873E+00
    0.109584386913451529E+00   -0.221041204253558803E+02    0.663380604746217850E+00    0.168659732231610304E+01    0.123780812388775852E-01    0.136113214416913908E+01   -0.162771868107550866E+01   -0.302426571703227343E-01   -0.446464021731766469E+00   -0.508099281513494441E-01    0.124518836706975049E-01   -0.393129409097587756E+00   -0.457966146916008454E-01   -0.108454741701859936E+01   -0.351406752744290785E+00
    0.111286145475353038E+00   -0.221813661344635449E+02    0.637637806313276601E+00    0.170588792381880272E+01    0.122384728125967245E-01    0.129996705830054315E+01   -0.193694196134967300E+01   -0.230198010437932532E-01   -0.378187292118371432E+00   -0.124646411830832859E+00    0.129408302671471867E-01   -0.480408458284403150E+00   -0.120230405118897155E+00   -0.107779729246239286E+01   -0.337869686708660633E+00
    0.112795284284011338E+00   -0.217549628695357633E+02    0.655638966182829130E+00    0.171434489007053270E+01    0.122980360352796109E-01    0.133281416616256032E+01   -0.137275561313886230E+01   -0.396361213377880300E-01   -0.676972965248470837E+00   -0.146883611974948702E+00    0.379135665526312282E-01   -0.447882799769186657E+00   -0.393433041918307552E-01   -0.107781677354648431E+01   -0.374914468487537678E+00
    0.109560773160393601E+00   -0.222930402558940166E+02    0.680067508882013172E+00    0.171784373981079175E+01    0.123364547252416967E-01    0.136236618602698867E+01   -0.143116798766393760E+01    0.111118345843558390E-01   -0.453793241999505825E+00   -0.107912745886478728E+00    0.260660765661674676E-01   -0.402601876975130002E+00   -0.129053463878105401E+00   -0.108284145885662864E+01   -0.398417995803402758E+00
    0.110969482132537628E+00   -0.220162214027931462E+02    0.593342823489091509E+00    0.163216145897583376E+01    0.121604989726998101E-01    0.129451125342416096E+01   -0.197535181488265588E+01   -0.455379450278163220E-02   -0.928012628773818071E+00    0.170603204844702039E-02    0.903890063987698375E-02   -0.413486650011661738E+00   -0.126698773787264268E+00   -0.107815205896241495E+01   -0.326199713591578455E+00
    0.110028990393541221E+00   -0.222917214752517658E+02    0.618401163430669087E+00    0.173033574674433854E+01    0.123090360533161924E-01    0.132369111307311726E+01   -0.152883917887143772E+01   -0.687863879394049957E-02   -0.113507642848282142E+01    0.276588498986254511E-01    0.286894934710540880E-01   -0.270606784352233398E+00   -0.163094740962489909E+00   -0.107435348523346086E+01   -0.402509718997118460E+00
    0.110651118338601570E+00   -0.220244650971792062E+02    0.639726229040234129E+00    0.171769114641201215E+01    0.123395822341217237E-01    0.133277305694539550E+01   -0.195527003839805147E+01    0.640897567869793197E-02   -0.151949748245645999E+01   -0.637852675632760574E-01    0.629460454987693374E-01   -0.363983911648474878E+00   -0.145034634806537582E+00   -0.108302911086574971E+01   -0.371903969782261423E+00
    0.113095225647208794E+00   -0.224029803646325973E+02    0.628789184772434284E+00    0.173829870842010736E+01    0.123383180285881449E-01    0.131007031439653154E+01   -0.156593477593365482E+01   -0.139266592124911767E-01   -0.112368641295246574E+01   -0.289951302207141562E-01    0.492305892274455259E-01   -0.376173174752362616E+00   -0.125873450392742059E+00   -0.108337539828029716E+01   -0.395097315552392137E+00
    0.110798701505671726E+00   -0.220468707178146595E+02    0.622325596645502577E+00    0.169750080033267969E+01    0.123459935757707050E-01    0.133435057925513201E+01   -0.205950120440644691E+01   -0.335973388549907562E-01   -0.387494436153821842E+00   -0.140022332251123205E+00    0.278010172984527251E-01   -0.445545200550413134E+00   -0.167535476798188615E+00   -0.109044106797958573E+01   -0.349024479130734810E+00
    0.109512193625298043E+00   -0.221350140934444788E+02    0.660486338111875404E+00    0.168994246742168319E+01    0.122371944539356684E-01    0.137546497711376392E+01   -0.198237215627122221E+01   -0.482727423318460719E-01   -0.256884716208134023E+00    0.190165592285390095E-01    0.408031663424049049E-01   -0.244421904630943349E+00   -0.163436120135655394E+00   -0.108150675931936324E+01   -0.380338519698536437E+00
    0.112148758514350397E+00   -0.222233167605930788E+02    0.645494708470276013E+00    0.172639829232980069E+01    0.123255673456214489E-01    0.135608219151985665E+01   -0.155952749827143311E+01   -0.378745556446417192E-01    0.203960136267261172E+00   -0.354109057449722500E-01    0.910289106877687770E-01   -0.182133003229634965E+00   -0.165124884525706894E+00   -0.109183809998837034E+01   -0.401032700186864211E+00
    0.113285355997124165E+00   -0.217355348235192025E+02    0.588195991945450691E+00    0.166277007725989590E+01    0.123426595346661436E-01    0.139021838212015370E+01   -0.194788108168977536E+01   -0.587640824356763375E-01   -0.672380575221561139E+00   -0.366984346030020531E-01    0.575670872072227002E-01   -0.529684867259110459E+00   -0.708497003200425357E-01   -0.109428525658309184E+01   -0.381984121094668616E+00
    0.109664401819243890E+00   -0.224194574757219307E+02    0.593713119708193737E+00    0.170771137576696841E+01    0.124991500815354976E-01    0.130668483478894815E+01   -0.183596594097571741E+01   -0.652770507897690311E-01   -0.107842789638086067E+01   -0.952585136357565615E-01    0.699060870213812358E-01   -0.216859244245021954E+00   -0.129734925399122542E+00   -0.108539738431940136E+01   -0.385659347756547644E+00
    0.110872815839475905E+00   -0.216595958544704139E+02    0.597669899833424445E+00    0.160441183883551286E+01    0.123254678602800413E-01    0.139687473499276749E+01   -0.204646193221463379E+01   -0.597568000165008689E-01   -0.131221368811282657E+01   -0.126175539232598333E+00    0.921792172827671508E-01   -0.310346886039511050E+00   -0.978165916379463984E-01   -0.107525971949822918E+01   -0.316825574727390702E+00
    0.111936876371519084E+00   -0.225056014054281910E+02    0.626847523001953899E+00    0.164064345852517701E+01    0.124171266750972790E-01    0.136537394634100240E+01   -0.204590646596699433E+01   -0.406387104411766800E-02    0.113557252195423342E+01    0.106053930372774122E+00    0.230673213657564685E-01   -0.296775444027325530E+00   -0.100064686029234157E+00   -0.108090959749356519E+01   -0.356218204701216679E+00
    0.110276825355944519E+00   -0.217219262824063186E+02    0.662620594919827832E+00    0.174277172961705973E+01    0.124678180459970710E-01    0.138224544943145755E+01   -0.176316599741853230E+01   -0.149728120380981985E-01   -0.986318079401470982E+00   -0.119131825452841636E+00   -0.552443323441003525E-02   -0.349722115397018862E+00   -0.464174537602982107E-02   -0.108362247388895017E+01   -0.411132269986724475E+00
    0.109818833136915067E+00   -0.218730376300163663E+02    0.648714437917967901E+00    0.173098211047451045E+01    0.122897746942836825E-01    0.134946372964514971E+01   -0.181496082934398695E+01    0.575114033050463241E-03    0.265671768772345507E+01   -0.301840509976120885E+00    0.207205191364871061E-02   -0.524240647989367536E+00   -0.804799195730764305E-01   -0.107872535928528612E+01   -0.415031865669836297E+00
    0.114611508216066998E+00   -0.220052302885876507E+02    0.654527262944138544E+00    0.175694508031503505E+01    0.124394527034037191E-01    0.134150430498024620E+01   -0.111807301264881920E+01    0.223326749774850515E-01    0.496944829665294185E+00   -0.132967065398745449E+00    0.113621166456976293E-01   -0.333679814453151147E+00   -0.107661905729493648E+00   -0.107789233716898813E+01   -0.396543373988606451E+00
    0.110901083664126598E+00   -0.219807629065463388E+02    0.645840661769868096E+00    0.183585643738990090E+01    0.124406537832725261E-01    0.138583733579519319E+01   -0.156892895336463933E+01    0.742552979034116420E-02   -0.833711949993112822E+00   -0.739616718242610688E-01   -0.262484941546085246E-01   -0.190860180327606627E+00   -0.948015142060424643E-01   -0.107566143888758603E+01   -0.405440167237796190E+00
    0.114314576215032299E+00   -0.215717166992148179E+02    0.637892697599130809E+00    0.178166432312533440E+01    0.124678415556576071E-01    0.136291587794752767E+01   -0.165856962837866817E+01    0.173803200995819619E-01    0.928294324493877610E+00   -0.258081492167239468E-01    0.114430001839334848E-01   -0.401419243092519362E+00   -0.990791890944640874E-01   -0.108394181606675755E+01   -0.408371556461743279E+00
    0.113334511301403457E+00   -0.216774831240673400E+02    0.597728579256107784E+00    0.175852941597481438E+01    0.125313964070869147E-01    0.138702825563192711E+01   -0.147936476279014761E+01    0.119249006164246114E-01    0.642551265713322550E-01   -0.138679753457837340E+00    0.508067996389209506E-01   -0.528789408608185130E+00   -0.913507011341846142E-01   -0.108335112242977938E+01   -0.412878053267666523E+00
    0.113956314291937227E+00   -0.220271010492818533E+02    0.631163358699350474E+00    0.177490071831323526E+01    0.124534989505289927E-01    0.135053403127130611E+01   -0.244984359107136784E+01    0.319371468592588581E-01    0.126452684396201098E+01   -0.156855740627255685E-01    0.336684248853439602E-01   -0.340375350593136450E+00   -0.128351631787601311E+00   -0.108340089796636807E+01   -0.404279846811464449E+00
    0.108722837816346618E+00   -0.217162014395305611E+02    0.635504952879990759E+00    0.169343617169151739E+01    0.124510134404997846E-01    0.140939853064129061E+01   -0.210129002608644466E+01   -0.661952346209201264E-01   -0.243814437649404775E+00   -0.858225324341616302E-01    0.371542305977304102E-01   -0.286846251537083763E+00   -0.481470186222995311E-01   -0.108379948815353888E+01   -0.405003498521196215E+00
    0.113794744746627804E+00   -0.223042089428145651E+02    0.649978682138104724E+00    0.175303345663531074E+01    0.124365268213643392E-01    0.136351594169412271E+01   -0.160420374884206995E+01   -0.502237857603003782E-01   -0.215610419783039409E-01   -0.204449791171551598E+00    0.104495900335865935E-01   -0.189650123730859571E+00   -0.168955969222643193E+00   -0.108490616426852071E+01   -0.404139668481600989E+00
    0.115498364467099449E+00   -0.219267907465141327E+02    0.639005304804268870E+00    0.188907888121986844E+01    0.124540028241316280E-01    0.125549149172517627E+01   -0.181933620537402008E+01   -0.532953999108106286E-01    0.101548293887675678E+01   -0.244333488538536647E+00    0.342079401916366224E-01   -0.333146668828917525E+00   -0.103078459345703644E+00   -0.107700280727617370E+01   -0.402943490640284063E+00
