    0.114641173181278727E+00   -0.285889892984659468E+02    0.899073124198232931E+00    0.556244237835710420E+00    0.102640784472535669E-01    0.790024446636267141E+00   -0.285945599545816620E+01   -0.158809909655125946E-01   -0.500338360716703079E+01   -0.158980903711274324E+00   -0.220427557126694623E+00   -0.132700902036399615E+00   -0.906936449554318069E-01   -0.108886312124573958E+01   -0.354645521844727840E+01
    0.145736024555023352E+00   -0.400470579728148550E+02    0.114752000596820958E+01    0.613735842961273592E+00    0.879200076197764885E-02    0.742644492302876880E+00   -0.264145649862252796E+01    0.111188939830707711E+00   -0.371529265462257596E+01   -0.606784689452855783E-01   -0.744996415000953732E-01   -0.187095408989110729E+00   -0.246065473866071249E+00   -0.103103067563665141E+01   -0.351508760057685476E+01
    0.145736024555023352E+00   -0.400470579728148550E+02    0.114752000596820958E+01    0.613735842961273592E+00    0.879200076197764885E-02    0.742644492302876880E+00   -0.264145649862252796E+01    0.111188939830707711E+00   -0.371529265462257596E+01   -0.606784689452855783E-01   -0.744996415000953732E-01   -0.187095408989110729E+00   -0.246065473866071249E+00   -0.103103067563665141E+01   -0.351508760057685476E+01
    0.720839749256087792E-01   -0.386077216688305924E+02    0.937274821734847552E+00    0.461332050263496385E+00    0.138098923193391739E-01    0.936298554253659265E+00   -0.273720223098778837E+01   -0.710144461668535537E-01    0.294742118102271355E+00    0.156311294802648382E+00   -0.144888827689629962E+00   -0.196598213452032933E+00   -0.342561100868475465E+00   -0.111299787105645165E+01   -0.340826596869405973E+01
    0.720839749256087792E-01   -0.386077216688305924E+02    0.937274821734847552E+00    0.461332050263496385E+00    0.138098923193391739E-01    0.936298554253659265E+00   -0.273720223098778837E+01   -0.710144461668535537E-01    0.294742118102271355E+00    0.156311294802648382E+00   -0.144888827689629962E+00   -0.196598213452032933E+00   -0.342561100868475465E+00   -0.111299787105645165E+01   -0.340826596869405973E+01
    0.113408809731303351E+00   -0.339811599702957352E+02    0.944169009717208518E+00    0.624397072679552356E+00    0.838616253275404309E-02    0.790313914018054287E+00   -0.267941705178689871E+01    0.167234016469900507E-01   -0.630776499173453065E+01    0.100185753232048980E+00   -0.112835069502601068E+00   -0.156042271799457344E+00   -0.119556103264755811E+00   -0.114579636403775065E+01   -0.336259523041686892E+01
    0.113408809731303351E+00   -0.339811599702957352E+02    0.944169009717208518E+00    0.624397072679552356E+00    0.838616253275404309E-02    0.790313914018054287E+00   -0.267941705178689871E+01    0.167234016469900507E-01   -0.630776499173453065E+01    0.100185753232048980E+00   -0.112835069502601068E+00   -0.156042271799457344E+00   -0.119556103264755811E+00   -0.114579636403775065E+01   -0.336259523041686892E+01
    0.567256792590832767E-01   -0.360013462197404621E+02    0.976993558205024426E+00    0.545433844949043123E+00    0.127745516767713112E-01    0.471439531297272063E+00   -0.261495795300536082E+01   -0.150409978530010903E-01   -0.207833701257986680E+01   -0.163559046783268158E+00   -0.135499306512164797E+00   -0.171476589390487044E+00   -0.339270070876120045E+00   -0.107594298043134362E+01   -0.336227207648651349E+01
    0.567256792590832767E-01   -0.360013462197404621E+02    0.976993558205024426E+00    0.545433844949043123E+00    0.127745516767713112E-01    0.471439531297272063E+00   -0.261495795300536082E+01   -0.150409978530010903E-01   -0.207833701257986680E+01   -0.163559046783268158E+00   -0.135499306512164797E+00   -0.171476589390487044E+00   -0.339270070876120045E+00   -0.107594298043134362E+01   -0.336227207648651349E+01
    0.114139250577013573E+00   -0.271967592708738373E+02    0.471007181749346082E+00    0.354711251163365215E+00    0.113804109804677856E-01    0.671732101629160971E+00   -0.272941358785706267E+01   -0.111460256560520082E+00   -0.426650980724337980E+01   -0.184333015057781796E+00   -0.231622621654905131E+00   -0.207262504219671684E+00   -0.128080242776646314E+00   -0.113841644552729804E+01   -0.335674856773287855E+01
    0.114139250577013573E+00   -0.271967592708738373E+02    0.471007181749346082E+00    0.354711251163365215E+00    0.113804109804677856E-01    0.671732101629160971E+00   -0.272941358785706267E+01   -0.111460256560520082E+00   -0.426650980724337980E+01   -0.184333015057781796E+00   -0.231622621654905131E+00   -0.207262504219671684E+00   -0.128080242776646314E+00   -0.113841644552729804E+01   -0.335674856773287855E+01
    0.127655420637645900E+00   -0.283298903500932511E+02    0.107851968852993263E+01    0.536113404323480314E+00    0.110543960221511899E-01    0.679165312956189204E+00   -0.275762481272805582E+01   -0.901417406648508113E-03   -0.612278748939866535E+01   -0.182621080762719212E+00   -0.105957886500682261E+00    0.699625055552960951E-01   -0.276246468157503422E+00   -0.111555079615405894E+01   -0.335064937832708898E+01
    0.775325903923295978E-01   -0.378043009820807967E+02    0.297447590547163410E+00    0.860873468253237961E+00    0.918286237075292659E-02    0.716037453532277768E+00   -0.265356725848388253E+01   -0.865007510684886460E-01   -0.432912119495798287E+01   -0.132959963484231142E+00   -0.188119019549289973E+00   -0.139166520558739293E+00   -0.274518490055698505E+00   -0.110113548135897377E+01   -0.333954180697828251E+01
    0.775325903923295978E-01   -0.378043009820807967E+02    0.297447590547163410E+00    0.860873468253237961E+00    0.918286237075292659E-02    0.716037453532277768E+00   -0.265356725848388253E+01   -0.865007510684886460E-01   -0.432912119495798287E+01   -0.132959963484231142E+00   -0.188119019549289973E+00   -0.139166520558739293E+00   -0.274518490055698505E+00   -0.110113548135897377E+01   -0.333954180697828251E+01
    0.934809821232580745E-01   -0.326032678674986585E+02    0.932456777882246790E+00    0.668269759204106917E+00    0.103958602603381519E-01    0.245212463859981911E+00   -0.271404834463865674E+01    0.467287676423709733E-01    0.797400576470426614E+00   -0.715010561792690513E-01   -0.210792504763870320E+00   -0.156887642920352399E+00   -0.179833265691668492E+00   -0.104905029236418179E+01   -0.332738565222992033E+01
    0.934809821232580745E-01   -0.326032678674986585E+02    0.932456777882246790E+00    0.668269759204106917E+00    0.103958602603381519E-01    0.245212463859981911E+00   -0.271404834463865674E+01    0.467287676423709733E-01    0.797400576470426614E+00   -0.715010561792690513E-01   -0.210792504763870320E+00   -0.156887642920352399E+00   -0.179833265691668492E+00   -0.104905029236418179E+01   -0.332738565222992033E+01
    0.134986294939673956E+00   -0.349185531611739535E+02    0.111055829479770085E+01    0.800262723029711354E+00    0.699036267606702524E-02    0.682254662927310629E+00   -0.261917404492463080E+01   -0.945314153455641473E-02   -0.601780730078268267E+01   -0.862540900471277239E-02   -0.392961280904508686E-01   -0.318053824454681278E-01   -0.152036274129726284E+00   -0.113283138276476314E+01   -0.331953863734271293E+01
    0.134986294939673956E+00   -0.349185531611739535E+02    0.111055829479770085E+01    0.800262723029711354E+00    0.699036267606702524E-02    0.682254662927310629E+00   -0.261917404492463080E+01   -0.945314153455641473E-02   -0.601780730078268267E+01   -0.862540900471277239E-02   -0.392961280904508686E-01   -0.318053824454681278E-01   -0.152036274129726284E+00   -0.113283138276476314E+01   -0.331953863734271293E+01
   -0.703431152182340536E-03   -0.320809153560971723E+02    0.821630515130498118E+00    0.571244090100005542E+00    0.117886918470326250E-01    0.644338046253399188E+00   -0.268825953439740095E+01   -0.134490769183872927E+00   -0.263610094181441612E+01   -0.123236977072858217E-01   -0.337001646012539957E-02   -0.126704527286755464E+00   -0.437479260303306305E+00   -0.108483099684882478E+01   -0.331792484824093137E+01
   -0.703431152182340536E-03   -0.320809153560971723E+02    0.821630515130498118E+00    0.571244090100005542E+00    0.117886918470326250E-01    0.644338046253399188E+00   -0.268825953439740095E+01   -0.134490769183872927E+00   -0.263610094181441612E+01   -0.123236977072858217E-01   -0.337001646012539957E-02   -0.126704527286755464E+00   -0.437479260303306305E+00   -0.108483099684882478E+01   -0.331792484824093137E+01
    0.108559774223755873E+00   -0.360483238675418889E+02    0.126486311938331530E+01    0.677729661237689296E+00    0.615078692597597048E-02    0.456456450965479932E+00   -0.268164273201333092E+01   -0.337003732642688139E-01   -0.557161717148962410E+01   -0.100162127125859035E-01   -0.164532915900597349E+00    0.416101673784942672E-01   -0.594348702880486246E+00   -0.106739793036404973E+01   -0.331527938280349632E+01
    0.108559774223755873E+00   -0.360483238675418889E+02    0.126486311938331530E+01    0.677729661237689296E+00    0.615078692597597048E-02    0.456456450965479932E+00   -0.268164273201333092E+01   -0.337003732642688139E-01   -0.557161717148962410E+01   -0.100162127125859035E-01   -0.164532915900597349E+00    0.416101673784942672E-01   -0.594348702880486246E+00   -0.106739793036404973E+01   -0.331527938280349632E+01
    0.719504990877751910E-01   -0.422911003496880156E+02    0.760761365302962234E+00    0.559262399340117122E+00    0.770306886127195695E-02    0.477514065666584830E+00   -0.265961097860830842E+01   -0.109901312560227227E+00   -0.214080895647499858E+01    0.468578312033918476E-01   -0.251002823413956189E+00   -0.424000506738676369E-01    0.928564260134895625E-01   -0.107572678728161519E+01   -0.331508582423386189E+01
    0.104330220420116387E+00   -0.353902208862487413E+02    0.100202953301091902E+01    0.543645483364833093E+00    0.107285485605780936E-01    0.327406309307975874E+00   -0.274423850158000260E+01    0.464149041897807466E-01   -0.290453824541270933E+01   -0.734629448988393940E-01   -0.415146677072172829E-01    0.426559701322253848E-01   -0.125436000905216644E+00   -0.104286076714808162E+01   -0.331418151555785157E+01
    0.104330220420116387E+00   -0.353902208862487413E+02    0.100202953301091902E+01    0.543645483364833093E+00    0.107285485605780936E-01    0.327406309307975874E+00   -0.274423850158000260E+01    0.464149041897807466E-01   -0.290453824541270933E+01   -0.734629448988393940E-01   -0.415146677072172829E-01    0.426559701322253848E-01   -0.125436000905216644E+00   -0.104286076714808162E+01   -0.331418151555785157E+01
    0.101178451511444917E+00   -0.330053428572931793E+02    0.746454847194653270E+00    0.790398730585471054E+00    0.517513336845998751E-02    0.530924049498341710E+00   -0.261050553215377201E+01    0.713884976604766547E-02   -0.236018158937499134E+01   -0.180604562597853402E+00   -0.993504336380475472E-01   -0.264936592383867797E+00   -0.342953838945567191E+00   -0.111190111750298382E+01   -0.330654685344479571E+01
    0.933107449914744591E-01   -0.270263273307638805E+02    0.898256159060841330E+00    0.365057580203450693E+00    0.101589519450329350E-01    0.466060131312599490E+00   -0.263660378942150908E+01   -0.993759320834605719E-01   -0.516826577661954190E+01   -0.191687664398421997E+00   -0.116258294614844632E+00   -0.269863782971243915E+00    0.201967474510106298E+00   -0.110434906515886078E+01   -0.329661244644245377E+01
    0.933107449914744591E-01   -0.270263273307638805E+02    0.898256159060841330E+00    0.365057580203450693E+00    0.101589519450329350E-01    0.466060131312599490E+00   -0.263660378942150908E+01   -0.993759320834605719E-01   -0.516826577661954190E+01   -0.191687664398421997E+00   -0.116258294614844632E+00   -0.269863782971243915E+00    0.201967474510106298E+00   -0.110434906515886078E+01   -0.329661244644245377E+01
    0.640486283543017232E-01   -0.386692436825182000E+02    0.513888629521379370E+00    0.521469343996525225E+00    0.104102026004582685E-01    0.449512732076732591E+00   -0.264171832293451647E+01   -0.751304919893650558E-01   -0.464849977040498974E+01   -0.153002662665724209E+00    0.685286523453880192E-01    0.811330808973185491E-01   -0.243055955931254841E+00   -0.109240616471493190E+01   -0.329461031997069798E+01
    0.861069591511971072E-01   -0.308413323317708077E+02    0.611890836158666240E+00    0.766699830014451411E+00    0.566737722740100550E-02    0.628850792761939670E+00   -0.282759999569882536E+01    0.135204739261082577E-01   -0.542417926128685757E+01   -0.173410356792967291E+00    0.119525113773557373E+00    0.912464462760442796E-02    0.125114145037068553E+00   -0.110033841782738162E+01   -0.329409361421196634E+01
    0.140700926205719029E+00   -0.396293276668548273E+02    0.927788494413617215E+00    0.561708805736675809E+00    0.986026197464660685E-02    0.727269897926978381E+00   -0.266831198367269096E+01   -0.611921780709174523E-01   -0.375521228310246613E+01   -0.244925026143150065E+00   -0.142318098597050080E+00   -0.126059628946859237E+00   -0.321676669042742835E+00   -0.109990023079172605E+01   -0.329272556069378464E+01
    0.113311342465002865E+00   -0.320161646259099228E+02    0.130742383442162247E+01    0.618538291134102969E+00    0.741823155885162032E-02    0.544358271587551790E+00   -0.263611014785253639E+01   -0.647451564458959017E-04   -0.740371836895268665E+01   -0.128346177068736828E+00   -0.186813475453291106E+00   -0.346774145189562844E-02   -0.393730230208461707E+00   -0.110807257749337129E+01   -0.328591023905575952E+01
    0.113311342465002865E+00   -0.320161646259099228E+02    0.130742383442162247E+01    0.618538291134102969E+00    0.741823155885162032E-02    0.544358271587551790E+00   -0.263611014785253639E+01   -0.647451564458959017E-04   -0.740371836895268665E+01   -0.128346177068736828E+00   -0.186813475453291106E+00   -0.346774145189562844E-02   -0.393730230208461707E+00   -0.110807257749337129E+01   -0.328591023905575952E+01
    0.771993864138090236E-01   -0.414645809734003450E+02    0.984997454567219322E+00    0.273083524944096656E+00    0.110625473720218116E-01    0.588947258061326528E+00   -0.265467055809872443E+01    0.981860155962450271E-02   -0.651166930678366196E+01    0.397598975839352775E-02   -0.244628187777836875E+00    0.583999535504684808E-01   -0.113346975386047683E+00   -0.109355043884409664E+01   -0.328290293840902603E+01
    0.747147026765617173E-01   -0.400485082825324881E+02    0.728399673601526132E+00    0.480936637709424297E+00    0.812290856777274535E-02    0.282000951551196810E+00   -0.260080183196137460E+01    0.490109260519504333E-01   -0.169090176168370032E+01   -0.585334427777057520E-01    0.935206909904118533E-01    0.702620197991933870E-01   -0.203723558145756101E+00   -0.111677177212066403E+01   -0.328012370091852334E+01
    0.747147026765617173E-01   -0.400485082825324881E+02    0.728399673601526132E+00    0.480936637709424297E+00    0.812290856777274535E-02    0.282000951551196810E+00   -0.260080183196137460E+01    0.490109260519504333E-01   -0.169090176168370032E+01   -0.585334427777057520E-01    0.935206909904118533E-01    0.702620197991933870E-01   -0.203723558145756101E+00   -0.111677177212066403E+01   -0.328012370091852334E+01
    0.100661449861616778E+00   -0.466245876611168200E+02    0.502161330131485117E+00    0.444520553948470676E+00    0.110200614053497167E-01    0.267528794471692810E+00   -0.262443984219292137E+01   -0.196052072330903410E+00   -0.341633947574996277E+01   -0.172253314305422900E+00    0.545075608354620572E-01   -0.370731143294790622E+00    0.941265530793653216E-01   -0.111150782325103425E+01   -0.327123447382530363E+01
    0.100661449861616778E+00   -0.466245876611168200E+02    0.502161330131485117E+00    0.444520553948470676E+00    0.110200614053497167E-01    0.267528794471692810E+00   -0.262443984219292137E+01   -0.196052072330903410E+00   -0.341633947574996277E+01   -0.172253314305422900E+00    0.545075608354620572E-01   -0.370731143294790622E+00    0.941265530793653216E-01   -0.111150782325103425E+01   -0.327123447382530363E+01
    0.112078440476532454E+00   -0.303154122385435763E+02    0.838511013459783294E+00    0.705622909486179783E+00    0.111779905063673010E-01    0.274013648780978836E+00   -0.264524636019400461E+01   -0.587091464587480988E-01   -0.147537316271939911E+01    0.398730108964615027E-01   -0.275370531410345287E+00   -0.199963550337198925E+00   -0.164629088835175852E+00   -0.110340924760771353E+01   -0.327085057325787432E+01
    0.590086919053837700E-01   -0.405952137640033683E+02    0.415701679593137419E+00    0.583492517840877079E+00    0.791370742829923014E-02    0.833074563792364997E+00   -0.275463574018804014E+01    0.710448581062763096E-01   -0.657304580255130233E+01   -0.206639908730847893E+00   -0.230138807357077591E-02   -0.355662169233595726E+00    0.231967001507701026E+00   -0.112062280095477296E+01   -0.326726378672421491E+01
    0.404800774381926520E-01   -0.357272861959155108E+02    0.923870795497689024E+00    0.466142084744119944E+00    0.142705020475779529E-01    0.489215162285562999E+00   -0.263048714315155818E+01   -0.595805684159263355E-01   -0.625384526044864941E+01   -0.235550441503382640E+00   -0.166027125233600747E+00   -0.145428509360806341E+00    0.167087927150621568E+00   -0.111331460798838244E+01   -0.326546842714626084E+01
    0.719839216343271110E-01   -0.386225193207370694E+02    0.458258213522355407E+00    0.627637025954053906E+00    0.136077998133829099E-01    0.773631167988423130E+00   -0.273942893149461497E+01   -0.347624258787289642E-01   -0.650237394575884675E+01   -0.145406672911520263E-02   -0.130040543173212730E+00   -0.162881497341145431E+00   -0.337859037927492056E+00   -0.111322932830939969E+01   -0.326470363755768078E+01
    0.111596752273295574E+00   -0.382736732096645440E+02    0.510601739944347988E+00    0.464710393642737640E+00    0.618832570641122438E-02    0.745793452649372135E+00   -0.272492873562463700E+01   -0.408064358626006318E-01   -0.265952937737416573E+01   -0.173325076008070400E-01   -0.476701852650450106E-01    0.310397527900110048E-01    0.110472805439920913E+00   -0.110718204246382346E+01   -0.326191661406522249E+01
    0.111596752273295574E+00   -0.382736732096645440E+02    0.510601739944347988E+00    0.464710393642737640E+00    0.618832570641122438E-02    0.745793452649372135E+00   -0.272492873562463700E+01   -0.408064358626006318E-01   -0.265952937737416573E+01   -0.173325076008070400E-01   -0.476701852650450106E-01    0.310397527900110048E-01    0.110472805439920913E+00   -0.110718204246382346E+01   -0.326191661406522249E+01
    0.892897627388363618E-01   -0.434616623754750506E+02    0.107797858652676148E+01    0.559548552293703039E+00    0.604620264964968439E-02    0.549650866321467424E+00   -0.265042786241253747E+01   -0.148936548150647441E+00   -0.479912052855224847E+01   -0.116624922378393600E+00   -0.206736895105558927E+00   -0.256827669818648241E+00   -0.864643370820680768E-02   -0.110702542851091579E+01   -0.326072660079637666E+01
    0.895797058477927760E-01   -0.397646932764623244E+02    0.113066636321639002E+01    0.639716167369238753E+00    0.589357691162913089E-02    0.559255885208111203E+00   -0.274235271632817046E+01   -0.300441463493920924E-01   -0.393305213321516378E+01   -0.208920014525475373E+00   -0.458328326931100455E-01   -0.417325530267338013E-01   -0.229747060620674681E+00   -0.107265414408815718E+01   -0.325821681014580644E+01
    0.677444599728709435E-01   -0.375823951237791931E+02    0.711535394639383756E+00    0.714733159638045512E+00    0.816254947687841334E-02    0.596652991227021201E+00   -0.263537797513874850E+01   -0.325787606374072780E-01   -0.413458576740356332E+01   -0.320364941202507192E+00   -0.283776947536126312E+00   -0.146364543738184222E+00   -0.614454103069936974E+00   -0.112282686940251231E+01   -0.325676244520121783E+01
    0.495813611263444046E-01   -0.477366914483688589E+02    0.100164922928822331E+01    0.667909964309129189E+00    0.122716371360314224E-01    0.622593485360790289E+00   -0.265442551929884685E+01    0.572173068891002126E-01   -0.469891356752787637E+01   -0.254478850644344834E+00   -0.326228795378476696E-01   -0.186747415102511916E+00   -0.118857619278967430E+00   -0.110966422232272266E+01   -0.325407384973308611E+01
    0.495813611263444046E-01   -0.477366914483688589E+02    0.100164922928822331E+01    0.667909964309129189E+00    0.122716371360314224E-01    0.622593485360790289E+00   -0.265442551929884685E+01    0.572173068891002126E-01   -0.469891356752787637E+01   -0.254478850644344834E+00   -0.326228795378476696E-01   -0.186747415102511916E+00   -0.118857619278967430E+00   -0.110966422232272266E+01   -0.325407384973308611E+01
    0.817626695421666688E-01   -0.380115058702663333E+02    0.801666708718479892E+00    0.559158021158601026E+00    0.535630284224863050E-02    0.473298729954520381E+00   -0.265855527325268959E+01   -0.111649406200312329E+00   -0.195497362710701461E+01   -0.115797956621755183E+00    0.489585324807895739E-01    0.254628591300206375E-01   -0.553185772754488658E+00   -0.110871406404634332E+01   -0.325251160613509738E+01
    0.541181024181975959E-01   -0.391914391476143109E+02    0.726106147541217939E+00    0.420251974422244268E+00    0.870535700730283926E-02    0.280738248484436514E+00   -0.266825083706947419E+01    0.863275656164759764E-01   -0.593655631639531745E+01    0.237554348653298830E-02    0.783768558972276486E-01   -0.226494637927334985E+00   -0.204737562066742901E+00   -0.110482581021986093E+01   -0.325138694114879190E+01
    0.679003301775630980E-01   -0.480120775984261812E+02    0.902869467085304689E+00    0.521981259614433091E+00    0.715444658319180481E-02    0.398242899855767940E+00   -0.270568550144005027E+01   -0.221533317107504776E-01   -0.296529977771309383E+01   -0.201321744610799214E+00   -0.206080290700695057E+00   -0.100048873837159324E+00   -0.264661636338869133E+00   -0.109010545392447655E+01   -0.325047131785995447E+01
    0.421109064506438938E-01   -0.342890452292534889E+02    0.863265654706518171E+00    0.554117052288339185E+00    0.107837708977939570E-01    0.737658817916902354E+00   -0.275089914504540500E+01   -0.160599311408520740E+00   -0.362523274101357496E+01   -0.890249564924260328E-01   -0.159471015711358410E+00   -0.954645182198375075E-01   -0.490366012123187089E+00   -0.114450663585968115E+01   -0.324992595443867005E+01
    0.819211986975777046E-01   -0.337058727134154097E+02    0.738081821812620831E+00    0.633347378147274265E+00    0.110342174139714897E-01    0.554962548234550934E+00   -0.272898339863452843E+01   -0.654884274203037520E-01   -0.371288810848729778E+01    0.573127515222844053E-01   -0.624845580303950987E-02   -0.181213185263203930E+00   -0.377452368927041704E+00   -0.109155034260454609E+01   -0.324937374569138848E+01
    0.485726885484464577E-01   -0.393909797405515008E+02    0.116782376499721718E+01    0.593757181798713285E+00    0.121152826413037651E-01    0.809014655546610451E+00   -0.279286137953014002E+01    0.121288289827815282E+00   -0.580437338320060725E+01   -0.243329348768525772E+00    0.105722061574668430E+00    0.109816323302370261E+00   -0.170531340548317562E+00   -0.110888070751963630E+01   -0.324862912417841532E+01
    0.621314958667781164E-01   -0.412388899807352445E+02    0.772716628693721486E+00    0.436265809142042771E+00    0.714064385629875620E-02    0.684219576344323732E+00   -0.270628626808132999E+01   -0.563840714548949212E-01   -0.261526060240714564E+01    0.665111361090478526E-01    0.521476861061256763E-01   -0.518927023792095321E+00   -0.295960646112574388E+00   -0.109819373586604030E+01   -0.324771801304180041E+01
    0.560196369881093351E-01   -0.429362891655407068E+02    0.113412319770101311E+01    0.684238965779232600E+00    0.119378855419619845E-01    0.356172865906918878E+00   -0.269189849633241618E+01    0.185840890282074067E-01   -0.561381588983834234E+01    0.224860769255739668E+00   -0.470633515241261208E-01   -0.352882819504806156E+00   -0.212194857780867441E-01   -0.109911681615010637E+01   -0.324508144086206807E+01
    0.100277808738135812E+00   -0.362634580593941038E+02    0.513907606814790530E+00    0.492087662444912366E+00    0.162596216264679350E-01    0.731248930973061317E+00   -0.271097004506428263E+01   -0.148886469874449312E+00   -0.654995972915877900E+01   -0.178197203255081454E-01   -0.162585094775990702E+00   -0.119808639445979540E+00   -0.145897883967804176E+00   -0.113687356741699586E+01   -0.324495813918402076E+01
    0.111875090067394628E+00   -0.450948913682878043E+02    0.527250415237627612E+00    0.490485300809637370E+00    0.509225364419279604E-02    0.616168574511356981E+00   -0.270543629554024090E+01   -0.170031805368510598E-01   -0.201969696734182236E+01   -0.119008590566781522E+00   -0.401673590711316281E-01    0.133631895997875783E+00   -0.417055487905106437E+00   -0.109527153730846694E+01   -0.324425557463041203E+01
    0.468820473374923496E-01   -0.390953972016262412E+02    0.955477244553787575E+00    0.432752607112130261E+00    0.107328223874993082E-01    0.737348179278355054E+00   -0.275970818015890762E+01    0.346789777535889340E-01   -0.144684225366570329E+01   -0.160144518726473284E-01    0.379886580465479962E-02   -0.231199935563312586E+00    0.354665231629359146E+00   -0.109658712275031367E+01   -0.324368909509385706E+01
    0.335537007236997864E-01   -0.415165494358684839E+02    0.819109009352590123E+00    0.445025430458911408E+00    0.113171141770633064E-01    0.413302648026534047E+00   -0.274050559616829403E+01   -0.747000894678784555E-01   -0.581435319081666968E+01   -0.355602125132163716E+00   -0.132981388570986708E+00   -0.102348114327855302E+00    0.540659105951595276E+00   -0.108390414518038170E+01   -0.323959171342927688E+01
    0.483704169286932190E-01   -0.406534884436142576E+02    0.955805849006068131E+00    0.746865136127205176E+00    0.865155463709033762E-02    0.640342533874365238E+00   -0.274330673698813765E+01   -0.100287530055088614E+00   -0.692537280152650148E+01   -0.598181018977282652E-01   -0.829267218999139855E-01   -0.636941559755064834E-01   -0.212554852397466743E+00   -0.109216197325109166E+01   -0.323586215016734347E+01
    0.410191203397391319E-01   -0.462948204662626210E+02    0.124391991992072626E+01    0.555648276916241635E+00    0.406503260495219391E-02    0.654545016018904691E+00   -0.268613658871194616E+01   -0.164337838271062242E+00   -0.447878392748732068E+01    0.141919592376705705E+00   -0.440277232807760044E-01   -0.141052340419797917E+00   -0.421606127566603983E+00   -0.110968990556532776E+01   -0.323522941194219715E+01
    0.929295560853510144E-01   -0.350603251916967196E+02    0.698267542754069437E+00    0.610659614253633021E+00    0.588317813693254796E-02    0.571270164066379427E+00   -0.272111776413830508E+01   -0.604668417559254753E-01   -0.678866604721505063E+01   -0.337363858170103170E+00   -0.463963212548162002E-01   -0.270069173810769281E+00   -0.178964089585654129E+00   -0.110646994171456425E+01   -0.323149027883678341E+01
    0.191654477576060911E-01   -0.359989591512718548E+02    0.621989945378817133E+00    0.455835299487970302E+00    0.859759211221476638E-02    0.637622327301381242E+00   -0.270824829722872540E+01   -0.130208233266539165E-01   -0.500513722011938889E+01   -0.327048208436736265E-01    0.481830094822771338E-01    0.141525289335898585E+00   -0.196324431035270974E+00   -0.111423246026307821E+01   -0.323097918710437826E+01
    0.928640783359555855E-01   -0.348160729680064449E+02    0.691671799602508353E+00    0.353381932134930410E+00    0.532450510484972460E-02    0.437497343316293419E+00   -0.270812512175055575E+01   -0.111879441788526601E+00   -0.753808286636309433E+01   -0.684520924353472227E-01   -0.122395609083297191E+00   -0.680754840113204363E-01   -0.531597750314839912E+00   -0.110337773743443690E+01   -0.323014796284046879E+01
    0.529344336007221208E-01   -0.401948774732709282E+02    0.641784493163891967E+00    0.663446155771614587E+00    0.700642799214684989E-02    0.675804415959739058E+00   -0.269932795491736277E+01   -0.194891845112765139E-01   -0.462448797052251859E+01   -0.107189668236556207E+00    0.874658210252920454E-01   -0.239712524157178059E+00    0.225611763257406978E+00   -0.112239810258059758E+01   -0.322750761729792046E+01
    0.927527901915432829E-01   -0.361644586115539965E+02    0.914856660383682518E+00    0.438860689029126783E+00    0.481865771429567866E-02    0.380286795763904395E+00   -0.259908910259724601E+01   -0.104372599471033750E+00   -0.839873706551953703E+00   -0.257777067190610221E+00   -0.109267470515080900E+00   -0.251790685491288080E+00   -0.812640516864924362E-01   -0.115302656527573655E+01   -0.322513551529151998E+01
    0.771978899840565363E-01   -0.461243489852089468E+02    0.789455789303754263E+00    0.408354487775463904E+00    0.110353515005998208E-01    0.731186601988823792E+00   -0.278196519842856382E+01    0.324995321522155642E-01   -0.437816416509675843E+01    0.317608725057149932E-01   -0.414480039369387460E-01   -0.268525842105262758E-01   -0.310318797690553927E+00   -0.108308254548137306E+01   -0.322491593950074273E+01
    0.109865950455732539E+00   -0.278564805624534131E+02    0.688124486628062471E+00    0.265823667685204268E+00    0.579434063964773434E-02    0.558096971610316461E+00   -0.274286185695871376E+01   -0.162641479140088474E+00   -0.281815991766636653E+01    0.124486614819857178E+00   -0.132893090658029039E+00    0.735986825985139037E-01   -0.486333147660577225E+00   -0.114002480951444363E+01   -0.322209861931033359E+01
    0.129961282900587727E+00   -0.352384058058982035E+02    0.115188552425807611E+01    0.613494100579394241E+00    0.664238749945880551E-02    0.674820396100771713E+00   -0.278160952055381117E+01   -0.882968533626293517E-01   -0.358998021665798328E+01    0.264895514774196539E+00   -0.285201900113412204E-01   -0.168871343311103539E+00   -0.417174863896896064E+00   -0.112265006262187828E+01   -0.322057687653008529E+01
    0.727569798492522929E-01   -0.342285225874047256E+02    0.870496666818199261E+00    0.479172817046826738E+00    0.134931663586185229E-01    0.678325708617114831E+00   -0.270693858959556666E+01   -0.863274373122262934E-02   -0.370010585762644029E+01   -0.650721903994199435E-01   -0.821772295077072695E-01   -0.137107553497174489E+00   -0.398187835278282110E+00   -0.115415198671659369E+01   -0.321965295007599295E+01
    0.534269080680064151E-01   -0.348917905655056799E+02    0.913198138392476766E+00    0.314960542378475428E+00    0.609505285075119009E-02    0.430166838170592980E+00   -0.276103626713061789E+01    0.249112436250200700E-01   -0.272814922596203768E+01    0.104606651587001720E-01   -0.156272507803017130E+00   -0.502391717634226298E-01    0.944473062930718255E-01   -0.109832409702038980E+01   -0.320960319273024330E+01
    0.104068909497943465E+00   -0.424459871482545950E+02    0.603666640948625655E+00    0.516037608183070984E+00    0.617669252390564642E-02    0.497515479706159225E+00   -0.274986909530640444E+01   -0.140040635234271738E+00   -0.322626781888781533E+01   -0.142168419874832780E+00   -0.174743836115867662E+00   -0.598620385773513536E-01   -0.171612640148951473E+00   -0.110696377719967431E+01   -0.320465562036912077E+01
    0.108066587127644040E+00   -0.472746437435651430E+02    0.102034053236500166E+01    0.630514426072995127E+00    0.874055928271044377E-02    0.516426766598839682E+00   -0.284135545899431996E+01   -0.101924099355967912E+00   -0.463402270360142765E+01    0.876825791866665816E-02   -0.183115781861806659E+00   -0.243495316553989982E+00   -0.167772437141411851E+00   -0.107576403970820889E+01   -0.319964717878620997E+01
    0.866101174512885486E-01   -0.292992913836325997E+02    0.445771013518738657E+00    0.565521851662208697E+00    0.120520235684447984E-01    0.536144194474254543E+00   -0.274433071656871341E+01   -0.298549890134565780E-01   -0.355530257613761158E+01   -0.183746919112686757E+00   -0.904067365500073605E-01   -0.170607896709783852E+00    0.149316811821230661E+00   -0.114887880299438994E+01   -0.320796541042311834E+01
    0.775597054213489068E-01   -0.389247096156065950E+02    0.834117802679186005E+00    0.532312349878308444E+00    0.630437722135555011E-02    0.277748741055218518E+00   -0.273324708304125963E+01   -0.118775584139602541E+00   -0.557160385951718506E+01   -0.258894360398244927E-01    0.966817632073398714E-01   -0.228716000427715976E-01    0.656572185756064963E-01   -0.113351836538814799E+01   -0.318540334507823797E+01
    0.891803170742278828E-01   -0.419169040513405520E+02    0.794036161075415525E+00    0.580226743698506464E+00    0.634006643373668556E-02    0.399132348813916571E+00   -0.279708564208387944E+01    0.497297042033690226E-01   -0.460996622554641622E+01   -0.220049658391218095E+00    0.595764774876268999E-01   -0.730433056741824072E-01   -0.198359221580697909E+00   -0.110667822234622548E+01   -0.318628346818993391E+01
    0.702356850762240331E-01   -0.382001440687023148E+02    0.849190351569651058E+00    0.602205399693897636E+00    0.875797941949394039E-02    0.598280732702678342E+00   -0.274735201099113402E+01   -0.746924630367931525E-01   -0.704019282143883007E+01   -0.173633642019151602E+00   -0.167936186873904714E+00    0.130332463728341230E-01    0.123724048677077175E+00   -0.112947984652972599E+01   -0.319173738465087453E+01
    0.750716990014808627E-01   -0.415825658265535054E+02    0.594615370955153377E+00    0.539059899617919780E+00    0.642459515627390437E-02    0.597513932623015886E+00   -0.288293384102549721E+01   -0.632698823189832560E-01   -0.779426837027344366E+01   -0.114355101157725195E+00   -0.293052889238602843E+00    0.182827165171618677E+00   -0.122154677544804927E+00   -0.116250812014584315E+01   -0.314178967024122402E+01
    0.842097263430716114E-01   -0.362542503207398639E+02    0.117087119351810909E+01    0.716870750690904002E+00    0.704577620729679964E-02    0.527191605808579600E+00   -0.277268019809339394E+01   -0.989677928878294477E-01   -0.460267990902042445E+01   -0.281685514917503987E+00   -0.562203773620181882E-01   -0.310227192058856904E+00   -0.161359668128234296E+00   -0.112902598997797909E+01   -0.318186460501151824E+01
    0.818519921476893036E-01   -0.473028404079146583E+02    0.677736492301901028E+00    0.633254018057429979E+00    0.106516199730197943E-01    0.550159300679102570E+00   -0.279127821209920057E+01   -0.766743379540378578E-03   -0.805627132124640610E+01    0.367973685801605832E-01   -0.859321696095231014E-01   -0.491976540705231724E+00   -0.153318878598895092E-01   -0.109425064441030817E+01   -0.320065938863384902E+01
    0.156697525799280035E+00   -0.422788462045586684E+02    0.105549720227818877E+01    0.339325095334733096E+00    0.790699711031097284E-02    0.315801446666115315E+00   -0.277371216579432733E+01   -0.142810878677580230E-01   -0.847340916873370631E+01   -0.197397101879508902E+00   -0.240061938592964930E+00   -0.211800638434226696E+00   -0.271854293787071766E+00   -0.113007022860209339E+01   -0.317506255836152684E+01
    0.712113346645768669E-01   -0.322095364010064031E+02    0.897899234128107904E+00    0.400680687764261689E+00    0.125504628150378012E-01    0.527560428639854084E+00   -0.277685472117639653E+01   -0.930791542198814992E-01   -0.762259461079941136E+01   -0.694026008411352674E-01   -0.157868302606055666E+00   -0.810091481452072104E-01   -0.344150414627183709E-01   -0.114524448408101898E+01   -0.317347614094062269E+01
    0.100379978190811403E+00   -0.392825610504411102E+02    0.122670631964832899E+01    0.512035455026628616E+00    0.132012583156276182E-01    0.503473098812202702E+00   -0.266525886255939515E+01   -0.805383915612684353E-01   -0.453572186688165058E+01   -0.640960429074109161E-01   -0.959430789491378111E-01   -0.158117440823109301E+00    0.430649636056437690E-01   -0.113452723917468790E+01   -0.321348992217129581E+01
    0.573853956956654407E-01   -0.434373659623548107E+02    0.112331758628200973E+01    0.553692014441325986E+00    0.891253727984103739E-02    0.637007116324554090E+00   -0.285129476010689764E+01   -0.564640612009786602E-01   -0.582920368072788531E+01   -0.126145022549206010E+00   -0.185878100748234493E-01    0.550524516035499623E-01   -0.210776579601634262E+00   -0.112000323319534711E+01   -0.316481272370039024E+01
    0.884279817396011192E-01   -0.444583767894813775E+02    0.947120048177208740E+00    0.522848001584840238E+00    0.621009883181821397E-02    0.207858495397198861E+00   -0.263817967468225412E+01   -0.120423078827413578E-01   -0.332254656449908303E+01    0.114606489973188425E-01   -0.828584101673441598E-01   -0.687076429222395757E-01   -0.183118036987250682E+00   -0.116248272508693828E+01   -0.319578611462833839E+01
    0.995870248161778993E-01   -0.407042779057720452E+02    0.105050999724583405E+01    0.557860904708871064E+00    0.709608940267316725E-02    0.586882384695408432E+00   -0.280468210502243265E+01    0.322785598058168213E-01   -0.570035935590346643E+01   -0.896723017185683396E-01   -0.155761576740632401E+00   -0.308513852638428898E+00    0.705212809394642204E-01   -0.109839470834445518E+01   -0.319427280559659588E+01
    0.103121926096241559E+00   -0.399269682168340836E+02    0.692487431288116406E+00    0.589189472763126054E+00    0.831884562847535342E-02    0.559933587536136201E+00   -0.263334416750750400E+01   -0.158631085807976441E+00   -0.376108143912023163E+01   -0.129105864068849330E+00    0.521518414531057656E-01   -0.292955487598318964E+00    0.364099625065303079E-01   -0.114842366794493911E+01   -0.321533590415955350E+01
    0.953696889353293775E-01   -0.399245221899749083E+02    0.780030753820505018E+00    0.444573285691791720E+00    0.736252998158463869E-02    0.419806384570364677E+00   -0.270355996632539730E+01   -0.525629989514779794E-01   -0.546872253906921291E+01   -0.218134079309179357E+00   -0.286743096292660815E+00    0.287224204627060387E-01    0.513071941137292209E-01   -0.116445227486506364E+01   -0.317169043950279450E+01
    0.557641618966498651E-01   -0.415541080347354068E+02    0.102880903015054548E+01    0.340560400959898923E+00    0.560306071104625832E-02    0.623309706630724492E+00   -0.274060164531423434E+01   -0.121190080010540012E-01   -0.260083456433840521E+01   -0.264191554054818978E+00    0.680699915743004369E-01    0.268818922908483138E+00   -0.429508061836544330E+00   -0.110684052325014748E+01   -0.321169163194952079E+01
    0.105565400722941946E+00   -0.416989978283754397E+02    0.926104093463335776E+00    0.779772054012416893E+00    0.651837495419184572E-02    0.380537799968705404E+00   -0.275922759634356485E+01    0.211431055430903875E-01   -0.665240694762614204E+01   -0.250254107964896055E+00   -0.242171013180842942E+00   -0.151894889623140544E+00    0.162350822351399887E+00   -0.116180641301291421E+01   -0.315916909795149925E+01
    0.102696174659883566E+00   -0.467375327262061546E+02    0.113719888906185140E+01    0.536285744981541690E+00    0.858578913120214456E-02    0.560632719007718938E+00   -0.283135877405659242E+01   -0.523681013043303181E-01   -0.358527729905849002E+01   -0.247982718338933372E+00    0.105389508544177640E-01   -0.643454158558463274E-01   -0.433712937422087164E+00   -0.109550106568999439E+01   -0.318467329749492434E+01
    0.996455135674496478E-01   -0.418649856042323378E+02    0.948139544562856096E+00    0.576932401172852605E+00    0.900403533291496347E-02    0.463238374420405497E+00   -0.270726558468797229E+01   -0.797894302966847130E-01   -0.496767814348456938E+01   -0.985548858169986719E-01    0.166537567062567671E-02   -0.217723443264536465E+00   -0.103904762152903091E+00   -0.111261538033610052E+01   -0.321798681453255497E+01
    0.986368012117748716E-01   -0.380782672399723268E+02    0.109548505565322696E+01    0.542474771481701645E+00    0.560210871895152913E-02    0.655093293164735191E+00   -0.274206399669908851E+01   -0.370092391894491779E-01   -0.432013353039229653E+01   -0.395346947888056965E-01   -0.988019556274549321E-01   -0.136779268499442469E+00   -0.355457753507046115E+00   -0.112669802495823124E+01   -0.320375041830530005E+01
    0.870595090182370857E-01   -0.387803944829872336E+02    0.893034048446958217E+00    0.463342921383405493E+00    0.935505004978176916E-02    0.553949955858144882E+00   -0.262666250120789924E+01   -0.636510792074938825E-01   -0.102122103064824010E+01   -0.309341692240959087E+00   -0.225660462071245932E+00   -0.497643782208819496E-01   -0.433563248175528715E+00   -0.115780817180743600E+01   -0.320797979101386854E+01
    0.149829994585068599E+00   -0.394183456931372405E+02    0.775269591278399117E+00    0.488502822544062798E+00    0.916149319583936701E-02    0.337638651904402898E+00   -0.273658448779848662E+01   -0.379383034047294718E-01   -0.515421818972507939E+01   -0.234138217365289891E+00   -0.151293788146661390E-02   -0.299317196948628017E+00   -0.394356957769953609E+00   -0.115401041090862222E+01   -0.316921987368429559E+01
    0.546917903933870700E-01   -0.306977271764456390E+02    0.151341463839385271E+01    0.775850524277623133E+00    0.761410494499376554E-02    0.382918792264700825E+00   -0.271617781425593208E+01    0.217371697729058580E-01   -0.162251620557295517E+01    0.495113873604915711E-01   -0.117521906527817688E-01   -0.118788176474952711E+00   -0.546202768402707206E+00   -0.111844050169010800E+01   -0.321087457395258058E+01
    0.912938790560271912E-01   -0.388568416199974607E+02    0.579839220839175495E+00    0.657473402784727656E+00    0.583774109833008759E-02    0.363175208669606175E+00   -0.284064194853690566E+01   -0.633018229579636882E-01   -0.171422292849286961E+01    0.689235088063262780E-02   -0.182604234348814343E+00   -0.929964187817182569E-01   -0.462673621763767140E+00   -0.108829306736194842E+01   -0.318758947516466407E+01
    0.103047725474175317E+00   -0.352352289906121925E+02    0.924870976448932236E+00    0.453855862312470604E+00    0.133265056049051943E-01    0.394250960186804944E+00   -0.272477017804645660E+01   -0.114888065219199892E+00   -0.551377077840351149E+01    0.188086952956444675E+00   -0.974212944112958085E-01   -0.331277174004745656E+00   -0.264744432376838645E+00   -0.114877208585568025E+01   -0.317657396136717196E+01
    0.358001955686662945E-01   -0.410503161454224355E+02    0.115044188749149012E+01    0.647942656577291887E+00    0.120474517199653450E-01    0.668253698566012910E+00   -0.275601000564413434E+01   -0.755398747215180189E-01   -0.436156592902138751E+01   -0.139808774400493024E+00   -0.589335319784892106E-01   -0.382493544667070612E-01   -0.596403300504066980E+00   -0.111129979550531188E+01   -0.320720721572007594E+01
    0.126039028244781914E+00   -0.365047276690598608E+02    0.890655474976776440E+00    0.699057846919021397E+00    0.499503879766629525E-02    0.450162557779422046E+00   -0.273875549563597742E+01   -0.791458200563707609E-01   -0.263688769400007494E+01    0.106671882291772602E+00   -0.628889287279919551E-01   -0.893580992977685423E-01   -0.260529026968127519E+00   -0.115414263474680001E+01   -0.317022384234931431E+01
    0.807615890470589626E-01   -0.458522111343586474E+02    0.624022407611735774E+00    0.515190161876794783E+00    0.828579523245041687E-02    0.273092736275035552E+00   -0.275620500211501396E+01    0.710698709583441335E-01   -0.275665119788834634E+01   -0.537277760196839593E+00   -0.265332283690976500E+00   -0.253900270301736231E+00   -0.377370264301460423E+00   -0.109341177615977303E+01   -0.321709126930531975E+01
    0.817101120478646165E-01   -0.408306047716452554E+02    0.573616284891152239E+00    0.546500065143456171E+00    0.672276828220850185E-02    0.441816160604678987E+00   -0.274214388506483475E+01   -0.763924343118668608E-01   -0.226971051336828245E+01   -0.783048284268600681E-01    0.542352689830380846E-01   -0.253901248782712974E+00   -0.526902419975765590E+00   -0.114964131770719091E+01   -0.317069516386385652E+01
    0.833263804036553368E-01   -0.430745990637747127E+02    0.541677253714638818E+00    0.718297579633863537E+00    0.692306791703244453E-02    0.314636910549867865E+00   -0.282953264309411878E+01   -0.360311146231013305E-01    0.239954774376209201E+01   -0.130517940416902817E+00   -0.402386874380786352E+00   -0.704947657995872723E-01   -0.199037556526605958E+00   -0.108859847541504817E+01   -0.319117561781410730E+01
    0.900007847454514787E-01   -0.299582085779308649E+02    0.870095186834253131E+00    0.521169110478887254E+00    0.101852772317957783E-01    0.396731028193377133E+00   -0.269550146510954658E+01    0.517568556610734712E-01   -0.289567942739849560E+01   -0.224155865181211167E+00   -0.125309201261935121E+00   -0.921517374935694189E-01   -0.427761470907143226E+00   -0.114367592845053778E+01   -0.319400975394976738E+01
    0.808287583386824715E-01   -0.347651338026296699E+02    0.106880655563294269E+01    0.647608018631564586E+00    0.100116987416289487E-01    0.564031060479908808E+00   -0.270852461474399631E+01    0.420805064492609585E-01   -0.205671622976879176E+01   -0.340621193114286180E+00   -0.141907466669333404E+00    0.130505636244094447E+00   -0.459549594493883773E+00   -0.112435103807470083E+01   -0.321605298424861674E+01
    0.104100103640508632E+00   -0.406197416968681466E+02    0.128072700614751911E+01    0.468108551847892962E+00    0.104266310090768734E-01    0.597396558113481912E+00   -0.280698291806832945E+01   -0.270461069821010883E-01   -0.216403011930067191E+01   -0.147923423490866235E+00   -0.892656787114992217E-01   -0.221469854703408964E+00   -0.295549648333639836E+00   -0.108340955324379040E+01   -0.320840081706468983E+01
